svm_type c_svc
kernel_type polynomial
degree 3
gamma 0.5
coef0 0
nr_class 2
total_sv 43
rho 1.94759
label 1 -1
nr_sv 21 22
SV
1000 1:0.587485 2:0.3271 
1000 1:0.528369 2:0.59755 
1000 1:0.149123 2:0.514584 
848.9053492241065 1:0.610323 2:0.533955 
1000 1:0.331592 2:0.699664 
665.7100811820725 1:0.688588 2:0.0422769 
1000 1:0.625551 2:0.458324 
1000 1:0.471682 2:0.722169 
1000 1:0.621426 2:0.190451 
1000 1:0.259328 2:0.827479 
1000 1:0.548927 2:0.484828 
1000 1:0.441195 2:0.461317 
1000 1:0.373497 2:0.718948 
1000 1:0.474085 2:0.191043 
1000 1:0.683874 2:0.0509851 
1000 1:0.538754 2:0.351994 
1000 1:0.496956 2:0.616187 
1000 1:0.539149 2:0.284876 
1000 1:0.24559 2:0.901946 
1000 1:0.508866 2:0.529891 
1000 1:0.262137 2:0.898459 
-1000 1:0.582293 2:0.171157 
-1000 1:0.528171 2:0.262023 
-1000 1:0.255547 2:0.777234 
-147.253026893411 1:0.0344166 2:0.875909 
-1000 1:0.504067 2:0.0601133 
-1000 1:0.682025 2:0.978096 
-712.5772381259552 1:0.47781 2:0.153341 
-1000 1:0.397524 2:0.441607 
-1000 1:0.701245 2:0.524248 
-1000 1:0.439226 2:0.361839 
-1000 1:0.359844 2:0.557247 
-1000 1:0.170353 2:0.67528 
-654.7851653868124 1:0.303732 2:0.515764 
-1000 1:0.326971 2:0.520569 
-1000 1:0.652687 2:0.0819915 
-1000 1:0.325924 2:0.646705 
-1000 1:0.308789 2:0.620014 
-1000 1:0.706836 2:0.549952 
-1000 1:0.763318 2:0.397059 
-1000 1:0.170745 2:0.72621 
-1000 1:0.164169 2:0.80635 
-1000 1:0.317835 2:0.611696 
