svm_type nu_svc
kernel_type rbf
gamma 0.01
nr_class 2
total_sv 3
rho 364.503
label 1 -1
nr_sv 1 2
SV
392317.3136421451 1:0.587485 2:0.3271 
-108568.7122795027 1:0.145628 2:0.107693 
-283748.6013626424 1:0.763318 2:0.397059 
