svm_type nu_svc
kernel_type polynomial
degree 3
gamma 0.5
coef0 0
nr_class 2
total_sv 10
rho 1.96497
label 1 -1
nr_sv 5 5
SV
-15947.25170206827 1:0.587485 2:0.3271 
-14873.4920529938 1:0.528369 2:0.59755 
-15947.25170206827 1:0.149123 2:0.514584 
-340.721316940922 1:0.938545 2:0.0739513 
-733.0383321335469 1:0.998751 2:0.438626 
10664.08137975967 1:0.582293 2:0.171157 
15947.25170206827 1:0.528171 2:0.262023 
4890.399525065945 1:0.682025 2:0.978096 
15947.25170206827 1:0.338329 2:0.360527 
392.7707972426567 1:0.0152283 2:0.924369 
