svm_type c_svc
kernel_type rbf
gamma 100
nr_class 2
total_sv 56
rho -0.426761
label 1 -1
nr_sv 30 26
SV
0.4649497428643005 1:0.953331 2:0.853663 
0.08843578037920596 1:0.687384 2:0.350705 
59.58513331470098 1:0.149123 2:0.514584 
1.11178415262083 1:0.712777 2:0.902203 
2.219093977068747 1:0.752333 2:0.980945 
5.695060414174266 1:0.331592 2:0.699664 
0.05077982210476078 1:0.892803 2:0.867032 
0.2826146331859939 1:0.492574 2:0.97895 
4.183667848494686 1:0.621426 2:0.190451 
0.428080063044919 1:0.938545 2:0.0739513 
0.3557808309425655 1:0.68019 2:0.723895 
193.6272428645455 1:0.73101 2:0.549648 
5.264615325582368 1:0.259328 2:0.827479 
0.3089075608900643 1:0.868737 2:0.760933 
0.2324997916039096 1:0.456044 2:0.959968 
3.632924568397516 1:0.441195 2:0.461317 
31.78528325222753 1:0.474085 2:0.191043 
0.1858220654244506 1:0.886067 2:0.270002 
5.328225405814731 1:0.683874 2:0.0509851 
0.0923151191919292 1:0.444872 2:0.808685 
1.033929145678187 1:0.597291 2:0.898693 
0.1733913696796074 1:0.963846 2:0.147708 
4.631173322113958 1:0.636874 2:0.627139 
0.3166776995577485 1:0.909509 2:0.394862 
34.62009650574502 1:0.539149 2:0.284876 
0.2573332733129394 1:0.945663 2:0.247154 
0.4304771962956777 1:0.998751 2:0.438626 
0.2437803947330993 1:0.846334 2:0.194655 
1000 1:0.697033 2:0.526064 
1.778572796835631 1:0.698282 2:0.0874383 
-42.18430469133372 1:0.528171 2:0.262023 
-6.357025002649367 1:0.255547 2:0.777234 
-0.5269480955701377 1:0.0344166 2:0.875909 
-3.626078786130023 1:0.682025 2:0.978096 
-0.8454639313269783 1:0.213116 2:0.136955 
-49.09403727652941 1:0.165194 2:0.504046 
-21.77537333577678 1:0.47781 2:0.153341 
-3.915096322352181 1:0.397524 2:0.441607 
-931.2259824450747 1:0.701245 2:0.524248 
-0.5621784656090167 1:0.439226 2:0.361839 
-0.9963420769810764 1:0.0152283 2:0.924369 
-0.4161236545806299 1:0.067698 2:0.742369 
-4.150984622272057 1:0.125974 2:0.465836 
-12.42110880462178 1:0.125599 2:0.583567 
-1.014511298098127 1:0.139918 2:0.0109527 
-0.8540426139639142 1:0.0713751 2:0.089737 
-6.223329043762368 1:0.416416 2:0.251844 
-8.018053238783954 1:0.652687 2:0.0819915 
-0.05679143338197117 1:0.207815 2:0.273306 
-4.950779057244974 1:0.325924 2:0.646705 
-0.4584065562670468 1:0.13644 2:0.183569 
-252.1795308411674 1:0.706836 2:0.549952 
-3.831696333297792 1:0.0541489 2:0.467961 
-0.8721756430397517 1:0.218318 2:0.274311 
-0.7462531245797227 1:0.164169 2:0.80635 
-1.106031542816115 1:0.0254552 2:0.295518 
