svm_type nu_svc
kernel_type rbf
gamma 10
nr_class 2
total_sv 16
rho -0.747774
label 1 -1
nr_sv 10 6
SV
-1601.673677497583 1:0.587485 2:0.3271 
-6.269846148474574 1:0.948912 2:0.543304 
-6.350889809548209 1:0.149123 2:0.514584 
-35.31064186351917 1:0.68019 2:0.723895 
-22.01225206885093 1:0.899412 2:0.527905 
-1795.658531551676 1:0.474085 2:0.191043 
-15.39923484831207 1:0.683874 2:0.0509851 
-95.53152843836639 1:0.813082 2:0.565202 
-17.95230756906692 1:0.909509 2:0.394862 
-21.27359076722047 1:0.709894 2:0.0110853 
2644.888728310497 1:0.528171 2:0.262023 
7.877733486415336 1:0.682025 2:0.978096 
64.36877528890973 1:0.213116 2:0.136955 
244.5680430080447 1:0.701245 2:0.524248 
449.7509947440785 1:0.45257 2:0.104136 
205.9782257246718 1:0.763318 2:0.397059 
