svm_type nu_svc
kernel_type rbf
gamma 100
nr_class 2
total_sv 86
rho -0.155181
label 1 -1
nr_sv 45 41
SV
0.5732226179184262 1:0.953331 2:0.853663 
0.8149534143285402 1:0.687384 2:0.350705 
0.6082203461581676 1:0.684747 2:0.539404 
0.5851604833515905 1:0.948912 2:0.543304 
0.8149534143285402 1:0.149123 2:0.514584 
0.5481335812907541 1:0.795785 2:0.175245 
0.5580834302058049 1:0.712777 2:0.902203 
0.8149534143285402 1:0.752333 2:0.980945 
0.8149534143285402 1:0.331592 2:0.699664 
0.1228051899246164 1:0.688588 2:0.0422769 
0.2527786682844861 1:0.735853 2:0.802134 
0.2109701871477486 1:0.892803 2:0.867032 
0.3499452508421388 1:0.625551 2:0.458324 
0.1962867962498842 1:0.471682 2:0.722169 
0.3602242220304743 1:0.492574 2:0.97895 
0.8149534143285402 1:0.621426 2:0.190451 
0.5385238482619533 1:0.938545 2:0.0739513 
0.4914133111938581 1:0.68019 2:0.723895 
0.7665482914115088 1:0.73101 2:0.549648 
0.8149534143285402 1:0.259328 2:0.827479 
0.01605674697651268 1:0.548927 2:0.484828 
0.5911329784699794 1:0.868737 2:0.760933 
0.424259590802795 1:0.456044 2:0.959968 
0.8149534143285402 1:0.441195 2:0.461317 
0.5753393262778715 1:0.373497 2:0.718948 
0.8149534143285402 1:0.474085 2:0.191043 
0.3599976720135327 1:0.886067 2:0.270002 
0.8149534143285402 1:0.683874 2:0.0509851 
0.4403760065282192 1:0.444872 2:0.808685 
0.7088527388957978 1:0.597291 2:0.898693 
0.3404432347706985 1:0.963846 2:0.147708 
0.3882105599243138 1:0.636874 2:0.627139 
0.8149534143285402 1:0.538754 2:0.351994 
0.5754276068797479 1:0.496956 2:0.616187 
0.5267513270277873 1:0.813082 2:0.565202 
0.5874754295675206 1:0.909509 2:0.394862 
0.8149534143285402 1:0.539149 2:0.284876 
0.3566366392095273 1:0.945663 2:0.247154 
0.7176715407804376 1:0.24559 2:0.901946 
0.5642481256235128 1:0.811833 2:0.00382725 
0.4599967317979184 1:0.998751 2:0.438626 
0.07034553975424226 1:0.672827 2:0.79192 
0.3194461184348665 1:0.508866 2:0.529891 
0.8149534143285402 1:0.697033 2:0.526064 
0.4841773199070299 1:0.698282 2:0.0874383 
-0.8149534143285402 1:0.582293 2:0.171157 
-0.8149534143285402 1:0.528171 2:0.262023 
-0.8149534143285402 1:0.255547 2:0.777234 
-0.3719310699700658 1:0.0344166 2:0.875909 
-0.06206209712476987 1:0.504067 2:0.0601133 
-0.8149534143285402 1:0.682025 2:0.978096 
-0.7061046392692097 1:0.213116 2:0.136955 
-0.001788197392884089 1:0.102454 2:0.368248 
-0.8149534143285402 1:0.165194 2:0.504046 
-0.8149534143285402 1:0.47781 2:0.153341 
-0.8149534143285402 1:0.397524 2:0.441607 
-0.8149534143285402 1:0.701245 2:0.524248 
-0.8149534143285402 1:0.4612 2:0.0193706 
-0.8149534143285402 1:0.439226 2:0.361839 
-0.8149534143285402 1:0.0152283 2:0.924369 
-0.3311930755886754 1:0.207535 2:0.524303 
-0.3302779194052683 1:0.252648 2:0.424279 
-0.7358830217385639 1:0.359844 2:0.557247 
-0.5180021519347192 1:0.133353 2:0.361643 
-0.1491173133300328 1:0.427542 2:0.299616 
-0.4795610521886647 1:0.067698 2:0.742369 
-0.07208246964511107 1:0.125974 2:0.465836 
-0.3373513405882388 1:0.170353 2:0.67528 
-0.6007109971747374 1:0.125599 2:0.583567 
-0.08875285225038539 1:0.187054 2:0.509616 
-0.4723723852662557 1:0.0707422 2:0.666653 
-0.2933995060667666 1:0.45257 2:0.104136 
-0.8149534143285402 1:0.139918 2:0.0109527 
-0.6948270809737963 1:0.0713751 2:0.089737 
-0.8149534143285402 1:0.416416 2:0.251844 
-0.4018096209804134 1:0.293559 2:0.38293 
-0.8149534143285402 1:0.652687 2:0.0819915 
-0.8149534143285402 1:0.325924 2:0.646705 
-0.3613427833133575 1:0.13644 2:0.183569 
-0.4405489280583815 1:0.308789 2:0.620014 
-0.8149534143285402 1:0.706836 2:0.549952 
-0.8149534143285402 1:0.0541489 2:0.467961 
-0.8149534143285402 1:0.763318 2:0.397059 
-0.7004156410251045 1:0.218318 2:0.274311 
-0.8149534143285402 1:0.164169 2:0.80635 
-0.8149534143285402 1:0.0254552 2:0.295518 
