svm_type nu_svc
kernel_type rbf
gamma 10
nr_class 2
total_sv 65
rho -0.135185
label 1 -1
nr_sv 33 32
SV
0.331418602282979 1:0.587485 2:0.3271 
0.331418602282979 1:0.528369 2:0.59755 
0.331418602282979 1:0.953331 2:0.853663 
0.331418602282979 1:0.687384 2:0.350705 
0.3143376052370653 1:0.948912 2:0.543304 
0.331418602282979 1:0.149123 2:0.514584 
0.331418602282979 1:0.752333 2:0.980945 
0.331418602282979 1:0.331592 2:0.699664 
0.331418602282979 1:0.688588 2:0.0422769 
0.2288604485380234 1:0.892803 2:0.867032 
0.331418602282979 1:0.625551 2:0.458324 
0.331418602282979 1:0.471682 2:0.722169 
0.02975007221818231 1:0.492574 2:0.97895 
0.331418602282979 1:0.621426 2:0.190451 
0.331418602282979 1:0.259328 2:0.827479 
0.331418602282979 1:0.548927 2:0.484828 
0.1235285854071193 1:0.456044 2:0.959968 
0.331418602282979 1:0.441195 2:0.461317 
0.331418602282979 1:0.373497 2:0.718948 
0.331418602282979 1:0.474085 2:0.191043 
0.1665276090705015 1:0.754805 2:0.0309356 
0.331418602282979 1:0.683874 2:0.0509851 
0.331418602282979 1:0.444872 2:0.808685 
0.1312514863780453 1:0.963846 2:0.147708 
0.331418602282979 1:0.538754 2:0.351994 
0.331418602282979 1:0.496956 2:0.616187 
0.331418602282979 1:0.539149 2:0.284876 
0.331418602282979 1:0.24559 2:0.901946 
0.331418602282979 1:0.998751 2:0.438626 
0.331418602282979 1:0.709894 2:0.0110853 
0.331418602282979 1:0.508866 2:0.529891 
0.331418602282979 1:0.698282 2:0.0874383 
0.331418602282979 1:0.262137 2:0.898459 
-0.331418602282979 1:0.582293 2:0.171157 
-0.331418602282979 1:0.528171 2:0.262023 
-0.331418602282979 1:0.255547 2:0.777234 
-0.331418602282979 1:0.0344166 2:0.875909 
-0.331418602282979 1:0.504067 2:0.0601133 
-0.331418602282979 1:0.682025 2:0.978096 
-0.331418602282979 1:0.420741 2:0.28128 
-0.331418602282979 1:0.47781 2:0.153341 
-0.331418602282979 1:0.397524 2:0.441607 
-0.331418602282979 1:0.701245 2:0.524248 
-0.331418602282979 1:0.4612 2:0.0193706 
-0.331418602282979 1:0.439226 2:0.361839 
-0.331418602282979 1:0.0152283 2:0.924369 
-0.331418602282979 1:0.359844 2:0.557247 
-0.331418602282979 1:0.427542 2:0.299616 
-0.08549832687381255 1:0.067698 2:0.742369 
-0.2186505868337108 1:0.170353 2:0.67528 
-0.331418602282979 1:0.45257 2:0.104136 
-0.331418602282979 1:0.303732 2:0.515764 
-0.331418602282979 1:0.326971 2:0.520569 
-0.2184567234194132 1:0.139918 2:0.0109527 
-0.3084096558554481 1:0.0713751 2:0.089737 
-0.1632405138665526 1:0.416416 2:0.251844 
-0.331418602282979 1:0.652687 2:0.0819915 
-0.331418602282979 1:0.325924 2:0.646705 
-0.331418602282979 1:0.308789 2:0.620014 
-0.331418602282979 1:0.706836 2:0.549952 
-0.331418602282979 1:0.763318 2:0.397059 
-0.331418602282979 1:0.170745 2:0.72621 
-0.331418602282979 1:0.164169 2:0.80635 
-0.331418602282979 1:0.317835 2:0.611696 
-0.331418602282979 1:0.0254552 2:0.295518 
