svm_type nu_svc
kernel_type linear
nr_class 2
total_sv 3
rho 7.69111
label 1 -1
nr_sv 1 2
SV
16515.18749119283 1:0.587485 2:0.3271 
-4989.43542020584 1:0.196716 2:0.132489 
-11525.75207098699 1:0.763318 2:0.397059 
