svm_type nu_svc
kernel_type rbf
gamma 0.01
nr_class 2
total_sv 60
rho -0.807402
label 1 -1
nr_sv 30 30
SV
75.69818573948801 1:0.587485 2:0.3271 
75.69818573948801 1:0.528369 2:0.59755 
75.69818573948801 1:0.687384 2:0.350705 
75.69818573948801 1:0.149123 2:0.514584 
75.69818573948801 1:0.61064 2:0.578562 
75.69818573948801 1:0.610323 2:0.533955 
75.69818573948801 1:0.331592 2:0.699664 
75.69818573948801 1:0.688588 2:0.0422769 
75.69818573948801 1:0.625551 2:0.458324 
75.69818573948801 1:0.471682 2:0.722169 
75.69818573948801 1:0.621426 2:0.190451 
75.69818573948801 1:0.259328 2:0.827479 
75.69818573948801 1:0.548927 2:0.484828 
75.69818573948801 1:0.456044 2:0.959968 
75.69818573948801 1:0.441195 2:0.461317 
75.69818573948801 1:0.373497 2:0.718948 
75.69818573948801 1:0.474085 2:0.191043 
75.69818573948801 1:0.754805 2:0.0309356 
75.69818573948801 1:0.683874 2:0.0509851 
75.69818573948801 1:0.444872 2:0.808685 
75.69818573948801 1:0.487158 2:0.918496 
75.69818573948801 1:0.538754 2:0.351994 
75.69818573948801 1:0.496956 2:0.616187 
75.69818573948801 1:0.539149 2:0.284876 
75.69818573948801 1:0.24559 2:0.901946 
75.69818573948801 1:0.811833 2:0.00382725 
75.69818573948801 1:0.709894 2:0.0110853 
75.69818573948801 1:0.508866 2:0.529891 
75.69818573948801 1:0.698282 2:0.0874383 
75.69818573948801 1:0.262137 2:0.898459 
-75.69818573948801 1:0.582293 2:0.171157 
-75.69818573948801 1:0.528171 2:0.262023 
-75.69818573948801 1:0.255547 2:0.777234 
-75.69818573948801 1:0.504067 2:0.0601133 
-75.69818573948801 1:0.682025 2:0.978096 
-75.69818573948801 1:0.420741 2:0.28128 
-75.69818573948801 1:0.47781 2:0.153341 
-75.69818573948801 1:0.397524 2:0.441607 
-75.69818573948801 1:0.701245 2:0.524248 
-75.69818573948801 1:0.4612 2:0.0193706 
-75.69818573948801 1:0.346493 2:0.380695 
-75.69818573948801 1:0.338329 2:0.360527 
-75.69818573948801 1:0.439226 2:0.361839 
-75.69818573948801 1:0.252648 2:0.424279 
-75.69818573948801 1:0.359844 2:0.557247 
-75.69818573948801 1:0.427542 2:0.299616 
-75.69818573948801 1:0.170353 2:0.67528 
-75.69818573948801 1:0.45257 2:0.104136 
-75.69818573948801 1:0.303732 2:0.515764 
-75.69818573948801 1:0.326971 2:0.520569 
-75.69818573948801 1:0.416416 2:0.251844 
-75.69818573948801 1:0.293559 2:0.38293 
-75.69818573948801 1:0.652687 2:0.0819915 
-75.69818573948801 1:0.325924 2:0.646705 
-75.69818573948801 1:0.308789 2:0.620014 
-75.69818573948801 1:0.706836 2:0.549952 
-75.69818573948801 1:0.763318 2:0.397059 
-75.69818573948801 1:0.170745 2:0.72621 
-75.69818573948801 1:0.164169 2:0.80635 
-75.69818573948801 1:0.317835 2:0.611696 
