svm_type nu_svc
kernel_type rbf
gamma 0.01
nr_class 2
total_sv 7
rho -22.5128
label 1 -1
nr_sv 3 4
SV
-190293.9567223179 1:0.587485 2:0.3271 
-190293.9567223179 1:0.528369 2:0.59755 
-190293.9567223179 1:0.953331 2:0.853663 
87077.24550994068 1:0.528171 2:0.262023 
190293.9567223179 1:0.682025 2:0.978096 
103216.7112123772 1:0.701245 2:0.524248 
190293.9567223179 1:0.763318 2:0.397059 
