svm_type nu_svc
kernel_type rbf
gamma 100
nr_class 2
total_sv 6
rho -0.255882
label 1 -1
nr_sv 3 3
SV
3.409653006178275 1:0.621426 2:0.190451 
30.46600429671024 1:0.474085 2:0.191043 
34.37481378974655 1:0.539149 2:0.284876 
-41.88341172867045 1:0.528171 2:0.262023 
-20.55004573965204 1:0.47781 2:0.153341 
-5.81701362431256 1:0.416416 2:0.251844 
