svm_type c_svc
kernel_type rbf
gamma 1
nr_class 2
total_sv 36
rho -0.581248
label 1 -1
nr_sv 19 17
SV
899.5964454118387 1:0.587485 2:0.3271 
347.2805127822239 1:0.948912 2:0.543304 
1000 1:0.149123 2:0.514584 
481.4789942274018 1:0.752333 2:0.980945 
1000 1:0.331592 2:0.699664 
314.9392081806363 1:0.892803 2:0.867032 
1000 1:0.621426 2:0.190451 
1000 1:0.259328 2:0.827479 
947.3519349430419 1:0.548927 2:0.484828 
1000 1:0.441195 2:0.461317 
1000 1:0.373497 2:0.718948 
1000 1:0.474085 2:0.191043 
831.9205119368834 1:0.683874 2:0.0509851 
1000 1:0.538754 2:0.351994 
1000 1:0.496956 2:0.616187 
1000 1:0.539149 2:0.284876 
315.6286389805605 1:0.24559 2:0.901946 
100.3008705036912 1:0.998751 2:0.438626 
1000 1:0.508866 2:0.529891 
-1000 1:0.582293 2:0.171157 
-1000 1:0.528171 2:0.262023 
-1000 1:0.255547 2:0.777234 
-1000 1:0.682025 2:0.978096 
-845.8071775554199 1:0.47781 2:0.153341 
-1000 1:0.397524 2:0.441607 
-1000 1:0.701245 2:0.524248 
-1000 1:0.439226 2:0.361839 
-49.1232105683241 1:0.0152283 2:0.924369 
-1000 1:0.359844 2:0.557247 
-1000 1:0.652687 2:0.0819915 
-1000 1:0.325924 2:0.646705 
-1000 1:0.308789 2:0.620014 
-1000 1:0.706836 2:0.549952 
-1000 1:0.763318 2:0.397059 
-343.5667288425344 1:0.164169 2:0.80635 
-1000 1:0.317835 2:0.611696 
