svm_type nu_svc
kernel_type linear
nr_class 2
total_sv 4
rho 67.0603
label 1 -1
nr_sv 1 3
SV
536260.9645085772 1:0.587485 2:0.3271 
-41690.33366089756 1:0.701245 2:0.524248 
-162010.8431841721 1:0.196716 2:0.132489 
-332559.7876635076 1:0.763318 2:0.397059 
