svm_type nu_svc
kernel_type rbf
gamma 10
nr_class 2
total_sv 29
rho -3.92378
label 1 -1
nr_sv 15 14
SV
438.2880663079484 1:0.149123 2:0.514584 
38.34087450496716 1:0.752333 2:0.980945 
187.9400230779338 1:0.331592 2:0.699664 
37.21150997234412 1:0.941236 2:0.466556 
2752.97486740228 1:0.621426 2:0.190451 
1174.475601714056 1:0.73101 2:0.549648 
0.01528683361854343 1:0.259328 2:0.827479 
477.3806435221471 1:0.441195 2:0.461317 
4567.260148524125 1:0.474085 2:0.191043 
1059.541905286148 1:0.683874 2:0.0509851 
31.48541536780853 1:0.597291 2:0.898693 
493.1513804922178 1:0.538754 2:0.351994 
6.780393695694629 1:0.909509 2:0.394862 
2124.049740557405 1:0.539149 2:0.284876 
312.8845883136783 1:0.697033 2:0.526064 
-2505.918066027789 1:0.582293 2:0.171157 
-4567.260148524125 1:0.528171 2:0.262023 
-68.85864230081832 1:0.682025 2:0.978096 
-39.51362902005512 1:0.213116 2:0.136955 
-366.3297263822169 1:0.47781 2:0.153341 
-327.7036476925977 1:0.359844 2:0.557247 
-215.0543274630389 1:0.125599 2:0.583567 
-523.7403224259941 1:0.45257 2:0.104136 
-1440.012530334184 1:0.416416 2:0.251844 
-1542.958747163432 1:0.652687 2:0.0819915 
-147.2754957724387 1:0.325924 2:0.646705 
-1421.000249181227 1:0.706836 2:0.549952 
-110.0911265548634 1:0.0541489 2:0.467961 
-426.0637867295951 1:0.763318 2:0.397059 
