svm_type nu_svc
kernel_type polynomial
degree 3
gamma 0.5
coef0 0
nr_class 2
total_sv 63
rho 1.34825
label 1 -1
nr_sv 31 32
SV
12.08117301911133 1:0.587485 2:0.3271 
12.08117301911133 1:0.528369 2:0.59755 
12.08117301911133 1:0.687384 2:0.350705 
12.08117301911133 1:0.149123 2:0.514584 
12.08117301911133 1:0.61064 2:0.578562 
3.912601322096145 1:0.795785 2:0.175245 
12.08117301911133 1:0.610323 2:0.533955 
12.08117301911133 1:0.331592 2:0.699664 
12.08117301911133 1:0.688588 2:0.0422769 
12.08117301911133 1:0.625551 2:0.458324 
12.08117301911133 1:0.471682 2:0.722169 
12.08117301911133 1:0.621426 2:0.190451 
12.08117301911133 1:0.259328 2:0.827479 
12.08117301911133 1:0.618172 2:0.562517 
12.08117301911133 1:0.548927 2:0.484828 
12.08117301911133 1:0.441195 2:0.461317 
12.08117301911133 1:0.373497 2:0.718948 
12.08117301911133 1:0.474085 2:0.191043 
12.08117301911133 1:0.754805 2:0.0309356 
12.08117301911133 1:0.683874 2:0.0509851 
12.08117301911133 1:0.444872 2:0.808685 
12.08117301911133 1:0.538754 2:0.351994 
12.08117301911133 1:0.496956 2:0.616187 
12.08117301911133 1:0.539149 2:0.284876 
12.08117301911133 1:0.24559 2:0.901946 
12.08117301911133 1:0.811833 2:0.00382725 
12.08117301911133 1:0.709894 2:0.0110853 
12.08117301911133 1:0.508866 2:0.529891 
12.08117301911133 1:0.698282 2:0.0874383 
8.168571697015187 1:0.607941 2:0.60061 
12.08117301911133 1:0.262137 2:0.898459 
-12.08117301911133 1:0.582293 2:0.171157 
-12.08117301911133 1:0.528171 2:0.262023 
-12.08117301911133 1:0.255547 2:0.777234 
-7.330771876395287 1:0.0344166 2:0.875909 
-12.08117301911133 1:0.504067 2:0.0601133 
-12.08117301911133 1:0.682025 2:0.978096 
-12.08117301911133 1:0.420741 2:0.28128 
-12.08117301911133 1:0.47781 2:0.153341 
-12.08117301911133 1:0.397524 2:0.441607 
-12.08117301911133 1:0.701245 2:0.524248 
-12.08117301911133 1:0.4612 2:0.0193706 
-12.08117301911133 1:0.346493 2:0.380695 
-12.08117301911133 1:0.338329 2:0.360527 
-12.08117301911133 1:0.439226 2:0.361839 
-4.240708303476149 1:0.0152283 2:0.924369 
-0.5096928392398956 1:0.207535 2:0.524303 
-12.08117301911133 1:0.359844 2:0.557247 
-12.08117301911133 1:0.427542 2:0.299616 
-12.08117301911133 1:0.170353 2:0.67528 
-12.08117301911133 1:0.45257 2:0.104136 
-12.08117301911133 1:0.303732 2:0.515764 
-12.08117301911133 1:0.326971 2:0.520569 
-12.08117301911133 1:0.416416 2:0.251844 
-12.08117301911133 1:0.293559 2:0.38293 
-12.08117301911133 1:0.652687 2:0.0819915 
-12.08117301911133 1:0.325924 2:0.646705 
-12.08117301911133 1:0.308789 2:0.620014 
-12.08117301911133 1:0.706836 2:0.549952 
-12.08117301911133 1:0.763318 2:0.397059 
-12.08117301911133 1:0.170745 2:0.72621 
-12.08117301911133 1:0.164169 2:0.80635 
-12.08117301911133 1:0.317835 2:0.611696 
