svm_type c_svc
kernel_type linear
nr_class 2
total_sv 47
rho 4.51725
label 1 -1
nr_sv 23 24
SV
10 1:0.587485 2:0.3271 
10 1:0.528369 2:0.59755 
10 1:0.149123 2:0.514584 
10 1:0.331592 2:0.699664 
10 1:0.688588 2:0.0422769 
10 1:0.471682 2:0.722169 
10 1:0.621426 2:0.190451 
10 1:0.259328 2:0.827479 
10 1:0.548927 2:0.484828 
10 1:0.441195 2:0.461317 
10 1:0.373497 2:0.718948 
10 1:0.474085 2:0.191043 
10 1:0.754805 2:0.0309356 
10 1:0.683874 2:0.0509851 
4.309647826708648 1:0.444872 2:0.808685 
10 1:0.538754 2:0.351994 
10 1:0.496956 2:0.616187 
10 1:0.539149 2:0.284876 
10 1:0.24559 2:0.901946 
10 1:0.709894 2:0.0110853 
10 1:0.508866 2:0.529891 
10 1:0.698282 2:0.0874383 
10 1:0.262137 2:0.898459 
-10 1:0.582293 2:0.171157 
-10 1:0.528171 2:0.262023 
-10 1:0.255547 2:0.777234 
-10 1:0.504067 2:0.0601133 
-10 1:0.682025 2:0.978096 
-10 1:0.420741 2:0.28128 
-10 1:0.47781 2:0.153341 
-10 1:0.397524 2:0.441607 
-10 1:0.701245 2:0.524248 
-10 1:0.346493 2:0.380695 
-10 1:0.439226 2:0.361839 
-10 1:0.359844 2:0.557247 
-10 1:0.427542 2:0.299616 
-2.755644362543272 1:0.45257 2:0.104136 
-10 1:0.303732 2:0.515764 
-10 1:0.326971 2:0.520569 
-10 1:0.416416 2:0.251844 
-10 1:0.652687 2:0.0819915 
-10 1:0.325924 2:0.646705 
-10 1:0.308789 2:0.620014 
-10 1:0.706836 2:0.549952 
-10 1:0.763318 2:0.397059 
-1.554003464165378 1:0.164169 2:0.80635 
-10 1:0.317835 2:0.611696 
