svm_type c_svc
kernel_type rbf
gamma 100
nr_class 2
total_sv 66
rho -0.115876
label 1 -1
nr_sv 37 29
SV
0.6660024082802436 1:0.953331 2:0.853663 
1.218606595872098 1:0.687384 2:0.350705 
4.55533524511164 1:0.684747 2:0.539404 
0.568274098770432 1:0.948912 2:0.543304 
10 1:0.149123 2:0.514584 
1.19668146305942 1:0.712777 2:0.902203 
2.426915467436275 1:0.752333 2:0.980945 
5.978675996904284 1:0.331592 2:0.699664 
0.05621246163503028 1:0.735853 2:0.802134 
0.101369515883264 1:0.892803 2:0.867032 
0.1134788615652366 1:0.471682 2:0.722169 
0.4037037242744849 1:0.492574 2:0.97895 
5.21200972889036 1:0.621426 2:0.190451 
0.6467059078639782 1:0.938545 2:0.0739513 
0.6229591275588008 1:0.68019 2:0.723895 
6.813364993047835 1:0.73101 2:0.549648 
5.517990171608667 1:0.259328 2:0.827479 
0.1389918597358091 1:0.899412 2:0.527905 
0.6654158815814986 1:0.868737 2:0.760933 
0.4009542444503035 1:0.456044 2:0.959968 
4.55185809783474 1:0.441195 2:0.461317 
10 1:0.474085 2:0.191043 
0.3194129272982134 1:0.886067 2:0.270002 
4.92361314489825 1:0.683874 2:0.0509851 
0.2863240554166266 1:0.444872 2:0.808685 
1.237636934899024 1:0.597291 2:0.898693 
0.2813472426112605 1:0.963846 2:0.147708 
0.5381465086054912 1:0.636874 2:0.627139 
0.5623440392939369 1:0.496956 2:0.616187 
0.7513052141266739 1:0.909509 2:0.394862 
8.691924544034153 1:0.539149 2:0.284876 
0.3438669579356421 1:0.945663 2:0.247154 
0.08022369735183175 1:0.811833 2:0.00382725 
0.4260698153984174 1:0.998751 2:0.438626 
0.4162006978372788 1:0.846334 2:0.194655 
10 1:0.697033 2:0.526064 
1.773689709374093 1:0.698282 2:0.0874383 
-3.496228953210707 1:0.582293 2:0.171157 
-10 1:0.528171 2:0.262023 
-6.449644996865098 1:0.255547 2:0.777234 
-0.3248125111572123 1:0.0344166 2:0.875909 
-3.54561440400997 1:0.682025 2:0.978096 
-0.6824418509003789 1:0.213116 2:0.136955 
-8.686015760914527 1:0.165194 2:0.504046 
-6.924280922388195 1:0.47781 2:0.153341 
-4.412844031683537 1:0.397524 2:0.441607 
-10 1:0.701245 2:0.524248 
-0.3433784575489245 1:0.4612 2:0.0193706 
-0.3345463308553075 1:0.191559 2:0.342783 
-0.5298038287255991 1:0.439226 2:0.361839 
-0.8387560632893193 1:0.0152283 2:0.924369 
-0.6803400328303627 1:0.067698 2:0.742369 
-0.649720994587585 1:0.125974 2:0.465836 
-2.572982878094814 1:0.125599 2:0.583567 
-0.791034017623341 1:0.139918 2:0.0109527 
-0.6692334878811463 1:0.0713751 2:0.089737 
-2.865972718293091 1:0.416416 2:0.251844 
-6.992638285350666 1:0.652687 2:0.0819915 
-5.033050222051209 1:0.325924 2:0.646705 
-0.3460133914545605 1:0.13644 2:0.183569 
-10 1:0.706836 2:0.549952 
-1.307219998258677 1:0.0541489 2:0.467961 
-1.893388381859512 1:0.763318 2:0.397059 
-0.6302237084011756 1:0.218318 2:0.274311 
-0.514048085085913 1:0.164169 2:0.80635 
-0.9733770271244658 1:0.0254552 2:0.295518 
