svm_type nu_svc
kernel_type rbf
gamma 100
nr_class 2
total_sv 33
rho -0.0917466
label 1 -1
nr_sv 13 20
SV
16.40364459364288 1:0.149123 2:0.514584 
3.625348359555213 1:0.752333 2:0.980945 
3.339675118687245 1:0.331592 2:0.699664 
7.587376809471711 1:0.621426 2:0.190451 
92.61564401943171 1:0.73101 2:0.549648 
2.039657687753813 1:0.259328 2:0.827479 
57.21961443565205 1:0.474085 2:0.191043 
11.57975912709082 1:0.683874 2:0.0509851 
1.594301644724986 1:0.597291 2:0.898693 
1.729870882600706 1:0.636874 2:0.627139 
0.4471055160638119 1:0.909509 2:0.394862 
60.78195728561479 1:0.539149 2:0.284876 
504.3031920507647 1:0.697033 2:0.526064 
-73.65715047952212 1:0.528171 2:0.262023 
-3.140168396980757 1:0.255547 2:0.777234 
-3.09339032413369 1:0.682025 2:0.978096 
-0.4958433417300095 1:0.0945403 2:0.650997 
-11.49095043766276 1:0.165194 2:0.504046 
-39.04253725042459 1:0.47781 2:0.153341 
-469.1293235272132 1:0.701245 2:0.524248 
-1.366676973989786 1:0.166398 2:0.195618 
-1.473548569568963 1:0.0152283 2:0.924369 
-1.47291372812253 1:0.359844 2:0.557247 
-1.405211476409086 1:0.125974 2:0.465836 
-3.213208133668459 1:0.125599 2:0.583567 
-2.176332259017136 1:0.187054 2:0.509616 
-1.573438264252231 1:0.139918 2:0.0109527 
-10.51857721636431 1:0.416416 2:0.251844 
-12.90414948401309 1:0.652687 2:0.0819915 
-1.82779955393742 1:0.325924 2:0.646705 
-122.3106291454385 1:0.706836 2:0.549952 
-1.401814751015511 1:0.0541489 2:0.467961 
-1.573484217590289 1:0.0254552 2:0.295518 
