svm_type c_svc
kernel_type rbf
gamma 100
nr_class 2
total_sv 44
rho -1.22606
label 1 -1
nr_sv 17 27
SV
0.6481717890386384 1:0.687384 2:0.350705 
61.98075629657993 1:0.149123 2:0.514584 
0.7634044032314594 1:0.712777 2:0.902203 
1.699193616025217 1:0.752333 2:0.980945 
5.377496851595101 1:0.331592 2:0.699664 
3.561914094387518 1:0.621426 2:0.190451 
1.01672286549959 1:0.68019 2:0.723895 
445.7469142228251 1:0.73101 2:0.549648 
4.696633849439936 1:0.259328 2:0.827479 
2.649789920723958 1:0.441195 2:0.461317 
32.09212917453143 1:0.474085 2:0.191043 
4.698093451125598 1:0.683874 2:0.0509851 
0.447465040914629 1:0.597291 2:0.898693 
4.613615768511916 1:0.636874 2:0.627139 
33.14597298059839 1:0.539149 2:0.284876 
2476.505947396685 1:0.697033 2:0.526064 
1.609067386637469 1:0.698282 2:0.0874383 
-41.1821760807085 1:0.528171 2:0.262023 
-6.398718759044702 1:0.255547 2:0.777234 
-0.7091630662109895 1:0.0344166 2:0.875909 
-3.769983750535046 1:0.682025 2:0.978096 
-1.323347755945828 1:0.213116 2:0.136955 
-51.47551187735342 1:0.165194 2:0.504046 
-22.65357029215113 1:0.47781 2:0.153341 
-3.826506323650288 1:0.397524 2:0.441607 
-2315.853177753078 1:0.701245 2:0.524248 
-0.04856534318108807 1:0.4612 2:0.0193706 
-0.7462577465175627 1:0.439226 2:0.361839 
-1.629893875456783 1:0.0152283 2:0.924369 
-0.0221576953904728 1:0.359844 2:0.557247 
-1.018899443649121 1:0.067698 2:0.742369 
-4.304612810459133 1:0.125974 2:0.465836 
-13.35373656798298 1:0.125599 2:0.583567 
-1.582388399189835 1:0.139918 2:0.0109527 
-1.339251330405209 1:0.0713751 2:0.089737 
-6.855232527027931 1:0.416416 2:0.251844 
-7.965131978978887 1:0.652687 2:0.0819915 
-5.455012327499687 1:0.325924 2:0.646705 
-0.6823012851646454 1:0.13644 2:0.183569 
-580.0328032983923 1:0.706836 2:0.549952 
-4.529904028139876 1:0.0541489 2:0.467961 
-1.566722042915142 1:0.218318 2:0.274311 
-1.098606170863842 1:0.164169 2:0.80635 
-1.829656578457898 1:0.0254552 2:0.295518 
