svm_type nu_svc
kernel_type rbf
gamma 0.1
nr_class 2
total_sv 29
rho -294.703
label 1 -1
nr_sv 13 16
SV
-41488.48029643095 1:0.587485 2:0.3271 
-41488.48029643095 1:0.528369 2:0.59755 
-14852.39049998321 1:0.953331 2:0.853663 
-34622.93705405662 1:0.684747 2:0.539404 
-41488.48029643095 1:0.149123 2:0.514584 
-34690.831602518 1:0.61064 2:0.578562 
-41488.48029643095 1:0.331592 2:0.699664 
-41488.48029643095 1:0.259328 2:0.827479 
-41488.48029643095 1:0.441195 2:0.461317 
-41488.48029643095 1:0.474085 2:0.191043 
-41488.48029643095 1:0.539149 2:0.284876 
-40299.28173273502 1:0.24559 2:0.901946 
-41488.48029643095 1:0.709894 2:0.0110853 
41488.48029643095 1:0.582293 2:0.171157 
41488.48029643095 1:0.528171 2:0.262023 
41488.48029643095 1:0.255547 2:0.777234 
2436.804526868822 1:0.0344166 2:0.875909 
41488.48029643095 1:0.682025 2:0.978096 
41488.48029643095 1:0.420741 2:0.28128 
8211.045971766678 1:0.47781 2:0.153341 
20659.26226855184 1:0.701245 2:0.524248 
2322.695994515763 1:0.439226 2:0.361839 
41488.48029643095 1:0.359844 2:0.557247 
41488.48029643095 1:0.170353 2:0.67528 
41488.48029643095 1:0.416416 2:0.251844 
10295.47606159667 1:0.652687 2:0.0819915 
41488.48029643095 1:0.706836 2:0.549952 
41488.48029643095 1:0.763318 2:0.397059 
39051.67576956213 1:0.164169 2:0.80635 
