svm_type nu_svc
kernel_type rbf
gamma 100
nr_class 2
total_sv 57
rho -0.260699
label 1 -1
nr_sv 31 26
SV
0.6047388030916946 1:0.953331 2:0.853663 
80.9733475117155 1:0.684747 2:0.539404 
0.1169333149214826 1:0.948912 2:0.543304 
55.24171874692996 1:0.149123 2:0.514584 
1.162659654369703 1:0.712777 2:0.902203 
2.369412018843279 1:0.752333 2:0.980945 
5.796108660289918 1:0.331592 2:0.699664 
0.1177718806922187 1:0.471682 2:0.722169 
0.3077342482015407 1:0.492574 2:0.97895 
4.473287964582828 1:0.621426 2:0.190451 
0.5184466247420103 1:0.938545 2:0.0739513 
0.7407832436854228 1:0.68019 2:0.723895 
107.2773098864996 1:0.73101 2:0.549648 
5.323726658360903 1:0.259328 2:0.827479 
0.5001041627170909 1:0.868737 2:0.760933 
0.3682630309574295 1:0.456044 2:0.959968 
3.737365899638864 1:0.441195 2:0.461317 
32.97842103127485 1:0.474085 2:0.191043 
0.4485623756575834 1:0.886067 2:0.270002 
5.729137314535418 1:0.683874 2:0.0509851 
0.2292171786201891 1:0.444872 2:0.808685 
1.160841882710911 1:0.597291 2:0.898693 
0.2620160520545107 1:0.963846 2:0.147708 
2.941895611213936 1:0.636874 2:0.627139 
0.3995939706764852 1:0.909509 2:0.394862 
36.53190684315613 1:0.539149 2:0.284876 
0.1794966411067314 1:0.945663 2:0.247154 
0.5406378830407518 1:0.998751 2:0.438626 
0.2263513676167375 1:0.846334 2:0.194655 
165.7845328811906 1:0.697033 2:0.526064 
1.803798959059346 1:0.698282 2:0.0874383 
-44.30883557473602 1:0.528171 2:0.262023 
-6.439575298549947 1:0.255547 2:0.777234 
-0.4807924754229352 1:0.0344166 2:0.875909 
-3.56918758640282 1:0.682025 2:0.978096 
-0.6833927993575702 1:0.213116 2:0.136955 
-45.42214944050439 1:0.165194 2:0.504046 
-22.4334322848788 1:0.47781 2:0.153341 
-3.789680180959317 1:0.397524 2:0.441607 
-172.9487074340512 1:0.701245 2:0.524248 
-0.5781545357348711 1:0.439226 2:0.361839 
-0.8709704943144949 1:0.0152283 2:0.924369 
-0.4340887335572873 1:0.067698 2:0.742369 
-3.842708437686503 1:0.125974 2:0.465836 
-11.48481152420794 1:0.125599 2:0.583567 
-0.9010752204226576 1:0.139918 2:0.0109527 
-0.8167976059685585 1:0.0713751 2:0.089737 
-6.325346070006175 1:0.416416 2:0.251844 
-8.277449455167661 1:0.652687 2:0.0819915 
-0.8164060668570117 1:0.207815 2:0.273306 
-4.945967806669386 1:0.325924 2:0.646705 
-0.3882568457597049 1:0.13644 2:0.183569 
-172.9487074340512 1:0.706836 2:0.549952 
-3.505803702343188 1:0.0541489 2:0.467961 
-1.253171766748999 1:0.763318 2:0.397059 
-0.5097904037238254 1:0.164169 2:0.80635 
-0.8708631240711497 1:0.0254552 2:0.295518 
