svm_type c_svc
kernel_type linear
nr_class 2
total_sv 41
rho 5.1939
label 1 -1
nr_sv 21 20
SV
100 1:0.587485 2:0.3271 
100 1:0.149123 2:0.514584 
100 1:0.331592 2:0.699664 
100 1:0.688588 2:0.0422769 
40.24590600133848 1:0.471682 2:0.722169 
100 1:0.621426 2:0.190451 
100 1:0.259328 2:0.827479 
100 1:0.548927 2:0.484828 
100 1:0.441195 2:0.461317 
100 1:0.373497 2:0.718948 
100 1:0.474085 2:0.191043 
23.08384051683163 1:0.754805 2:0.0309356 
100 1:0.683874 2:0.0509851 
100 1:0.538754 2:0.351994 
100 1:0.496956 2:0.616187 
100 1:0.539149 2:0.284876 
100 1:0.24559 2:0.901946 
100 1:0.709894 2:0.0110853 
100 1:0.508866 2:0.529891 
100 1:0.698282 2:0.0874383 
100 1:0.262137 2:0.898459 
-100 1:0.582293 2:0.171157 
-100 1:0.528171 2:0.262023 
-100 1:0.255547 2:0.777234 
-100 1:0.504067 2:0.0601133 
-100 1:0.682025 2:0.978096 
-100 1:0.420741 2:0.28128 
-100 1:0.47781 2:0.153341 
-100 1:0.397524 2:0.441607 
-100 1:0.701245 2:0.524248 
-100 1:0.439226 2:0.361839 
-100 1:0.359844 2:0.557247 
-100 1:0.427542 2:0.299616 
-100 1:0.326971 2:0.520569 
-63.32974651817007 1:0.416416 2:0.251844 
-100 1:0.652687 2:0.0819915 
-100 1:0.325924 2:0.646705 
-100 1:0.308789 2:0.620014 
-100 1:0.706836 2:0.549952 
-100 1:0.763318 2:0.397059 
-100 1:0.317835 2:0.611696 
