svm_type c_svc
kernel_type rbf
gamma 10
nr_class 2
total_sv 36
rho -1.27175
label 1 -1
nr_sv 17 19
SV
69.11463832871333 1:0.687384 2:0.350705 
0.08356584730687325 1:0.684747 2:0.539404 
100 1:0.149123 2:0.514584 
48.80591017155344 1:0.752333 2:0.980945 
100 1:0.331592 2:0.699664 
2.003585438764901 1:0.492574 2:0.97895 
88.79243564323497 1:0.621426 2:0.190451 
100 1:0.73101 2:0.549648 
68.08164034189768 1:0.259328 2:0.827479 
100 1:0.441195 2:0.461317 
100 1:0.474085 2:0.191043 
77.66463296911897 1:0.683874 2:0.0509851 
15.9675887874217 1:0.597291 2:0.898693 
5.730419283608557 1:0.813082 2:0.565202 
24.21214224256096 1:0.909509 2:0.394862 
92.18147609237042 1:0.539149 2:0.284876 
100 1:0.697033 2:0.526064 
-100 1:0.582293 2:0.171157 
-100 1:0.528171 2:0.262023 
-100 1:0.255547 2:0.777234 
-67.94865151541576 1:0.682025 2:0.978096 
-14.13329275747096 1:0.47781 2:0.153341 
-14.64161054483424 1:0.397524 2:0.441607 
-100 1:0.701245 2:0.524248 
-100 1:0.439226 2:0.361839 
-2.477616496642169 1:0.0152283 2:0.924369 
-24.11505936305707 1:0.359844 2:0.557247 
-4.065280158008696 1:0.427542 2:0.299616 
-35.04128517164035 1:0.125974 2:0.465836 
-7.772715329823235 1:0.125599 2:0.583567 
-2.56375785674678 1:0.139918 2:0.0109527 
-100 1:0.652687 2:0.0819915 
-93.79502806609887 1:0.325924 2:0.646705 
-100 1:0.706836 2:0.549952 
-26.08373788681357 1:0.0541489 2:0.467961 
-100 1:0.763318 2:0.397059 
