svm_type c_svc
kernel_type rbf
gamma 10
nr_class 2
total_sv 37
rho -0.428005
label 1 -1
nr_sv 18 19
SV
1.846702626246335 1:0.587485 2:0.3271 
10 1:0.149123 2:0.514584 
8.834927284892684 1:0.752333 2:0.980945 
10 1:0.331592 2:0.699664 
10 1:0.621426 2:0.190451 
10 1:0.73101 2:0.549648 
10 1:0.259328 2:0.827479 
10 1:0.441195 2:0.461317 
5.690528769059469 1:0.373497 2:0.718948 
10 1:0.474085 2:0.191043 
10 1:0.683874 2:0.0509851 
10 1:0.538754 2:0.351994 
4.842693550662027 1:0.813082 2:0.565202 
4.255770621897831 1:0.909509 2:0.394862 
10 1:0.539149 2:0.284876 
2.807338108127966 1:0.24559 2:0.901946 
9.359805075771217 1:0.508866 2:0.529891 
1.937781631009723 1:0.697033 2:0.526064 
-10 1:0.582293 2:0.171157 
-10 1:0.528171 2:0.262023 
-10 1:0.255547 2:0.777234 
-0.2240978634069199 1:0.504067 2:0.0601133 
-10 1:0.682025 2:0.978096 
-7.535317482964569 1:0.47781 2:0.153341 
-9.211002860596246 1:0.397524 2:0.441607 
-10 1:0.701245 2:0.524248 
-10 1:0.439226 2:0.361839 
-10 1:0.359844 2:0.557247 
-0.1565800259289778 1:0.427542 2:0.299616 
-10 1:0.652687 2:0.0819915 
-10 1:0.325924 2:0.646705 
-10 1:0.706836 2:0.549952 
-2.570080680707172 1:0.0541489 2:0.467961 
-10 1:0.763318 2:0.397059 
-7.958462746572746 1:0.164169 2:0.80635 
-0.5637584890817267 1:0.317835 2:0.611696 
-1.356247518408906 1:0.0254552 2:0.295518 
