svm_type nu_svc
kernel_type rbf
gamma 1
nr_class 2
total_sv 45
rho -49.6909
label 1 -1
nr_sv 29 16
SV
8937.827135568346 1:0.587485 2:0.3271 
4355.052810516555 1:0.528369 2:0.59755 
1910.691097140518 1:0.953331 2:0.853663 
574.2527143008007 1:0.687384 2:0.350705 
6102.814032128103 1:0.684747 2:0.539404 
8937.827135568346 1:0.149123 2:0.514584 
8800.558704754516 1:0.61064 2:0.578562 
5178.223228304839 1:0.795785 2:0.175245 
4023.477925026058 1:0.752333 2:0.980945 
8937.827135568346 1:0.610323 2:0.533955 
558.3231986119988 1:0.331592 2:0.699664 
362.1818423211237 1:0.892803 2:0.867032 
37.02837788406823 1:0.941236 2:0.466556 
2345.60790021063 1:0.621426 2:0.190451 
230.182213148263 1:0.73101 2:0.549648 
8937.827135568346 1:0.259328 2:0.827479 
72.89785649249654 1:0.899412 2:0.527905 
37.7918717261311 1:0.618172 2:0.562517 
28.32708579413075 1:0.868737 2:0.760933 
6116.098821377197 1:0.441195 2:0.461317 
8937.827135568346 1:0.474085 2:0.191043 
89.3698983368912 1:0.683874 2:0.0509851 
93.75018179632079 1:0.538754 2:0.351994 
347.3684139757858 1:0.813082 2:0.565202 
62.90268710407227 1:0.909509 2:0.394862 
6152.820360104101 1:0.539149 2:0.284876 
8642.500559272714 1:0.24559 2:0.901946 
4989.789246317789 1:0.709894 2:0.0110853 
1452.778922333321 1:0.262137 2:0.898459 
-8907.943762604556 1:0.582293 2:0.171157 
-8937.827135568346 1:0.528171 2:0.262023 
-8937.827135568346 1:0.255547 2:0.777234 
-8937.827135568346 1:0.682025 2:0.978096 
-8937.827135568346 1:0.701245 2:0.524248 
-43.40168426997982 1:0.338329 2:0.360527 
-8833.974924415013 1:0.439226 2:0.361839 
-8937.827135568346 1:0.359844 2:0.557247 
-768.9721492997855 1:0.0713751 2:0.089737 
-8894.425451298366 1:0.652687 2:0.0819915 
-6667.977709717718 1:0.325924 2:0.646705 
-8910.467223387592 1:0.706836 2:0.549952 
-8852.04519324701 1:0.763318 2:0.397059 
-1717.099301807677 1:0.170745 2:0.72621 
-8937.827135568346 1:0.164169 2:0.80635 
-30.65541336238064 1:0.0254552 2:0.295518 
