svm_type nu_svc
kernel_type rbf
gamma 0.1
nr_class 2
total_sv 61
rho -0.671322
label 1 -1
nr_sv 31 30
SV
7.691722394910804 1:0.587485 2:0.3271 
7.691722394910804 1:0.528369 2:0.59755 
7.691722394910804 1:0.687384 2:0.350705 
7.691722394910804 1:0.149123 2:0.514584 
7.691722394910804 1:0.61064 2:0.578562 
7.691722394910804 1:0.610323 2:0.533955 
7.691722394910804 1:0.331592 2:0.699664 
7.691722394910804 1:0.688588 2:0.0422769 
7.691722394910804 1:0.625551 2:0.458324 
7.691722394910804 1:0.471682 2:0.722169 
7.691722394910804 1:0.621426 2:0.190451 
7.691722394910804 1:0.259328 2:0.827479 
7.331217771055558 1:0.618172 2:0.562517 
7.691722394910804 1:0.548927 2:0.484828 
7.691722394910804 1:0.456044 2:0.959968 
7.691722394910804 1:0.441195 2:0.461317 
7.691722394910804 1:0.373497 2:0.718948 
7.691722394910804 1:0.474085 2:0.191043 
7.691722394910804 1:0.754805 2:0.0309356 
7.691722394910804 1:0.683874 2:0.0509851 
7.691722394910804 1:0.444872 2:0.808685 
2.3778606227866 1:0.487158 2:0.918496 
7.691722394910804 1:0.538754 2:0.351994 
7.691722394910804 1:0.496956 2:0.616187 
7.691722394910804 1:0.539149 2:0.284876 
7.691722394910804 1:0.24559 2:0.901946 
5.674366395979449 1:0.811833 2:0.00382725 
7.691722394910804 1:0.709894 2:0.0110853 
7.691722394910804 1:0.508866 2:0.529891 
7.691722394910804 1:0.698282 2:0.0874383 
7.691722394910804 1:0.262137 2:0.898459 
-7.691722394910804 1:0.582293 2:0.171157 
-7.691722394910804 1:0.528171 2:0.262023 
-7.691722394910804 1:0.255547 2:0.777234 
-7.691722394910804 1:0.504067 2:0.0601133 
-7.691722394910804 1:0.682025 2:0.978096 
-7.691722394910804 1:0.420741 2:0.28128 
-7.691722394910804 1:0.47781 2:0.153341 
-7.691722394910804 1:0.397524 2:0.441607 
-7.691722394910804 1:0.701245 2:0.524248 
-7.691722394910804 1:0.4612 2:0.0193706 
-7.691722394910804 1:0.346493 2:0.380695 
-7.691722394910804 1:0.338329 2:0.360527 
-7.691722394910804 1:0.439226 2:0.361839 
-7.691722394910804 1:0.252648 2:0.424279 
-7.691722394910804 1:0.359844 2:0.557247 
-7.691722394910804 1:0.427542 2:0.299616 
-7.691722394910804 1:0.170353 2:0.67528 
-7.691722394910804 1:0.45257 2:0.104136 
-7.691722394910804 1:0.303732 2:0.515764 
-7.691722394910804 1:0.326971 2:0.520569 
-7.691722394910804 1:0.416416 2:0.251844 
-7.691722394910804 1:0.293559 2:0.38293 
-7.691722394910804 1:0.652687 2:0.0819915 
-7.691722394910804 1:0.325924 2:0.646705 
-7.691722394910804 1:0.308789 2:0.620014 
-7.691722394910804 1:0.706836 2:0.549952 
-7.691722394910804 1:0.763318 2:0.397059 
-7.691722394910804 1:0.170745 2:0.72621 
-7.691722394910804 1:0.164169 2:0.80635 
-7.691722394910804 1:0.317835 2:0.611696 
