svm_type nu_svc
kernel_type linear
nr_class 2
total_sv 8
rho 19.9224
label 1 -1
nr_sv 4 4
SV
53039.26747308065 1:0.587485 2:0.3271 
52778.47702913387 1:0.528369 2:0.59755 
53039.26747308065 1:0.953331 2:0.853663 
260.7904439467719 1:0.24559 2:0.901946 
-24258.11756340785 1:0.528171 2:0.262023 
-53039.26747308065 1:0.682025 2:0.978096 
-28781.1499096728 1:0.701245 2:0.524248 
-53039.26747308065 1:0.763318 2:0.397059 
