svm_type nu_svc
kernel_type linear
nr_class 2
total_sv 25
rho 103.588
label 1 -1
nr_sv 12 13
SV
94360.25734360859 1:0.587485 2:0.3271 
94360.25734360859 1:0.528369 2:0.59755 
94360.25734360859 1:0.684747 2:0.539404 
94360.25734360859 1:0.149123 2:0.514584 
94360.25734360859 1:0.61064 2:0.578562 
94360.25734360859 1:0.331592 2:0.699664 
94360.25734360859 1:0.259328 2:0.827479 
94360.25734360859 1:0.441195 2:0.461317 
94360.25734360859 1:0.474085 2:0.191043 
94360.25734360859 1:0.539149 2:0.284876 
94360.25734360859 1:0.24559 2:0.901946 
94360.25734360859 1:0.709894 2:0.0110853 
-94360.25734360859 1:0.582293 2:0.171157 
-94360.25734360859 1:0.528171 2:0.262023 
-94360.25734360859 1:0.255547 2:0.777234 
-67315.48894926958 1:0.0344166 2:0.875909 
-47680.25116537639 1:0.504067 2:0.0601133 
-94360.25734360859 1:0.682025 2:0.978096 
-94360.25734360859 1:0.420741 2:0.28128 
-73724.77457257122 1:0.701245 2:0.524248 
-94360.25734360859 1:0.207535 2:0.524303 
-94360.25734360859 1:0.170353 2:0.67528 
-94360.25734360859 1:0.416416 2:0.251844 
-94360.25734360859 1:0.706836 2:0.549952 
-94360.25734360859 1:0.763318 2:0.397059 
