svm_type c_svc
kernel_type rbf
gamma 10
nr_class 2
total_sv 50
rho -0.122047
label 1 -1
nr_sv 25 25
SV
1 1:0.587485 2:0.3271 
0.7507356525068762 1:0.528369 2:0.59755 
0.4894850229113586 1:0.953331 2:0.853663 
1 1:0.149123 2:0.514584 
0.005544829289694554 1:0.712777 2:0.902203 
1 1:0.752333 2:0.980945 
1 1:0.331592 2:0.699664 
1 1:0.688588 2:0.0422769 
1 1:0.621426 2:0.190451 
1 1:0.259328 2:0.827479 
1 1:0.899412 2:0.527905 
1 1:0.548927 2:0.484828 
1 1:0.441195 2:0.461317 
1 1:0.373497 2:0.718948 
1 1:0.474085 2:0.191043 
1 1:0.683874 2:0.0509851 
1 1:0.538754 2:0.351994 
1 1:0.496956 2:0.616187 
1 1:0.539149 2:0.284876 
1 1:0.24559 2:0.901946 
0.5447555666562208 1:0.998751 2:0.438626 
0.3277302881233685 1:0.709894 2:0.0110853 
1 1:0.508866 2:0.529891 
0.4966298081520519 1:0.698282 2:0.0874383 
1 1:0.262137 2:0.898459 
-1 1:0.582293 2:0.171157 
-1 1:0.528171 2:0.262023 
-1 1:0.255547 2:0.777234 
-0.3583636783045629 1:0.0344166 2:0.875909 
-1 1:0.504067 2:0.0601133 
-1 1:0.682025 2:0.978096 
-1 1:0.47781 2:0.153341 
-1 1:0.397524 2:0.441607 
-1 1:0.701245 2:0.524248 
-0.6010151033241411 1:0.4612 2:0.0193706 
-1 1:0.439226 2:0.361839 
-1 1:0.0152283 2:0.924369 
-1 1:0.359844 2:0.557247 
-1 1:0.427542 2:0.299616 
-0.5926782581754729 1:0.326971 2:0.520569 
-0.3306739990901557 1:0.0713751 2:0.089737 
-1 1:0.652687 2:0.0819915 
-1 1:0.325924 2:0.646705 
-1 1:0.308789 2:0.620014 
-1 1:0.706836 2:0.549952 
-1 1:0.763318 2:0.397059 
-0.3071947966045145 1:0.170745 2:0.72621 
-1 1:0.164169 2:0.80635 
-1 1:0.317835 2:0.611696 
-0.4249553321407236 1:0.0254552 2:0.295518 
