svm_type c_svc
kernel_type rbf
gamma 0.1
nr_class 2
total_sv 37
rho 23.4474
label 1 -1
nr_sv 19 18
SV
100000 1:0.587485 2:0.3271 
765.1587703738027 1:0.528369 2:0.59755 
82241.64187601293 1:0.953331 2:0.853663 
100000 1:0.149123 2:0.514584 
100000 1:0.331592 2:0.699664 
4518.270808970452 1:0.688588 2:0.0422769 
100000 1:0.621426 2:0.190451 
100000 1:0.259328 2:0.827479 
100000 1:0.548927 2:0.484828 
100000 1:0.441195 2:0.461317 
100000 1:0.373497 2:0.718948 
100000 1:0.474085 2:0.191043 
100000 1:0.683874 2:0.0509851 
100000 1:0.538754 2:0.351994 
100000 1:0.496956 2:0.616187 
100000 1:0.539149 2:0.284876 
100000 1:0.24559 2:0.901946 
100000 1:0.508866 2:0.529891 
4353.130092171442 1:0.262137 2:0.898459 
-100000 1:0.582293 2:0.171157 
-100000 1:0.528171 2:0.262023 
-100000 1:0.255547 2:0.777234 
-59526.06842887305 1:0.504067 2:0.0601133 
-100000 1:0.682025 2:0.978096 
-29408.78763417208 1:0.47781 2:0.153341 
-100000 1:0.397524 2:0.441607 
-100000 1:0.701245 2:0.524248 
-100000 1:0.439226 2:0.361839 
-2943.345484483698 1:0.0152283 2:0.924369 
-100000 1:0.359844 2:0.557247 
-100000 1:0.652687 2:0.0819915 
-100000 1:0.325924 2:0.646705 
-100000 1:0.308789 2:0.620014 
-100000 1:0.706836 2:0.549952 
-100000 1:0.763318 2:0.397059 
-100000 1:0.164169 2:0.80635 
-100000 1:0.317835 2:0.611696 
