svm_type nu_svc
kernel_type rbf
gamma 1
nr_class 2
total_sv 27
rho -31.0921
label 1 -1
nr_sv 17 10
SV
13898.37962331298 1:0.587485 2:0.3271 
7098.576424762619 1:0.528369 2:0.59755 
1112.697652672781 1:0.953331 2:0.853663 
66.18478448077204 1:0.687384 2:0.350705 
1592.444189420475 1:0.149123 2:0.514584 
120.8794807301623 1:0.795785 2:0.175245 
6854.144955266883 1:0.752333 2:0.980945 
329.3900804337204 1:0.688588 2:0.0422769 
125.2595420643944 1:0.941236 2:0.466556 
5733.912275741918 1:0.492574 2:0.97895 
221.7524716059388 1:0.621426 2:0.190451 
2026.673536811291 1:0.474085 2:0.191043 
387.5186017666598 1:0.886067 2:0.270002 
274.4075053841007 1:0.909509 2:0.394862 
792.1077402914618 1:0.945663 2:0.247154 
885.6137742395827 1:0.998751 2:0.438626 
175.1962309532029 1:0.709894 2:0.0110853 
-10130.07110621233 1:0.528171 2:0.262023 
-2770.370304184741 1:0.255547 2:0.777234 
-12927.21944849474 1:0.682025 2:0.978096 
-3573.205416599174 1:0.397524 2:0.441607 
-200.005559075331 1:0.701245 2:0.524248 
-109.2021736273927 1:0.4612 2:0.0193706 
-75.2701519817636 1:0.359844 2:0.557247 
-1388.980562667839 1:0.325924 2:0.646705 
-325.8628281396122 1:0.706836 2:0.549952 
-10194.95131895602 1:0.763318 2:0.397059 
