svm_type c_svc
kernel_type rbf
gamma 100
nr_class 2
total_sv 64
rho -0.104075
label 1 -1
nr_sv 37 27
SV
0.6720368303520403 1:0.953331 2:0.853663 
0.2046532083535353 1:0.687384 2:0.350705 
46.21888987811128 1:0.684747 2:0.539404 
0.4482054309590854 1:0.948912 2:0.543304 
58.61282813973243 1:0.149123 2:0.514584 
0.03866156936307798 1:0.795785 2:0.175245 
1.217190537252142 1:0.712777 2:0.902203 
2.430757856122119 1:0.752333 2:0.980945 
5.74338333855579 1:0.331592 2:0.699664 
0.01099704430543372 1:0.735853 2:0.802134 
0.1156780812479521 1:0.892803 2:0.867032 
0.2356658022620683 1:0.471682 2:0.722169 
0.4048120553118446 1:0.492574 2:0.97895 
4.413688777387488 1:0.621426 2:0.190451 
0.6641901185192643 1:0.938545 2:0.0739513 
0.7268098389153703 1:0.68019 2:0.723895 
62.24396524409468 1:0.73101 2:0.549648 
5.473170300239037 1:0.259328 2:0.827479 
0.6471589676188763 1:0.868737 2:0.760933 
0.4138256450891092 1:0.456044 2:0.959968 
4.040929377195416 1:0.441195 2:0.461317 
31.61599377539633 1:0.474085 2:0.191043 
0.3339319637316195 1:0.886067 2:0.270002 
5.582057575716525 1:0.683874 2:0.0509851 
0.2612295930519953 1:0.444872 2:0.808685 
1.242389667618326 1:0.597291 2:0.898693 
0.2808131388321926 1:0.963846 2:0.147708 
2.000373228317895 1:0.636874 2:0.627139 
0.1238598150405627 1:0.496956 2:0.616187 
0.646817738364205 1:0.909509 2:0.394862 
35.09950123278715 1:0.539149 2:0.284876 
0.3563843281291522 1:0.945663 2:0.247154 
0.02378887657357585 1:0.811833 2:0.00382725 
0.5230539703171898 1:0.998751 2:0.438626 
0.3936767134843122 1:0.846334 2:0.194655 
96.68564668705908 1:0.697033 2:0.526064 
1.817051999183001 1:0.698282 2:0.0874383 
-42.47501532184281 1:0.528171 2:0.262023 
-6.306789879665772 1:0.255547 2:0.777234 
-0.4519537411502488 1:0.0344166 2:0.875909 
-3.546339387118553 1:0.682025 2:0.978096 
-0.6551463744005041 1:0.213116 2:0.136955 
-48.12816286634338 1:0.165194 2:0.504046 
-21.39032325653588 1:0.47781 2:0.153341 
-3.962787819000268 1:0.397524 2:0.441607 
-100 1:0.701245 2:0.524248 
-0.4801090586491439 1:0.439226 2:0.361839 
-0.7416242110457947 1:0.0152283 2:0.924369 
-0.1719189713953607 1:0.067698 2:0.742369 
-4.088495019303358 1:0.125974 2:0.465836 
-12.0443900352299 1:0.125599 2:0.583567 
-0.784987908154414 1:0.139918 2:0.0109527 
-0.6604154229060678 1:0.0713751 2:0.089737 
-5.965688417462546 1:0.416416 2:0.251844 
-8.013019876648269 1:0.652687 2:0.0819915 
-0.2482567600590279 1:0.207815 2:0.273306 
-4.710510191101662 1:0.325924 2:0.646705 
-0.3573816362126081 1:0.13644 2:0.183569 
-100 1:0.706836 2:0.549952 
-3.549354411264282 1:0.0541489 2:0.467961 
-1.382470028737129 1:0.763318 2:0.397059 
-0.4277657170358443 1:0.218318 2:0.274311 
-0.6084063490397174 1:0.164169 2:0.80635 
-0.8127556842886048 1:0.0254552 2:0.295518 
