svm_type c_svc
kernel_type rbf
gamma 100
nr_class 2
total_sv 84
rho -0.14008
label 1 -1
nr_sv 46 38
SV
0.5906215822257996 1:0.953331 2:0.853663 
1 1:0.687384 2:0.350705 
0.7001638874728051 1:0.684747 2:0.539404 
0.5979179525863527 1:0.948912 2:0.543304 
1 1:0.149123 2:0.514584 
0.5442836298013463 1:0.795785 2:0.175245 
0.5690660340400694 1:0.712777 2:0.902203 
1 1:0.752333 2:0.980945 
0.01852528353077632 1:0.610323 2:0.533955 
1 1:0.331592 2:0.699664 
0.04255073128589903 1:0.688588 2:0.0422769 
0.2565812935735342 1:0.735853 2:0.802134 
0.2028810075223649 1:0.892803 2:0.867032 
0.3072359957667704 1:0.625551 2:0.458324 
0.2080021145734723 1:0.471682 2:0.722169 
0.3667349117431978 1:0.492574 2:0.97895 
1 1:0.621426 2:0.190451 
0.5488017373319475 1:0.938545 2:0.0739513 
0.5075646927538002 1:0.68019 2:0.723895 
0.9003470271401336 1:0.73101 2:0.549648 
1 1:0.259328 2:0.827479 
0.03872701994023207 1:0.548927 2:0.484828 
0.6041488393537651 1:0.868737 2:0.760933 
0.4290785494098617 1:0.456044 2:0.959968 
1 1:0.441195 2:0.461317 
0.512414268638387 1:0.373497 2:0.718948 
1 1:0.474085 2:0.191043 
0.3738319231152174 1:0.886067 2:0.270002 
1 1:0.683874 2:0.0509851 
0.4503916879353321 1:0.444872 2:0.808685 
0.7591132689333245 1:0.597291 2:0.898693 
0.348036042979299 1:0.963846 2:0.147708 
0.3872651923134356 1:0.636874 2:0.627139 
0.8448840746644741 1:0.538754 2:0.351994 
0.6035242252329371 1:0.496956 2:0.616187 
0.5259363234085875 1:0.813082 2:0.565202 
0.6194534277642249 1:0.909509 2:0.394862 
1 1:0.539149 2:0.284876 
0.3571496693193947 1:0.945663 2:0.247154 
0.7031700276319099 1:0.24559 2:0.901946 
0.5639164849541159 1:0.811833 2:0.00382725 
0.459965142035005 1:0.998751 2:0.438626 
0.06320495283724326 1:0.672827 2:0.79192 
0.256374782690776 1:0.508866 2:0.529891 
1 1:0.697033 2:0.526064 
0.5436129189562454 1:0.698282 2:0.0874383 
-1 1:0.582293 2:0.171157 
-1 1:0.528171 2:0.262023 
-1 1:0.255547 2:0.777234 
-0.2934071654862339 1:0.0344166 2:0.875909 
-1 1:0.682025 2:0.978096 
-0.7027462756160419 1:0.213116 2:0.136955 
-1 1:0.165194 2:0.504046 
-1 1:0.47781 2:0.153341 
-1 1:0.397524 2:0.441607 
-1 1:0.701245 2:0.524248 
-0.9094358374004343 1:0.4612 2:0.0193706 
-0.05123074700698105 1:0.191559 2:0.342783 
-1 1:0.439226 2:0.361839 
-0.8810842916445525 1:0.0152283 2:0.924369 
-0.2866050842840883 1:0.207535 2:0.524303 
-0.3469241325245475 1:0.252648 2:0.424279 
-0.7062210470545006 1:0.359844 2:0.557247 
-0.4492887865587549 1:0.133353 2:0.361643 
-0.4256827084090813 1:0.067698 2:0.742369 
-0.2717464782562162 1:0.170353 2:0.67528 
-0.6321505744119791 1:0.125599 2:0.583567 
-0.1204383399970233 1:0.187054 2:0.509616 
-0.4916140198619333 1:0.0707422 2:0.666653 
-0.1794891892280026 1:0.45257 2:0.104136 
-0.8071746691181207 1:0.139918 2:0.0109527 
-0.6867564569297375 1:0.0713751 2:0.089737 
-0.9881547004975525 1:0.416416 2:0.251844 
-0.3184130988568477 1:0.293559 2:0.38293 
-1 1:0.652687 2:0.0819915 
-1 1:0.325924 2:0.646705 
-0.3431030708415685 1:0.13644 2:0.183569 
-0.3495489700429342 1:0.308789 2:0.620014 
-1 1:0.706836 2:0.549952 
-0.932360772094778 1:0.0541489 2:0.467961 
-1 1:0.763318 2:0.397059 
-0.6840114585993385 1:0.218318 2:0.274311 
-1 1:0.164169 2:0.80635 
-0.9478888287407894 1:0.0254552 2:0.295518 
