svm_type c_svc
kernel_type rbf
gamma 10
nr_class 2
total_sv 30
rho -0.531257
label 1 -1
nr_sv 10 20
SV
1000 1:0.149123 2:0.514584 
45.60042991474408 1:0.752333 2:0.980945 
611.1293029993351 1:0.331592 2:0.699664 
779.2786121333373 1:0.621426 2:0.190451 
965.9130512263847 1:0.73101 2:0.549648 
720.9086982231751 1:0.441195 2:0.461317 
1000 1:0.474085 2:0.191043 
178.8512710283097 1:0.683874 2:0.0509851 
848.2443077455683 1:0.539149 2:0.284876 
1000 1:0.697033 2:0.526064 
-987.9161412696549 1:0.582293 2:0.171157 
-1000 1:0.528171 2:0.262023 
-75.26146163330625 1:0.255547 2:0.777234 
-58.21267944132933 1:0.682025 2:0.978096 
-4.76020665108143 1:0.213116 2:0.136955 
-286.265158676396 1:0.165194 2:0.504046 
-102.5321530466027 1:0.47781 2:0.153341 
-1000 1:0.701245 2:0.524248 
-688.015979082892 1:0.439226 2:0.361839 
-192.7597925442888 1:0.359844 2:0.557247 
-293.0648088846891 1:0.125974 2:0.465836 
-231.3348036577493 1:0.125599 2:0.583567 
-97.35578878295163 1:0.45257 2:0.104136 
-5.306168619365106 1:0.139918 2:0.0109527 
-79.16677989980118 1:0.416416 2:0.251844 
-193.1636736551104 1:0.652687 2:0.0819915 
-663.0808174251642 1:0.325924 2:0.646705 
-1000 1:0.706836 2:0.549952 
-68.9085649850453 1:0.0541489 2:0.467961 
-122.8206950154238 1:0.763318 2:0.397059 
