svm_type nu_svc
kernel_type rbf
gamma 1
nr_class 2
total_sv 3
rho -72.7361
label 1 -1
nr_sv 2 1
SV
4742.297834732166 1:0.587485 2:0.3271 
4678.661012188398 1:0.474085 2:0.191043 
-9420.958846920563 1:0.528171 2:0.262023 
