svm_type nu_svc
kernel_type rbf
gamma 0.01
nr_class 2
total_sv 26
rho 319.369
label 1 -1
nr_sv 13 13
SV
84962.56526966869 1:0.587485 2:0.3271 
84962.56526966869 1:0.528369 2:0.59755 
72617.68142848188 1:0.684747 2:0.539404 
84962.56526966869 1:0.149123 2:0.514584 
84962.56526966869 1:0.61064 2:0.578562 
84962.56526966869 1:0.331592 2:0.699664 
84962.56526966869 1:0.259328 2:0.827479 
84962.56526966869 1:0.441195 2:0.461317 
84962.56526966869 1:0.474085 2:0.191043 
84962.56526966869 1:0.539149 2:0.284876 
84962.56526966869 1:0.24559 2:0.901946 
12344.8838411868 1:0.811833 2:0.00382725 
84962.56526966869 1:0.709894 2:0.0110853 
-84962.56526966869 1:0.582293 2:0.171157 
-84962.56526966869 1:0.528171 2:0.262023 
-84962.56526966869 1:0.255547 2:0.777234 
-84962.56526966869 1:0.0344166 2:0.875909 
-359.0599694439271 1:0.504067 2:0.0601133 
-84962.56526966869 1:0.682025 2:0.978096 
-84962.56526966869 1:0.420741 2:0.28128 
-84962.56526966869 1:0.359844 2:0.557247 
-84962.56526966869 1:0.170353 2:0.67528 
-84962.56526966869 1:0.416416 2:0.251844 
-84603.50530022476 1:0.652687 2:0.0819915 
-84962.56526966869 1:0.706836 2:0.549952 
-84962.56526966869 1:0.763318 2:0.397059 
