svm_type nu_svc
kernel_type rbf
gamma 0.1
nr_class 2
total_sv 14
rho 5.63917
label 1 -1
nr_sv 8 6
SV
-4099.431687650516 1:0.587485 2:0.3271 
-4013.058427663384 1:0.528369 2:0.59755 
-3738.273193857525 1:0.953331 2:0.853663 
-666.732240264634 1:0.492574 2:0.97895 
-162.0507199269574 1:0.938545 2:0.0739513 
-120.7336776100314 1:0.24559 2:0.901946 
-352.7045271689664 1:0.811833 2:0.00382725 
-35.71483500316729 1:0.709894 2:0.0110853 
2127.014508544657 1:0.528171 2:0.262023 
4183.836828840445 1:0.682025 2:0.978096 
2203.395492396915 1:0.706836 2:0.549952 
58.05943287159234 1:0.0541489 2:0.467961 
4396.233103048394 1:0.763318 2:0.397059 
220.1599434431787 1:0.0254552 2:0.295518 
