svm_type nu_svc
kernel_type rbf
gamma 10
nr_class 2
total_sv 36
rho -0.624589
label 1 -1
nr_sv 19 17
SV
14.55139865298531 1:0.687384 2:0.350705 
38.94946591608836 1:0.149123 2:0.514584 
29.34528851874343 1:0.752333 2:0.980945 
38.94946591608836 1:0.331592 2:0.699664 
0.5386002944101181 1:0.492574 2:0.97895 
38.87560441031959 1:0.621426 2:0.190451 
38.94946591608836 1:0.73101 2:0.549648 
35.95166973908442 1:0.259328 2:0.827479 
38.94946591608836 1:0.441195 2:0.461317 
4.58415239768746 1:0.373497 2:0.718948 
38.94946591608836 1:0.474085 2:0.191043 
30.2282103776943 1:0.683874 2:0.0509851 
8.25871737426556 1:0.597291 2:0.898693 
14.29690997538344 1:0.538754 2:0.351994 
1.778931664667204 1:0.813082 2:0.565202 
12.97455971049458 1:0.909509 2:0.394862 
38.94946591608836 1:0.539149 2:0.284876 
3.363286464706409 1:0.508866 2:0.529891 
38.94946591608836 1:0.697033 2:0.526064 
-38.94946591608836 1:0.582293 2:0.171157 
-38.94946591608836 1:0.528171 2:0.262023 
-38.94946591608836 1:0.255547 2:0.777234 
-38.94946591608836 1:0.682025 2:0.978096 
-8.777315770009956 1:0.47781 2:0.153341 
-3.860476103162259 1:0.397524 2:0.441607 
-38.94946591608836 1:0.701245 2:0.524248 
-38.94946591608836 1:0.439226 2:0.361839 
-21.15778264548181 1:0.359844 2:0.557247 
-11.89867564508927 1:0.427542 2:0.299616 
-0.6397708956363043 1:0.139918 2:0.0109527 
-38.94946591608836 1:0.652687 2:0.0819915 
-38.94946591608836 1:0.325924 2:0.646705 
-38.94946591608836 1:0.706836 2:0.549952 
-21.20063366676675 1:0.0541489 2:0.467961 
-38.94946591608836 1:0.763318 2:0.397059 
-10.36427710603036 1:0.164169 2:0.80635 
