svm_type nu_svc
kernel_type polynomial
degree 3
gamma 0.5
coef0 0
nr_class 2
total_sv 32
rho 1.13318
label 1 -1
nr_sv 16 16
SV
1723.150505214798 1:0.587485 2:0.3271 
4112.808710251463 1:0.528369 2:0.59755 
191.3802726876077 1:0.953331 2:0.853663 
4618.047189236867 1:0.149123 2:0.514584 
4618.047189236867 1:0.61064 2:0.578562 
3377.9784805274 1:0.795785 2:0.175245 
4188.507357375061 1:0.752333 2:0.980945 
4618.047189236867 1:0.688588 2:0.0422769 
2553.944402285715 1:0.621426 2:0.190451 
2080.746131761976 1:0.548927 2:0.484828 
4618.047189236867 1:0.441195 2:0.461317 
4618.047189236867 1:0.474085 2:0.191043 
243.6728968434457 1:0.683874 2:0.0509851 
4618.047189236867 1:0.538754 2:0.351994 
4618.047189236867 1:0.539149 2:0.284876 
4618.047189236867 1:0.24559 2:0.901946 
-4618.047189236867 1:0.582293 2:0.171157 
-4618.047189236867 1:0.528171 2:0.262023 
-4618.047189236867 1:0.255547 2:0.777234 
-4618.047189236867 1:0.504067 2:0.0601133 
-4618.047189236867 1:0.682025 2:0.978096 
-775.0756092456501 1:0.165194 2:0.504046 
-3030.655218754778 1:0.114707 2:0.638675 
-209.5870152351359 1:0.397524 2:0.441607 
-4618.047189236867 1:0.701245 2:0.524248 
-4618.047189236867 1:0.427542 2:0.299616 
-4618.047189236867 1:0.652687 2:0.0819915 
-2174.752254655244 1:0.325924 2:0.646705 
-2844.727765784508 1:0.308789 2:0.620014 
-4618.047189236867 1:0.706836 2:0.549952 
-3909.463627472906 1:0.763318 2:0.397059 
-909.8800765623795 1:0.164169 2:0.80635 
