svm_type nu_svc
kernel_type rbf
gamma 1
nr_class 2
total_sv 6
rho 5.50651
label 1 -1
nr_sv 2 4
SV
-1369.226951323803 1:0.587485 2:0.3271 
-1350.853315681321 1:0.474085 2:0.191043 
2636.614203135836 1:0.528171 2:0.262023 
18.3402769079413 1:0.682025 2:0.978096 
26.14531667903485 1:0.139918 2:0.0109527 
38.98047028231154 1:0.652687 2:0.0819915 
