svm_type nu_svc
kernel_type rbf
gamma 10
nr_class 2
total_sv 6
rho 5.44528
label 1 -1
nr_sv 3 3
SV
2248.374805093238 1:0.587485 2:0.3271 
1905.669477450756 1:0.474085 2:0.191043 
310.4744951647992 1:0.538754 2:0.351994 
-3919.470361945668 1:0.528171 2:0.262023 
-357.721458669587 1:0.701245 2:0.524248 
-187.3269570935387 1:0.4612 2:0.0193706 
