svm_type nu_svc
kernel_type polynomial
degree 3
gamma 0.5
coef0 0
nr_class 2
total_sv 3
rho 1.2255
label 1 -1
nr_sv 1 2
SV
80454.72840705697 1:0.587485 2:0.3271 
-42487.48409765136 1:0.145628 2:0.107693 
-37967.24430940561 1:0.763318 2:0.397059 
