svm_type nu_svc
kernel_type rbf
gamma 0.1
nr_class 2
total_sv 3
rho 64.7877
label 1 -1
nr_sv 1 2
SV
7149.93059560852 1:0.587485 2:0.3271 
-1965.326764675698 1:0.145628 2:0.107693 
-5184.603830932821 1:0.763318 2:0.397059 
