svm_type c_svc
kernel_type rbf
gamma 1
nr_class 2
total_sv 35
rho -50.9241
label 1 -1
nr_sv 19 16
SV
72421.54156103003 1:0.687384 2:0.350705 
100000 1:0.149123 2:0.514584 
68210.03206278943 1:0.752333 2:0.980945 
100000 1:0.331592 2:0.699664 
15850.25080956789 1:0.492574 2:0.97895 
32707.50236607452 1:0.621426 2:0.190451 
79418.42917398152 1:0.73101 2:0.549648 
78812.74590559842 1:0.259328 2:0.827479 
100000 1:0.441195 2:0.461317 
65087.43278059357 1:0.373497 2:0.718948 
100000 1:0.474085 2:0.191043 
3511.041947213574 1:0.886067 2:0.270002 
78593.70825827183 1:0.683874 2:0.0509851 
8108.103170814323 1:0.597291 2:0.898693 
100000 1:0.538754 2:0.351994 
16981.13633312341 1:0.909509 2:0.394862 
100000 1:0.539149 2:0.284876 
46081.66531422282 1:0.508866 2:0.529891 
100000 1:0.697033 2:0.526064 
-100000 1:0.582293 2:0.171157 
-100000 1:0.528171 2:0.262023 
-100000 1:0.255547 2:0.777234 
-100000 1:0.682025 2:0.978096 
-100000 1:0.397524 2:0.441607 
-100000 1:0.701245 2:0.524248 
-100000 1:0.439226 2:0.361839 
-100000 1:0.359844 2:0.557247 
-100000 1:0.652687 2:0.0819915 
-100000 1:0.325924 2:0.646705 
-100000 1:0.706836 2:0.549952 
-10075.90197880905 1:0.0541489 2:0.467961 
-100000 1:0.763318 2:0.397059 
-31579.01740231077 1:0.164169 2:0.80635 
-12153.53199554223 1:0.317835 2:0.611696 
-11975.13830661937 1:0.0254552 2:0.295518 
