svm_type nu_svc
kernel_type rbf
gamma 100
nr_class 2
total_sv 71
rho -0.126239
label 1 -1
nr_sv 40 31
SV
0.6614050050663276 1:0.953331 2:0.853663 
1.270435697399759 1:0.687384 2:0.350705 
2.81127541169533 1:0.684747 2:0.539404 
0.5459179305058889 1:0.948912 2:0.543304 
6.071306187589849 1:0.149123 2:0.514584 
0.03132568498666431 1:0.795785 2:0.175245 
1.197116037814313 1:0.712777 2:0.902203 
2.415641690547672 1:0.752333 2:0.980945 
5.854445868789913 1:0.331592 2:0.699664 
0.0517009128867834 1:0.735853 2:0.802134 
0.0969226484090133 1:0.892803 2:0.867032 
0.1724057960497361 1:0.625551 2:0.458324 
0.115502864774364 1:0.471682 2:0.722169 
0.3969588096555339 1:0.492574 2:0.97895 
5.423993378871391 1:0.621426 2:0.190451 
0.6315237878083647 1:0.938545 2:0.0739513 
0.6131599416962236 1:0.68019 2:0.723895 
4.361076796726396 1:0.73101 2:0.549648 
5.25521812715647 1:0.259328 2:0.827479 
0.1461529901829339 1:0.899412 2:0.527905 
0.6593991809283122 1:0.868737 2:0.760933 
0.397339083662774 1:0.456044 2:0.959968 
4.589771125367281 1:0.441195 2:0.461317 
6.071306187589849 1:0.474085 2:0.191043 
0.3173749871407465 1:0.886067 2:0.270002 
4.446051563576915 1:0.683874 2:0.0509851 
0.2867459071746962 1:0.444872 2:0.808685 
1.230047740816745 1:0.597291 2:0.898693 
0.2839161363265814 1:0.963846 2:0.147708 
0.4699971091801489 1:0.636874 2:0.627139 
0.5697316966439753 1:0.496956 2:0.616187 
0.1222716418659082 1:0.813082 2:0.565202 
0.7496395308898888 1:0.909509 2:0.394862 
5.709071965388917 1:0.539149 2:0.284876 
0.3393616625759708 1:0.945663 2:0.247154 
0.1480901679595893 1:0.811833 2:0.00382725 
0.4201182922975938 1:0.998751 2:0.438626 
0.3933899910161676 1:0.846334 2:0.194655 
6.071306187589849 1:0.697033 2:0.526064 
1.457258524473355 1:0.698282 2:0.0874383 
-4.242919380930736 1:0.582293 2:0.171157 
-6.071306187589849 1:0.528171 2:0.262023 
-6.071306187589849 1:0.255547 2:0.777234 
-0.324565769240714 1:0.0344166 2:0.875909 
-3.546752597348662 1:0.682025 2:0.978096 
-0.695842986726854 1:0.213116 2:0.136955 
-5.595957506251957 1:0.165194 2:0.504046 
-4.046980895877687 1:0.47781 2:0.153341 
-4.41204673816529 1:0.397524 2:0.441607 
-6.071306187589849 1:0.701245 2:0.524248 
-0.6177711567004538 1:0.4612 2:0.0193706 
-0.3949729785134019 1:0.191559 2:0.342783 
-0.6547995823183413 1:0.439226 2:0.361839 
-0.8510149299037777 1:0.0152283 2:0.924369 
-0.1096361568874042 1:0.133353 2:0.361643 
-0.61335829488864 1:0.067698 2:0.742369 
-0.2603066915609047 1:0.125974 2:0.465836 
-1.730693256795436 1:0.125599 2:0.583567 
-0.1871446253955616 1:0.0707422 2:0.666653 
-0.7986616152464912 1:0.139918 2:0.0109527 
-0.6775674658575402 1:0.0713751 2:0.089737 
-2.139954949855959 1:0.416416 2:0.251844 
-6.071306187589849 1:0.652687 2:0.0819915 
-4.997718793934895 1:0.325924 2:0.646705 
-0.3462773573016447 1:0.13644 2:0.183569 
-6.071306187589849 1:0.706836 2:0.549952 
-1.16779926852343 1:0.0541489 2:0.467961 
-1.935935380990949 1:0.763318 2:0.397059 
-0.599124449697313 1:0.218318 2:0.274311 
-0.5822390002335708 1:0.164169 2:0.80635 
-0.9691014839813286 1:0.0254552 2:0.295518 
