svm_type c_svc
kernel_type rbf
gamma 0.01
nr_class 2
total_sv 43
rho -7.26794
label 1 -1
nr_sv 22 21
SV
1000 1:0.587485 2:0.3271 
485.7658380112318 1:0.528369 2:0.59755 
1000 1:0.149123 2:0.514584 
1000 1:0.331592 2:0.699664 
1000 1:0.688588 2:0.0422769 
1000 1:0.471682 2:0.722169 
1000 1:0.621426 2:0.190451 
1000 1:0.259328 2:0.827479 
1000 1:0.548927 2:0.484828 
1000 1:0.441195 2:0.461317 
1000 1:0.373497 2:0.718948 
1000 1:0.474085 2:0.191043 
514.2341619887682 1:0.754805 2:0.0309356 
1000 1:0.683874 2:0.0509851 
1000 1:0.538754 2:0.351994 
1000 1:0.496956 2:0.616187 
1000 1:0.539149 2:0.284876 
1000 1:0.24559 2:0.901946 
1000 1:0.709894 2:0.0110853 
1000 1:0.508866 2:0.529891 
1000 1:0.698282 2:0.0874383 
1000 1:0.262137 2:0.898459 
-1000 1:0.582293 2:0.171157 
-1000 1:0.528171 2:0.262023 
-1000 1:0.255547 2:0.777234 
-1000 1:0.504067 2:0.0601133 
-1000 1:0.682025 2:0.978096 
-1000 1:0.420741 2:0.28128 
-1000 1:0.47781 2:0.153341 
-1000 1:0.397524 2:0.441607 
-1000 1:0.701245 2:0.524248 
-1000 1:0.439226 2:0.361839 
-1000 1:0.359844 2:0.557247 
-1000 1:0.427542 2:0.299616 
-1000 1:0.303732 2:0.515764 
-1000 1:0.326971 2:0.520569 
-1000 1:0.416416 2:0.251844 
-1000 1:0.652687 2:0.0819915 
-1000 1:0.325924 2:0.646705 
-1000 1:0.308789 2:0.620014 
-1000 1:0.706836 2:0.549952 
-1000 1:0.763318 2:0.397059 
-1000 1:0.317835 2:0.611696 
