svm_type c_svc
kernel_type rbf
gamma 1
nr_class 2
total_sv 49
rho -0.326541
label 1 -1
nr_sv 24 25
SV
1 1:0.587485 2:0.3271 
1 1:0.528369 2:0.59755 
1 1:0.687384 2:0.350705 
0.8920053752454297 1:0.61064 2:0.578562 
1 1:0.610323 2:0.533955 
1 1:0.331592 2:0.699664 
1 1:0.688588 2:0.0422769 
1 1:0.625551 2:0.458324 
1 1:0.471682 2:0.722169 
1 1:0.621426 2:0.190451 
1 1:0.259328 2:0.827479 
1 1:0.548927 2:0.484828 
1 1:0.373497 2:0.718948 
1 1:0.754805 2:0.0309356 
1 1:0.683874 2:0.0509851 
1 1:0.444872 2:0.808685 
1 1:0.538754 2:0.351994 
1 1:0.496956 2:0.616187 
1 1:0.24559 2:0.901946 
1 1:0.811833 2:0.00382725 
1 1:0.709894 2:0.0110853 
1 1:0.508866 2:0.529891 
1 1:0.698282 2:0.0874383 
1 1:0.262137 2:0.898459 
-1 1:0.582293 2:0.171157 
-1 1:0.528171 2:0.262023 
-1 1:0.255547 2:0.777234 
-0.06576895452639664 1:0.0344166 2:0.875909 
-1 1:0.504067 2:0.0601133 
-1 1:0.420741 2:0.28128 
-1 1:0.47781 2:0.153341 
-1 1:0.397524 2:0.441607 
-0.826236420719033 1:0.4612 2:0.0193706 
-1 1:0.439226 2:0.361839 
-1 1:0.0152283 2:0.924369 
-1 1:0.359844 2:0.557247 
-1 1:0.427542 2:0.299616 
-1 1:0.441195 2:0.461317 
-1 1:0.474085 2:0.191043 
-1 1:0.45257 2:0.104136 
-1 1:0.326971 2:0.520569 
-1 1:0.416416 2:0.251844 
-1 1:0.652687 2:0.0819915 
-1 1:0.325924 2:0.646705 
-1 1:0.539149 2:0.284876 
-1 1:0.308789 2:0.620014 
-1 1:0.170745 2:0.72621 
-1 1:0.164169 2:0.80635 
-1 1:0.317835 2:0.611696 
