svm_type c_svc
kernel_type polynomial
degree 3
gamma 0.5
coef0 0
nr_class 2
total_sv 13
rho 6.0951
label 1 -1
nr_sv 7 6
SV
297.2671001917669 1:0.587485 2:0.3271 
1000 1:0.331592 2:0.699664 
114.9985503029951 1:0.688588 2:0.0422769 
1000 1:0.621426 2:0.190451 
760.992634260405 1:0.259328 2:0.827479 
1000 1:0.683874 2:0.0509851 
1000 1:0.538754 2:0.351994 
-1000 1:0.582293 2:0.171157 
-1000 1:0.255547 2:0.777234 
-173.2582847551671 1:0.441195 2:0.461317 
-1000 1:0.652687 2:0.0819915 
-1000 1:0.325924 2:0.646705 
-1000 1:0.539149 2:0.284876 
