svm_type nu_svc
kernel_type rbf
gamma 0.1
nr_class 2
total_sv 12
rho -50.4163
label 1 -1
nr_sv 7 5
SV
1389.638472440894 1:0.331592 2:0.699664 
428.2833298299622 1:0.688588 2:0.0422769 
615.5973547682046 1:0.621426 2:0.190451 
868.7259957954552 1:0.259328 2:0.827479 
271.7756674298736 1:0.683874 2:0.0509851 
2722.149754376199 1:0.538754 2:0.351994 
1870.278688488009 1:0.709894 2:0.0110853 
-1482.550278948561 1:0.582293 2:0.171157 
-601.6283829699087 1:0.255547 2:0.777234 
-2501.881892496073 1:0.441195 2:0.461317 
-858.2389543378563 1:0.652687 2:0.0819915 
-2722.149754376199 1:0.539149 2:0.284876 
