svm_type nu_svc
kernel_type rbf
gamma 1
nr_class 2
total_sv 8
rho -1.46057
label 1 -1
nr_sv 4 4
SV
422.1480554589162 1:0.331592 2:0.699664 
435.2349986317 1:0.621426 2:0.190451 
301.2242268700048 1:0.683874 2:0.0509851 
382.1342502794703 1:0.538754 2:0.351994 
-253.7386595982512 1:0.255547 2:0.777234 
-313.9558281956264 1:0.441195 2:0.461317 
-513.5805104133639 1:0.652687 2:0.0819915 
-459.4665330328502 1:0.539149 2:0.284876 
