svm_type c_svc
kernel_type polynomial
degree 3
gamma 0.5
coef0 0
nr_class 2
total_sv 26
rho 2.88022
label 1 -1
nr_sv 13 13
SV
100 1:0.587485 2:0.3271 
100 1:0.331592 2:0.699664 
100 1:0.688588 2:0.0422769 
100 1:0.621426 2:0.190451 
100 1:0.259328 2:0.827479 
26.58069316533618 1:0.548927 2:0.484828 
100 1:0.373497 2:0.718948 
100 1:0.683874 2:0.0509851 
100 1:0.538754 2:0.351994 
100 1:0.24559 2:0.901946 
99.09820511570179 1:0.709894 2:0.0110853 
100 1:0.508866 2:0.529891 
57.77496635685761 1:0.262137 2:0.898459 
-100 1:0.582293 2:0.171157 
-100 1:0.528171 2:0.262023 
-100 1:0.255547 2:0.777234 
-26.98364054600592 1:0.397524 2:0.441607 
-56.47022409188964 1:0.0152283 2:0.924369 
-100 1:0.359844 2:0.557247 
-100 1:0.441195 2:0.461317 
-100 1:0.652687 2:0.0819915 
-100 1:0.325924 2:0.646705 
-100 1:0.539149 2:0.284876 
-100 1:0.308789 2:0.620014 
-100 1:0.164169 2:0.80635 
-100 1:0.317835 2:0.611696 
