svm_type c_svc
kernel_type rbf
gamma 10
nr_class 2
total_sv 9
rho -1.98141
label 1 -1
nr_sv 4 5
SV
65.3381182564387 1:0.331592 2:0.699664 
120.6001460831734 1:0.621426 2:0.190451 
60.19442511293733 1:0.259328 2:0.827479 
179.4622497791215 1:0.683874 2:0.0509851 
-96.11961925495581 1:0.255547 2:0.777234 
-0.3120172686420922 1:0.0713751 2:0.089737 
-263.5410004585209 1:0.652687 2:0.0819915 
-28.4872712211217 1:0.325924 2:0.646705 
-37.13503102843031 1:0.539149 2:0.284876 
