svm_type nu_svc
kernel_type rbf
gamma 100
nr_class 2
total_sv 75
rho -0.132299
label 1 -1
nr_sv 43 32
SV
0.6167381851552791 1:0.587485 2:0.3271 
0.576506851094688 1:0.953331 2:0.853663 
0.1774987684711909 1:0.687384 2:0.350705 
0.3088012261448509 1:0.682025 2:0.978096 
0.007248717080743219 1:0.684747 2:0.539404 
0.5910082279714758 1:0.948912 2:0.543304 
0.4499272826844646 1:0.795785 2:0.175245 
0.5789929833638545 1:0.752333 2:0.980945 
2.141951762658811 1:0.331592 2:0.699664 
0.1715326298561517 1:0.735853 2:0.802134 
0.2360025106312613 1:0.892803 2:0.867032 
0.05149684501320629 1:0.625551 2:0.458324 
0.0938500106308474 1:0.554029 2:0.904999 
0.3991391812237563 1:0.471682 2:0.722169 
0.3011600384298737 1:0.72906 2:0.852625 
0.3176809410554348 1:0.492574 2:0.97895 
2.141951762658811 1:0.621426 2:0.190451 
0.5785854094995743 1:0.938545 2:0.0739513 
0.4586182155091313 1:0.68019 2:0.723895 
2.141951762658811 1:0.259328 2:0.827479 
0.604124269975717 1:0.868737 2:0.760933 
0.4750800261545901 1:0.456044 2:0.959968 
0.08950939355975342 1:0.373497 2:0.718948 
0.2899467185177589 1:0.886067 2:0.270002 
1.964129230764474 1:0.683874 2:0.0509851 
0.4113198208922913 1:0.444872 2:0.808685 
0.4683664494594383 1:0.597291 2:0.898693 
0.3143744020671095 1:0.963846 2:0.147708 
0.4295041332726243 1:0.636874 2:0.627139 
2.141951762658811 1:0.538754 2:0.351994 
0.2334647134299131 1:0.496956 2:0.616187 
0.6044650371744933 1:0.813082 2:0.565202 
0.4241894036255098 1:0.909509 2:0.394862 
0.4239694567266074 1:0.945663 2:0.247154 
0.2950864223107662 1:0.24559 2:0.901946 
0.4650614773170333 1:0.811833 2:0.00382725 
0.5369115246854512 1:0.998751 2:0.438626 
0.0902305799420412 1:0.846334 2:0.194655 
0.1594299369743511 1:0.672827 2:0.79192 
0.5969023325525469 1:0.763318 2:0.397059 
1.250209644157573 1:0.508866 2:0.529891 
0.4577392776255229 1:0.697033 2:0.526064 
0.6368118262691405 1:0.698282 2:0.0874383 
-2.114873273801547 1:0.582293 2:0.171157 
-2.141951762658811 1:0.255547 2:0.777234 
-0.3024100127968471 1:0.0344166 2:0.875909 
-0.6987820835916791 1:0.213116 2:0.136955 
-0.8721776412472183 1:0.4612 2:0.0193706 
-0.03948937988516631 1:0.338329 2:0.360527 
-0.8315536735140241 1:0.439226 2:0.361839 
-0.8672153155608816 1:0.0152283 2:0.924369 
-0.4369060281022871 1:0.207535 2:0.524303 
-0.3765895668730423 1:0.252648 2:0.424279 
-0.243923209780999 1:0.359844 2:0.557247 
-0.4975820937029966 1:0.133353 2:0.361643 
-0.3910007812618807 1:0.067698 2:0.742369 
-0.1499102454742648 1:0.170353 2:0.67528 
-0.4499546086437881 1:0.125599 2:0.583567 
-0.1271551456888058 1:0.187054 2:0.509616 
-1.436371533874704 1:0.441195 2:0.461317 
-0.5839107107631099 1:0.0707422 2:0.666653 
-0.3995719877146364 1:0.45257 2:0.104136 
-0.1071536542758241 1:0.303732 2:0.515764 
-0.8011754463707662 1:0.139918 2:0.0109527 
-0.6821362253020348 1:0.0713751 2:0.089737 
-0.5168021887673452 1:0.416416 2:0.251844 
-0.4108107483853913 1:0.293559 2:0.38293 
-2.141951762658811 1:0.652687 2:0.0819915 
-2.141951762658811 1:0.325924 2:0.646705 
-0.3401113936446013 1:0.13644 2:0.183569 
-2.141951762658811 1:0.539149 2:0.284876 
-0.86278845629829 1:0.0541489 2:0.467961 
-0.685366556841438 1:0.218318 2:0.274311 
-0.9735888146820931 1:0.164169 2:0.80635 
-0.9363033244248287 1:0.0254552 2:0.295518 
