svm_type c_svc
kernel_type rbf
gamma 10
nr_class 2
total_sv 20
rho -0.322333
label 1 -1
nr_sv 10 10
SV
5.302341269070252 1:0.587485 2:0.3271 
0.4060932294337828 1:0.953331 2:0.853663 
10 1:0.331592 2:0.699664 
0.5693702986877809 1:0.688588 2:0.0422769 
10 1:0.621426 2:0.190451 
10 1:0.259328 2:0.827479 
3.649206984690842 1:0.373497 2:0.718948 
10 1:0.683874 2:0.0509851 
10 1:0.538754 2:0.351994 
0.7744518973303059 1:0.508866 2:0.529891 
-10 1:0.582293 2:0.171157 
-1.178361427840047 1:0.528171 2:0.262023 
-10 1:0.255547 2:0.777234 
-0.3637318370646571 1:0.0152283 2:0.924369 
-5.13057672842508 1:0.441195 2:0.461317 
-0.4282140978577034 1:0.0713751 2:0.089737 
-10 1:0.652687 2:0.0819915 
-10 1:0.325924 2:0.646705 
-10 1:0.539149 2:0.284876 
-3.600579588025473 1:0.164169 2:0.80635 
