svm_type nu_svc
kernel_type rbf
gamma 10
nr_class 2
total_sv 9
rho -1.75851
label 1 -1
nr_sv 5 4
SV
37.10648230232165 1:0.331592 2:0.699664 
89.01358121012946 1:0.621426 2:0.190451 
52.33988401748753 1:0.259328 2:0.827479 
124.984039405385 1:0.683874 2:0.0509851 
62.0403840846393 1:0.538754 2:0.351994 
-81.63073955675225 1:0.255547 2:0.777234 
-25.14978866074197 1:0.441195 2:0.461317 
-181.998074684264 1:0.652687 2:0.0819915 
-76.70576811820476 1:0.539149 2:0.284876 
