svm_type nu_svc
kernel_type rbf
gamma 100
nr_class 2
total_sv 69
rho -0.138835
label 1 -1
nr_sv 40 29
SV
0.4431689662769359 1:0.587485 2:0.3271 
0.5703241440619283 1:0.953331 2:0.853663 
0.0508317968444544 1:0.687384 2:0.350705 
0.2997047771347983 1:0.682025 2:0.978096 
0.1663147306924136 1:0.684747 2:0.539404 
0.5879048501720652 1:0.948912 2:0.543304 
0.2082936251818487 1:0.701245 2:0.524248 
0.57781950300246 1:0.752333 2:0.980945 
5.963835554751704 1:0.331592 2:0.699664 
0.1644392385340231 1:0.735853 2:0.802134 
0.2324387342877778 1:0.892803 2:0.867032 
0.176346033825721 1:0.471682 2:0.722169 
0.1201079867622497 1:0.507802 2:0.903319 
0.3029029026342434 1:0.72906 2:0.852625 
0.3045046196422756 1:0.492574 2:0.97895 
5.916630697855109 1:0.621426 2:0.190451 
0.6389323821721354 1:0.938545 2:0.0739513 
0.4832294205705135 1:0.68019 2:0.723895 
5.505984375552433 1:0.259328 2:0.827479 
0.602381586064494 1:0.868737 2:0.760933 
0.4531026754268074 1:0.456044 2:0.959968 
0.2128980546111427 1:0.886067 2:0.270002 
5.212667146956612 1:0.683874 2:0.0509851 
0.2331287898039568 1:0.444872 2:0.808685 
0.5118538369717106 1:0.597291 2:0.898693 
0.251596780006504 1:0.963846 2:0.147708 
0.3961004898056712 1:0.636874 2:0.627139 
3.146726885470466 1:0.538754 2:0.351994 
0.3215532335700358 1:0.496956 2:0.616187 
0.597168959204541 1:0.813082 2:0.565202 
0.4226456667816478 1:0.909509 2:0.394862 
0.4198289383685955 1:0.945663 2:0.247154 
0.043389920280706 1:0.811833 2:0.00382725 
0.5366319114566405 1:0.998751 2:0.438626 
0.4144581904882944 1:0.846334 2:0.194655 
0.1390089991324626 1:0.672827 2:0.79192 
0.6579752906842318 1:0.763318 2:0.397059 
1.215999249378093 1:0.508866 2:0.529891 
0.1100882362572579 1:0.697033 2:0.526064 
1.698461883565638 1:0.698282 2:0.0874383 
-3.959948021860658 1:0.582293 2:0.171157 
-6.440711631722058 1:0.255547 2:0.777234 
-0.387580499462708 1:0.0344166 2:0.875909 
-0.7064040778205305 1:0.213116 2:0.136955 
-0.8853172548699871 1:0.4612 2:0.0193706 
-0.05009874569490955 1:0.338329 2:0.360527 
-0.9606574005763171 1:0.439226 2:0.361839 
-0.8180131711639926 1:0.0152283 2:0.924369 
-0.05425819762544426 1:0.207535 2:0.524303 
-0.4472026713793539 1:0.252648 2:0.424279 
-0.4827904362987968 1:0.133353 2:0.361643 
-0.4367329603845671 1:0.067698 2:0.742369 
-0.4705871843424056 1:0.125599 2:0.583567 
-0.456728819881507 1:0.187054 2:0.509616 
-1.519173668598091 1:0.441195 2:0.461317 
-0.6039626435301721 1:0.0707422 2:0.666653 
-0.2057986023328189 1:0.45257 2:0.104136 
-0.7980431564361427 1:0.139918 2:0.0109527 
-0.6944210985946258 1:0.0713751 2:0.089737 
-0.2944214016152253 1:0.416416 2:0.251844 
-0.3755519522715264 1:0.293559 2:0.38293 
-7.341671759436052 1:0.652687 2:0.0819915 
-5.053457522564031 1:0.325924 2:0.646705 
-0.3378954937918715 1:0.13644 2:0.183569 
-3.464074553777843 1:0.539149 2:0.284876 
-0.8470638655311159 1:0.0541489 2:0.467961 
-0.6975817547433582 1:0.218318 2:0.274311 
-0.5729532869376275 1:0.164169 2:0.80635 
-0.9482792309968601 1:0.0254552 2:0.295518 
