svm_type c_svc
kernel_type rbf
gamma 1
nr_class 2
total_sv 7
rho -2.4745
label 1 -1
nr_sv 4 3
SV
494.1202396006274 1:0.331592 2:0.699664 
224.9137259022993 1:0.621426 2:0.190451 
523.8386567098171 1:0.259328 2:0.827479 
774.0545560613245 1:0.683874 2:0.0509851 
-939.7457135041878 1:0.255547 2:0.777234 
-77.18146476988088 1:0.441195 2:0.461317 
-1000 1:0.652687 2:0.0819915 
