svm_type c_svc
kernel_type rbf
gamma 0.1
nr_class 2
total_sv 12
rho -19.7845
label 1 -1
nr_sv 6 6
SV
1000 1:0.331592 2:0.699664 
459.4983104203026 1:0.688588 2:0.0422769 
1000 1:0.621426 2:0.190451 
1000 1:0.259328 2:0.827479 
1000 1:0.683874 2:0.0509851 
1000 1:0.538754 2:0.351994 
-1000 1:0.582293 2:0.171157 
-1000 1:0.255547 2:0.777234 
-1000 1:0.441195 2:0.461317 
-1000 1:0.652687 2:0.0819915 
-459.4983104203026 1:0.325924 2:0.646705 
-1000 1:0.539149 2:0.284876 
