svm_type nu_svc
kernel_type linear
nr_class 2
total_sv 24
rho 7.47916
label 1 -1
nr_sv 12 12
SV
17.51129724155868 1:0.587485 2:0.3271 
17.51129724155868 1:0.331592 2:0.699664 
17.51129724155868 1:0.688588 2:0.0422769 
17.51129724155868 1:0.621426 2:0.190451 
17.51129724155868 1:0.259328 2:0.827479 
17.51129724155868 1:0.373497 2:0.718948 
17.51129724155868 1:0.683874 2:0.0509851 
17.51129724155868 1:0.538754 2:0.351994 
17.51129724155868 1:0.24559 2:0.901946 
17.51129724155868 1:0.709894 2:0.0110853 
17.51129724155868 1:0.508866 2:0.529891 
17.51129724155868 1:0.262137 2:0.898459 
-17.51129724155868 1:0.582293 2:0.171157 
-17.51129724155868 1:0.528171 2:0.262023 
-17.51129724155868 1:0.255547 2:0.777234 
-17.51129724155868 1:0.397524 2:0.441607 
-17.51129724155868 1:0.439226 2:0.361839 
-17.51129724155868 1:0.359844 2:0.557247 
-17.51129724155868 1:0.441195 2:0.461317 
-17.51129724155868 1:0.652687 2:0.0819915 
-17.51129724155868 1:0.325924 2:0.646705 
-17.51129724155868 1:0.539149 2:0.284876 
-17.51129724155868 1:0.308789 2:0.620014 
-17.51129724155868 1:0.317835 2:0.611696 
