svm_type nu_svc
kernel_type linear
nr_class 2
total_sv 61
rho 2.74648
label 1 -1
nr_sv 31 30
SV
0.7728619387003934 1:0.587485 2:0.3271 
0.7728619387003934 1:0.528369 2:0.59755 
0.7728619387003934 1:0.687384 2:0.350705 
0.7728619387003934 1:0.61064 2:0.578562 
0.7728619387003934 1:0.795785 2:0.175245 
0.7728619387003934 1:0.610323 2:0.533955 
0.7728619387003934 1:0.331592 2:0.699664 
0.7728619387003934 1:0.688588 2:0.0422769 
0.7728619387003934 1:0.625551 2:0.458324 
0.7728619387003934 1:0.471682 2:0.722169 
0.03328047369207784 1:0.507802 2:0.903319 
0.7728619387003934 1:0.621426 2:0.190451 
0.7728619387003934 1:0.259328 2:0.827479 
0.7728619387003934 1:0.618172 2:0.562517 
0.7728619387003934 1:0.548927 2:0.484828 
0.7728619387003934 1:0.456044 2:0.959968 
0.7728619387003934 1:0.373497 2:0.718948 
0.7728619387003934 1:0.754805 2:0.0309356 
0.7728619387003934 1:0.683874 2:0.0509851 
0.7728619387003934 1:0.444872 2:0.808685 
0.7728619387003934 1:0.487158 2:0.918496 
0.7728619387003934 1:0.538754 2:0.351994 
0.7728619387003934 1:0.496956 2:0.616187 
0.7728619387003934 1:0.24559 2:0.901946 
0.7728619387003934 1:0.811833 2:0.00382725 
0.7728619387003934 1:0.709894 2:0.0110853 
0.7395814650083157 1:0.817655 2:0.149905 
0.7728619387003934 1:0.508866 2:0.529891 
0.7728619387003934 1:0.698282 2:0.0874383 
0.7728619387003934 1:0.607941 2:0.60061 
0.7728619387003934 1:0.262137 2:0.898459 
-0.7728619387003934 1:0.582293 2:0.171157 
-0.7728619387003934 1:0.528171 2:0.262023 
-0.7728619387003934 1:0.255547 2:0.777234 
-0.7728619387003934 1:0.504067 2:0.0601133 
-0.7728619387003934 1:0.420741 2:0.28128 
-0.7728619387003934 1:0.47781 2:0.153341 
-0.7728619387003934 1:0.397524 2:0.441607 
-0.7728619387003934 1:0.4612 2:0.0193706 
-0.7728619387003934 1:0.346493 2:0.380695 
-0.7728619387003934 1:0.338329 2:0.360527 
-0.7728619387003934 1:0.439226 2:0.361839 
-0.7728619387003934 1:0.207535 2:0.524303 
-0.7728619387003934 1:0.252648 2:0.424279 
-0.7728619387003934 1:0.359844 2:0.557247 
-0.7728619387003934 1:0.427542 2:0.299616 
-0.7728619387003934 1:0.170353 2:0.67528 
-0.7728619387003934 1:0.441195 2:0.461317 
-0.7728619387003934 1:0.474085 2:0.191043 
-0.7728619387003934 1:0.45257 2:0.104136 
-0.7728619387003934 1:0.303732 2:0.515764 
-0.7728619387003934 1:0.326971 2:0.520569 
-0.7728619387003934 1:0.416416 2:0.251844 
-0.7728619387003934 1:0.293559 2:0.38293 
-0.7728619387003934 1:0.652687 2:0.0819915 
-0.7728619387003934 1:0.325924 2:0.646705 
-0.7728619387003934 1:0.539149 2:0.284876 
-0.7728619387003934 1:0.308789 2:0.620014 
-0.7728619387003934 1:0.170745 2:0.72621 
-0.7728619387003934 1:0.164169 2:0.80635 
-0.7728619387003934 1:0.317835 2:0.611696 
