svm_type nu_svc
kernel_type rbf
gamma 100
nr_class 2
total_sv 33
rho -0.14414
label 1 -1
nr_sv 18 15
SV
0.6980097117537356 1:0.587485 2:0.3271 
0.645488134396748 1:0.953331 2:0.853663 
0.5093247177672254 1:0.752333 2:0.980945 
3.895325625140642 1:0.331592 2:0.699664 
0.9599785790321076 1:0.492574 2:0.97895 
6.700910465281082 1:0.621426 2:0.190451 
0.9039558167514685 1:0.73101 2:0.549648 
3.636030070676104 1:0.259328 2:0.827479 
0.9853687886635688 1:0.868737 2:0.760933 
0.6415123156862629 1:0.886067 2:0.270002 
6.061161755880338 1:0.683874 2:0.0509851 
0.9238734880987288 1:0.963846 2:0.147708 
3.635652600077811 1:0.538754 2:0.351994 
0.9971828096595641 1:0.998751 2:0.438626 
0.7351547530941213 1:0.672827 2:0.79192 
0.7111796618786763 1:0.763318 2:0.397059 
1.411878564201623 1:0.508866 2:0.529891 
1.991042387144254 1:0.698282 2:0.0874383 
-1.505407685911794 1:0.145628 2:0.107693 
-4.554621166910512 1:0.582293 2:0.171157 
-4.715437232470523 1:0.255547 2:0.777234 
-1.509525176609309 1:0.0344166 2:0.875909 
-0.7259712870171274 1:0.4612 2:0.0193706 
-0.894794360219385 1:0.191559 2:0.342783 
-1.159022251219225 1:0.439226 2:0.361839 
-0.6479595657673622 1:0.207535 2:0.524303 
-1.910560632276219 1:0.441195 2:0.461317 
-1.074324121837501 1:0.0707422 2:0.666653 
-8.841842360100692 1:0.652687 2:0.0819915 
-2.900444934550141 1:0.325924 2:0.646705 
-3.875643351338057 1:0.539149 2:0.284876 
-0.9553733661151973 1:0.0541489 2:0.467961 
-0.7721027528410186 1:0.0254552 2:0.295518 
