svm_type c_svc
kernel_type rbf
gamma 1
nr_class 2
total_sv 12
rho -2.85569
label 1 -1
nr_sv 6 6
SV
17.12803765767505 1:0.587485 2:0.3271 
100 1:0.331592 2:0.699664 
100 1:0.621426 2:0.190451 
85.28719350835574 1:0.259328 2:0.827479 
99.9141236481082 1:0.683874 2:0.0509851 
100 1:0.538754 2:0.351994 
-100 1:0.582293 2:0.171157 
-100 1:0.255547 2:0.777234 
-2.329354814139007 1:0.0152283 2:0.924369 
-100 1:0.652687 2:0.0819915 
-100 1:0.325924 2:0.646705 
-100 1:0.539149 2:0.284876 
