svm_type nu_svc
kernel_type rbf
gamma 1
nr_class 2
total_sv 25
rho -1.32503
label 1 -1
nr_sv 12 13
SV
7.608365550192612 1:0.587485 2:0.3271 
7.608365550192612 1:0.331592 2:0.699664 
7.608365550192612 1:0.688588 2:0.0422769 
7.608365550192612 1:0.621426 2:0.190451 
7.608365550192612 1:0.259328 2:0.827479 
7.608365550192612 1:0.548927 2:0.484828 
7.608365550192612 1:0.373497 2:0.718948 
7.608365550192612 1:0.683874 2:0.0509851 
7.608365550192612 1:0.538754 2:0.351994 
7.608365550192612 1:0.24559 2:0.901946 
7.608365550192612 1:0.508866 2:0.529891 
7.608365550192612 1:0.262137 2:0.898459 
-7.608365550192612 1:0.582293 2:0.171157 
-7.608365550192612 1:0.528171 2:0.262023 
-7.608365550192612 1:0.255547 2:0.777234 
-5.305787956866589 1:0.504067 2:0.0601133 
-3.430064239426613 1:0.0152283 2:0.924369 
-7.608365550192612 1:0.359844 2:0.557247 
-7.608365550192612 1:0.441195 2:0.461317 
-7.608365550192612 1:0.652687 2:0.0819915 
-7.608365550192612 1:0.325924 2:0.646705 
-7.608365550192612 1:0.539149 2:0.284876 
-6.48087890409202 1:0.308789 2:0.620014 
-7.608365550192612 1:0.164169 2:0.80635 
-7.608365550192612 1:0.317835 2:0.611696 
