svm_type nu_svc
kernel_type polynomial
degree 3
gamma 0.5
coef0 0
nr_class 2
total_sv 2
rho 1.03883
label 1 -1
nr_sv 1 1
SV
179.8998207961653 1:0.587485 2:0.3271 
-179.8998207961653 1:0.145628 2:0.107693 
