svm_type nu_svc
kernel_type polynomial
degree 3
gamma 0.5
coef0 0
nr_class 2
total_sv 2
rho 6.75553
label 1 -1
nr_sv 1 1
SV
2635.264523056444 1:0.587485 2:0.3271 
-2635.264523056444 1:0.539149 2:0.284876 
