svm_type c_svc
kernel_type rbf
gamma 0.01
nr_class 2
total_sv 114
rho -0.801294
label 1 -1
nr_sv 57 57
SV
1 1:0.587485 2:0.3271 
1 1:0.528369 2:0.59755 
1 1:0.687384 2:0.350705 
1 1:0.682025 2:0.978096 
1 1:0.684747 2:0.539404 
1 1:0.61064 2:0.578562 
1 1:0.795785 2:0.175245 
1 1:0.701245 2:0.524248 
1 1:0.712777 2:0.902203 
1 1:0.752333 2:0.980945 
1 1:0.610323 2:0.533955 
1 1:0.331592 2:0.699664 
1 1:0.688588 2:0.0422769 
1 1:0.735853 2:0.802134 
1 1:0.625551 2:0.458324 
1 1:0.554029 2:0.904999 
1 1:0.941236 2:0.466556 
1 1:0.471682 2:0.722169 
1 1:0.507802 2:0.903319 
1 1:0.72906 2:0.852625 
1 1:0.492574 2:0.97895 
1 1:0.621426 2:0.190451 
1 1:0.938545 2:0.0739513 
1 1:0.68019 2:0.723895 
1 1:0.73101 2:0.549648 
1 1:0.259328 2:0.827479 
1 1:0.899412 2:0.527905 
1 1:0.618172 2:0.562517 
1 1:0.548927 2:0.484828 
1 1:0.456044 2:0.959968 
1 1:0.373497 2:0.718948 
1 1:0.754805 2:0.0309356 
1 1:0.886067 2:0.270002 
1 1:0.683874 2:0.0509851 
1 1:0.444872 2:0.808685 
1 1:0.487158 2:0.918496 
1 1:0.597291 2:0.898693 
1 1:0.963846 2:0.147708 
1 1:0.636874 2:0.627139 
1 1:0.538754 2:0.351994 
1 1:0.496956 2:0.616187 
1 1:0.813082 2:0.565202 
1 1:0.909509 2:0.394862 
1 1:0.945663 2:0.247154 
1 1:0.24559 2:0.901946 
1 1:0.706836 2:0.549952 
1 1:0.811833 2:0.00382725 
1 1:0.846334 2:0.194655 
1 1:0.672827 2:0.79192 
1 1:0.709894 2:0.0110853 
1 1:0.763318 2:0.397059 
1 1:0.817655 2:0.149905 
1 1:0.508866 2:0.529891 
1 1:0.697033 2:0.526064 
1 1:0.698282 2:0.0874383 
1 1:0.607941 2:0.60061 
1 1:0.262137 2:0.898459 
-1 1:0.145628 2:0.107693 
-1 1:0.582293 2:0.171157 
-1 1:0.528171 2:0.262023 
-1 1:0.255547 2:0.777234 
-1 1:0.0344166 2:0.875909 
-1 1:0.504067 2:0.0601133 
-1 1:0.213116 2:0.136955 
-1 1:0.0945403 2:0.650997 
-1 1:0.102454 2:0.368248 
-1 1:0.420741 2:0.28128 
-1 1:0.149123 2:0.514584 
-1 1:0.165194 2:0.504046 
-1 1:0.114707 2:0.638675 
-1 1:0.47781 2:0.153341 
-1 1:0.397524 2:0.441607 
-1 1:0.4612 2:0.0193706 
-1 1:0.166398 2:0.195618 
-1 1:0.346493 2:0.380695 
-1 1:0.338329 2:0.360527 
-1 1:0.191559 2:0.342783 
-1 1:0.439226 2:0.361839 
-1 1:0.0152283 2:0.924369 
-1 1:0.107634 2:0.662174 
-1 1:0.207535 2:0.524303 
-1 1:0.252648 2:0.424279 
-1 1:0.359844 2:0.557247 
-1 1:0.133353 2:0.361643 
-1 1:0.168286 2:0.214464 
-1 1:0.427542 2:0.299616 
-1 1:0.067698 2:0.742369 
-1 1:0.125974 2:0.465836 
-1 1:0.170353 2:0.67528 
-1 1:0.125599 2:0.583567 
-1 1:0.187054 2:0.509616 
-1 1:0.441195 2:0.461317 
-1 1:0.196716 2:0.132489 
-1 1:0.0707422 2:0.666653 
-1 1:0.474085 2:0.191043 
-1 1:0.45257 2:0.104136 
-1 1:0.303732 2:0.515764 
-1 1:0.326971 2:0.520569 
-1 1:0.139918 2:0.0109527 
-1 1:0.0713751 2:0.089737 
-1 1:0.416416 2:0.251844 
-1 1:0.293559 2:0.38293 
-1 1:0.652687 2:0.0819915 
-1 1:0.207815 2:0.273306 
-1 1:0.325924 2:0.646705 
-1 1:0.13644 2:0.183569 
-1 1:0.539149 2:0.284876 
-1 1:0.308789 2:0.620014 
-1 1:0.0541489 2:0.467961 
-1 1:0.170745 2:0.72621 
-1 1:0.218318 2:0.274311 
-1 1:0.164169 2:0.80635 
-1 1:0.317835 2:0.611696 
-1 1:0.0254552 2:0.295518 
