svm_type c_svc
kernel_type rbf
gamma 100
nr_class 2
total_sv 68
rho -0.13862
label 1 -1
nr_sv 39 29
SV
0.481251707045957 1:0.587485 2:0.3271 
0.5720741694075684 1:0.953331 2:0.853663 
0.03548467797193004 1:0.687384 2:0.350705 
0.3041292662739343 1:0.682025 2:0.978096 
0.02951212722859478 1:0.684747 2:0.539404 
0.5865300203488324 1:0.948912 2:0.543304 
0.5765128861363066 1:0.752333 2:0.980945 
5.98453202163908 1:0.331592 2:0.699664 
0.1695074254232516 1:0.735853 2:0.802134 
0.234566785948866 1:0.892803 2:0.867032 
0.1697975014944457 1:0.471682 2:0.722169 
0.1284035097457287 1:0.507802 2:0.903319 
0.2975377963335702 1:0.72906 2:0.852625 
0.3126073555760474 1:0.492574 2:0.97895 
5.887989746867616 1:0.621426 2:0.190451 
0.6499177826611919 1:0.938545 2:0.0739513 
0.4641386430476169 1:0.68019 2:0.723895 
5.523563479453651 1:0.259328 2:0.827479 
0.6002334782130839 1:0.868737 2:0.760933 
0.4354518649466635 1:0.456044 2:0.959968 
0.1965997230574103 1:0.886067 2:0.270002 
5.218420776356822 1:0.683874 2:0.0509851 
0.2396752496470993 1:0.444872 2:0.808685 
0.499480042505857 1:0.597291 2:0.898693 
0.2370921254561973 1:0.963846 2:0.147708 
0.4134967797782581 1:0.636874 2:0.627139 
3.117693345992325 1:0.538754 2:0.351994 
0.3275637714219038 1:0.496956 2:0.616187 
0.5941978932521602 1:0.813082 2:0.565202 
0.4281907922368758 1:0.909509 2:0.394862 
0.437446800126407 1:0.945663 2:0.247154 
0.03496946207838476 1:0.811833 2:0.00382725 
0.5312564259790308 1:0.998751 2:0.438626 
0.4250809647617344 1:0.846334 2:0.194655 
0.1546499658592287 1:0.672827 2:0.79192 
0.6579008766876037 1:0.763318 2:0.397059 
1.20877963828159 1:0.508866 2:0.529891 
0.4528026789743704 1:0.697033 2:0.526064 
1.715017823831539 1:0.698282 2:0.0874383 
-3.931964557593969 1:0.582293 2:0.171157 
-6.46307147967322 1:0.255547 2:0.777234 
-0.3824098036647507 1:0.0344166 2:0.875909 
-0.7046785377487639 1:0.213116 2:0.136955 
-0.8763559070495925 1:0.4612 2:0.0193706 
-0.07910072245884113 1:0.338329 2:0.360527 
-0.9383608255470396 1:0.439226 2:0.361839 
-0.8220114003401631 1:0.0152283 2:0.924369 
-0.05626232429347372 1:0.207535 2:0.524303 
-0.4761193010396205 1:0.252648 2:0.424279 
-0.4797102737445459 1:0.133353 2:0.361643 
-0.4546707088797521 1:0.067698 2:0.742369 
-0.4852591113983408 1:0.125599 2:0.583567 
-0.4453026461882447 1:0.187054 2:0.509616 
-1.521718565516814 1:0.441195 2:0.461317 
-0.5852979556525093 1:0.0707422 2:0.666653 
-0.2129154042052763 1:0.45257 2:0.104136 
-0.8061027397406768 1:0.139918 2:0.0109527 
-0.686280266223169 1:0.0713751 2:0.089737 
-0.2946937250670488 1:0.416416 2:0.251844 
-0.332893861477989 1:0.293559 2:0.38293 
-7.364491906303436 1:0.652687 2:0.0819915 
-5.067656101506211 1:0.325924 2:0.646705 
-0.3390873935683432 1:0.13644 2:0.183569 
-3.473509382421029 1:0.539149 2:0.284876 
-0.846262211732958 1:0.0541489 2:0.467961 
-0.6986282717981466 1:0.218318 2:0.274311 
-0.5623555224686313 1:0.164169 2:0.80635 
-0.9468864747461796 1:0.0254552 2:0.295518 
