svm_type c_svc
kernel_type linear
nr_class 2
total_sv 29
rho 6.35637
label 1 -1
nr_sv 15 14
SV
10 1:0.587485 2:0.3271 
10 1:0.331592 2:0.699664 
10 1:0.688588 2:0.0422769 
10 1:0.621426 2:0.190451 
10 1:0.259328 2:0.827479 
7.051387354021627 1:0.548927 2:0.484828 
10 1:0.373497 2:0.718948 
10 1:0.683874 2:0.0509851 
10 1:0.538754 2:0.351994 
2.948612645978373 1:0.496956 2:0.616187 
10 1:0.24559 2:0.901946 
10 1:0.709894 2:0.0110853 
10 1:0.508866 2:0.529891 
10 1:0.698282 2:0.0874383 
10 1:0.262137 2:0.898459 
-10 1:0.582293 2:0.171157 
-10 1:0.528171 2:0.262023 
-10 1:0.255547 2:0.777234 
-10 1:0.397524 2:0.441607 
-10 1:0.439226 2:0.361839 
-10 1:0.359844 2:0.557247 
-10 1:0.427542 2:0.299616 
-10 1:0.441195 2:0.461317 
-10 1:0.474085 2:0.191043 
-10 1:0.652687 2:0.0819915 
-10 1:0.325924 2:0.646705 
-10 1:0.539149 2:0.284876 
-10 1:0.308789 2:0.620014 
-10 1:0.317835 2:0.611696 
