svm_type nu_svc
kernel_type polynomial
degree 3
gamma 0.5
coef0 0
nr_class 2
total_sv 27
rho 2.77898
label 1 -1
nr_sv 14 13
SV
94.96574222367443 1:0.587485 2:0.3271 
94.96574222367443 1:0.331592 2:0.699664 
94.96574222367443 1:0.688588 2:0.0422769 
94.96574222367443 1:0.621426 2:0.190451 
94.96574222367443 1:0.259328 2:0.827479 
4.04022749569674 1:0.548927 2:0.484828 
94.96574222367443 1:0.373497 2:0.718948 
94.96574222367443 1:0.683874 2:0.0509851 
94.96574222367443 1:0.538754 2:0.351994 
94.96574222367443 1:0.24559 2:0.901946 
94.96574222367443 1:0.709894 2:0.0110853 
94.96574222367443 1:0.508866 2:0.529891 
14.57189888582243 1:0.698282 2:0.0874383 
76.35361584215525 1:0.262137 2:0.898459 
-94.96574222367443 1:0.582293 2:0.171157 
-94.96574222367443 1:0.528171 2:0.262023 
-94.96574222367443 1:0.255547 2:0.777234 
-23.68138439424355 1:0.397524 2:0.441607 
-71.28435782943087 1:0.0152283 2:0.924369 
-94.96574222367443 1:0.359844 2:0.557247 
-94.96574222367443 1:0.441195 2:0.461317 
-94.96574222367443 1:0.652687 2:0.0819915 
-94.96574222367443 1:0.325924 2:0.646705 
-94.96574222367443 1:0.539149 2:0.284876 
-94.96574222367443 1:0.308789 2:0.620014 
-94.96574222367443 1:0.164169 2:0.80635 
-94.96574222367443 1:0.317835 2:0.611696 
