svm_type c_svc
kernel_type rbf
gamma 10
nr_class 2
total_sv 10
rho -1.27269
label 1 -1
nr_sv 5 5
SV
55.23970493970194 1:0.331592 2:0.699664 
58.89113557253092 1:0.621426 2:0.190451 
64.48000932923837 1:0.259328 2:0.827479 
65.87926919171063 1:0.683874 2:0.0509851 
47.56417776723936 1:0.538754 2:0.351994 
-100 1:0.255547 2:0.777234 
-17.40264965826212 1:0.441195 2:0.461317 
-100 1:0.652687 2:0.0819915 
-13.82957801676461 1:0.325924 2:0.646705 
-60.82206912539455 1:0.539149 2:0.284876 
