svm_type nu_svc
kernel_type rbf
gamma 10
nr_class 2
total_sv 10
rho -1.18316
label 1 -1
nr_sv 5 5
SV
57.36147882862495 1:0.331592 2:0.699664 
59.54013088114948 1:0.621426 2:0.190451 
61.17313984051034 1:0.259328 2:0.827479 
62.71440001785519 1:0.683874 2:0.0509851 
48.3788178313313 1:0.538754 2:0.351994 
-95.81081480769809 1:0.255547 2:0.777234 
-15.79772422690331 1:0.441195 2:0.461317 
-96.38932246649044 1:0.652687 2:0.0819915 
-17.75306019327407 1:0.325924 2:0.646705 
-63.41704570510539 1:0.539149 2:0.284876 
