svm_type nu_svc
kernel_type rbf
gamma 1
nr_class 2
total_sv 7
rho -3.21305
label 1 -1
nr_sv 4 3
SV
137.7841889005397 1:0.587485 2:0.3271 
310.8827260419449 1:0.683874 2:0.0509851 
556.5371988430056 1:0.538754 2:0.351994 
67.90657004071284 1:0.709894 2:0.0110853 
-32.61541630934916 1:0.255547 2:0.777234 
-351.1865685387635 1:0.652687 2:0.0819915 
-689.3086989780907 1:0.539149 2:0.284876 
