svm_type nu_svc
kernel_type rbf
gamma 0.01
nr_class 2
total_sv 8
rho -100.827
label 1 -1
nr_sv 5 3
SV
36197.84810488837 1:0.587485 2:0.3271 
16519.50089943047 1:0.528369 2:0.59755 
6273.034090584253 1:0.688588 2:0.0422769 
13405.31311487364 1:0.24559 2:0.901946 
36197.84810488837 1:0.709894 2:0.0110853 
-36197.84810488837 1:0.582293 2:0.171157 
-36197.84810488837 1:0.528171 2:0.262023 
-36197.84810488837 1:0.441195 2:0.461317 
