svm_type c_svc
kernel_type rbf
gamma 100
nr_class 2
total_sv 78
rho -0.143173
label 1 -1
nr_sv 44 34
SV
1 1:0.587485 2:0.3271 
0.56933478980481 1:0.953331 2:0.853663 
0.1256837392073757 1:0.687384 2:0.350705 
0.3035215809010691 1:0.682025 2:0.978096 
0.5822943783579634 1:0.948912 2:0.543304 
0.5433717323978083 1:0.795785 2:0.175245 
0.573149649229861 1:0.752333 2:0.980945 
1 1:0.331592 2:0.699664 
0.03957095294204008 1:0.688588 2:0.0422769 
0.1690031153822842 1:0.735853 2:0.802134 
0.2328972748102665 1:0.892803 2:0.867032 
0.1144198835606107 1:0.625551 2:0.458324 
0.09475312607806566 1:0.554029 2:0.904999 
0.2879399108430624 1:0.471682 2:0.722169 
0.2974651664639295 1:0.72906 2:0.852625 
0.3149556647634294 1:0.492574 2:0.97895 
1 1:0.621426 2:0.190451 
0.5541764851538385 1:0.938545 2:0.0739513 
0.453880821329551 1:0.68019 2:0.723895 
1 1:0.259328 2:0.827479 
0.1337179535778656 1:0.548927 2:0.484828 
0.5963323375838409 1:0.868737 2:0.760933 
0.4662294101334571 1:0.456044 2:0.959968 
0.5130676271320641 1:0.373497 2:0.718948 
0.3069304427600055 1:0.886067 2:0.270002 
1 1:0.683874 2:0.0509851 
0.4162153813410545 1:0.444872 2:0.808685 
0.4616546652557199 1:0.597291 2:0.898693 
0.3275442660668537 1:0.963846 2:0.147708 
0.4278163910676225 1:0.636874 2:0.627139 
1 1:0.538754 2:0.351994 
0.3279891532158614 1:0.496956 2:0.616187 
0.6024127843872673 1:0.813082 2:0.565202 
0.4136896252992229 1:0.909509 2:0.394862 
0.4154882431787497 1:0.945663 2:0.247154 
0.6999846406780701 1:0.24559 2:0.901946 
0.5608151310298989 1:0.811833 2:0.00382725 
0.5319668899241168 1:0.998751 2:0.438626 
0.01235571020141659 1:0.846334 2:0.194655 
0.1568262061792954 1:0.672827 2:0.79192 
0.602600287142406 1:0.763318 2:0.397059 
0.977466514220323 1:0.508866 2:0.529891 
0.4295358290041248 1:0.697033 2:0.526064 
0.5446455539244662 1:0.698282 2:0.0874383 
-1 1:0.582293 2:0.171157 
-0.7414260437404607 1:0.528171 2:0.262023 
-1 1:0.255547 2:0.777234 
-0.3030607012228071 1:0.0344166 2:0.875909 
-0.05317086854852562 1:0.504067 2:0.0601133 
-0.7055432660734946 1:0.213116 2:0.136955 
-0.8309107624000929 1:0.4612 2:0.0193706 
-0.2707451263122866 1:0.338329 2:0.360527 
-0.6722854550089842 1:0.439226 2:0.361839 
-0.8774513462487412 1:0.0152283 2:0.924369 
-0.4240452208439934 1:0.207535 2:0.524303 
-0.4883120911538681 1:0.252648 2:0.424279 
-0.5194617094476757 1:0.359844 2:0.557247 
-0.4951533077065703 1:0.133353 2:0.361643 
-0.3967249230066136 1:0.067698 2:0.742369 
-0.2931686841141348 1:0.170353 2:0.67528 
-0.4211655710763661 1:0.125599 2:0.583567 
-0.135774739330532 1:0.187054 2:0.509616 
-1 1:0.441195 2:0.461317 
-0.5549484751487058 1:0.0707422 2:0.666653 
-0.5012504358014889 1:0.45257 2:0.104136 
-0.8089714789689337 1:0.139918 2:0.0109527 
-0.6885509408202286 1:0.0713751 2:0.089737 
-0.4967930711617465 1:0.416416 2:0.251844 
-0.2124240108629541 1:0.293559 2:0.38293 
-1 1:0.652687 2:0.0819915 
-1 1:0.325924 2:0.646705 
-0.3430227567535504 1:0.13644 2:0.183569 
-1 1:0.539149 2:0.284876 
-0.4294745734089968 1:0.308789 2:0.620014 
-0.8769214462412889 1:0.0541489 2:0.467961 
-0.6941242888396042 1:0.218318 2:0.274311 
-1 1:0.164169 2:0.80635 
-0.9468220202870236 1:0.0254552 2:0.295518 
