svm_type nu_svc
kernel_type rbf
gamma 10
nr_class 2
total_sv 7
rho -2.06052
label 1 -1
nr_sv 4 3
SV
6.202852596644518 1:0.331592 2:0.699664 
38.19465562140565 1:0.621426 2:0.190451 
14.55199564450815 1:0.683874 2:0.0509851 
139.0284213988393 1:0.538754 2:0.351994 
-32.1800508482801 1:0.441195 2:0.461317 
-23.36060229853227 1:0.652687 2:0.0819915 
-142.4372721145853 1:0.539149 2:0.284876 
