svm_type c_svc
kernel_type rbf
gamma 10
nr_class 2
total_sv 34
rho -0.129636
label 1 -1
nr_sv 17 17
SV
1 1:0.587485 2:0.3271 
0.5719815695627487 1:0.953331 2:0.853663 
0.1097477991030253 1:0.752333 2:0.980945 
1 1:0.331592 2:0.699664 
1 1:0.688588 2:0.0422769 
1 1:0.621426 2:0.190451 
1 1:0.259328 2:0.827479 
1 1:0.548927 2:0.484828 
1 1:0.373497 2:0.718948 
1 1:0.683874 2:0.0509851 
1 1:0.538754 2:0.351994 
1 1:0.496956 2:0.616187 
1 1:0.24559 2:0.901946 
0.274667642486949 1:0.998751 2:0.438626 
1 1:0.508866 2:0.529891 
0.9591731550221264 1:0.698282 2:0.0874383 
1 1:0.262137 2:0.898459 
-1 1:0.582293 2:0.171157 
-1 1:0.528171 2:0.262023 
-1 1:0.255547 2:0.777234 
-0.4113341371539551 1:0.0344166 2:0.875909 
-1 1:0.504067 2:0.0601133 
-0.4167041894070476 1:0.4612 2:0.0193706 
-0.5881760169430538 1:0.439226 2:0.361839 
-1 1:0.0152283 2:0.924369 
-1 1:0.359844 2:0.557247 
-1 1:0.441195 2:0.461317 
-0.6119769426330682 1:0.0713751 2:0.089737 
-1 1:0.652687 2:0.0819915 
-1 1:0.325924 2:0.646705 
-1 1:0.539149 2:0.284876 
-0.8873788800377247 1:0.308789 2:0.620014 
-1 1:0.164169 2:0.80635 
-1 1:0.317835 2:0.611696 
