svm_type nu_svc
kernel_type rbf
gamma 100
nr_class 2
total_sv 86
rho -0.174394
label 1 -1
nr_sv 44 42
SV
0.6221099618710184 1:0.587485 2:0.3271 
0.5489822510574387 1:0.953331 2:0.853663 
0.2846439342706778 1:0.687384 2:0.350705 
0.2912843217663765 1:0.682025 2:0.978096 
0.5606731491517041 1:0.948912 2:0.543304 
0.5536203182525414 1:0.795785 2:0.175245 
0.5536300818084916 1:0.752333 2:0.980945 
0.6221099618710184 1:0.331592 2:0.699664 
0.2074316248374295 1:0.688588 2:0.0422769 
0.1650707188589895 1:0.735853 2:0.802134 
0.2239686929896173 1:0.892803 2:0.867032 
0.1236507956441164 1:0.625551 2:0.458324 
0.08561905508400865 1:0.554029 2:0.904999 
0.2198843570169579 1:0.471682 2:0.722169 
0.2844457273280603 1:0.72906 2:0.852625 
0.307308603560957 1:0.492574 2:0.97895 
0.6221099618710184 1:0.621426 2:0.190451 
0.5314140237884164 1:0.938545 2:0.0739513 
0.4367264513285207 1:0.68019 2:0.723895 
0.6221099618710184 1:0.259328 2:0.827479 
0.3123531089803066 1:0.548927 2:0.484828 
0.574851617536888 1:0.868737 2:0.760933 
0.4461235601693014 1:0.456044 2:0.959968 
0.6221099618710184 1:0.373497 2:0.718948 
0.2947543957289057 1:0.886067 2:0.270002 
0.6221099618710184 1:0.683874 2:0.0509851 
0.4157576409849035 1:0.444872 2:0.808685 
0.4499334693813881 1:0.597291 2:0.898693 
0.3167799472476193 1:0.963846 2:0.147708 
0.4111874756612602 1:0.636874 2:0.627139 
0.6221099618710184 1:0.538754 2:0.351994 
0.4382410588665172 1:0.496956 2:0.616187 
0.5850335707714269 1:0.813082 2:0.565202 
0.4067316638995996 1:0.909509 2:0.394862 
0.4017804980849622 1:0.945663 2:0.247154 
0.6221099618710184 1:0.24559 2:0.901946 
0.5600876721652862 1:0.811833 2:0.00382725 
0.509602283137024 1:0.998751 2:0.438626 
0.1509722040071604 1:0.672827 2:0.79192 
0.5157627217192571 1:0.763318 2:0.397059 
0.6221099618710184 1:0.508866 2:0.529891 
0.4022055998460313 1:0.697033 2:0.526064 
0.4227905960042893 1:0.698282 2:0.0874383 
0.07100600835495585 1:0.262137 2:0.898459 
-0.6221099618710184 1:0.582293 2:0.171157 
-0.6221099618710184 1:0.528171 2:0.262023 
-0.6221099618710184 1:0.255547 2:0.777234 
-0.5573098078815951 1:0.0344166 2:0.875909 
-0.3041010959842398 1:0.504067 2:0.0601133 
-0.6221099618710184 1:0.213116 2:0.136955 
-0.3702633640574605 1:0.102454 2:0.368248 
-0.1357012028094271 1:0.47781 2:0.153341 
-0.1616308150141532 1:0.397524 2:0.441607 
-0.6221099618710184 1:0.4612 2:0.0193706 
-0.314359000226657 1:0.338329 2:0.360527 
-0.100701150079631 1:0.191559 2:0.342783 
-0.6221099618710184 1:0.439226 2:0.361839 
-0.6221099618710184 1:0.0152283 2:0.924369 
-0.4668290343087948 1:0.207535 2:0.524303 
-0.5079555875991824 1:0.252648 2:0.424279 
-0.5848032453170983 1:0.359844 2:0.557247 
-0.1841840241784467 1:0.133353 2:0.361643 
-0.4750929058438716 1:0.067698 2:0.742369 
-0.1563515550458935 1:0.125974 2:0.465836 
-0.3047094279086805 1:0.170353 2:0.67528 
-0.4696221233893581 1:0.125599 2:0.583567 
-0.0379782870739982 1:0.187054 2:0.509616 
-0.6221099618710184 1:0.441195 2:0.461317 
-0.02378629392466538 1:0.196716 2:0.132489 
-0.5118223208737072 1:0.0707422 2:0.666653 
-0.4177459475114068 1:0.45257 2:0.104136 
-0.6221099618710184 1:0.139918 2:0.0109527 
-0.6221099618710184 1:0.0713751 2:0.089737 
-0.5837789770143945 1:0.416416 2:0.251844 
-0.1672907080500384 1:0.293559 2:0.38293 
-0.6221099618710184 1:0.652687 2:0.0819915 
-0.0472802260295417 1:0.207815 2:0.273306 
-0.6221099618710184 1:0.325924 2:0.646705 
-0.4529881112525087 1:0.13644 2:0.183569 
-0.6221099618710184 1:0.539149 2:0.284876 
-0.6184773303886876 1:0.308789 2:0.620014 
-0.6221099618710184 1:0.0541489 2:0.467961 
-0.1326669625598012 1:0.170745 2:0.72621 
-0.6221099618710184 1:0.218318 2:0.274311 
-0.6221099618710184 1:0.164169 2:0.80635 
-0.6221099618710184 1:0.0254552 2:0.295518 
