svm_type nu_svc
kernel_type linear
nr_class 2
total_sv 5
rho 44.4781
label 1 -1
nr_sv 4 1
SV
982.5703529231571 1:0.587485 2:0.3271 
335.2556380585775 1:0.688588 2:0.0422769 
198.7215794303371 1:0.259328 2:0.827479 
104.8459339638424 1:0.709894 2:0.0110853 
-1621.393504375915 1:0.539149 2:0.284876 
