svm_type nu_svc
kernel_type linear
nr_class 2
total_sv 9
rho 52.6939
label 1 -1
nr_sv 4 5
SV
1728.995790746656 1:0.688588 2:0.0422769 
1711.328829562624 1:0.259328 2:0.827479 
17.66696118403229 1:0.683874 2:0.0509851 
1728.995790746656 1:0.709894 2:0.0110853 
-231.6522568712672 1:0.582293 2:0.171157 
-1728.995790746656 1:0.441195 2:0.461317 
-1469.3518944794 1:0.652687 2:0.0819915 
-27.99163939598899 1:0.325924 2:0.646705 
-1728.995790746656 1:0.539149 2:0.284876 
