svm_type nu_svc
kernel_type polynomial
degree 3
gamma 0.5
coef0 0
nr_class 2
total_sv 9
rho 10.0723
label 1 -1
nr_sv 5 4
SV
248.5063887158837 1:0.331592 2:0.699664 
200.8382737438286 1:0.688588 2:0.0422769 
3334.000019398489 1:0.621426 2:0.190451 
2884.655356938777 1:0.683874 2:0.0509851 
3334.000019398489 1:0.538754 2:0.351994 
-3054.382328024132 1:0.582293 2:0.171157 
-279.6176913743573 1:0.255547 2:0.777234 
-3334.000019398489 1:0.652687 2:0.0819915 
-3334.000019398489 1:0.539149 2:0.284876 
