svm_type c_svc
kernel_type linear
nr_class 2
total_sv 17
rho 16.6822
label 1 -1
nr_sv 9 8
SV
100 1:0.331592 2:0.699664 
100 1:0.688588 2:0.0422769 
58.8098514784573 1:0.621426 2:0.190451 
100 1:0.259328 2:0.827479 
100 1:0.683874 2:0.0509851 
100 1:0.538754 2:0.351994 
100 1:0.24559 2:0.901946 
100 1:0.709894 2:0.0110853 
41.1901485215427 1:0.262137 2:0.898459 
-100 1:0.582293 2:0.171157 
-100 1:0.528171 2:0.262023 
-100 1:0.255547 2:0.777234 
-100 1:0.359844 2:0.557247 
-100 1:0.441195 2:0.461317 
-100 1:0.652687 2:0.0819915 
-100 1:0.325924 2:0.646705 
-100 1:0.539149 2:0.284876 
