svm_type nu_svc
kernel_type rbf
gamma 0.1
nr_class 2
total_sv 25
rho -7.95441
label 1 -1
nr_sv 13 12
SV
84.38306068618016 1:0.587485 2:0.3271 
84.38306068618016 1:0.331592 2:0.699664 
84.38306068618016 1:0.688588 2:0.0422769 
84.38306068618016 1:0.621426 2:0.190451 
84.38306068618016 1:0.259328 2:0.827479 
4.646560069053326 1:0.548927 2:0.484828 
84.38306068618016 1:0.373497 2:0.718948 
84.38306068618016 1:0.683874 2:0.0509851 
84.38306068618016 1:0.538754 2:0.351994 
84.38306068618016 1:0.24559 2:0.901946 
79.73650061712684 1:0.709894 2:0.0110853 
84.38306068618016 1:0.508866 2:0.529891 
84.38306068618016 1:0.262137 2:0.898459 
-84.38306068618016 1:0.582293 2:0.171157 
-84.38306068618016 1:0.528171 2:0.262023 
-84.38306068618016 1:0.255547 2:0.777234 
-84.38306068618016 1:0.397524 2:0.441607 
-84.38306068618016 1:0.439226 2:0.361839 
-84.38306068618016 1:0.359844 2:0.557247 
-84.38306068618016 1:0.441195 2:0.461317 
-84.38306068618016 1:0.652687 2:0.0819915 
-84.38306068618016 1:0.325924 2:0.646705 
-84.38306068618016 1:0.539149 2:0.284876 
-84.38306068618016 1:0.308789 2:0.620014 
-84.38306068618016 1:0.317835 2:0.611696 
