svm_type c_svc
kernel_type rbf
gamma 1
nr_class 2
total_sv 24
rho -1.58166
label 1 -1
nr_sv 12 12
SV
10 1:0.587485 2:0.3271 
10 1:0.331592 2:0.699664 
4.103428884184471 1:0.688588 2:0.0422769 
10 1:0.621426 2:0.190451 
10 1:0.259328 2:0.827479 
7.18180052344188 1:0.548927 2:0.484828 
10 1:0.373497 2:0.718948 
10 1:0.683874 2:0.0509851 
10 1:0.538754 2:0.351994 
10 1:0.24559 2:0.901946 
10 1:0.508866 2:0.529891 
9.480799681108275 1:0.262137 2:0.898459 
-10 1:0.582293 2:0.171157 
-10 1:0.528171 2:0.262023 
-10 1:0.255547 2:0.777234 
-4.863093967144627 1:0.0152283 2:0.924369 
-10 1:0.359844 2:0.557247 
-10 1:0.441195 2:0.461317 
-10 1:0.652687 2:0.0819915 
-10 1:0.325924 2:0.646705 
-10 1:0.539149 2:0.284876 
-5.90293512159 1:0.308789 2:0.620014 
-10 1:0.164169 2:0.80635 
-10 1:0.317835 2:0.611696 
