svm_type nu_svc
kernel_type rbf
gamma 100
nr_class 2
total_sv 67
rho -0.138566
label 1 -1
nr_sv 38 29
SV
0.2338197073329303 1:0.587485 2:0.3271 
0.6535391377864241 1:0.953331 2:0.853663 
0.08195586779760361 1:0.687384 2:0.350705 
0.3656384503664872 1:0.682025 2:0.978096 
0.4536400101343501 1:0.948912 2:0.543304 
0.5699656837246434 1:0.752333 2:0.980945 
5.61999587971524 1:0.331592 2:0.699664 
0.1285620658131694 1:0.892803 2:0.867032 
0.09474184349910662 1:0.554029 2:0.904999 
0.1952364711548891 1:0.471682 2:0.722169 
0.2863139970440159 1:0.72906 2:0.852625 
0.3643143395773996 1:0.492574 2:0.97895 
6.062507892148692 1:0.621426 2:0.190451 
0.5892992544270994 1:0.938545 2:0.0739513 
0.3612022034437256 1:0.68019 2:0.723895 
1.027143250038372e-05 1:0.73101 2:0.549648 
5.355209267879819 1:0.259328 2:0.827479 
0.09365607905287904 1:0.899412 2:0.527905 
0.5929854391621207 1:0.868737 2:0.760933 
0.4209298889169693 1:0.456044 2:0.959968 
0.2791652312169685 1:0.886067 2:0.270002 
5.474085363208358 1:0.683874 2:0.0509851 
0.2897172455444395 1:0.444872 2:0.808685 
0.4460850579990595 1:0.597291 2:0.898693 
0.3497164403424716 1:0.963846 2:0.147708 
0.4728176908565455 1:0.636874 2:0.627139 
3.429719253652091 1:0.538754 2:0.351994 
0.2739568319577394 1:0.496956 2:0.616187 
0.5742509258677556 1:0.813082 2:0.565202 
0.3611446252373848 1:0.909509 2:0.394862 
0.3466133216269202 1:0.945663 2:0.247154 
0.6213683125223762 1:0.998751 2:0.438626 
0.3811882392438718 1:0.846334 2:0.194655 
0.4031091567392656 1:0.672827 2:0.79192 
0.6876160163324909 1:0.763318 2:0.397059 
1.227144129816758 1:0.508866 2:0.529891 
0.4111321475604094 1:0.697033 2:0.526064 
1.782013826516627 1:0.698282 2:0.0874383 
-4.022499171658402 1:0.582293 2:0.171157 
-6.172155146907929 1:0.255547 2:0.777234 
-0.4098205335152935 1:0.0344166 2:0.875909 
-0.680429027299472 1:0.213116 2:0.136955 
-0.8124065189356944 1:0.4612 2:0.0193706 
-0.2784026135073271 1:0.191559 2:0.342783 
-1.024765513718152 1:0.439226 2:0.361839 
-0.8104265193578805 1:0.0152283 2:0.924369 
-0.6064692238671041 1:0.207535 2:0.524303 
-0.2709399540296104 1:0.252648 2:0.424279 
-0.3073573847927742 1:0.133353 2:0.361643 
-0.166330719363817 1:0.168286 2:0.214464 
-0.441615440933305 1:0.067698 2:0.742369 
-0.3786053294085137 1:0.125599 2:0.583567 
-1.568718268113588 1:0.441195 2:0.461317 
-0.6451152710179048 1:0.0707422 2:0.666653 
-0.2282964229114801 1:0.45257 2:0.104136 
-0.8498366311545138 1:0.139918 2:0.0109527 
-0.7003214146605398 1:0.0713751 2:0.089737 
-0.216026886371881 1:0.416416 2:0.251844 
-0.5355831046231839 1:0.293559 2:0.38293 
-7.677649433848257 1:0.652687 2:0.0819915 
-4.735218731199448 1:0.325924 2:0.646705 
-0.2686554781159444 1:0.13644 2:0.183569 
-3.57858356662532 1:0.539149 2:0.284876 
-0.9161003177681442 1:0.0541489 2:0.467961 
-0.4251171430694814 1:0.218318 2:0.274311 
-0.6043097748788311 1:0.164169 2:0.80635 
-1.002612024997807 1:0.0254552 2:0.295518 
