svm_type nu_svc
kernel_type rbf
gamma 10
nr_class 2
total_sv 29
rho -0.15723
label 1 -1
nr_sv 16 13
SV
1.682492298967928 1:0.587485 2:0.3271 
0.6200161054499247 1:0.953331 2:0.853663 
0.006907079661549366 1:0.752333 2:0.980945 
1.682492298967928 1:0.331592 2:0.699664 
1.682492298967928 1:0.688588 2:0.0422769 
1.682492298967928 1:0.621426 2:0.190451 
1.682492298967928 1:0.259328 2:0.827479 
1.402316774986007 1:0.548927 2:0.484828 
1.682492298967928 1:0.373497 2:0.718948 
1.682492298967928 1:0.683874 2:0.0509851 
1.682492298967928 1:0.538754 2:0.351994 
1.682492298967928 1:0.24559 2:0.901946 
0.1230410803472392 1:0.998751 2:0.438626 
1.682492298967928 1:0.508866 2:0.529891 
0.3896096282893315 1:0.698282 2:0.0874383 
0.8230939292018028 1:0.262137 2:0.898459 
-1.682492298967928 1:0.582293 2:0.171157 
-1.682492298967928 1:0.528171 2:0.262023 
-1.682492298967928 1:0.255547 2:0.777234 
-1.52664195197208 1:0.504067 2:0.0601133 
-1.551485546171988 1:0.0152283 2:0.924369 
-1.682492298967928 1:0.359844 2:0.557247 
-1.682492298967928 1:0.441195 2:0.461317 
-0.5928745836703663 1:0.0713751 2:0.089737 
-1.682492298967928 1:0.652687 2:0.0819915 
-1.682492298967928 1:0.325924 2:0.646705 
-1.682492298967928 1:0.539149 2:0.284876 
-1.682492298967928 1:0.164169 2:0.80635 
-1.376474815089349 1:0.317835 2:0.611696 
