svm_type c_svc
kernel_type rbf
gamma 0.01
nr_class 2
total_sv 114
rho -0.999801
label 1 -1
nr_sv 57 57
SV
0.001 1:0.587485 2:0.3271 
0.001 1:0.528369 2:0.59755 
0.001 1:0.687384 2:0.350705 
0.001 1:0.682025 2:0.978096 
0.001 1:0.684747 2:0.539404 
0.001 1:0.61064 2:0.578562 
0.001 1:0.795785 2:0.175245 
0.001 1:0.701245 2:0.524248 
0.001 1:0.712777 2:0.902203 
0.001 1:0.752333 2:0.980945 
0.001 1:0.610323 2:0.533955 
0.001 1:0.331592 2:0.699664 
0.001 1:0.688588 2:0.0422769 
0.001 1:0.735853 2:0.802134 
0.001 1:0.625551 2:0.458324 
0.001 1:0.554029 2:0.904999 
0.001 1:0.941236 2:0.466556 
0.001 1:0.471682 2:0.722169 
0.001 1:0.507802 2:0.903319 
0.001 1:0.72906 2:0.852625 
0.001 1:0.492574 2:0.97895 
0.001 1:0.621426 2:0.190451 
0.001 1:0.938545 2:0.0739513 
0.001 1:0.68019 2:0.723895 
0.001 1:0.73101 2:0.549648 
0.001 1:0.259328 2:0.827479 
0.001 1:0.899412 2:0.527905 
0.001 1:0.618172 2:0.562517 
0.001 1:0.548927 2:0.484828 
0.001 1:0.456044 2:0.959968 
0.001 1:0.373497 2:0.718948 
0.001 1:0.754805 2:0.0309356 
0.001 1:0.886067 2:0.270002 
0.001 1:0.683874 2:0.0509851 
0.001 1:0.444872 2:0.808685 
0.001 1:0.487158 2:0.918496 
0.001 1:0.597291 2:0.898693 
0.001 1:0.963846 2:0.147708 
0.001 1:0.636874 2:0.627139 
0.001 1:0.538754 2:0.351994 
0.001 1:0.496956 2:0.616187 
0.001 1:0.813082 2:0.565202 
0.001 1:0.909509 2:0.394862 
0.001 1:0.945663 2:0.247154 
0.001 1:0.24559 2:0.901946 
0.001 1:0.706836 2:0.549952 
0.001 1:0.811833 2:0.00382725 
0.001 1:0.846334 2:0.194655 
0.001 1:0.672827 2:0.79192 
0.001 1:0.709894 2:0.0110853 
0.001 1:0.763318 2:0.397059 
0.001 1:0.817655 2:0.149905 
0.001 1:0.508866 2:0.529891 
0.001 1:0.697033 2:0.526064 
0.001 1:0.698282 2:0.0874383 
0.001 1:0.607941 2:0.60061 
0.001 1:0.262137 2:0.898459 
-0.001 1:0.145628 2:0.107693 
-0.001 1:0.582293 2:0.171157 
-0.001 1:0.528171 2:0.262023 
-0.001 1:0.255547 2:0.777234 
-0.001 1:0.0344166 2:0.875909 
-0.001 1:0.504067 2:0.0601133 
-0.001 1:0.213116 2:0.136955 
-0.001 1:0.0945403 2:0.650997 
-0.001 1:0.102454 2:0.368248 
-0.001 1:0.420741 2:0.28128 
-0.001 1:0.149123 2:0.514584 
-0.001 1:0.165194 2:0.504046 
-0.001 1:0.114707 2:0.638675 
-0.001 1:0.47781 2:0.153341 
-0.001 1:0.397524 2:0.441607 
-0.001 1:0.4612 2:0.0193706 
-0.001 1:0.166398 2:0.195618 
-0.001 1:0.346493 2:0.380695 
-0.001 1:0.338329 2:0.360527 
-0.001 1:0.191559 2:0.342783 
-0.001 1:0.439226 2:0.361839 
-0.001 1:0.0152283 2:0.924369 
-0.001 1:0.107634 2:0.662174 
-0.001 1:0.207535 2:0.524303 
-0.001 1:0.252648 2:0.424279 
-0.001 1:0.359844 2:0.557247 
-0.001 1:0.133353 2:0.361643 
-0.001 1:0.168286 2:0.214464 
-0.001 1:0.427542 2:0.299616 
-0.001 1:0.067698 2:0.742369 
-0.001 1:0.125974 2:0.465836 
-0.001 1:0.170353 2:0.67528 
-0.001 1:0.125599 2:0.583567 
-0.001 1:0.187054 2:0.509616 
-0.001 1:0.441195 2:0.461317 
-0.001 1:0.196716 2:0.132489 
-0.001 1:0.0707422 2:0.666653 
-0.001 1:0.474085 2:0.191043 
-0.001 1:0.45257 2:0.104136 
-0.001 1:0.303732 2:0.515764 
-0.001 1:0.326971 2:0.520569 
-0.001 1:0.139918 2:0.0109527 
-0.001 1:0.0713751 2:0.089737 
-0.001 1:0.416416 2:0.251844 
-0.001 1:0.293559 2:0.38293 
-0.001 1:0.652687 2:0.0819915 
-0.001 1:0.207815 2:0.273306 
-0.001 1:0.325924 2:0.646705 
-0.001 1:0.13644 2:0.183569 
-0.001 1:0.539149 2:0.284876 
-0.001 1:0.308789 2:0.620014 
-0.001 1:0.0541489 2:0.467961 
-0.001 1:0.170745 2:0.72621 
-0.001 1:0.218318 2:0.274311 
-0.001 1:0.164169 2:0.80635 
-0.001 1:0.317835 2:0.611696 
-0.001 1:0.0254552 2:0.295518 
