svm_type c_svc
kernel_type linear
nr_class 2
total_sv 8
rho 40.9345
label 1 -1
nr_sv 4 4
SV
807.433473144534 1:0.331592 2:0.699664 
1000 1:0.688588 2:0.0422769 
1000 1:0.259328 2:0.827479 
997.135913857017 1:0.683874 2:0.0509851 
-804.5693870015524 1:0.255547 2:0.777234 
-1000 1:0.441195 2:0.461317 
-1000 1:0.652687 2:0.0819915 
-1000 1:0.539149 2:0.284876 
