svm_type c_svc
kernel_type linear
nr_class 2
total_sv 18
rho -4.66017
label -1 1
nr_sv 9 9
SV
10 1:0.361876 2:0.694659 
10 1:0.446741 2:0.501701 
10 1:0.471556 2:0.635381 
10 1:0.474222 2:0.614163 
10 1:0.507978 2:0.524091 
9.914053747521345 1:0.410366 2:0.467568 
10 1:0.406318 2:0.722603 
10 1:0.471113 2:0.55486 
10 1:0.467445 2:0.715147 
-10 1:0.867345 2:0.721681 
-10 1:0.110398 2:0.68641 
-9.914053747521347 1:0.145372 2:0.716144 
-10 1:0.16208 2:0.69465 
-10 1:0.416264 2:0.688228 
-10 1:0.995828 2:0.688111 
-10 1:0.922081 2:0.687121 
-10 1:0.545483 2:0.673433 
-10 1:-0.160715 2:0.669173 
