svm_type one_class
kernel_type rbf
gamma 10
nr_class 2
total_sv 29
rho 5.13102
SV
0.8382973352661782 1:0.489863 2:0.0305051 
1 1:0.552395 2:0.919801 
1 1:0.581664 2:-0.0125588 
0.4624079280366301 1:0.867345 2:0.721681 
1 1:0.985903 2:0.912891 
1 1:0.110398 2:0.68641 
0.08042850459359861 1:0.441294 2:0.898744 
0.5833269436971611 1:0.583625 2:0.330996 
1 1:0.351561 2:0.173119 
0.6962621226717181 1:0.16208 2:0.69465 
1 1:0.995828 2:0.688111 
1 1:0.399086 2:0.394161 
1 1:0.586172 2:0.931692 
1 1:0.182079 2:0.942206 
1 1:-0.189764 2:0.787702 
0.07572040015358754 1:0.259855 2:0.919488 
1 1:0.922081 2:0.687121 
1 1:0.915827 2:0.782588 
0.08369676960276903 1:0.544069 2:-0.00172444 
1 1:0.126395 2:0.944876 
1 1:0.485547 2:0.90405 
1 1:-0.00913352 2:0.936011 
1 1:0.507978 2:0.524091 
1 1:0.645196 2:0.177188 
0.8778467620167254 1:0.410366 2:0.467568 
1 1:-0.160715 2:0.669173 
1 1:0.743745 2:-0.100583 
1 1:0.589461 2:-0.026244 
0.302013233961632 1:0.747616 2:0.867949 
