svm_type one_class
kernel_type rbf
gamma 10
nr_class 2
total_sv 20
rho 2.24419
SV
0.055595315531934 1:0.489863 2:0.0305051 
0.4352366602268142 1:0.552395 2:0.919801 
1 1:0.985903 2:0.912891 
0.1932511102978178 1:0.583625 2:0.330996 
1 1:0.351561 2:0.173119 
0.409239632322796 1:0.16208 2:0.69465 
0.0005976426102781386 1:0.361876 2:0.694659 
1 1:0.995828 2:0.688111 
1 1:0.586172 2:0.931692 
1 1:0.182079 2:0.942206 
0.7964723542018278 1:-0.189764 2:0.787702 
0.002369890962285333 1:0.259855 2:0.919488 
0.317357696496447 1:0.922081 2:0.687121 
0.4606251008252228 1:-0.00913352 2:0.936011 
0.6834954221579962 1:0.507978 2:0.524091 
0.4571454066405549 1:0.645196 2:0.177188 
0.5346291037656005 1:0.410366 2:0.467568 
1 1:-0.160715 2:0.669173 
1 1:0.743745 2:-0.100583 
0.6539846639604253 1:0.589461 2:-0.026244 
