svm_type c_svc
kernel_type rbf
gamma 10
nr_class 2
total_sv 18
rho 0.305637
label -1 1
nr_sv 8 10
SV
0.2540398489567209 1:0.489863 2:0.0305051 
0.3777263115801772 1:0.351561 2:0.173119 
10 1:0.361876 2:0.694659 
7.440376903348731 1:0.471556 2:0.635381 
0.4272644401175312 1:0.645196 2:0.177188 
10 1:0.406318 2:0.722603 
0.9734820505551737 1:0.743745 2:-0.100583 
10 1:0.467445 2:0.715147 
-10 1:0.380413 2:0.743099 
-0.3524543075840553 1:0.985903 2:0.912891 
-7.318451838968276 1:0.334046 2:0.764304 
-0.3716766522075032 1:0.633367 2:0.735551 
-0.005754134237979046 1:0.16208 2:0.69465 
-10 1:0.416264 2:0.688228 
-0.07628139494380347 1:-0.189764 2:0.787702 
-0.9192163133370403 1:0.365395 2:0.775488 
-10 1:0.545483 2:0.673433 
-0.42905491327968 1:-0.160715 2:0.669173 
