svm_type nu_svc
kernel_type rbf
gamma 1
nr_class 2
total_sv 5
rho 22.4251
label -1 1
nr_sv 2 3
SV
5945.731737188274 1:0.406318 2:0.722603 
36.92623562050357 1:0.743745 2:-0.100583 
-1196.398148655856 1:0.441151 2:0.847503 
-4439.078196175021 1:0.416264 2:0.688228 
-347.1816279779005 1:0.176725 2:0.744803 
