svm_type nu_svc
kernel_type rbf
gamma 10
nr_class 2
total_sv 64
rho 0.25636
label -1 1
nr_sv 32 32
SV
0.08729439583266625 1:0.489863 2:0.0305051 
0.08729439583266625 1:0.541731 2:0.0575199 
0.08729439583266625 1:0.581664 2:-0.0125588 
0.08729439583266625 1:0.48461 2:0.404981 
0.08729439583266625 1:0.583625 2:0.330996 
0.08729439583266625 1:0.351561 2:0.173119 
0.05582052842833365 1:0.593817 2:0.293619 
0.08729439583266625 1:0.361876 2:0.694659 
0.08729439583266625 1:0.446741 2:0.501701 
0.08729439583266625 1:0.471556 2:0.635381 
0.08729439583266625 1:0.474222 2:0.614163 
0.08729439583266625 1:0.399086 2:0.394161 
0.08729439583266625 1:0.626504 2:0.187076 
0.08729439583266625 1:0.460522 2:0.386748 
0.08729439583266625 1:0.480183 2:0.0707475 
0.01642870463077986 1:0.467103 2:0.0933128 
0.08729439583266625 1:0.465311 2:0.0658186 
0.08729439583266625 1:0.544069 2:-0.00172444 
0.08729439583266625 1:0.420351 2:0.43356 
0.08729439583266625 1:0.431417 2:0.367343 
0.08729439583266625 1:0.520747 2:0.362571 
0.08729439583266625 1:0.507978 2:0.524091 
0.08729439583266625 1:0.645196 2:0.177188 
0.08729439583266625 1:0.410366 2:0.467568 
0.08729439583266625 1:0.406318 2:0.722603 
0.08729439583266625 1:0.519659 2:0.0689437 
0.08729439583266625 1:0.43965 2:0.431607 
0.08729439583266625 1:0.471113 2:0.55486 
0.01504516277355273 1:0.574412 2:0.0898252 
0.08729439583266625 1:0.743745 2:-0.100583 
0.08729439583266625 1:0.589461 2:-0.026244 
0.08729439583266625 1:0.467445 2:0.715147 
-0.08729439583266625 1:0.380413 2:0.743099 
-0.08729439583266625 1:0.867345 2:0.721681 
-0.08729439583266625 1:0.985903 2:0.912891 
-0.08729439583266625 1:0.505072 2:0.811549 
-0.08729439583266625 1:0.110398 2:0.68641 
-0.08729439583266625 1:0.659472 2:0.797246 
-0.02653796971000495 1:0.061663 2:0.824745 
-0.08729439583266625 1:0.328774 2:0.790798 
-0.08729439583266625 1:0.334046 2:0.764304 
-0.08729439583266625 1:0.76239 2:0.756617 
-0.08729439583266625 1:0.633367 2:0.735551 
-0.08729439583266625 1:0.145372 2:0.716144 
-0.05904998168602865 1:0.334734 2:0.804516 
-0.08729439583266625 1:0.16208 2:0.69465 
-0.08729439583266625 1:0.658745 2:0.767098 
-0.08729439583266625 1:0.416264 2:0.688228 
-0.08729439583266625 1:0.995828 2:0.688111 
-0.08729439583266625 1:0.322289 2:0.775395 
-0.08729439583266625 1:0.586172 2:0.931692 
-0.08729439583266625 1:0.594071 2:0.804053 
-0.07568946808774221 1:0.182079 2:0.942206 
-0.08729439583266625 1:0.176725 2:0.744803 
-0.08729439583266625 1:-0.189764 2:0.787702 
-0.08729439583266625 1:0.503446 2:0.814028 
-0.08729439583266625 1:0.365395 2:0.775488 
-0.08729439583266625 1:0.922081 2:0.687121 
-0.08729439583266625 1:0.915827 2:0.782588 
-0.08729439583266625 1:0.126395 2:0.944876 
-0.08729439583266625 1:-0.00913352 2:0.936011 
-0.0133113721815567 1:0.784908 2:0.810777 
-0.08729439583266625 1:0.545483 2:0.673433 
-0.08729439583266625 1:-0.160715 2:0.669173 
