svm_type nu_svc
kernel_type rbf
gamma 100
nr_class 2
total_sv 49
rho 0.20682
label -1 1
nr_sv 22 27
SV
0.2377396283233081 1:0.489863 2:0.0305051 
0.2402664478251448 1:0.48461 2:0.404981 
0.849959965896191 1:0.583625 2:0.330996 
0.9598961322248851 1:0.351561 2:0.173119 
0.03853924371086017 1:0.593817 2:0.293619 
0.02007155201238421 1:0.493029 2:0.244572 
8.740139884915216 1:0.361876 2:0.694659 
3.561804166074223 1:0.471556 2:0.635381 
0.5412878585440332 1:0.399086 2:0.394161 
0.6625889354478959 1:0.465311 2:0.0658186 
0.1258792281460868 1:0.462079 2:0.199973 
0.4616037200937787 1:0.522062 2:0.208185 
0.5961238955405401 1:0.413703 2:0.281598 
0.1338547289615591 1:0.520747 2:0.362571 
0.5200716237673836 1:0.507978 2:0.524091 
0.9363702172418576 1:0.645196 2:0.177188 
0.5126589212951541 1:0.410366 2:0.467568 
13.07477986639607 1:0.406318 2:0.722603 
0.327027963154729 1:0.574412 2:0.0898252 
1.160571694071701 1:0.743745 2:-0.100583 
0.9266841516387029 1:0.589461 2:-0.026244 
4.596419773906497 1:0.467445 2:0.715147 
-12.81792126619033 1:0.380413 2:0.743099 
-0.2927433318573541 1:0.867345 2:0.721681 
-0.7496682799458132 1:0.985903 2:0.912891 
-1.520531980181759 1:0.505072 2:0.811549 
-0.2937177749589749 1:0.110398 2:0.68641 
-0.1813193659733042 1:0.659472 2:0.797246 
-0.04273488959016006 1:0.441294 2:0.898744 
-0.4477610445052488 1:0.061663 2:0.824745 
-0.4309145159468176 1:0.76239 2:0.756617 
-0.2822707365834544 1:0.174428 2:0.805493 
-0.5262056495813651 1:0.16208 2:0.69465 
-0.02113768900258692 1:0.22488 2:0.808594 
-13.07477986639607 1:0.416264 2:0.688228 
-0.6066256510945063 1:0.995828 2:0.688111 
-0.5645531497181592 1:0.586172 2:0.931692 
-0.1046444835896557 1:0.182079 2:0.942206 
-0.0211123611987493 1:0.176725 2:0.744803 
-0.6448722997495485 1:-0.189764 2:0.787702 
-0.5354749893302713 1:0.259855 2:0.919488 
-0.09006029280158569 1:0.922081 2:0.687121 
-0.331997126258817 1:0.915827 2:0.782588 
-0.4238165471621173 1:0.126395 2:0.944876 
-0.6377284777852312 1:-0.00913352 2:0.936011 
-3.36363854535674 1:0.545483 2:0.673433 
-0.01192771906358949 1:0.778249 2:0.849624 
-0.6432372593600471 1:-0.160715 2:0.669173 
-0.5629443060059475 1:0.747616 2:0.867949 
