svm_type nu_svc
kernel_type linear
nr_class 2
total_sv 4
rho -72.6329
label -1 1
nr_sv 1 3
SV
792080.3233619143 1:0.406318 2:0.722603 
-159328.4020325713 1:0.441151 2:0.847503 
-613234.1126971599 1:0.416264 2:0.688228 
-19517.80863218303 1:-0.189764 2:0.787702 
