svm_type nu_svc
kernel_type rbf
gamma 100
nr_class 2
total_sv 52
rho 0.209143
label -1 1
nr_sv 22 30
SV
0.2418398119254552 1:0.489863 2:0.0305051 
0.1046036634073166 1:0.48461 2:0.404981 
0.7963373536348852 1:0.583625 2:0.330996 
0.956797142020762 1:0.351561 2:0.173119 
0.05771225114628699 1:0.593817 2:0.293619 
1.186516931175111 1:0.361876 2:0.694659 
1.186516931175111 1:0.471556 2:0.635381 
0.006754436718445092 1:0.474222 2:0.614163 
0.5636777991120105 1:0.399086 2:0.394161 
0.6643768043170521 1:0.465311 2:0.0658186 
0.1307050672900734 1:0.462079 2:0.199973 
0.4766368389498968 1:0.522062 2:0.208185 
0.598938019877622 1:0.413703 2:0.281598 
0.2433530413895861 1:0.520747 2:0.362571 
0.7769343932756456 1:0.507978 2:0.524091 
0.9306834467330977 1:0.645196 2:0.177188 
0.5306113326902654 1:0.410366 2:0.467568 
1.186516931175111 1:0.406318 2:0.722603 
0.3267724794251845 1:0.574412 2:0.0898252 
1.159137313658787 1:0.743745 2:-0.100583 
0.9262642538285175 1:0.589461 2:-0.026244 
1.186516931175111 1:0.467445 2:0.715147 
-1.186516931175111 1:0.380413 2:0.743099 
-0.1763155429033663 1:0.352328 2:0.891995 
-0.3537885710702203 1:0.867345 2:0.721681 
-0.7477745181647314 1:0.985903 2:0.912891 
-0.7823490244139296 1:0.505072 2:0.811549 
-0.443865272627977 1:0.110398 2:0.68641 
-0.3239657210228695 1:0.441294 2:0.898744 
-0.4652509341737047 1:0.061663 2:0.824745 
-0.5359396527022171 1:0.334046 2:0.764304 
-0.3436643336317371 1:0.76239 2:0.756617 
-0.1938353823009226 1:0.174428 2:0.805493 
-0.03089186690697804 1:0.633367 2:0.735551 
-0.32836503705861 1:0.16208 2:0.69465 
-0.1652464572656774 1:0.22488 2:0.808594 
-0.3587804361191937 1:0.658745 2:0.767098 
-1.186516931175111 1:0.416264 2:0.688228 
-0.6305501348197479 1:0.995828 2:0.688111 
-0.6183112186598414 1:0.586172 2:0.931692 
-0.1688942698261001 1:0.182079 2:0.942206 
-0.6416041229710012 1:-0.189764 2:0.787702 
-0.313736772357938 1:0.365395 2:0.775488 
-0.4383684900472871 1:0.259855 2:0.919488 
-0.04865494578812777 1:0.922081 2:0.687121 
-0.3049611745541864 1:0.915827 2:0.782588 
-0.3906178751227758 1:0.126395 2:0.944876 
-0.6384105204779332 1:-0.00913352 2:0.936011 
-1.186516931175111 1:0.545483 2:0.673433 
-0.082021591035916 1:0.778249 2:0.849624 
-0.6453460162971085 1:-0.160715 2:0.669173 
-0.5071424982559017 1:0.747616 2:0.867949 
