svm_type nu_svc
kernel_type polynomial
degree 3
gamma 0.5
coef0 0
nr_class 2
total_sv 4
rho -3.22219
label -1 1
nr_sv 2 2
SV
175.425092002585 1:0.489863 2:0.0305051 
2378.862073771773 1:0.467445 2:0.715147 
-1357.981324742793 1:0.380413 2:0.743099 
-1196.305841031565 1:0.545483 2:0.673433 
