svm_type nu_svc
kernel_type polynomial
degree 3
gamma 0.5
coef0 0
nr_class 2
total_sv 26
rho -1.42885
label -1 1
nr_sv 12 14
SV
18.85830303259371 1:0.48461 2:0.404981 
18.85830303259371 1:0.361876 2:0.694659 
18.85830303259371 1:0.446741 2:0.501701 
18.85830303259371 1:0.471556 2:0.635381 
18.85830303259371 1:0.474222 2:0.614163 
18.85830303259371 1:0.420351 2:0.43356 
18.85830303259371 1:0.507978 2:0.524091 
18.85830303259371 1:0.410366 2:0.467568 
18.85830303259371 1:0.406318 2:0.722603 
18.85830303259371 1:0.43965 2:0.431607 
18.85830303259371 1:0.471113 2:0.55486 
18.85830303259371 1:0.467445 2:0.715147 
-18.85830303259371 1:0.380413 2:0.743099 
-18.85830303259371 1:0.110398 2:0.68641 
-18.85830303259371 1:0.334046 2:0.764304 
-18.85830303259371 1:0.633367 2:0.735551 
-18.85830303259371 1:0.145372 2:0.716144 
-18.85830303259371 1:0.16208 2:0.69465 
-18.85830303259371 1:0.416264 2:0.688228 
-0.6705287015011639 1:0.322289 2:0.775395 
-6.881820870556703 1:0.150842 2:0.78242 
-18.85830303259371 1:0.176725 2:0.744803 
-13.74051637961155 1:-0.189764 2:0.787702 
-16.423740113518 1:0.922081 2:0.687121 
-18.85830303259371 1:0.545483 2:0.673433 
-18.85830303259371 1:-0.160715 2:0.669173 
