svm_type nu_svc
kernel_type rbf
gamma 10
nr_class 2
total_sv 30
rho 0.289639
label -1 1
nr_sv 15 15
SV
0.1297277712039815 1:0.489863 2:0.0305051 
0.01043678621928955 1:0.581664 2:-0.0125588 
0.4307134697236342 1:0.351561 2:0.173119 
0.4307134697236342 1:0.361876 2:0.694659 
0.4307134697236342 1:0.446741 2:0.501701 
0.4307134697236342 1:0.471556 2:0.635381 
0.4307134697236342 1:0.474222 2:0.614163 
0.4307134697236342 1:0.507978 2:0.524091 
0.2600635302479 1:0.645196 2:0.177188 
0.03048538205246321 1:0.410366 2:0.467568 
0.4307134697236342 1:0.406318 2:0.722603 
0.4307134697236342 1:0.471113 2:0.55486 
0.4307134697236342 1:0.743745 2:-0.100583 
0.4307134697236342 1:0.589461 2:-0.026244 
0.4307134697236342 1:0.467445 2:0.715147 
-0.4307134697236342 1:0.380413 2:0.743099 
-0.2807881038360556 1:0.985903 2:0.912891 
-0.1943154208524204 1:0.505072 2:0.811549 
-0.4307134697236342 1:0.334046 2:0.764304 
-0.4307134697236342 1:0.633367 2:0.735551 
-0.4307134697236342 1:0.16208 2:0.69465 
-0.4307134697236342 1:0.658745 2:0.767098 
-0.4307134697236342 1:0.416264 2:0.688228 
-0.3630904706391757 1:0.995828 2:0.688111 
-0.2746699897172374 1:0.322289 2:0.775395 
-0.3243706289191845 1:-0.189764 2:0.787702 
-0.4307134697236342 1:0.365395 2:0.775488 
-0.06613865539090907 1:-0.00913352 2:0.936011 
-0.4307134697236342 1:0.545483 2:0.673433 
-0.2194806095395543 1:-0.160715 2:0.669173 
