svm_type c_svc
kernel_type polynomial
degree 3
gamma 0.5
coef0 0
nr_class 2
total_sv 17
rho -1.8736
label -1 1
nr_sv 8 9
SV
100 1:0.361876 2:0.694659 
77.83350253653997 1:0.446741 2:0.501701 
100 1:0.471556 2:0.635381 
100 1:0.474222 2:0.614163 
100 1:0.507978 2:0.524091 
100 1:0.406318 2:0.722603 
100 1:0.471113 2:0.55486 
100 1:0.467445 2:0.715147 
-100 1:0.380413 2:0.743099 
-100 1:0.110398 2:0.68641 
-100 1:0.633367 2:0.735551 
-37.57578414668116 1:0.145372 2:0.716144 
-100 1:0.16208 2:0.69465 
-100 1:0.416264 2:0.688228 
-40.44500687607554 1:0.922081 2:0.687121 
-100 1:0.545483 2:0.673433 
-99.81271151378323 1:-0.160715 2:0.669173 
