svm_type c_svc
kernel_type rbf
gamma 0.1
nr_class 2
total_sv 12
rho 19.1875
label -1 1
nr_sv 5 7
SV
1000 1:0.361876 2:0.694659 
1000 1:0.471556 2:0.635381 
622.4083457012916 1:0.474222 2:0.614163 
1000 1:0.406318 2:0.722603 
1000 1:0.467445 2:0.715147 
-89.94546931555101 1:0.380413 2:0.743099 
-351.0567714880977 1:0.110398 2:0.68641 
-1000 1:0.633367 2:0.735551 
-1000 1:0.16208 2:0.69465 
-1000 1:0.416264 2:0.688228 
-181.4061048976425 1:0.922081 2:0.687121 
-1000 1:0.545483 2:0.673433 
