svm_type one_class
kernel_type rbf
gamma 10
nr_class 2
total_sv 62
rho 16.3159
SV
1 1:0.489863 2:0.0305051 
1 1:0.541731 2:0.0575199 
1 1:0.352328 2:0.891995 
1 1:0.552395 2:0.919801 
1 1:0.581664 2:-0.0125588 
1 1:0.867345 2:0.721681 
1 1:0.985903 2:0.912891 
1 1:0.110398 2:0.68641 
1 1:0.441294 2:0.898744 
1 1:0.061663 2:0.824745 
1 1:0.76239 2:0.756617 
1 1:0.449297 2:0.874502 
1 1:0.583625 2:0.330996 
1 1:0.351561 2:0.173119 
1 1:0.174428 2:0.805493 
0.3350862322117035 1:0.704636 2:0.812891 
1 1:0.593817 2:0.293619 
1 1:0.145372 2:0.716144 
1 1:0.368084 2:0.878614 
1 1:0.16208 2:0.69465 
1 1:0.747883 2:0.836116 
1 1:0.614602 2:0.165391 
1 1:0.446741 2:0.501701 
0.1021211776650689 1:0.22488 2:0.808594 
1 1:0.775712 2:0.821566 
1 1:0.995828 2:0.688111 
1 1:0.399086 2:0.394161 
1 1:0.222217 2:0.815686 
1 1:0.586172 2:0.931692 
1 1:0.150842 2:0.78242 
1 1:0.626504 2:0.187076 
1 1:0.182079 2:0.942206 
1 1:0.755832 2:0.815934 
1 1:0.480183 2:0.0707475 
1 1:0.176725 2:0.744803 
1 1:-0.189764 2:0.787702 
1 1:0.467103 2:0.0933128 
1 1:0.259855 2:0.919488 
1 1:0.465311 2:0.0658186 
1 1:0.922081 2:0.687121 
1 1:0.915827 2:0.782588 
1 1:0.413703 2:0.281598 
1 1:0.544069 2:-0.00172444 
1 1:0.126395 2:0.944876 
1 1:0.420351 2:0.43356 
0.7365464830772599 1:0.431417 2:0.367343 
1 1:0.485547 2:0.90405 
1 1:-0.00913352 2:0.936011 
1 1:0.507978 2:0.524091 
1 1:0.784908 2:0.810777 
1 1:0.645196 2:0.177188 
1 1:0.778249 2:0.849624 
1 1:0.410366 2:0.467568 
1 1:0.519659 2:0.0689437 
1 1:0.748788 2:0.82287 
1 1:0.43965 2:0.431607 
1 1:-0.160715 2:0.669173 
1 1:0.471113 2:0.55486 
0.8262461070459676 1:0.574412 2:0.0898252 
1 1:0.743745 2:-0.100583 
1 1:0.589461 2:-0.026244 
1 1:0.747616 2:0.867949 
