svm_type nu_svc
kernel_type rbf
gamma 0.1
nr_class 2
total_sv 3
rho 18.0208
label -1 1
nr_sv 1 2
SV
43227.64890028372 1:0.406318 2:0.722603 
-8690.401397967196 1:0.441151 2:0.847503 
-34537.24750231652 1:0.416264 2:0.688228 
