svm_type c_svc
kernel_type polynomial
degree 3
gamma 0.5
coef0 0
nr_class 2
total_sv 12
rho -3.51132
label -1 1
nr_sv 6 6
SV
1000 1:0.361876 2:0.694659 
1000 1:0.471556 2:0.635381 
742.1697553235798 1:0.474222 2:0.614163 
1000 1:0.406318 2:0.722603 
4.121314883289566 1:0.743745 2:-0.100583 
1000 1:0.467445 2:0.715147 
-550.7975654801502 1:0.380413 2:0.743099 
-459.6831802267053 1:0.110398 2:0.68641 
-735.8103245000136 1:0.633367 2:0.735551 
-1000 1:0.16208 2:0.69465 
-1000 1:0.416264 2:0.688228 
-1000 1:0.545483 2:0.673433 
