svm_type nu_svc
kernel_type rbf
gamma 1
nr_class 2
total_sv 9
rho 16.2004
label -1 1
nr_sv 4 5
SV
1677.543316216233 1:0.361876 2:0.694659 
1693.236621612752 1:0.406318 2:0.722603 
15.69330539651921 1:0.743745 2:-0.100583 
1693.236621612752 1:0.467445 2:0.715147 
-1693.236621612752 1:0.380413 2:0.743099 
-618.6258166174679 1:0.334046 2:0.764304 
-114.5171151803217 1:0.16208 2:0.69465 
-1693.236621612752 1:0.416264 2:0.688228 
-960.0936898149629 1:0.545483 2:0.673433 
