svm_type c_svc
kernel_type rbf
gamma 100
nr_class 2
total_sv 43
rho 0.276629
label -1 1
nr_sv 20 23
SV
0.2562053772572277 1:0.489863 2:0.0305051 
0.472736908396547 1:0.48461 2:0.404981 
0.9734913944867295 1:0.583625 2:0.330996 
1.017458655414353 1:0.351561 2:0.173119 
0.002537859999705905 1:0.593817 2:0.293619 
0.05675142364316492 1:0.493029 2:0.244572 
26.65303657007164 1:0.361876 2:0.694659 
19.76993496555036 1:0.471556 2:0.635381 
0.7089993676442989 1:0.399086 2:0.394161 
0.6996519112818164 1:0.465311 2:0.0658186 
0.1378609593086983 1:0.462079 2:0.199973 
0.4788152758812754 1:0.522062 2:0.208185 
0.5802203348243086 1:0.413703 2:0.281598 
0.9883696357686185 1:0.645196 2:0.177188 
0.2101666656480717 1:0.410366 2:0.467568 
100 1:0.406318 2:0.722603 
0.3464320401108997 1:0.574412 2:0.0898252 
1.223921994666068 1:0.743745 2:-0.100583 
0.9774055134780418 1:0.589461 2:-0.026244 
0.3197187910949163 1:0.467445 2:0.715147 
-62.37358447339943 1:0.380413 2:0.743099 
-0.2746866550172834 1:0.867345 2:0.721681 
-0.6827515686868565 1:0.985903 2:0.912891 
-2.848167485022772 1:0.505072 2:0.811549 
-0.05415289660197705 1:0.110398 2:0.68641 
-0.4891122757312992 1:0.061663 2:0.824745 
-0.4152235679362618 1:0.76239 2:0.756617 
-0.03913308854096128 1:0.174428 2:0.805493 
-0.02350866807438525 1:0.704636 2:0.812891 
-0.8264876899666415 1:0.16208 2:0.69465 
-77.7571688705677 1:0.416264 2:0.688228 
-0.5637301395892708 1:0.995828 2:0.688111 
-0.3544040397801093 1:0.586172 2:0.931692 
-0.5192231903199447 1:0.182079 2:0.942206 
-0.5866407209601258 1:-0.189764 2:0.787702 
-0.0363691864341697 1:0.259855 2:0.919488 
-0.07473495641449505 1:0.922081 2:0.687121 
-0.2928612393274516 1:0.915827 2:0.782588 
-0.1595984539370677 1:0.126395 2:0.944876 
-0.5958925680901594 1:-0.00913352 2:0.936011 
-5.767515846234003 1:0.545483 2:0.673433 
-0.5909537538246191 1:-0.160715 2:0.669173 
-0.5478143100697561 1:0.747616 2:0.867949 
