svm_type nu_svc
kernel_type linear
nr_class 2
total_sv 8
rho -36.5068
label -1 1
nr_sv 3 5
SV
14657.0773160254 1:0.361876 2:0.694659 
14657.0773160254 1:0.406318 2:0.722603 
14657.0773160254 1:0.467445 2:0.715147 
-14657.0773160254 1:0.380413 2:0.743099 
-9309.526067572448 1:0.416264 2:0.688228 
-5347.551248452951 1:0.365395 2:0.775488 
-12830.98166898789 1:0.545483 2:0.673433 
-1826.09564703751 1:-0.160715 2:0.669173 
