svm_type nu_svc
kernel_type rbf
gamma 10
nr_class 2
total_sv 7
rho -31.833
label -1 1
nr_sv 4 3
SV
-140.1408902686266 1:0.361876 2:0.694659 
-775.5917868904311 1:0.507978 2:0.524091 
-63.89027268317096 1:0.410366 2:0.467568 
-12134.66983545088 1:0.406318 2:0.722603 
1033.360803935423 1:0.441151 2:0.847503 
9918.372835447371 1:0.416264 2:0.688228 
2162.559145910316 1:0.365395 2:0.775488 
