svm_type nu_svc
kernel_type rbf
gamma 100
nr_class 2
total_sv 31
rho 0.271675
label -1 1
nr_sv 15 16
SV
0.4023399944059566 1:0.48461 2:0.404981 
0.9745637517155334 1:0.583625 2:0.330996 
0.8455123879985044 1:0.351561 2:0.173119 
26.9653138825884 1:0.361876 2:0.694659 
20.57864290887964 1:0.471556 2:0.635381 
1.099612681357471 1:0.626504 2:0.187076 
0.8467245915051791 1:0.465311 2:0.0658186 
0.3534466355771095 1:0.462079 2:0.199973 
0.8570552561408317 1:0.413703 2:0.281598 
0.644668661238251 1:0.420351 2:0.43356 
101.733917879723 1:0.406318 2:0.722603 
0.5787386199798 1:0.574412 2:0.0898252 
1.218564276338422 1:0.743745 2:-0.100583 
0.9126926020615866 1:0.589461 2:-0.026244 
1.200981386527098 1:0.467445 2:0.715147 
-62.79161529297673 1:0.380413 2:0.743099 
-0.6804612394893558 1:0.985903 2:0.912891 
-3.022933521872723 1:0.505072 2:0.811549 
-0.508571285239147 1:0.061663 2:0.824745 
-0.3585166401934674 1:0.76239 2:0.756617 
-1.071594019121519 1:0.16208 2:0.69465 
-80.37483709161012 1:0.416264 2:0.688228 
-0.3416962507395166 1:0.586172 2:0.931692 
-0.5901103064528331 1:0.182079 2:0.942206 
-0.5017607995284364 1:-0.189764 2:0.787702 
-0.8225918311724262 1:0.922081 2:0.687121 
-0.1873193946249381 1:0.126395 2:0.944876 
-0.5589335342284059 1:-0.00913352 2:0.936011 
-6.239045342976469 1:0.545483 2:0.673433 
-0.5039356627466505 1:-0.160715 2:0.669173 
-0.6588533030640554 1:0.747616 2:0.867949 
