svm_type c_svc
kernel_type rbf
gamma 10
nr_class 2
total_sv 23
rho 0.224358
label -1 1
nr_sv 10 13
SV
0.1303418533101064 1:0.489863 2:0.0305051 
0.6244459693991989 1:0.351561 2:0.173119 
1 1:0.361876 2:0.694659 
1 1:0.471556 2:0.635381 
1 1:0.474222 2:0.614163 
0.2060882769179175 1:0.645196 2:0.177188 
1 1:0.406318 2:0.722603 
1 1:0.471113 2:0.55486 
1 1:0.743745 2:-0.100583 
1 1:0.467445 2:0.715147 
-1 1:0.380413 2:0.743099 
-0.3226110965647621 1:0.985903 2:0.912891 
-0.08359621968774675 1:0.505072 2:0.811549 
-1 1:0.334046 2:0.764304 
-1 1:0.633367 2:0.735551 
-0.4426043720962313 1:0.16208 2:0.69465 
-0.1448857465571642 1:0.658745 2:0.767098 
-1 1:0.416264 2:0.688228 
-0.3441439808923705 1:0.995828 2:0.688111 
-0.4009763756967626 1:-0.189764 2:0.787702 
-1 1:0.365395 2:0.775488 
-1 1:0.545483 2:0.673433 
-0.222058308132185 1:-0.160715 2:0.669173 
