svm_type nu_svc
kernel_type polynomial
degree 3
gamma 0.5
coef0 0
nr_class 2
total_sv 62
rho -1.14924
label -1 1
nr_sv 31 31
SV
1.71802777165311 1:0.502138 2:0.32148 
1.71802777165311 1:0.524819 2:0.264022 
1.71802777165311 1:0.543503 2:0.273656 
0.3867659503195239 1:0.45963 2:0.268943 
1.331261821333586 1:0.578284 2:0.237287 
1.71802777165311 1:0.48461 2:0.404981 
1.71802777165311 1:0.583625 2:0.330996 
1.71802777165311 1:0.528185 2:0.346787 
1.71802777165311 1:0.593817 2:0.293619 
1.71802777165311 1:0.556915 2:0.313055 
1.71802777165311 1:0.361876 2:0.694659 
1.71802777165311 1:0.5038 2:0.351581 
1.71802777165311 1:0.446741 2:0.501701 
1.71802777165311 1:0.471556 2:0.635381 
1.71802777165311 1:0.474222 2:0.614163 
1.71802777165311 1:0.399086 2:0.394161 
1.71802777165311 1:0.460522 2:0.386748 
1.71802777165311 1:0.461761 2:0.352107 
1.71802777165311 1:0.420351 2:0.43356 
1.71802777165311 1:0.431417 2:0.367343 
1.71802777165311 1:0.520747 2:0.362571 
1.71802777165311 1:0.482044 2:0.290525 
1.71802777165311 1:0.507978 2:0.524091 
1.71802777165311 1:0.500714 2:0.286776 
1.71802777165311 1:0.47746 2:0.320118 
1.71802777165311 1:0.410366 2:0.467568 
1.71802777165311 1:0.406318 2:0.722603 
1.71802777165311 1:0.436979 2:0.31265 
1.71802777165311 1:0.43965 2:0.431607 
1.71802777165311 1:0.471113 2:0.55486 
1.71802777165311 1:0.467445 2:0.715147 
-0.7960076833964691 1:0.441151 2:0.847503 
-1.71802777165311 1:0.380413 2:0.743099 
-1.71802777165311 1:0.293599 2:0.85546 
-1.71802777165311 1:0.867345 2:0.721681 
-1.71802777165311 1:0.505072 2:0.811549 
-1.71802777165311 1:0.110398 2:0.68641 
-1.71802777165311 1:0.061663 2:0.824745 
-1.71802777165311 1:0.328774 2:0.790798 
-1.71802777165311 1:0.334046 2:0.764304 
-1.71802777165311 1:0.174428 2:0.805493 
-1.71802777165311 1:0.633367 2:0.735551 
-1.71802777165311 1:0.145372 2:0.716144 
-1.71802777165311 1:0.334734 2:0.804516 
-1.71802777165311 1:0.16208 2:0.69465 
-1.71802777165311 1:0.329047 2:0.81841 
-1.71802777165311 1:0.22488 2:0.808594 
-1.71802777165311 1:0.658745 2:0.767098 
-1.71802777165311 1:0.416264 2:0.688228 
-0.9220200882566412 1:0.995828 2:0.688111 
-1.71802777165311 1:0.322289 2:0.775395 
-1.71802777165311 1:0.222217 2:0.815686 
-1.71802777165311 1:0.150842 2:0.78242 
-1.71802777165311 1:0.176725 2:0.744803 
-1.71802777165311 1:-0.189764 2:0.787702 
-1.71802777165311 1:0.503446 2:0.814028 
-1.71802777165311 1:0.365395 2:0.775488 
-1.71802777165311 1:0.283335 2:0.7906 
-1.71802777165311 1:0.922081 2:0.687121 
-1.71802777165311 1:-0.00913352 2:0.936011 
-1.71802777165311 1:0.545483 2:0.673433 
-1.71802777165311 1:-0.160715 2:0.669173 
