svm_type nu_svc
kernel_type polynomial
degree 3
gamma 0.5
coef0 0
nr_class 2
total_sv 3
rho 0.077722
label -1 1
nr_sv 2 1
SV
90.81356167545812 1:0.489863 2:0.0305051 
1231.482538716285 1:0.467445 2:0.715147 
-1322.296100391744 1:0.380413 2:0.743099 
