svm_type c_svc
kernel_type rbf
gamma 0.1
nr_class 2
total_sv 16
rho 6.05077
label -1 1
nr_sv 8 8
SV
100 1:0.361876 2:0.694659 
6.269163663879656 1:0.446741 2:0.501701 
100 1:0.471556 2:0.635381 
100 1:0.474222 2:0.614163 
100 1:0.507978 2:0.524091 
100 1:0.406318 2:0.722603 
100 1:0.471113 2:0.55486 
100 1:0.467445 2:0.715147 
-100 1:0.110398 2:0.68641 
-100 1:0.633367 2:0.735551 
-77.49136090633755 1:0.145372 2:0.716144 
-100 1:0.16208 2:0.69465 
-100 1:0.416264 2:0.688228 
-28.77780275754209 1:0.995828 2:0.688111 
-100 1:0.922081 2:0.687121 
-100 1:0.545483 2:0.673433 
