svm_type nu_svc
kernel_type rbf
gamma 100
nr_class 2
total_sv 9
rho 0.114817
label -1 1
nr_sv 4 5
SV
20.00693960989634 1:0.361876 2:0.694659 
15.12336224271552 1:0.471556 2:0.635381 
60.49532623072519 1:0.406318 2:0.722603 
6.379316535387684 1:0.467445 2:0.715147 
-1.886069195068545 1:0.441151 2:0.847503 
-35.36156427448901 1:0.380413 2:0.743099 
-57.73516271987383 1:0.416264 2:0.688228 
-0.3685686244283068 1:0.365395 2:0.775488 
-6.653579804865053 1:0.545483 2:0.673433 
