svm_type c_svc
kernel_type rbf
gamma 1
nr_class 2
total_sv 89
rho 0.305725
label -1 1
nr_sv 44 45
SV
0.1 1:0.502138 2:0.32148 
0.1 1:0.524819 2:0.264022 
0.1 1:0.543503 2:0.273656 
0.1 1:0.45963 2:0.268943 
0.1 1:0.578284 2:0.237287 
0.1 1:0.565554 2:0.232745 
0.1 1:0.48461 2:0.404981 
0.1 1:0.583625 2:0.330996 
0.1 1:0.528185 2:0.346787 
0.1 1:0.593817 2:0.293619 
0.1 1:0.479313 2:0.244814 
0.1 1:0.556915 2:0.313055 
0.1 1:0.493029 2:0.244572 
0.1 1:0.54719 2:0.243146 
0.1 1:0.361876 2:0.694659 
0.1 1:0.5038 2:0.351581 
0.1 1:0.446741 2:0.501701 
0.1 1:0.471556 2:0.635381 
0.1 1:0.474222 2:0.614163 
0.1 1:0.399086 2:0.394161 
0.1 1:0.460522 2:0.386748 
0.1 1:0.545563 2:0.223861 
0.1 1:0.461761 2:0.352107 
0.09426833579697834 1:0.462079 2:0.199973 
0.1 1:0.522062 2:0.208185 
0.1 1:0.461437 2:0.26022 
0.1 1:0.574125 2:0.205709 
0.1 1:0.450873 2:0.238511 
0.1 1:0.413703 2:0.281598 
0.1 1:0.420351 2:0.43356 
0.1 1:0.431417 2:0.367343 
0.1 1:0.520747 2:0.362571 
0.1 1:0.482044 2:0.290525 
0.1 1:0.507978 2:0.524091 
0.1 1:0.466758 2:0.264791 
0.1 1:0.500714 2:0.286776 
0.1 1:0.47746 2:0.320118 
0.1 1:0.410366 2:0.467568 
0.1 1:0.406318 2:0.722603 
0.1 1:0.436979 2:0.31265 
0.1 1:0.43965 2:0.431607 
0.1 1:0.564409 2:0.230789 
0.1 1:0.471113 2:0.55486 
0.1 1:0.467445 2:0.715147 
-0.1 1:0.441151 2:0.847503 
-0.1 1:0.380413 2:0.743099 
-0.1 1:0.293599 2:0.85546 
-0.1 1:0.867345 2:0.721681 
-0.01492435588358619 1:0.985903 2:0.912891 
-0.1 1:0.505072 2:0.811549 
-0.1 1:0.110398 2:0.68641 
-0.1 1:0.659472 2:0.797246 
-0.1 1:0.061663 2:0.824745 
-0.1 1:0.328774 2:0.790798 
-0.1 1:0.334046 2:0.764304 
-0.1 1:0.76239 2:0.756617 
-0.07934397991339215 1:0.449297 2:0.874502 
-0.1 1:0.174428 2:0.805493 
-0.1 1:0.704636 2:0.812891 
-0.1 1:0.633367 2:0.735551 
-0.1 1:0.558697 2:0.851322 
-0.1 1:0.145372 2:0.716144 
-0.1 1:0.334734 2:0.804516 
-0.1 1:0.16208 2:0.69465 
-0.1 1:0.747883 2:0.836116 
-0.1 1:0.329047 2:0.81841 
-0.1 1:0.22488 2:0.808594 
-0.1 1:0.775712 2:0.821566 
-0.1 1:0.658745 2:0.767098 
-0.1 1:0.416264 2:0.688228 
-0.1 1:0.995828 2:0.688111 
-0.1 1:0.322289 2:0.775395 
-0.1 1:0.222217 2:0.815686 
-0.1 1:0.150842 2:0.78242 
-0.1 1:0.594071 2:0.804053 
-0.1 1:0.755832 2:0.815934 
-0.1 1:0.176725 2:0.744803 
-0.1 1:-0.189764 2:0.787702 
-0.1 1:0.503446 2:0.814028 
-0.1 1:0.365395 2:0.775488 
-0.1 1:0.283335 2:0.7906 
-0.1 1:0.922081 2:0.687121 
-0.1 1:0.915827 2:0.782588 
-0.1 1:0.784908 2:0.810777 
-0.1 1:0.545483 2:0.673433 
-0.1 1:0.778249 2:0.849624 
-0.1 1:0.748788 2:0.82287 
-0.1 1:-0.160715 2:0.669173 
-0.1 1:0.747616 2:0.867949 
