svm_type c_svc
kernel_type rbf
gamma 1
nr_class 2
total_sv 15
rho 1.93545
label -1 1
nr_sv 7 8
SV
10 1:0.361876 2:0.694659 
10 1:0.471556 2:0.635381 
10 1:0.474222 2:0.614163 
3.096396044619393 1:0.507978 2:0.524091 
10 1:0.406318 2:0.722603 
10 1:0.471113 2:0.55486 
10 1:0.467445 2:0.715147 
-10 1:0.380413 2:0.743099 
-3.676737865015782 1:0.110398 2:0.68641 
-1.216049544603673 1:0.334046 2:0.764304 
-10 1:0.633367 2:0.735551 
-10 1:0.16208 2:0.69465 
-8.203608634999943 1:0.658745 2:0.767098 
-10 1:0.416264 2:0.688228 
-10 1:0.545483 2:0.673433 
