svm_type nu_svc
kernel_type rbf
gamma 100
nr_class 2
total_sv 69
rho 0.247207
label -1 1
nr_sv 33 36
SV
0.2981235123870175 1:0.489863 2:0.0305051 
0.3053059868632894 1:0.581664 2:-0.0125588 
0.2091073505021575 1:0.48461 2:0.404981 
0.3053059868632894 1:0.583625 2:0.330996 
0.3053059868632894 1:0.351561 2:0.173119 
0.3053059868632894 1:0.593817 2:0.293619 
0.1167313358243182 1:0.556915 2:0.313055 
0.3053059868632894 1:0.361876 2:0.694659 
0.2831062047553981 1:0.614602 2:0.165391 
0.1648548978640514 1:0.446741 2:0.501701 
0.3053059868632894 1:0.471556 2:0.635381 
0.3053059868632894 1:0.474222 2:0.614163 
0.3053059868632894 1:0.399086 2:0.394161 
0.3053059868632894 1:0.626504 2:0.187076 
0.3053059868632894 1:0.467103 2:0.0933128 
0.3053059868632894 1:0.465311 2:0.0658186 
0.3053059868632894 1:0.462079 2:0.199973 
0.1826000079397135 1:0.522062 2:0.208185 
0.2218308654650961 1:0.450873 2:0.238511 
0.3053059868632894 1:0.413703 2:0.281598 
0.2341077149845335 1:0.544069 2:-0.00172444 
0.2059044176906295 1:0.420351 2:0.43356 
0.3053059868632894 1:0.520747 2:0.362571 
0.3053059868632894 1:0.507978 2:0.524091 
0.3053059868632894 1:0.645196 2:0.177188 
0.3053059868632894 1:0.410366 2:0.467568 
0.3053059868632894 1:0.406318 2:0.722603 
0.2286565539683308 1:0.436979 2:0.31265 
0.3053059868632894 1:0.471113 2:0.55486 
0.2974250335250688 1:0.574412 2:0.0898252 
0.3053059868632894 1:0.743745 2:-0.100583 
0.3053059868632894 1:0.589461 2:-0.026244 
0.3053059868632894 1:0.467445 2:0.715147 
-0.3053059868632894 1:0.380413 2:0.743099 
-0.2797171440244998 1:0.352328 2:0.891995 
-0.2347170163958286 1:0.552395 2:0.919801 
-0.2153331276639503 1:0.867345 2:0.721681 
-0.3053059868632894 1:0.985903 2:0.912891 
-0.3053059868632894 1:0.505072 2:0.811549 
-0.3053059868632894 1:0.110398 2:0.68641 
-0.08750993529675571 1:0.659472 2:0.797246 
-0.3053059868632894 1:0.441294 2:0.898744 
-0.3053059868632894 1:0.061663 2:0.824745 
-0.3053059868632894 1:0.334046 2:0.764304 
-0.3053059868632894 1:0.76239 2:0.756617 
-0.1320357513471566 1:0.174428 2:0.805493 
-0.3053059868632894 1:0.633367 2:0.735551 
-0.3053059868632894 1:0.16208 2:0.69465 
-0.227828581323528 1:0.22488 2:0.808594 
-0.08991946297476522 1:0.658745 2:0.767098 
-0.3053059868632894 1:0.416264 2:0.688228 
-0.3053059868632894 1:0.995828 2:0.688111 
-0.3053059868632894 1:0.586172 2:0.931692 
-0.05627257250766022 1:0.150842 2:0.78242 
-0.09437206978173655 1:0.594071 2:0.804053 
-0.2729219228890262 1:0.182079 2:0.942206 
-0.03273974547465206 1:0.176725 2:0.744803 
-0.3053059868632894 1:-0.189764 2:0.787702 
-0.1663948220604496 1:0.503446 2:0.814028 
-0.3053059868632894 1:0.365395 2:0.775488 
-0.3053059868632894 1:0.259855 2:0.919488 
-0.2928497818079146 1:0.922081 2:0.687121 
-0.3053059868632894 1:0.915827 2:0.782588 
-0.3053059868632894 1:0.126395 2:0.944876 
-0.3053059868632894 1:-0.00913352 2:0.936011 
-0.3053059868632894 1:0.545483 2:0.673433 
-0.2598359613583914 1:0.778249 2:0.849624 
-0.3053059868632894 1:-0.160715 2:0.669173 
-0.3053059868632894 1:0.747616 2:0.867949 
