svm_type nu_svc
kernel_type rbf
gamma 0.1
nr_class 2
total_sv 25
rho 2.39709
label -1 1
nr_sv 12 13
SV
16.12809422737118 1:0.48461 2:0.404981 
16.12809422737118 1:0.361876 2:0.694659 
16.12809422737118 1:0.446741 2:0.501701 
16.12809422737118 1:0.471556 2:0.635381 
16.12809422737118 1:0.474222 2:0.614163 
16.12809422737118 1:0.420351 2:0.43356 
16.12809422737118 1:0.507978 2:0.524091 
16.12809422737118 1:0.410366 2:0.467568 
16.12809422737118 1:0.406318 2:0.722603 
16.12809422737118 1:0.43965 2:0.431607 
16.12809422737118 1:0.471113 2:0.55486 
16.12809422737118 1:0.467445 2:0.715147 
-16.12809422737118 1:0.380413 2:0.743099 
-16.12809422737118 1:0.867345 2:0.721681 
-16.12809422737118 1:0.110398 2:0.68641 
-3.492117283200658 1:0.76239 2:0.756617 
-16.12809422737118 1:0.633367 2:0.735551 
-16.12809422737118 1:0.145372 2:0.716144 
-16.12809422737118 1:0.16208 2:0.69465 
-16.12809422737118 1:0.416264 2:0.688228 
-16.12809422737118 1:0.995828 2:0.688111 
-12.63597694417052 1:0.176725 2:0.744803 
-16.12809422737118 1:0.922081 2:0.687121 
-16.12809422737118 1:0.545483 2:0.673433 
-16.12809422737118 1:-0.160715 2:0.669173 
