svm_type nu_svc
kernel_type polynomial
degree 3
gamma 0.5
coef0 0
nr_class 2
total_sv 8
rho -14.3379
label -1 1
nr_sv 3 5
SV
29511.37835676054 1:0.361876 2:0.694659 
29511.37835676054 1:0.406318 2:0.722603 
29511.37835676054 1:0.467445 2:0.715147 
-29511.37835676054 1:0.380413 2:0.743099 
-11265.56402848486 1:0.334046 2:0.764304 
-2776.617445508468 1:0.16208 2:0.69465 
-29511.37835676054 1:0.416264 2:0.688228 
-15469.19688276721 1:0.545483 2:0.673433 
