svm_type c_svc
kernel_type rbf
gamma 100
nr_class 2
total_sv 48
rho 0.200524
label -1 1
nr_sv 21 27
SV
0.2397180827762231 1:0.489863 2:0.0305051 
0.1767676489194382 1:0.48461 2:0.404981 
0.8181626081701414 1:0.583625 2:0.330996 
0.9504361018522895 1:0.351561 2:0.173119 
0.04535002107490326 1:0.593817 2:0.293619 
6.946473140900605 1:0.361876 2:0.694659 
2.923210499913719 1:0.471556 2:0.635381 
0.5464424296244986 1:0.399086 2:0.394161 
0.659705000528874 1:0.465311 2:0.0658186 
0.1280561155895713 1:0.462079 2:0.199973 
0.4768271363293002 1:0.522062 2:0.208185 
0.5964622672520576 1:0.413703 2:0.281598 
0.1904837252359968 1:0.520747 2:0.362571 
0.6095439985757144 1:0.507978 2:0.524091 
0.92499989326307 1:0.645196 2:0.177188 
0.5173062435816336 1:0.410366 2:0.467568 
10 1:0.406318 2:0.722603 
0.3239552283790275 1:0.574412 2:0.0898252 
1.151033219976747 1:0.743745 2:-0.100583 
0.9192805326561344 1:0.589461 2:-0.026244 
3.993024571075682 1:0.467445 2:0.715147 
-10 1:0.380413 2:0.743099 
-0.3192003862094566 1:0.867345 2:0.721681 
-0.75574600107342 1:0.985903 2:0.912891 
-1.38455773663135 1:0.505072 2:0.811549 
-0.3402056592909685 1:0.110398 2:0.68641 
-0.2107889013620511 1:0.659472 2:0.797246 
-0.1406191922090404 1:0.441294 2:0.898744 
-0.4752036385984709 1:0.061663 2:0.824745 
-0.4255154573822181 1:0.76239 2:0.756617 
-0.1645176359476699 1:0.174428 2:0.805493 
-0.4636895782896484 1:0.16208 2:0.69465 
-0.1626993489607485 1:0.22488 2:0.808594 
-10 1:0.416264 2:0.688228 
-0.626653983442219 1:0.995828 2:0.688111 
-0.5723413901726659 1:0.586172 2:0.931692 
-0.1159352094653754 1:0.182079 2:0.942206 
-0.0466663266092389 1:0.176725 2:0.744803 
-0.6485036168039328 1:-0.189764 2:0.787702 
-0.5283761018459756 1:0.259855 2:0.919488 
-0.07385529408421573 1:0.922081 2:0.687121 
-0.3181112876353743 1:0.915827 2:0.782588 
-0.4257792234322232 1:0.126395 2:0.944876 
-0.640960059118247 1:-0.00913352 2:0.936011 
-3.071611396332498 1:0.545483 2:0.673433 
-0.04754999266363951 1:0.778249 2:0.849624 
-0.6525352861675805 1:-0.160715 2:0.669173 
-0.5256157619473987 1:0.747616 2:0.867949 
