svm_type c_svc
kernel_type rbf
gamma 0.01
nr_class 2
total_sv 29
rho 1.64872
label -1 1
nr_sv 14 15
SV
100 1:0.48461 2:0.404981 
100 1:0.361876 2:0.694659 
100 1:0.446741 2:0.501701 
100 1:0.471556 2:0.635381 
100 1:0.474222 2:0.614163 
100 1:0.399086 2:0.394161 
100 1:0.460522 2:0.386748 
100 1:0.420351 2:0.43356 
100 1:0.507978 2:0.524091 
100 1:0.410366 2:0.467568 
100 1:0.406318 2:0.722603 
100 1:0.43965 2:0.431607 
100 1:0.471113 2:0.55486 
100 1:0.467445 2:0.715147 
-100 1:0.380413 2:0.743099 
-100 1:0.867345 2:0.721681 
-100 1:0.110398 2:0.68641 
-100 1:0.334046 2:0.764304 
-100 1:0.76239 2:0.756617 
-100 1:0.633367 2:0.735551 
-100 1:0.145372 2:0.716144 
-100 1:0.16208 2:0.69465 
-100 1:0.416264 2:0.688228 
-100 1:0.995828 2:0.688111 
-1.4210854715202e-14 1:0.322289 2:0.775395 
-100 1:0.176725 2:0.744803 
-100 1:0.922081 2:0.687121 
-100 1:0.545483 2:0.673433 
-100 1:-0.160715 2:0.669173 
