svm_type nu_svc
kernel_type rbf
gamma 0.1
nr_class 2
total_sv 61
rho 0.564714
label -1 1
nr_sv 30 31
SV
1.838807269554295 1:0.502138 2:0.32148 
1.838807269554295 1:0.543503 2:0.273656 
1.838807269554295 1:0.45963 2:0.268943 
1.838807269554295 1:0.48461 2:0.404981 
1.838807269554295 1:0.583625 2:0.330996 
1.838807269554295 1:0.528185 2:0.346787 
1.838807269554295 1:0.593817 2:0.293619 
1.838807269554295 1:0.556915 2:0.313055 
1.838807269554295 1:0.361876 2:0.694659 
1.838807269554295 1:0.5038 2:0.351581 
1.838807269554295 1:0.446741 2:0.501701 
1.838807269554295 1:0.471556 2:0.635381 
1.838807269554295 1:0.474222 2:0.614163 
1.838807269554295 1:0.399086 2:0.394161 
1.838807269554295 1:0.460522 2:0.386748 
1.838807269554295 1:0.461761 2:0.352107 
1.838807269554295 1:0.413703 2:0.281598 
1.838807269554295 1:0.420351 2:0.43356 
1.838807269554295 1:0.431417 2:0.367343 
1.838807269554295 1:0.520747 2:0.362571 
1.838807269554295 1:0.482044 2:0.290525 
1.838807269554295 1:0.507978 2:0.524091 
1.838807269554295 1:0.500714 2:0.286776 
1.838807269554295 1:0.47746 2:0.320118 
1.838807269554295 1:0.410366 2:0.467568 
1.838807269554295 1:0.406318 2:0.722603 
1.838807269554295 1:0.436979 2:0.31265 
1.838807269554295 1:0.43965 2:0.431607 
1.838807269554295 1:0.471113 2:0.55486 
1.838807269554295 1:0.467445 2:0.715147 
-1.838807269554295 1:0.380413 2:0.743099 
-1.838807269554295 1:0.867345 2:0.721681 
-1.838807269554295 1:0.505072 2:0.811549 
-1.838807269554295 1:0.110398 2:0.68641 
-1.838807269554295 1:0.659472 2:0.797246 
-1.838807269554295 1:0.328774 2:0.790798 
-1.838807269554295 1:0.334046 2:0.764304 
-1.838807269554295 1:0.76239 2:0.756617 
-0.005427105987540881 1:0.174428 2:0.805493 
-1.838807269554295 1:0.704636 2:0.812891 
-1.838807269554295 1:0.633367 2:0.735551 
-1.838807269554295 1:0.145372 2:0.716144 
-1.838807269554295 1:0.334734 2:0.804516 
-1.838807269554295 1:0.16208 2:0.69465 
-1.838807269554295 1:0.658745 2:0.767098 
-1.838807269554295 1:0.416264 2:0.688228 
-1.838807269554295 1:0.995828 2:0.688111 
-1.838807269554295 1:0.322289 2:0.775395 
-1.838807269554295 1:0.150842 2:0.78242 
-1.838807269554295 1:0.594071 2:0.804053 
-1.838807269554295 1:0.755832 2:0.815934 
-1.838807269554295 1:0.176725 2:0.744803 
-1.838807269554295 1:-0.189764 2:0.787702 
-1.833380163566754 1:0.503446 2:0.814028 
-1.838807269554295 1:0.365395 2:0.775488 
-1.838807269554295 1:0.283335 2:0.7906 
-1.838807269554295 1:0.922081 2:0.687121 
-1.838807269554295 1:0.915827 2:0.782588 
-1.838807269554295 1:0.784908 2:0.810777 
-1.838807269554295 1:0.545483 2:0.673433 
-1.838807269554295 1:-0.160715 2:0.669173 
