svm_type nu_svc
kernel_type rbf
gamma 0.1
nr_class 2
total_sv 8
rho 40.7267
label -1 1
nr_sv 3 5
SV
10418.90510924953 1:0.361876 2:0.694659 
10418.90510924953 1:0.406318 2:0.722603 
10418.90510924953 1:0.467445 2:0.715147 
-10418.90510924953 1:0.380413 2:0.743099 
-7329.994381240516 1:0.416264 2:0.688228 
-5219.8185885956 1:0.365395 2:0.775488 
-7483.77547698849 1:0.545483 2:0.673433 
-804.221771674455 1:-0.160715 2:0.669173 
