svm_type nu_svc
kernel_type rbf
gamma 10
nr_class 2
total_sv 6
rho -1.50927
label -1 1
nr_sv 3 3
SV
5.325866930419512 1:0.489863 2:0.0305051 
76.33510043964027 1:0.507978 2:0.524091 
1011.541101235732 1:0.406318 2:0.722603 
-86.14053285017627 1:0.441151 2:0.847503 
-862.5133940785051 1:0.416264 2:0.688228 
-144.5481416771102 1:0.365395 2:0.775488 
