svm_type c_svc
kernel_type rbf
gamma 10
nr_class 2
total_sv 10
rho 3.00954
label -1 1
nr_sv 6 4
SV
0.1501240969768977 1:0.489863 2:0.0305051 
447.9605346620291 1:0.361876 2:0.694659 
55.81579947095712 1:0.507978 2:0.524091 
1000 1:0.406318 2:0.722603 
3.569810228620303 1:0.743745 2:-0.100583 
469.3561041402511 1:0.467445 2:0.715147 
-775.9714509376937 1:0.380413 2:0.743099 
-50.96068973764607 1:0.505072 2:0.811549 
-1000 1:0.416264 2:0.688228 
-149.9202319234948 1:0.545483 2:0.673433 
