svm_type c_svc
kernel_type rbf
gamma 0.01
nr_class 2
total_sv 17
rho 11.7174
label -1 1
nr_sv 8 9
SV
1000 1:0.361876 2:0.694659 
575.0407368406512 1:0.446741 2:0.501701 
1000 1:0.471556 2:0.635381 
1000 1:0.474222 2:0.614163 
1000 1:0.507978 2:0.524091 
1000 1:0.406318 2:0.722603 
1000 1:0.471113 2:0.55486 
1000 1:0.467445 2:0.715147 
-466.8232947785934 1:0.867345 2:0.721681 
-1000 1:0.110398 2:0.68641 
-108.2174420620581 1:0.145372 2:0.716144 
-1000 1:0.16208 2:0.69465 
-1000 1:0.416264 2:0.688228 
-1000 1:0.995828 2:0.688111 
-1000 1:0.922081 2:0.687121 
-1000 1:0.545483 2:0.673433 
-1000 1:-0.160715 2:0.669173 
