svm_type c_svc
kernel_type rbf
gamma 0.01
nr_class 2
total_sv 110
rho -0.712502
label -1 1
nr_sv 55 55
SV
1 1:0.502138 2:0.32148 
1 1:0.524819 2:0.264022 
1 1:0.543503 2:0.273656 
1 1:0.45963 2:0.268943 
1 1:0.578284 2:0.237287 
1 1:0.568122 2:0.118974 
1 1:0.565554 2:0.232745 
1 1:0.552079 2:0.17615 
1 1:0.602375 2:0.1593 
1 1:0.48461 2:0.404981 
1 1:0.583625 2:0.330996 
1 1:0.351561 2:0.173119 
1 1:0.528185 2:0.346787 
1 1:0.593817 2:0.293619 
1 1:0.479313 2:0.244814 
1 1:0.556915 2:0.313055 
1 1:0.493029 2:0.244572 
1 1:0.54719 2:0.243146 
1 1:0.361876 2:0.694659 
1 1:0.614602 2:0.165391 
1 1:0.5123 2:0.115041 
1 1:0.5038 2:0.351581 
1 1:0.446741 2:0.501701 
1 1:0.471556 2:0.635381 
1 1:0.474222 2:0.614163 
1 1:0.399086 2:0.394161 
1 1:0.626504 2:0.187076 
1 1:0.460522 2:0.386748 
1 1:0.545563 2:0.223861 
1 1:0.467103 2:0.0933128 
1 1:0.461761 2:0.352107 
1 1:0.513651 2:0.107265 
1 1:0.462079 2:0.199973 
1 1:0.522062 2:0.208185 
1 1:0.461437 2:0.26022 
1 1:0.574125 2:0.205709 
1 1:0.450873 2:0.238511 
1 1:0.413703 2:0.281598 
1 1:0.420351 2:0.43356 
1 1:0.431417 2:0.367343 
1 1:0.54372 2:0.195477 
1 1:0.520747 2:0.362571 
1 1:0.482044 2:0.290525 
1 1:0.507978 2:0.524091 
1 1:0.466758 2:0.264791 
1 1:0.645196 2:0.177188 
1 1:0.500714 2:0.286776 
1 1:0.47746 2:0.320118 
1 1:0.410366 2:0.467568 
1 1:0.406318 2:0.722603 
1 1:0.436979 2:0.31265 
1 1:0.43965 2:0.431607 
1 1:0.564409 2:0.230789 
1 1:0.471113 2:0.55486 
1 1:0.467445 2:0.715147 
-1 1:0.441151 2:0.847503 
-1 1:0.380413 2:0.743099 
-1 1:0.352328 2:0.891995 
-1 1:0.552395 2:0.919801 
-1 1:0.293599 2:0.85546 
-1 1:0.867345 2:0.721681 
-1 1:0.985903 2:0.912891 
-1 1:0.505072 2:0.811549 
-1 1:0.110398 2:0.68641 
-1 1:0.659472 2:0.797246 
-1 1:0.441294 2:0.898744 
-1 1:0.061663 2:0.824745 
-1 1:0.328774 2:0.790798 
-1 1:0.334046 2:0.764304 
-1 1:0.76239 2:0.756617 
-1 1:0.449297 2:0.874502 
-1 1:0.174428 2:0.805493 
-1 1:0.704636 2:0.812891 
-1 1:0.633367 2:0.735551 
-1 1:0.558697 2:0.851322 
-1 1:0.145372 2:0.716144 
-1 1:0.334734 2:0.804516 
-1 1:0.368084 2:0.878614 
-1 1:0.16208 2:0.69465 
-1 1:0.747883 2:0.836116 
-1 1:0.329047 2:0.81841 
-1 1:0.22488 2:0.808594 
-1 1:0.775712 2:0.821566 
-1 1:0.658745 2:0.767098 
-1 1:0.416264 2:0.688228 
-1 1:0.995828 2:0.688111 
-1 1:0.322289 2:0.775395 
-1 1:0.222217 2:0.815686 
-1 1:0.586172 2:0.931692 
-1 1:0.150842 2:0.78242 
-1 1:0.594071 2:0.804053 
-1 1:0.182079 2:0.942206 
-1 1:0.755832 2:0.815934 
-1 1:0.176725 2:0.744803 
-1 1:-0.189764 2:0.787702 
-1 1:0.503446 2:0.814028 
-1 1:0.365395 2:0.775488 
-1 1:0.259855 2:0.919488 
-1 1:0.283335 2:0.7906 
-1 1:0.922081 2:0.687121 
-1 1:0.915827 2:0.782588 
-1 1:0.126395 2:0.944876 
-1 1:0.485547 2:0.90405 
-1 1:-0.00913352 2:0.936011 
-1 1:0.784908 2:0.810777 
-1 1:0.545483 2:0.673433 
-1 1:0.778249 2:0.849624 
-1 1:0.748788 2:0.82287 
-1 1:-0.160715 2:0.669173 
-1 1:0.747616 2:0.867949 
