svm_type c_svc
kernel_type linear
nr_class 2
total_sv 11
rho -14.3781
label -1 1
nr_sv 5 6
SV
1000 1:0.361876 2:0.694659 
1000 1:0.471556 2:0.635381 
1000 1:0.474222 2:0.614163 
1000 1:0.406318 2:0.722603 
1000 1:0.467445 2:0.715147 
-1000 1:0.110398 2:0.68641 
-399.7031785119735 1:0.416264 2:0.688228 
-600.2968214880248 1:0.995828 2:0.688111 
-1000 1:0.922081 2:0.687121 
-1000 1:0.545483 2:0.673433 
-1000 1:-0.160715 2:0.669173 
