svm_type c_svc
kernel_type rbf
gamma 100
nr_class 2
total_sv 40
rho 0.290871
label -1 1
nr_sv 18 22
SV
0.2574353447654787 1:0.489863 2:0.0305051 
0.4769069184013752 1:0.48461 2:0.404981 
0.9857849027944332 1:0.583625 2:0.330996 
1.030243599368971 1:0.351561 2:0.173119 
0.06224885715911339 1:0.493029 2:0.244572 
28.68827567778955 1:0.361876 2:0.694659 
21.4461593015072 1:0.471556 2:0.635381 
0.7400795603512201 1:0.399086 2:0.394161 
0.7091861475249865 1:0.465311 2:0.0658186 
0.1388047564173793 1:0.462079 2:0.199973 
0.4823079988234956 1:0.522062 2:0.208185 
0.5797543875339822 1:0.413703 2:0.281598 
0.9995266194270217 1:0.645196 2:0.177188 
0.1731502914996965 1:0.410366 2:0.467568 
111.4501729737137 1:0.406318 2:0.722603 
0.3505065458508348 1:0.574412 2:0.0898252 
1.237481110355739 1:0.743745 2:-0.100583 
0.9887573543248603 1:0.589461 2:-0.026244 
-69.17027552913592 1:0.380413 2:0.743099 
-0.2689896485291506 1:0.867345 2:0.721681 
-0.6694721480119131 1:0.985903 2:0.912891 
-3.112132093015838 1:0.505072 2:0.811549 
-0.03248825687276581 1:0.110398 2:0.68641 
-0.4865423410723161 1:0.061663 2:0.824745 
-0.4109306741288558 1:0.76239 2:0.756617 
-0.006258418878683416 1:0.704636 2:0.812891 
-0.8420674660470664 1:0.16208 2:0.69465 
-85.52419858281617 1:0.416264 2:0.688228 
-0.5528500761406822 1:0.995828 2:0.688111 
-0.3094912033236547 1:0.586172 2:0.931692 
-0.01054818125851268 1:0.150842 2:0.78242 
-0.5424034048102956 1:0.182079 2:0.942206 
-0.5753938099737597 1:-0.189764 2:0.787702 
-0.07289400278677603 1:0.922081 2:0.687121 
-0.2871458757347731 1:0.915827 2:0.782588 
-0.1399948822852923 1:0.126395 2:0.944876 
-0.5846835287054442 1:-0.00913352 2:0.936011 
-6.071381128314513 1:0.545483 2:0.673433 
-0.5788111645400446 1:-0.160715 2:0.669173 
-0.5478299312265652 1:0.747616 2:0.867949 
