svm_type nu_svc
kernel_type linear
nr_class 2
total_sv 3
rho -39.3053
label -1 1
nr_sv 1 2
SV
8731.809643264578 1:0.406318 2:0.722603 
-1756.419439140983 1:0.441151 2:0.847503 
-6975.390204123595 1:0.416264 2:0.688228 
