svm_type nu_svc
kernel_type linear
nr_class 2
total_sv 25
rho -3.22864
label -1 1
nr_sv 12 13
SV
3.258505087974401 1:0.48461 2:0.404981 
3.258505087974401 1:0.361876 2:0.694659 
3.258505087974401 1:0.446741 2:0.501701 
3.258505087974401 1:0.471556 2:0.635381 
3.258505087974401 1:0.474222 2:0.614163 
3.258505087974401 1:0.420351 2:0.43356 
3.258505087974401 1:0.507978 2:0.524091 
3.258505087974401 1:0.410366 2:0.467568 
3.258505087974401 1:0.406318 2:0.722603 
3.258505087974401 1:0.43965 2:0.431607 
3.258505087974401 1:0.471113 2:0.55486 
3.258505087974401 1:0.467445 2:0.715147 
-3.258505087974401 1:0.380413 2:0.743099 
-3.258505087974401 1:0.867345 2:0.721681 
-3.258505087974401 1:0.110398 2:0.68641 
-0.7359139394056139 1:0.76239 2:0.756617 
-3.258505087974401 1:0.633367 2:0.735551 
-3.258505087974401 1:0.145372 2:0.716144 
-3.258505087974401 1:0.16208 2:0.69465 
-3.258505087974401 1:0.416264 2:0.688228 
-3.258505087974401 1:0.995828 2:0.688111 
-2.522591148568787 1:0.176725 2:0.744803 
-3.258505087974401 1:0.922081 2:0.687121 
-3.258505087974401 1:0.545483 2:0.673433 
-3.258505087974401 1:-0.160715 2:0.669173 
