svm_type c_svc
kernel_type linear
nr_class 2
total_sv 38
rho -2.5958
label -1 1
nr_sv 19 19
SV
1 1:0.48461 2:0.404981 
0.9566362448755337 1:0.528185 2:0.346787 
1 1:0.361876 2:0.694659 
1 1:0.5038 2:0.351581 
1 1:0.446741 2:0.501701 
1 1:0.471556 2:0.635381 
1 1:0.474222 2:0.614163 
1 1:0.399086 2:0.394161 
1 1:0.460522 2:0.386748 
1 1:0.461761 2:0.352107 
1 1:0.420351 2:0.43356 
1 1:0.431417 2:0.367343 
1 1:0.520747 2:0.362571 
1 1:0.507978 2:0.524091 
1 1:0.410366 2:0.467568 
1 1:0.406318 2:0.722603 
1 1:0.43965 2:0.431607 
1 1:0.471113 2:0.55486 
1 1:0.467445 2:0.715147 
-1 1:0.380413 2:0.743099 
-1 1:0.867345 2:0.721681 
-1 1:0.110398 2:0.68641 
-1 1:0.334046 2:0.764304 
-1 1:0.76239 2:0.756617 
-1 1:0.633367 2:0.735551 
-1 1:0.145372 2:0.716144 
-1 1:0.16208 2:0.69465 
-1 1:0.658745 2:0.767098 
-1 1:0.416264 2:0.688228 
-1 1:0.995828 2:0.688111 
-1 1:0.322289 2:0.775395 
-1 1:0.150842 2:0.78242 
-1 1:0.176725 2:0.744803 
-1 1:0.365395 2:0.775488 
-1 1:0.922081 2:0.687121 
-0.9566362448755337 1:0.915827 2:0.782588 
-1 1:0.545483 2:0.673433 
-1 1:-0.160715 2:0.669173 
