svm_type nu_svc
kernel_type rbf
gamma 1
nr_class 2
total_sv 3
rho 16.166
label -1 1
nr_sv 1 2
SV
3938.942564413092 1:0.406318 2:0.722603 
-787.7006529780228 1:0.441151 2:0.847503 
-3151.24191143507 1:0.416264 2:0.688228 
