svm_type nu_svc
kernel_type rbf
gamma 10
nr_class 2
total_sv 13
rho 0.846175
label -1 1
nr_sv 7 6
SV
0.226607194394907 1:0.489863 2:0.0305051 
2.73634089980177 1:0.583625 2:0.330996 
40.13850192742792 1:0.361876 2:0.694659 
8.716483889608336 1:0.471556 2:0.635381 
53.27244984628923 1:0.406318 2:0.722603 
1.454515935056292 1:0.743745 2:-0.100583 
53.27244984628923 1:0.467445 2:0.715147 
-53.27244984628923 1:0.380413 2:0.743099 
-4.955780940516489 1:0.334046 2:0.764304 
-0.686563534104034 1:0.16208 2:0.69465 
-53.27244984628923 1:0.416264 2:0.688228 
-13.08682040954475 1:0.365395 2:0.775488 
-34.54328496212396 1:0.545483 2:0.673433 
