svm_type c_svc
kernel_type rbf
gamma 10
nr_class 2
total_sv 59
rho 0.268662
label -1 1
nr_sv 29 30
SV
0.1 1:0.489863 2:0.0305051 
0.1 1:0.541731 2:0.0575199 
0.1 1:0.581664 2:-0.0125588 
0.1 1:0.48461 2:0.404981 
0.1 1:0.583625 2:0.330996 
0.1 1:0.351561 2:0.173119 
0.03802790487943878 1:0.593817 2:0.293619 
0.1 1:0.361876 2:0.694659 
0.1 1:0.446741 2:0.501701 
0.1 1:0.471556 2:0.635381 
0.1 1:0.474222 2:0.614163 
0.1 1:0.399086 2:0.394161 
0.1 1:0.626504 2:0.187076 
0.1 1:0.460522 2:0.386748 
0.1 1:0.480183 2:0.0707475 
0.1 1:0.465311 2:0.0658186 
0.1 1:0.544069 2:-0.00172444 
0.1 1:0.420351 2:0.43356 
0.1 1:0.431417 2:0.367343 
0.1 1:0.507978 2:0.524091 
0.1 1:0.645196 2:0.177188 
0.1 1:0.410366 2:0.467568 
0.1 1:0.406318 2:0.722603 
0.02983489789149901 1:0.519659 2:0.0689437 
0.1 1:0.43965 2:0.431607 
0.1 1:0.471113 2:0.55486 
0.1 1:0.743745 2:-0.100583 
0.1 1:0.589461 2:-0.026244 
0.1 1:0.467445 2:0.715147 
-0.1 1:0.380413 2:0.743099 
-0.1 1:0.867345 2:0.721681 
-0.1 1:0.985903 2:0.912891 
-0.1 1:0.505072 2:0.811549 
-0.1 1:0.110398 2:0.68641 
-0.03913473559630845 1:0.659472 2:0.797246 
-0.1 1:0.328774 2:0.790798 
-0.1 1:0.334046 2:0.764304 
-0.1 1:0.76239 2:0.756617 
-0.1 1:0.633367 2:0.735551 
-0.1 1:0.145372 2:0.716144 
-0.02195271770775304 1:0.334734 2:0.804516 
-0.1 1:0.16208 2:0.69465 
-0.1 1:0.658745 2:0.767098 
-0.1 1:0.416264 2:0.688228 
-0.1 1:0.995828 2:0.688111 
-0.1 1:0.322289 2:0.775395 
-0.07964734898338091 1:0.586172 2:0.931692 
-0.1 1:0.594071 2:0.804053 
-0.0271280004834954 1:0.182079 2:0.942206 
-0.1 1:0.176725 2:0.744803 
-0.1 1:-0.189764 2:0.787702 
-0.1 1:0.503446 2:0.814028 
-0.1 1:0.365395 2:0.775488 
-0.1 1:0.922081 2:0.687121 
-0.1 1:0.915827 2:0.782588 
-0.1 1:0.126395 2:0.944876 
-0.1 1:-0.00913352 2:0.936011 
-0.1 1:0.545483 2:0.673433 
-0.1 1:-0.160715 2:0.669173 
