svm_type one_class
kernel_type rbf
gamma 1
nr_class 2
total_sv 14
rho 7.26228
SV
0.123773518912006 1:0.489863 2:0.0305051 
1 1:0.581664 2:-0.0125588 
1 1:0.985903 2:0.912891 
1 1:0.995828 2:0.688111 
0.5372597432240096 1:0.182079 2:0.942206 
1 1:-0.189764 2:0.787702 
0.3389667378639843 1:0.922081 2:0.687121 
1 1:0.915827 2:0.782588 
1 1:0.544069 2:-0.00172444 
1 1:0.126395 2:0.944876 
1 1:-0.00913352 2:0.936011 
1 1:-0.160715 2:0.669173 
1 1:0.743745 2:-0.100583 
1 1:0.589461 2:-0.026244 
