svm_type one_class
kernel_type rbf
gamma 100
nr_class 2
total_sv 50
rho 0.537595
SV
0.1078560019153276 1:0.489863 2:0.0305051 
0.2099126881082615 1:0.352328 2:0.891995 
0.2258888823735465 1:0.867345 2:0.721681 
0.5078998427433208 1:0.985903 2:0.912891 
0.2083818125640874 1:0.505072 2:0.811549 
0.3247159230259808 1:0.110398 2:0.68641 
0.02784810840163516 1:0.659472 2:0.797246 
0.2778096807000101 1:0.441294 2:0.898744 
0.3206359695845021 1:0.061663 2:0.824745 
0.2626312845338937 1:0.76239 2:0.756617 
0.04681403196007645 1:0.48461 2:0.404981 
0.3516186172783371 1:0.583625 2:0.330996 
0.4252538111438066 1:0.351561 2:0.173119 
0.1192235757013133 1:0.174428 2:0.805493 
0.290004204608645 1:0.633367 2:0.735551 
0.02719637332713076 1:0.593817 2:0.293619 
0.1917957164014699 1:0.16208 2:0.69465 
0.3591934405235959 1:0.361876 2:0.694659 
0.09492921325577849 1:0.22488 2:0.808594 
0.1819274604436405 1:0.474222 2:0.614163 
0.4250000839268274 1:0.995828 2:0.688111 
0.2439955475612852 1:0.399086 2:0.394161 
0.4284504292855862 1:0.586172 2:0.931692 
0.09167891017614666 1:0.594071 2:0.804053 
0.1494932388791516 1:0.182079 2:0.942206 
0.4360638383415467 1:-0.189764 2:0.787702 
0.08169201509069897 1:0.365395 2:0.775488 
0.2465340604884171 1:0.259855 2:0.919488 
0.2945076847235533 1:0.465311 2:0.0658186 
0.1842017290506824 1:0.283335 2:0.7906 
0.05879398097722116 1:0.462079 2:0.199973 
0.2112048048457718 1:0.522062 2:0.208185 
0.04179278423593114 1:0.922081 2:0.687121 
0.2118815691389749 1:0.915827 2:0.782588 
0.2667107336377171 1:0.413703 2:0.281598 
0.2479383143510276 1:0.126395 2:0.944876 
0.1101611204543505 1:0.520747 2:0.362571 
0.02149946436415748 1:0.485547 2:0.90405 
0.4352010865169208 1:-0.00913352 2:0.936011 
0.3318665411328122 1:0.507978 2:0.524091 
0.4142730094071739 1:0.645196 2:0.177188 
0.2301527720221984 1:0.545483 2:0.673433 
0.03873606201890424 1:0.778249 2:0.849624 
0.2472804728772814 1:0.410366 2:0.467568 
0.4390821107642927 1:-0.160715 2:0.669173 
0.1454757514538825 1:0.574412 2:0.0898252 
0.5152121643367026 1:0.743745 2:-0.100583 
0.4115472964807943 1:0.589461 2:-0.026244 
0.3660687341557801 1:0.747616 2:0.867949 
0.1119670507098501 1:0.467445 2:0.715147 
