svm_type c_svc
kernel_type rbf
gamma 10
nr_class 2
total_sv 12
rho 1.07034
label -1 1
nr_sv 7 5
SV
0.3455074508087496 1:0.489863 2:0.0305051 
1.681230863697704 1:0.583625 2:0.330996 
58.93379413797395 1:0.361876 2:0.694659 
8.448893363265894 1:0.507978 2:0.524091 
100 1:0.406318 2:0.722603 
1.676196645784793 1:0.743745 2:-0.100583 
100 1:0.467445 2:0.715147 
-100 1:0.380413 2:0.743099 
-2.52547324104012 1:0.505072 2:0.811549 
-100 1:0.416264 2:0.688228 
-16.36235903843633 1:0.365395 2:0.775488 
-52.19779018205464 1:0.545483 2:0.673433 
