svm_type c_svc
kernel_type rbf
gamma 1
nr_class 2
total_sv 10
rho 13.4521
label -1 1
nr_sv 5 5
SV
1000 1:0.361876 2:0.694659 
168.1900054730818 1:0.471556 2:0.635381 
1000 1:0.406318 2:0.722603 
15.26691667860523 1:0.743745 2:-0.100583 
1000 1:0.467445 2:0.715147 
-1000 1:0.380413 2:0.743099 
-256.0241018361828 1:0.334046 2:0.764304 
-161.757428369217 1:0.16208 2:0.69465 
-1000 1:0.416264 2:0.688228 
-765.6753919462866 1:0.545483 2:0.673433 
