svm_type one_class
kernel_type rbf
gamma 1
nr_class 2
total_sv 25
rho 15.9558
SV
1 1:0.489863 2:0.0305051 
1 1:0.541731 2:0.0575199 
1 1:0.581664 2:-0.0125588 
1 1:0.867345 2:0.721681 
1 1:0.985903 2:0.912891 
1 1:0.061663 2:0.824745 
1 1:0.995828 2:0.688111 
0.04791460626578383 1:0.586172 2:0.931692 
0.9520853937342162 1:0.150842 2:0.78242 
1 1:0.182079 2:0.942206 
1 1:0.480183 2:0.0707475 
1 1:-0.189764 2:0.787702 
1 1:0.259855 2:0.919488 
1 1:0.465311 2:0.0658186 
1 1:0.922081 2:0.687121 
1 1:0.915827 2:0.782588 
1 1:0.544069 2:-0.00172444 
1 1:0.126395 2:0.944876 
1 1:-0.00913352 2:0.936011 
1 1:0.778249 2:0.849624 
1 1:0.519659 2:0.0689437 
1 1:-0.160715 2:0.669173 
1 1:0.743745 2:-0.100583 
1 1:0.589461 2:-0.026244 
1 1:0.747616 2:0.867949 
