svm_type c_svc
kernel_type rbf
gamma 1
nr_class 2
total_sv 10
rho 4.97855
label -1 1
nr_sv 4 6
SV
100 1:0.361876 2:0.694659 
100 1:0.471556 2:0.635381 
100 1:0.406318 2:0.722603 
100 1:0.467445 2:0.715147 
-100 1:0.380413 2:0.743099 
-29.0380192440034 1:0.334046 2:0.764304 
-31.51276293176127 1:0.633367 2:0.735551 
-39.44921782423531 1:0.16208 2:0.69465 
-100 1:0.416264 2:0.688228 
-100 1:0.545483 2:0.673433 
