svm_type c_svc
kernel_type linear
nr_class 2
total_sv 13
rho -9.13057
label -1 1
nr_sv 6 7
SV
100 1:0.361876 2:0.694659 
100 1:0.471556 2:0.635381 
100 1:0.474222 2:0.614163 
100 1:0.406318 2:0.722603 
91.64319057064355 1:0.471113 2:0.55486 
100 1:0.467445 2:0.715147 
-100 1:0.110398 2:0.68641 
-15.80918900674828 1:0.16208 2:0.69465 
-100 1:0.416264 2:0.688228 
-75.8340015638953 1:0.995828 2:0.688111 
-100 1:0.922081 2:0.687121 
-100 1:0.545483 2:0.673433 
-100 1:-0.160715 2:0.669173 
