svm_type c_svc
kernel_type rbf
gamma 100
nr_class 2
total_sv 53
rho 0.219461
label -1 1
nr_sv 22 31
SV
0.2381060901782929 1:0.489863 2:0.0305051 
0.1166283498858143 1:0.48461 2:0.404981 
0.8055809323184669 1:0.583625 2:0.330996 
0.9647905109559727 1:0.351561 2:0.173119 
0.0575864279395932 1:0.593817 2:0.293619 
1 1:0.361876 2:0.694659 
1 1:0.471556 2:0.635381 
0.1653504401941004 1:0.474222 2:0.614163 
0.5638120858922836 1:0.399086 2:0.394161 
0.674060520177351 1:0.465311 2:0.0658186 
0.1319547539516461 1:0.462079 2:0.199973 
0.4813163884948249 1:0.522062 2:0.208185 
0.6040226730526199 1:0.413703 2:0.281598 
0.2390259054470766 1:0.520747 2:0.362571 
0.7512970989891241 1:0.507978 2:0.524091 
0.939362055204397 1:0.645196 2:0.177188 
0.5382440179817992 1:0.410366 2:0.467568 
1 1:0.406318 2:0.722603 
0.3277110732325664 1:0.574412 2:0.0898252 
1 1:0.743745 2:-0.100583 
0.9446186925637092 1:0.589461 2:-0.026244 
1 1:0.467445 2:0.715147 
-1 1:0.380413 2:0.743099 
-0.1836526328777273 1:0.352328 2:0.891995 
-0.3359211084432553 1:0.867345 2:0.721681 
-0.7378514622953725 1:0.985903 2:0.912891 
-0.7233156090953416 1:0.505072 2:0.811549 
-0.4405946661668591 1:0.110398 2:0.68641 
-0.1116463348385149 1:0.659472 2:0.797246 
-0.3318608936280212 1:0.441294 2:0.898744 
-0.4609936108045664 1:0.061663 2:0.824745 
-0.5096462378030731 1:0.334046 2:0.764304 
-0.3609430483850787 1:0.76239 2:0.756617 
-0.1802134946028698 1:0.174428 2:0.805493 
-0.2014282048041421 1:0.633367 2:0.735551 
-0.3213907778297193 1:0.16208 2:0.69465 
-0.1796521630165162 1:0.22488 2:0.808594 
-0.1197365708257633 1:0.658745 2:0.767098 
-1 1:0.416264 2:0.688228 
-0.6183214206477503 1:0.995828 2:0.688111 
-0.610965089792963 1:0.586172 2:0.931692 
-0.1659255790361021 1:0.182079 2:0.942206 
-0.6337182810591157 1:-0.189764 2:0.787702 
-0.2975567436256166 1:0.365395 2:0.775488 
-0.4288360876867975 1:0.259855 2:0.919488 
-0.05715054133304536 1:0.922081 2:0.687121 
-0.3042203846606218 1:0.915827 2:0.782588 
-0.3866916216394281 1:0.126395 2:0.944876 
-0.6290473658253928 1:-0.00913352 2:0.936011 
-1 1:0.545483 2:0.673433 
-0.07806760045007848 1:0.778249 2:0.849624 
-0.6369811940894059 1:-0.160715 2:0.669173 
-0.4971392911965005 1:0.747616 2:0.867949 
