svm_type nu_svc
kernel_type rbf
gamma 0.01
nr_class 2
total_sv 6
rho -3.20673
label -1 1
nr_sv 3 3
SV
-8327.194937337139 1:0.361876 2:0.694659 
-8327.194937337139 1:0.406318 2:0.722603 
-8327.194937337139 1:0.467445 2:0.715147 
8327.194937337139 1:0.380413 2:0.743099 
8327.194937337139 1:0.365395 2:0.775488 
8327.194937337139 1:0.545483 2:0.673433 
