svm_type nu_svc
kernel_type rbf
gamma 0.1
nr_class 2
total_sv 12
rho 33.6717
label 1 -1
nr_sv 7 5
SV
11707.57218082915 1:0.525915 2:0.14007 
10410.94946436895 1:0.335657 2:0.684751 
591.4988041737585 1:1.08883 2:1.01915 
152.6532040206233 1:1.05778 2:0.561713 
1402.067692932035 1:0.0758233 2:0.6928 
1161.090094265048 1:1.09611 2:0.109935 
12245.67605589654 1:0.688557 2:-0.083797 
-12557.16916549536 1:0.764904 2:0.160035 
-12557.16916549536 1:0.651305 2:0.0858687 
-7032.857619357991 1:0.208735 2:0.903645 
-602.5964689206785 1:0.334011 2:0.160909 
-4921.715077216695 1:0.128658 2:0.0221405 
