svm_type nu_svc
kernel_type rbf
gamma 10
nr_class 2
total_sv 7
rho -1.16123
label 1 -1
nr_sv 4 3
SV
-1083.702815537501 1:0.525915 2:0.14007 
-122.0220919913248 1:0.683415 2:0.438551 
-39.49514893183383 1:0.409476 2:0.32463 
-68.60270027086574 1:0.688557 2:-0.083797 
418.8957250047169 1:0.514284 2:-0.00197367 
86.89307538176747 1:0.41617 2:0.16888 
808.0339563450415 1:0.55989 2:0.219357 
