svm_type c_svc
kernel_type rbf
gamma 0.01
nr_class 2
total_sv 55
rho -1.42936
label 1 -1
nr_sv 28 27
SV
100 1:0.525915 2:0.14007 
100 1:0.335657 2:0.684751 
24.49048089754488 1:0.709455 2:0.36865 
10.91433296893665 1:0.76639 2:0.259949 
100 1:0.0758233 2:0.6928 
100 1:0.672776 2:0.0440289 
100 1:0.386467 2:0.880551 
100 1:0.432132 2:0.837625 
100 1:0.662618 2:0.149151 
100 1:0.408354 2:0.740695 
100 1:0.43511 2:0.674663 
100 1:0.349768 2:0.640682 
100 1:0.279143 2:0.915875 
100 1:0.447129 2:0.845902 
100 1:0.557603 2:0.113056 
100 1:0.623052 2:-0.030142 
100 1:0.401203 2:0.859367 
100 1:0.409476 2:0.32463 
100 1:0.260724 2:0.677348 
100 1:0.312414 2:1.07403 
100 1:0.499596 2:0.712846 
100 1:0.688557 2:-0.083797 
100 1:0.806687 2:0.135085 
100 1:0.572752 2:0.518822 
100 1:0.605664 2:0.45062 
100 1:0.613526 2:-0.0568415 
100 1:0.568974 2:0.44456 
100 1:0.286071 2:0.924469 
-100 1:0.764904 2:0.160035 
-100 1:0.651305 2:0.0858687 
-100 1:0.159249 2:1.05124 
-100 1:0.442034 2:0.227804 
-100 1:0.291704 2:0.497202 
-100 1:0.497285 2:0.417946 
-100 1:0.516824 2:0.435696 
-100 1:0.514284 2:-0.00197367 
-100 1:0.536825 2:0.324838 
-100 1:0.309902 2:0.323016 
-100 1:0.328273 2:0.370742 
-35.40481386648155 1:0.102892 2:0.705553 
-100 1:0.240353 2:0.467545 
-100 1:0.208735 2:0.903645 
-100 1:0.119328 2:0.764488 
-100 1:0.587622 2:0.513772 
-100 1:0.38608 2:0.383324 
-100 1:0.289282 2:0.618659 
-100 1:0.303944 2:0.551695 
-100 1:0.41617 2:0.16888 
-100 1:0.613725 2:0.177919 
-100 1:0.375895 2:0.623272 
-100 1:0.55989 2:0.219357 
-100 1:0.275484 2:0.611903 
-100 1:0.220914 2:0.763926 
-100 1:0.18171 2:0.680757 
-100 1:0.308809 2:0.613917 
