svm_type c_svc
kernel_type rbf
gamma 10
nr_class 2
total_sv 33
rho -0.419189
label 1 -1
nr_sv 18 15
SV
1000 1:0.525915 2:0.14007 
0.005744959438390798 1:1.08883 2:1.01915 
73.9262056601835 1:0.76639 2:0.259949 
0.3056109273522311 1:0.809733 2:0.880612 
1000 1:0.0758233 2:0.6928 
197.1975854379321 1:0.672776 2:0.0440289 
0.6405932741166036 1:0.979303 2:0.845029 
1000 1:0.662618 2:0.149151 
1000 1:0.349768 2:0.640682 
0.6104594095296046 1:0.919269 2:0.816831 
64.36194985799108 1:0.279143 2:0.915875 
109.6349739689574 1:0.557603 2:0.113056 
1000 1:0.409476 2:0.32463 
1000 1:0.260724 2:0.677348 
472.7638791418451 1:0.806687 2:0.135085 
883.5783786083964 1:0.572752 2:0.518822 
121.845811678084 1:0.613526 2:-0.0568415 
831.9411603957254 1:0.568974 2:0.44456 
-797.1746427104641 1:0.764904 2:0.160035 
-1000 1:0.651305 2:0.0858687 
-842.1961423247985 1:0.442034 2:0.227804 
-115.2746240841208 1:0.0557913 2:0.693783 
-432.6272655911152 1:0.0245959 2:0.678565 
-681.3117190272211 1:0.516824 2:0.435696 
-236.7858089629452 1:0.514284 2:-0.00197367 
-142.0105685678915 1:0.536825 2:0.324838 
-194.6631913113013 1:0.328273 2:0.370742 
-1000 1:0.587622 2:0.513772 
-391.0777214135263 1:0.289282 2:0.618659 
-1000 1:0.375895 2:0.623272 
-684.1709275440486 1:0.55989 2:0.219357 
-474.2896313385636 1:0.220914 2:0.763926 
-765.2301104435605 1:0.18171 2:0.680757 
