svm_type nu_svc
kernel_type rbf
gamma 0.01
nr_class 2
total_sv 3
rho 614.761
label 1 -1
nr_sv 1 2
SV
1387856.884395535 1:0.525915 2:0.14007 
-235907.2144594268 1:0.0848653 2:-0.00853323 
-1151949.669936108 1:0.613725 2:0.177919 
