svm_type c_svc
kernel_type rbf
gamma 100
nr_class 2
total_sv 74
rho 0.0679845
label 1 -1
nr_sv 40 34
SV
1.05645761529666 1:1.08883 2:1.01915 
0.8432156411525809 1:0.78708 2:1.00321 
0.5669305436752091 1:0.681286 2:0.831526 
0.8251587267219992 1:1.05778 2:0.561713 
0.1576634658568168 1:0.677085 2:0.656024 
3.163090526226321 1:0.76639 2:0.259949 
0.6997244578532614 1:0.809733 2:0.880612 
6.426025237755845 1:0.697481 2:0.514252 
193.8038576080157 1:0.0758233 2:0.6928 
13.53599789270496 1:0.672776 2:0.0440289 
0.08762876489211546 1:0.548464 2:0.877153 
0.782356863912005 1:0.979303 2:0.845029 
0.4094481296090035 1:0.599463 2:0.841292 
0.7598146579935314 1:0.931216 2:0.473004 
0.6171249734452707 1:0.643949 2:0.956236 
0.6408496681207626 1:0.45031 2:0.99531 
22.66806730104621 1:0.662618 2:0.149151 
0.8162195775006358 1:1.08588 2:0.00347531 
0.416355289473837 1:0.798443 2:0.633239 
1.734576051412887 1:0.43511 2:0.674663 
17.12944538349529 1:0.349768 2:0.640682 
2.148827126149158 1:0.279143 2:0.915875 
0.4027271151285373 1:0.447129 2:0.845902 
8.2706472311685 1:0.557603 2:0.113056 
0.2741852302490932 1:0.45775 2:0.852791 
0.3883567375351756 1:0.530819 2:0.965572 
0.7873730679727265 1:1.09611 2:0.109935 
1.309681818763011 1:0.62605 2:0.641837 
4.800326697183078 1:0.409476 2:0.32463 
4.205927320313978 1:0.260724 2:0.677348 
0.6338155744034208 1:0.955933 2:0.615135 
0.7236494778792074 1:0.939619 2:0.339713 
0.9776411840191365 1:0.312414 2:1.07403 
0.5143066904283267 1:0.953689 2:0.223568 
10.01426269890299 1:0.806687 2:0.135085 
0.6553766729948717 1:0.926007 2:0.757767 
82.58846992283962 1:0.572752 2:0.518822 
15.23258257427723 1:0.605664 2:0.45062 
0.3331037012359684 1:0.613526 2:-0.0568415 
0.196135090329322 1:0.568974 2:0.44456 
-0.1384154166257793 1:0.0848653 2:-0.00853323 
-14.47307788776315 1:0.764904 2:0.160035 
-23.46088818000617 1:0.651305 2:0.0858687 
-0.9331166133714435 1:0.159249 2:1.05124 
-2.115957896143453 1:0.442034 2:0.227804 
-0.520658344147594 1:0.321754 2:0.247614 
-121.5354313809581 1:0.0557913 2:0.693783 
-0.380729519612463 1:0.109356 2:0.203229 
-8.291952881775103 1:0.516824 2:0.435696 
-2.132853466985534 1:0.514284 2:-0.00197367 
-0.1841332981269654 1:0.536825 2:0.324838 
-1.147899963866868 1:0.309902 2:0.323016 
-0.3866488823110948 1:0.0506605 2:0.374932 
-0.9196226371295658 1:-0.110507 2:0.930729 
-79.23748239497222 1:0.102892 2:0.705553 
-0.2768369026104927 1:0.0443197 2:0.405143 
-0.1459554149361856 1:0.144638 2:0.283194 
-0.2766105864293363 1:0.212556 2:0.219576 
-1.913458725887498 1:0.208735 2:0.903645 
-0.4135564187705082 1:0.151786 2:0.351815 
-10.09167565448744 1:0.108564 2:0.597168 
-90.9095114072864 1:0.587622 2:0.513772 
-0.7452572506285915 1:0.100114 2:-0.0917218 
-2.510537484355479 1:0.38608 2:0.383324 
-0.2595219508836318 1:0.334011 2:0.160909 
-7.470360572755849 1:0.289282 2:0.618659 
-0.4534503404089784 1:0.128658 2:0.0221405 
-0.843773068747381 1:-0.0913975 2:0.0988509 
-0.1651224631050707 1:0.41617 2:0.16888 
-0.1269224431566781 1:0.221246 2:0.444439 
-12.99894816132531 1:0.613725 2:0.177919 
-0.4563141911369573 1:0.121374 2:0.122624 
-14.91891405410445 1:0.375895 2:0.623272 
-0.7618084531225815 1:-0.0420854 2:0.241917 
