svm_type nu_svc
kernel_type rbf
gamma 10
nr_class 2
total_sv 64
rho -0.241537
label 1 -1
nr_sv 32 32
SV
0.3208126723388855 1:0.525915 2:0.14007 
0.3208126723388855 1:0.335657 2:0.684751 
0.3208126723388855 1:1.08883 2:1.01915 
0.3208126723388855 1:0.709455 2:0.36865 
0.2671347381094325 1:0.78708 2:1.00321 
0.3208126723388855 1:1.05778 2:0.561713 
0.3208126723388855 1:0.76639 2:0.259949 
0.3208126723388855 1:0.0758233 2:0.6928 
0.3208126723388855 1:0.672776 2:0.0440289 
0.1491324857350555 1:0.979303 2:0.845029 
0.3208126723388855 1:0.683415 2:0.438551 
0.3208126723388855 1:0.386467 2:0.880551 
0.3208126723388855 1:0.662618 2:0.149151 
0.3208126723388855 1:1.08588 2:0.00347531 
0.3208126723388855 1:0.408354 2:0.740695 
0.3208126723388855 1:0.43511 2:0.674663 
0.3208126723388855 1:0.349768 2:0.640682 
0.3208126723388855 1:0.279143 2:0.915875 
0.3208126723388855 1:0.557603 2:0.113056 
0.3208126723388855 1:0.623052 2:-0.030142 
0.01414946082489224 1:0.401203 2:0.859367 
0.2864690632661523 1:1.09611 2:0.109935 
0.3208126723388855 1:0.409476 2:0.32463 
0.3208126723388855 1:0.260724 2:0.677348 
0.3208126723388855 1:0.312414 2:1.07403 
0.3208126723388855 1:0.499596 2:0.712846 
0.245552269081124 1:0.688557 2:-0.083797 
0.3208126723388855 1:0.572752 2:0.518822 
0.3208126723388855 1:0.605664 2:0.45062 
0.3208126723388855 1:0.613526 2:-0.0568415 
0.3208126723388855 1:0.568974 2:0.44456 
0.3208126723388855 1:0.286071 2:0.924469 
-0.3208126723388855 1:0.0848653 2:-0.00853323 
-0.3208126723388855 1:0.764904 2:0.160035 
-0.3208126723388855 1:0.651305 2:0.0858687 
-0.3208126723388855 1:0.159249 2:1.05124 
-0.3208126723388855 1:-0.00601104 2:0.832049 
-0.3208126723388855 1:0.442034 2:0.227804 
-0.01852437714677283 1:0.291704 2:0.497202 
-0.3208126723388855 1:0.497285 2:0.417946 
-0.3208126723388855 1:0.516824 2:0.435696 
-0.3208126723388855 1:0.514284 2:-0.00197367 
-0.3208126723388855 1:0.536825 2:0.324838 
-0.3208126723388855 1:-0.110507 2:0.930729 
-0.3114828445482645 1:0.102892 2:0.705553 
-0.04848464154295908 1:0.0443197 2:0.405143 
-0.3208126723388855 1:0.208735 2:0.903645 
-0.3208126723388855 1:0.119328 2:0.764488 
-0.3208126723388855 1:0.587622 2:0.513772 
-0.3208126723388855 1:0.100114 2:-0.0917218 
-0.3208126723388855 1:0.38608 2:0.383324 
-0.2631334814397746 1:0.334011 2:0.160909 
-0.3208126723388855 1:0.289282 2:0.618659 
-0.3208126723388855 1:0.303944 2:0.551695 
-0.3208126723388855 1:-0.0913975 2:0.0988509 
-0.3208126723388855 1:0.41617 2:0.16888 
-0.3208126723388855 1:0.613725 2:0.177919 
-0.3208126723388855 1:0.375895 2:0.623272 
-0.3208126723388855 1:0.55989 2:0.219357 
-0.3208126723388855 1:0.275484 2:0.611903 
-0.3208126723388855 1:0.220914 2:0.763926 
-0.3208126723388855 1:0.18171 2:0.680757 
-0.3208126723388855 1:0.308809 2:0.613917 
-0.3208126723388855 1:-0.0420854 2:0.241917 
