svm_type c_svc
kernel_type polynomial
degree 3
gamma 0.5
coef0 0
nr_class 2
total_sv 94
rho 1.05095
label 1 -1
nr_sv 47 47
SV
1 1:0.525915 2:0.14007 
1 1:0.335657 2:0.684751 
1 1:0.709455 2:0.36865 
1 1:0.677085 2:0.656024 
1 1:0.76639 2:0.259949 
1 1:0.716276 2:0.524459 
1 1:0.697481 2:0.514252 
1 1:0.0758233 2:0.6928 
1 1:0.672776 2:0.0440289 
1 1:0.548464 2:0.877153 
1 1:0.683415 2:0.438551 
1 1:0.599463 2:0.841292 
1 1:0.386467 2:0.880551 
1 1:0.432132 2:0.837625 
1 1:0.45031 2:0.99531 
1 1:0.662618 2:0.149151 
1 1:1.08588 2:0.00347531 
1 1:0.719687 2:0.580146 
1 1:0.408354 2:0.740695 
1 1:0.43511 2:0.674663 
1 1:0.349768 2:0.640682 
1 1:0.279143 2:0.915875 
1 1:0.447129 2:0.845902 
1 1:0.557603 2:0.113056 
1 1:0.830451 2:0.460743 
1 1:0.623052 2:-0.030142 
1 1:0.45775 2:0.852791 
1 1:0.401203 2:0.859367 
1 1:0.62605 2:0.641837 
1 1:0.409476 2:0.32463 
1 1:0.260724 2:0.677348 
1 1:0.939619 2:0.339713 
1 1:0.863492 2:0.237233 
1 1:0.312414 2:1.07403 
1 1:0.736378 2:0.464168 
1 1:0.885389 2:0.0359631 
1 1:0.953689 2:0.223568 
1 1:0.920264 2:0.249822 
1 1:0.499596 2:0.712846 
1 1:0.688557 2:-0.083797 
1 1:0.833157 2:0.277062 
1 1:0.806687 2:0.135085 
1 1:0.572752 2:0.518822 
1 1:0.605664 2:0.45062 
1 1:0.613526 2:-0.0568415 
1 1:0.568974 2:0.44456 
1 1:0.286071 2:0.924469 
-1 1:0.764904 2:0.160035 
-1 1:0.651305 2:0.0858687 
-1 1:0.159249 2:1.05124 
-1 1:-0.00601104 2:0.832049 
-1 1:0.442034 2:0.227804 
-1 1:0.321754 2:0.247614 
-1 1:0.0557913 2:0.693783 
-1 1:0.168483 2:0.449866 
-1 1:0.206942 2:0.477461 
-1 1:0.291704 2:0.497202 
-1 1:0.0245959 2:0.678565 
-1 1:0.497285 2:0.417946 
-1 1:0.516824 2:0.435696 
-1 1:0.514284 2:-0.00197367 
-1 1:0.252393 2:0.268846 
-1 1:0.536825 2:0.324838 
-1 1:0.309902 2:0.323016 
-1 1:0.328273 2:0.370742 
-1 1:-0.110507 2:0.930729 
-1 1:0.102892 2:0.705553 
-1 1:0.0451912 2:0.503292 
-1 1:0.240353 2:0.467545 
-1 1:0.212556 2:0.219576 
-1 1:0.235859 2:0.329784 
-1 1:0.208735 2:0.903645 
-1 1:0.151786 2:0.351815 
-1 1:0.119328 2:0.764488 
-1 1:0.108564 2:0.597168 
-1 1:0.19663 2:0.508351 
-1 1:0.587622 2:0.513772 
-1 1:0.147947 2:0.514568 
-1 1:0.38608 2:0.383324 
-1 1:0.334011 2:0.160909 
-1 1:0.289282 2:0.618659 
-1 1:0.303944 2:0.551695 
-1 1:0.41617 2:0.16888 
-1 1:0.221246 2:0.444439 
-1 1:0.613725 2:0.177919 
-1 1:0.375895 2:0.623272 
-1 1:0.24209 2:0.297752 
-1 1:0.55989 2:0.219357 
-1 1:0.275484 2:0.611903 
-1 1:0.186605 2:0.518318 
-1 1:0.220914 2:0.763926 
-1 1:0.185522 2:0.348112 
-1 1:0.18171 2:0.680757 
-1 1:0.308809 2:0.613917 
