svm_type nu_svc
kernel_type linear
nr_class 2
total_sv 8
rho 3.03826
label 1 -1
nr_sv 3 5
SV
-138711.2388428932 1:0.525915 2:0.14007 
-138711.2388428932 1:0.335657 2:0.684751 
-138711.2388428932 1:0.688557 2:-0.083797 
138711.2388428932 1:0.764904 2:0.160035 
81072.67537028038 1:0.651305 2:0.0858687 
57638.56347261281 1:0.516824 2:0.435696 
1461.69970882713 1:0.587622 2:0.513772 
137249.5391340661 1:0.185522 2:0.348112 
