svm_type nu_svc
kernel_type rbf
gamma 1
nr_class 2
total_sv 9
rho -20.4969
label 1 -1
nr_sv 5 4
SV
7561.540942915697 1:0.525915 2:0.14007 
197.5274222507537 1:1.05778 2:0.561713 
55.30272093981627 1:0.0758233 2:0.6928 
331.2457265127297 1:1.09611 2:0.109935 
215.0666189416194 1:0.939619 2:0.339713 
-737.11223130087 1:0.514284 2:-0.00197367 
-350.6524938908436 1:0.212556 2:0.219576 
-587.1549903591263 1:0.128658 2:0.0221405 
-6685.763716009774 1:0.613725 2:0.177919 
