svm_type c_svc
kernel_type rbf
gamma 1
nr_class 2
total_sv 34
rho -2.27853
label 1 -1
nr_sv 17 17
SV
100 1:0.525915 2:0.14007 
100 1:0.335657 2:0.684751 
40.57923055804065 1:0.709455 2:0.36865 
100 1:0.0758233 2:0.6928 
100 1:0.672776 2:0.0440289 
100 1:0.662618 2:0.149151 
7.713799700107375 1:0.43511 2:0.674663 
100 1:0.349768 2:0.640682 
100 1:0.279143 2:0.915875 
100 1:0.557603 2:0.113056 
77.33143944678498 1:0.623052 2:-0.030142 
100 1:0.409476 2:0.32463 
100 1:0.260724 2:0.677348 
100 1:0.572752 2:0.518822 
100 1:0.605664 2:0.45062 
100 1:0.568974 2:0.44456 
100 1:0.286071 2:0.924469 
-100 1:0.764904 2:0.160035 
-100 1:0.651305 2:0.0858687 
-91.81510438386211 1:0.159249 2:1.05124 
-100 1:0.497285 2:0.417946 
-100 1:0.516824 2:0.435696 
-100 1:0.514284 2:-0.00197367 
-100 1:0.536825 2:0.324838 
-100 1:0.208735 2:0.903645 
-100 1:0.587622 2:0.513772 
-8.450166861447167 1:0.100114 2:-0.0917218 
-100 1:0.289282 2:0.618659 
-100 1:0.613725 2:0.177919 
-100 1:0.375895 2:0.623272 
-100 1:0.55989 2:0.219357 
-25.35919845962371 1:0.275484 2:0.611903 
-100 1:0.220914 2:0.763926 
-100 1:0.308809 2:0.613917 
