svm_type nu_svc
kernel_type polynomial
degree 3
gamma 0.5
coef0 0
nr_class 2
total_sv 32
rho 1.7043
label 1 -1
nr_sv 18 14
SV
9251.638615936919 1:0.525915 2:0.14007 
8767.896782568105 1:0.335657 2:0.684751 
875.3961860777913 1:0.709455 2:0.36865 
1121.44631136488 1:0.681286 2:0.831526 
9251.638615936919 1:0.0758233 2:0.6928 
4188.323621797401 1:0.672776 2:0.0440289 
914.0444408614338 1:0.683415 2:0.438551 
9251.638615936919 1:0.662618 2:0.149151 
835.4406363798092 1:0.349768 2:0.640682 
9251.638615936919 1:0.557603 2:0.113056 
9251.638615936919 1:0.623052 2:-0.030142 
9251.638615936919 1:0.409476 2:0.32463 
9251.638615936919 1:0.260724 2:0.677348 
7382.312619988445 1:0.312414 2:1.07403 
2194.045242204548 1:0.572752 2:0.518822 
9251.638615936919 1:0.605664 2:0.45062 
1476.010006568343 1:0.613526 2:-0.0568415 
9251.638615936919 1:0.568974 2:0.44456 
-9251.638615936919 1:0.764904 2:0.160035 
-9251.638615936919 1:0.651305 2:0.0858687 
-4397.916338302526 1:0.159249 2:1.05124 
-6142.082243210399 1:0.497285 2:0.417946 
-8851.558284679702 1:0.516824 2:0.435696 
-7928.969182828366 1:0.514284 2:-0.00197367 
-4853.722277634396 1:0.208735 2:0.903645 
-9073.554607560158 1:0.587622 2:0.513772 
-9251.638615936919 1:0.303944 2:0.551695 
-9251.638615936919 1:0.613725 2:0.177919 
-9251.638615936919 1:0.375895 2:0.623272 
-5010.390145469053 1:0.55989 2:0.219357 
-9251.638615936919 1:0.220914 2:0.763926 
-9251.638615936919 1:0.308809 2:0.613917 
