svm_type nu_svc
kernel_type polynomial
degree 3
gamma 0.5
coef0 0
nr_class 2
total_sv 61
rho 1.30736
label 1 -1
nr_sv 31 30
SV
5.863466490188567 1:0.525915 2:0.14007 
5.863466490188567 1:0.335657 2:0.684751 
5.863466490188567 1:0.709455 2:0.36865 
5.863466490188567 1:0.76639 2:0.259949 
5.863466490188567 1:0.0758233 2:0.6928 
5.863466490188567 1:0.672776 2:0.0440289 
5.863466490188567 1:0.683415 2:0.438551 
5.863466490188567 1:0.386467 2:0.880551 
5.863466490188567 1:0.432132 2:0.837625 
5.863466490188567 1:0.662618 2:0.149151 
5.863466490188567 1:0.408354 2:0.740695 
5.863466490188567 1:0.43511 2:0.674663 
5.863466490188567 1:0.349768 2:0.640682 
5.863466490188567 1:0.279143 2:0.915875 
5.863466490188567 1:0.447129 2:0.845902 
5.863466490188567 1:0.557603 2:0.113056 
5.863466490188567 1:0.623052 2:-0.030142 
1.065019082501337 1:0.45775 2:0.852791 
5.863466490188567 1:0.401203 2:0.859367 
5.863466490188567 1:0.409476 2:0.32463 
5.863466490188567 1:0.260724 2:0.677348 
5.863466490188567 1:0.885389 2:0.0359631 
5.863466490188567 1:0.499596 2:0.712846 
5.863466490188567 1:0.688557 2:-0.083797 
4.798447407687229 1:0.833157 2:0.277062 
5.863466490188567 1:0.806687 2:0.135085 
5.863466490188567 1:0.572752 2:0.518822 
5.863466490188567 1:0.605664 2:0.45062 
5.863466490188567 1:0.613526 2:-0.0568415 
5.863466490188567 1:0.568974 2:0.44456 
5.863466490188567 1:0.286071 2:0.924469 
-5.863466490188567 1:0.764904 2:0.160035 
-5.863466490188567 1:0.651305 2:0.0858687 
-5.863466490188567 1:0.159249 2:1.05124 
-5.863466490188567 1:-0.00601104 2:0.832049 
-5.863466490188567 1:0.442034 2:0.227804 
-5.863466490188567 1:0.206942 2:0.477461 
-5.863466490188567 1:0.291704 2:0.497202 
-5.863466490188567 1:0.497285 2:0.417946 
-5.863466490188567 1:0.516824 2:0.435696 
-5.863466490188567 1:0.514284 2:-0.00197367 
-5.863466490188567 1:0.536825 2:0.324838 
-5.863466490188567 1:0.328273 2:0.370742 
-5.863466490188567 1:0.102892 2:0.705553 
-5.863466490188567 1:0.240353 2:0.467545 
-5.863466490188567 1:0.208735 2:0.903645 
-5.863466490188567 1:0.119328 2:0.764488 
-5.863466490188567 1:0.19663 2:0.508351 
-5.863466490188567 1:0.587622 2:0.513772 
-5.863466490188567 1:0.38608 2:0.383324 
-5.863466490188567 1:0.289282 2:0.618659 
-5.863466490188567 1:0.303944 2:0.551695 
-5.863466490188567 1:0.41617 2:0.16888 
-5.863466490188567 1:0.613725 2:0.177919 
-5.863466490188567 1:0.375895 2:0.623272 
-5.863466490188567 1:0.55989 2:0.219357 
-5.863466490188567 1:0.275484 2:0.611903 
-5.863466490188567 1:0.186605 2:0.518318 
-5.863466490188567 1:0.220914 2:0.763926 
-5.863466490188567 1:0.18171 2:0.680757 
-5.863466490188567 1:0.308809 2:0.613917 
