svm_type nu_svc
kernel_type polynomial
degree 3
gamma 0.5
coef0 0
nr_class 2
total_sv 2
rho 1.00632
label 1 -1
nr_sv 1 1
SV
619.5535332639198 1:0.525915 2:0.14007 
-619.5535332639198 1:0.0848653 2:-0.00853323 
