svm_type nu_svc
kernel_type rbf
gamma 0.01
nr_class 2
total_sv 26
rho -9.52406
label 1 -1
nr_sv 13 13
SV
5710.78204831619 1:0.525915 2:0.14007 
5710.78204831619 1:0.335657 2:0.684751 
5710.78204831619 1:0.709455 2:0.36865 
4411.053670548848 1:0.681286 2:0.831526 
5710.78204831619 1:0.677085 2:0.656024 
5710.78204831619 1:0.0758233 2:0.6928 
5710.78204831619 1:0.349768 2:0.640682 
5710.78204831619 1:0.279143 2:0.915875 
5710.78204831619 1:0.557603 2:0.113056 
5710.78204831619 1:0.409476 2:0.32463 
5710.78204831619 1:0.260724 2:0.677348 
1299.728377767341 1:0.312414 2:1.07403 
5710.78204831619 1:0.613526 2:-0.0568415 
-5710.78204831619 1:0.764904 2:0.160035 
-5710.78204831619 1:0.651305 2:0.0858687 
-5710.78204831619 1:0.159249 2:1.05124 
-955.2707197609197 1:0.442034 2:0.227804 
-4755.51132855527 1:0.497285 2:0.417946 
-5710.78204831619 1:0.516824 2:0.435696 
-5710.78204831619 1:0.536825 2:0.324838 
-5710.78204831619 1:0.208735 2:0.903645 
-5710.78204831619 1:0.587622 2:0.513772 
-5710.78204831619 1:0.303944 2:0.551695 
-5710.78204831619 1:0.375895 2:0.623272 
-5710.78204831619 1:0.55989 2:0.219357 
-5710.78204831619 1:0.220914 2:0.763926 
