svm_type c_svc
kernel_type rbf
gamma 100
nr_class 2
total_sv 81
rho -0.0913797
label 1 -1
nr_sv 42 39
SV
0.615732065567397 1:0.525915 2:0.14007 
0.8987698148922177 1:1.08883 2:1.01915 
0.03845930198253082 1:0.709455 2:0.36865 
0.7175520210763456 1:0.78708 2:1.00321 
0.4838599089823128 1:0.681286 2:0.831526 
0.7184746583050476 1:1.05778 2:0.561713 
0.1907794049255006 1:0.677085 2:0.656024 
2.589139674446531 1:0.76639 2:0.259949 
0.595015588806845 1:0.809733 2:0.880612 
1.23032834039477 1:0.697481 2:0.514252 
10 1:0.0758233 2:0.6928 
6.203138665959592 1:0.672776 2:0.0440289 
0.06592600821408531 1:0.548464 2:0.877153 
0.6698002867687185 1:0.979303 2:0.845029 
0.3588603329844562 1:0.599463 2:0.841292 
0.4942944584853139 1:0.931216 2:0.473004 
0.5226708484352955 1:0.643949 2:0.956236 
0.5310220819428173 1:0.45031 2:0.99531 
10 1:0.662618 2:0.149151 
0.6941086393732011 1:1.08588 2:0.00347531 
0.6402391541823664 1:0.798443 2:0.633239 
1.850496579216963 1:0.43511 2:0.674663 
10 1:0.349768 2:0.640682 
2.230375591005041 1:0.279143 2:0.915875 
0.2947058198743216 1:0.447129 2:0.845902 
4.231332233758848 1:0.557603 2:0.113056 
0.4634740173160682 1:0.830451 2:0.460743 
0.2671135832798882 1:0.45775 2:0.852791 
0.3397114686247638 1:0.530819 2:0.965572 
0.6686433204116583 1:1.09611 2:0.109935 
0.6641115293766496 1:0.62605 2:0.641837 
4.925712979592395 1:0.409476 2:0.32463 
3.771050993111776 1:0.260724 2:0.677348 
0.5255295322627839 1:0.955933 2:0.615135 
0.6041919479948166 1:0.939619 2:0.339713 
0.8374408393783351 1:0.312414 2:1.07403 
0.4619289158748703 1:0.953689 2:0.223568 
7.245531960169551 1:0.806687 2:0.135085 
0.5456507603829746 1:0.926007 2:0.757767 
8.975434219215275 1:0.572752 2:0.518822 
0.7600369699878043 1:0.613526 2:-0.0568415 
5.577023888149136 1:0.568974 2:0.44456 
-0.1710687139540266 1:0.0848653 2:-0.00853323 
-9.72956570293486 1:0.764904 2:0.160035 
-10 1:0.651305 2:0.0858687 
-1.063360501178549 1:0.159249 2:1.05124 
-0.7208973934296359 1:-0.00601104 2:0.832049 
-2.333781986702067 1:0.442034 2:0.227804 
-0.6200535707042369 1:0.321754 2:0.247614 
-7.556501566124866 1:0.0557913 2:0.693783 
-0.3863154986875915 1:0.168483 2:0.449866 
-0.3732723797833848 1:0.109356 2:0.203229 
-5.043438951320406 1:0.516824 2:0.435696 
-2.020791617445695 1:0.514284 2:-0.00197367 
-0.9304625485245961 1:0.536825 2:0.324838 
-1.015844516456704 1:0.309902 2:0.323016 
-0.5563648863555403 1:0.0506605 2:0.374932 
-0.9987035063876679 1:-0.110507 2:0.930729 
-3.155466954467236 1:0.102892 2:0.705553 
-0.1356093342007524 1:0.0443197 2:0.405143 
-0.6277813200823775 1:0.0451912 2:0.503292 
-0.3398548563624453 1:0.144638 2:0.283194 
-0.3187066936248176 1:0.212556 2:0.219576 
-2.123313670798262 1:0.208735 2:0.903645 
-0.2274377617338217 1:0.151786 2:0.351815 
-0.8168300977728193 1:0.108564 2:0.597168 
-10 1:0.587622 2:0.513772 
-0.8716925344410075 1:0.100114 2:-0.0917218 
-3.123987162986927 1:0.38608 2:0.383324 
-0.409086301628566 1:0.334011 2:0.160909 
-5.462818411952406 1:0.289282 2:0.618659 
-0.5152051900494234 1:0.128658 2:0.0221405 
-0.9875932185118312 1:-0.0913975 2:0.0988509 
-0.2839212235840966 1:0.221246 2:0.444439 
-6.766149641070907 1:0.613725 2:0.177919 
-0.5655565589148946 1:0.121374 2:0.122624 
-9.287455229079756 1:0.375895 2:0.623272 
-1.604882224707112 1:0.220914 2:0.763926 
-0.01538181509424873 1:0.185522 2:0.348112 
-1.445104329484821 1:0.18171 2:0.680757 
-0.8934105341709034 1:-0.0420854 2:0.241917 
