svm_type nu_svc
kernel_type rbf
gamma 100
nr_class 2
total_sv 102
rho -0.130537
label 1 -1
nr_sv 52 50
SV
1.078901641536594 1:0.525915 2:0.14007 
1.078901641536594 1:0.335657 2:0.684751 
0.8599383511604228 1:1.08883 2:1.01915 
0.4805466001595416 1:0.709455 2:0.36865 
0.6868627936956979 1:0.78708 2:1.00321 
0.4859990893894413 1:0.681286 2:0.831526 
0.6888393769967255 1:1.05778 2:0.561713 
0.2350616982316591 1:0.677085 2:0.656024 
0.856305063333064 1:0.76639 2:0.259949 
0.4424735167107273 1:0.716276 2:0.524459 
0.5669107928617825 1:0.809733 2:0.880612 
1.078901641536594 1:0.0758233 2:0.6928 
1.078901641536594 1:0.672776 2:0.0440289 
0.1553481630237567 1:0.548464 2:0.877153 
0.6409259934612047 1:0.979303 2:0.845029 
0.2718126474531862 1:0.599463 2:0.841292 
0.4660267605744888 1:0.931216 2:0.473004 
0.3594631667303029 1:0.432132 2:0.837625 
0.4980890603939999 1:0.643949 2:0.956236 
0.5292710352957751 1:0.45031 2:0.99531 
1.078901641536594 1:0.662618 2:0.149151 
0.6558759795378865 1:1.08588 2:0.00347531 
0.0192605071128109 1:0.80428 2:0.58847 
0.6123282152877897 1:0.798443 2:0.633239 
0.5284999324758419 1:0.43511 2:0.674663 
1.078901641536594 1:0.349768 2:0.640682 
1.078901641536594 1:0.279143 2:0.915875 
1.078901641536594 1:0.557603 2:0.113056 
0.4672902122581045 1:0.830451 2:0.460743 
0.1316325058916391 1:0.45775 2:0.852791 
0.08616208901562568 1:0.401203 2:0.859367 
0.3062377769127091 1:0.530819 2:0.965572 
0.634548846963612 1:1.09611 2:0.109935 
0.5150760651528487 1:0.62605 2:0.641837 
1.078901641536594 1:0.409476 2:0.32463 
1.078901641536594 1:0.260724 2:0.677348 
0.5009852114740841 1:0.955933 2:0.615135 
0.5613257580506994 1:0.939619 2:0.339713 
0.1086914145678834 1:0.863492 2:0.237233 
0.8328116920263462 1:0.312414 2:1.07403 
0.02514910313062985 1:0.736378 2:0.464168 
0.6652867460420585 1:0.885389 2:0.0359631 
0.5825965447118845 1:0.953689 2:0.223568 
0.3740453983329853 1:0.499596 2:0.712846 
0.3139676566844017 1:0.688557 2:-0.083797 
1.078901641536594 1:0.806687 2:0.135085 
0.5222217101136152 1:0.926007 2:0.757767 
1.078901641536594 1:0.572752 2:0.518822 
0.5654232394218131 1:0.605664 2:0.45062 
0.7869676247272337 1:0.613526 2:-0.0568415 
1.078901641536594 1:0.568974 2:0.44456 
0.3210695667578143 1:0.286071 2:0.924469 
-0.1718325055627848 1:0.0848653 2:-0.00853323 
-1.078901641536594 1:0.764904 2:0.160035 
-1.078901641536594 1:0.651305 2:0.0858687 
-1.078901641536594 1:0.159249 2:1.05124 
-0.8765476176423118 1:-0.00601104 2:0.832049 
-0.6913911322056793 1:0.442034 2:0.227804 
-0.2204015417309954 1:0.321754 2:0.247614 
-0.4618211576485038 1:0.0557913 2:0.693783 
-0.1420647067681149 1:0.168483 2:0.449866 
-0.3939175291687715 1:0.109356 2:0.203229 
-0.125902566303984 1:0.291704 2:0.497202 
-1.015068155728452 1:0.0245959 2:0.678565 
-0.5932876612239407 1:0.497285 2:0.417946 
-1.078901641536594 1:0.516824 2:0.435696 
-1.078901641536594 1:0.514284 2:-0.00197367 
-0.5969098068838756 1:0.536825 2:0.324838 
-0.6648996509087421 1:0.309902 2:0.323016 
-0.6738267149276612 1:0.0506605 2:0.374932 
-1.018843570667525 1:-0.110507 2:0.930729 
-0.3463355166359378 1:0.102892 2:0.705553 
-0.07353473026544051 1:0.0443197 2:0.405143 
-0.6966653967846408 1:0.0451912 2:0.503292 
-0.2271880200099311 1:0.240353 2:0.467545 
-0.2420772488715765 1:0.144638 2:0.283194 
-0.4857534343987678 1:0.212556 2:0.219576 
-1.078901641536594 1:0.208735 2:0.903645 
-0.1047281153229872 1:0.151786 2:0.351815 
-0.2671277147756402 1:0.119328 2:0.764488 
-0.438066766749481 1:0.108564 2:0.597168 
-1.078901641536594 1:0.587622 2:0.513772 
-0.9032708882778444 1:0.100114 2:-0.0917218 
-0.1702711612434724 1:0.147947 2:0.514568 
-1.078901641536594 1:0.38608 2:0.383324 
-0.4638364992258191 1:0.334011 2:0.160909 
-1.078901641536594 1:0.289282 2:0.618659 
-0.5452551790593198 1:0.128658 2:0.0221405 
-1.02320030997999 1:-0.0913975 2:0.0988509 
-0.6922688617976426 1:0.41617 2:0.16888 
-0.2726150944058505 1:0.221246 2:0.444439 
-1.078901641536594 1:0.613725 2:0.177919 
-0.5604566533929742 1:0.121374 2:0.122624 
-1.078901641536594 1:0.375895 2:0.623272 
-1.0738652959265 1:0.55989 2:0.219357 
-0.04730464730836748 1:0.275484 2:0.611903 
-0.08574532296509678 1:0.186605 2:0.518318 
-1.078901641536594 1:0.220914 2:0.763926 
-0.3058776770214867 1:0.185522 2:0.348112 
-0.7459047024656149 1:0.18171 2:0.680757 
-1.078901641536594 1:0.308809 2:0.613917 
-0.9232643518663697 1:-0.0420854 2:0.241917 
