svm_type nu_svc
kernel_type rbf
gamma 0.1
nr_class 2
total_sv 3
rho 130.427
label 1 -1
nr_sv 1 2
SV
30048.16478951863 1:0.525915 2:0.14007 
-5068.052863281059 1:0.0848653 2:-0.00853323 
-24980.11192623757 1:0.613725 2:0.177919 
