svm_type c_svc
kernel_type rbf
gamma 100
nr_class 2
total_sv 102
rho -0.134772
label 1 -1
nr_sv 52 50
SV
1 1:0.525915 2:0.14007 
1 1:0.335657 2:0.684751 
0.8558017697182461 1:1.08883 2:1.01915 
0.4784611783222411 1:0.709455 2:0.36865 
0.6838774991463197 1:0.78708 2:1.00321 
0.4823727642069638 1:0.681286 2:0.831526 
0.6856194989397951 1:1.05778 2:0.561713 
0.2332900795711671 1:0.677085 2:0.656024 
0.8368258544063939 1:0.76639 2:0.259949 
0.432784790755799 1:0.716276 2:0.524459 
0.563939387639618 1:0.809733 2:0.880612 
1 1:0.0758233 2:0.6928 
1 1:0.672776 2:0.0440289 
0.1558038947915583 1:0.548464 2:0.877153 
0.638008021256417 1:0.979303 2:0.845029 
0.2719519901792631 1:0.599463 2:0.841292 
0.4633757150795852 1:0.931216 2:0.473004 
0.3599002386761936 1:0.432132 2:0.837625 
0.4951390545118459 1:0.643949 2:0.956236 
0.5272872782521902 1:0.45031 2:0.99531 
1 1:0.662618 2:0.149151 
0.6525736277000035 1:1.08588 2:0.00347531 
0.0228857276823816 1:0.80428 2:0.58847 
0.607108312868038 1:0.798443 2:0.633239 
0.5373342492024853 1:0.43511 2:0.674663 
1 1:0.349768 2:0.640682 
1 1:0.279143 2:0.915875 
1 1:0.557603 2:0.113056 
0.4670743567811312 1:0.830451 2:0.460743 
0.1210725011308226 1:0.45775 2:0.852791 
0.09875107764881505 1:0.401203 2:0.859367 
0.3047603177986174 1:0.530819 2:0.965572 
0.6307971420589109 1:1.09611 2:0.109935 
0.5140138303609106 1:0.62605 2:0.641837 
1 1:0.409476 2:0.32463 
1 1:0.260724 2:0.677348 
0.4984515237811769 1:0.955933 2:0.615135 
0.5571468873332494 1:0.939619 2:0.339713 
0.1178659631408474 1:0.863492 2:0.237233 
0.8228597209973715 1:0.312414 2:1.07403 
0.02278479623625838 1:0.736378 2:0.464168 
0.6738394824588512 1:0.885389 2:0.0359631 
0.5789990667103395 1:0.953689 2:0.223568 
0.3680430802117135 1:0.499596 2:0.712846 
0.3298419444467228 1:0.688557 2:-0.083797 
1 1:0.806687 2:0.135085 
0.5195990692723045 1:0.926007 2:0.757767 
1 1:0.572752 2:0.518822 
0.6036761551276368 1:0.605664 2:0.45062 
0.7686557321751606 1:0.613526 2:-0.0568415 
1 1:0.568974 2:0.44456 
0.3462060267746003 1:0.286071 2:0.924469 
-0.1726710322633092 1:0.0848653 2:-0.00853323 
-1 1:0.764904 2:0.160035 
-1 1:0.651305 2:0.0858687 
-1 1:0.159249 2:1.05124 
-0.8784538096955321 1:-0.00601104 2:0.832049 
-0.6833838221404033 1:0.442034 2:0.227804 
-0.1988723581918565 1:0.321754 2:0.247614 
-0.4426172461725592 1:0.0557913 2:0.693783 
-0.1283893968999013 1:0.168483 2:0.449866 
-0.3918096345516598 1:0.109356 2:0.203229 
-0.1960047782672807 1:0.291704 2:0.497202 
-1 1:0.0245959 2:0.678565 
-0.6363596605295003 1:0.497285 2:0.417946 
-1 1:0.516824 2:0.435696 
-1 1:0.514284 2:-0.00197367 
-0.611797193933499 1:0.536825 2:0.324838 
-0.6815988046751388 1:0.309902 2:0.323016 
-0.6649706910896462 1:0.0506605 2:0.374932 
-1 1:-0.110507 2:0.930729 
-0.2716946706137046 1:0.102892 2:0.705553 
-0.08444868356974933 1:0.0443197 2:0.405143 
-0.6985179816891993 1:0.0451912 2:0.503292 
-0.114169591859295 1:0.240353 2:0.467545 
-0.2469584091127347 1:0.144638 2:0.283194 
-0.4898683382987403 1:0.212556 2:0.219576 
-1 1:0.208735 2:0.903645 
-0.1180321281511516 1:0.151786 2:0.351815 
-0.3228222750281372 1:0.119328 2:0.764488 
-0.4392292903188078 1:0.108564 2:0.597168 
-1 1:0.587622 2:0.513772 
-0.9062530758399028 1:0.100114 2:-0.0917218 
-0.16431436330913 1:0.147947 2:0.514568 
-1 1:0.38608 2:0.383324 
-0.4860756808792279 1:0.334011 2:0.160909 
-1 1:0.289282 2:0.618659 
-0.5467315125181258 1:0.128658 2:0.0221405 
-1 1:-0.0913975 2:0.0988509 
-0.6686154225809307 1:0.41617 2:0.16888 
-0.3556413376415534 1:0.221246 2:0.444439 
-1 1:0.613725 2:0.177919 
-0.5643135936787322 1:0.121374 2:0.122624 
-1 1:0.375895 2:0.623272 
-1 1:0.55989 2:0.219357 
-0.0974277105832724 1:0.275484 2:0.611903 
-0.106899234297427 1:0.186605 2:0.518318 
-1 1:0.220914 2:0.763926 
-0.2863389052752797 1:0.185522 2:0.348112 
-0.7432925425996236 1:0.18171 2:0.680757 
-1 1:0.308809 2:0.613917 
-0.9302064310969341 1:-0.0420854 2:0.241917 
