svm_type nu_svc
kernel_type linear
nr_class 2
total_sv 3
rho 12.1535
label 1 -1
nr_sv 1 2
SV
47324.48872694773 1:0.525915 2:0.14007 
-8050.957385891785 1:0.0848653 2:-0.00853323 
-39273.53134105594 1:0.613725 2:0.177919 
