svm_type nu_svc
kernel_type rbf
gamma 1
nr_class 2
total_sv 37
rho -3.93334
label 1 -1
nr_sv 17 20
SV
6154.416665063605 1:0.525915 2:0.14007 
6154.416665063605 1:0.335657 2:0.684751 
2031.221730882636 1:0.709455 2:0.36865 
134.288631399839 1:0.76639 2:0.259949 
6154.416665063605 1:0.0758233 2:0.6928 
5168.332023256963 1:0.662618 2:0.149151 
686.9673575499048 1:1.08588 2:0.00347531 
6154.416665063605 1:0.349768 2:0.640682 
6154.416665063605 1:0.279143 2:0.915875 
6154.416665063605 1:0.557603 2:0.113056 
6154.416665063605 1:0.409476 2:0.32463 
6154.416665063605 1:0.260724 2:0.677348 
1861.375594964198 1:0.688557 2:-0.083797 
6110.962121068149 1:0.605664 2:0.45062 
60.89933201362935 1:0.613526 2:-0.0568415 
6154.416665063605 1:0.568974 2:0.44456 
2409.203204055504 1:0.286071 2:0.924469 
-6154.416665063605 1:0.764904 2:0.160035 
-6154.416665063605 1:0.651305 2:0.0858687 
-1855.129148117632 1:0.159249 2:1.05124 
-2483.238278846232 1:0.442034 2:0.227804 
-111.3889938544696 1:0.0245959 2:0.678565 
-6116.46184345656 1:0.497285 2:0.417946 
-6154.416665063605 1:0.516824 2:0.435696 
-5499.929163014788 1:0.514284 2:-0.00197367 
-283.3849799479333 1:0.0506605 2:0.374932 
-366.599543209134 1:0.0443197 2:0.405143 
-831.1870679005601 1:0.0451912 2:0.503292 
-6154.416665063605 1:0.208735 2:0.903645 
-6154.416665063605 1:0.587622 2:0.513772 
-5734.660285659776 1:0.289282 2:0.618659 
-37.95482160704552 1:0.41617 2:0.16888 
-1041.070397685142 1:0.613725 2:0.177919 
-6154.416665063605 1:0.375895 2:0.623272 
-6154.416665063605 1:0.220914 2:0.763926 
-6154.416665063605 1:0.308809 2:0.613917 
-256.6621369551497 1:-0.0420854 2:0.241917 
