svm_type c_svc
kernel_type rbf
gamma 10
nr_class 2
total_sv 43
rho -0.327598
label 1 -1
nr_sv 20 23
SV
10 1:0.525915 2:0.14007 
10 1:0.335657 2:0.684751 
0.6332175014337469 1:1.08883 2:1.01915 
6.406893110803462 1:0.76639 2:0.259949 
10 1:0.0758233 2:0.6928 
10 1:0.672776 2:0.0440289 
10 1:0.662618 2:0.149151 
0.1816281475776654 1:1.08588 2:0.00347531 
10 1:0.349768 2:0.640682 
10 1:0.279143 2:0.915875 
10 1:0.557603 2:0.113056 
0.447064088327536 1:1.09611 2:0.109935 
10 1:0.409476 2:0.32463 
10 1:0.260724 2:0.677348 
0.9585422524211517 1:0.806687 2:0.135085 
6.8241034536153 1:0.572752 2:0.518822 
10 1:0.605664 2:0.45062 
2.542616303629581 1:0.613526 2:-0.0568415 
10 1:0.568974 2:0.44456 
1.088089535551696 1:0.286071 2:0.924469 
-10 1:0.764904 2:0.160035 
-10 1:0.651305 2:0.0858687 
-0.9435127124013853 1:0.159249 2:1.05124 
-5.66775072718885 1:0.0245959 2:0.678565 
-1.761963530967513 1:0.497285 2:0.417946 
-10 1:0.516824 2:0.435696 
-10 1:0.514284 2:-0.00197367 
-9.477885967864076 1:0.536825 2:0.324838 
-0.4706151646191075 1:0.0451912 2:0.503292 
-0.2111281658185119 1:0.212556 2:0.219576 
-10 1:0.208735 2:0.903645 
-10 1:0.587622 2:0.513772 
-0.1220740767877484 1:0.100114 2:-0.0917218 
-2.137383357880475 1:0.334011 2:0.160909 
-7.12265809258093 1:0.289282 2:0.618659 
-0.8271740573908541 1:-0.0913975 2:0.0988509 
-10 1:0.613725 2:0.177919 
-10 1:0.375895 2:0.623272 
-10 1:0.55989 2:0.219357 
-10 1:0.220914 2:0.763926 
-0.1207596632055704 1:0.18171 2:0.680757 
-10 1:0.308809 2:0.613917 
-0.2192488766551191 1:-0.0420854 2:0.241917 
