svm_type nu_svc
kernel_type rbf
gamma 10
nr_class 2
total_sv 36
rho -0.406265
label 1 -1
nr_sv 17 19
SV
42.0829501219022 1:0.525915 2:0.14007 
42.0829501219022 1:0.335657 2:0.684751 
0.5485798121162808 1:1.08883 2:1.01915 
16.47287115750342 1:0.76639 2:0.259949 
42.0829501219022 1:0.0758233 2:0.6928 
24.68240831417164 1:0.672776 2:0.0440289 
42.0829501219022 1:0.662618 2:0.149151 
42.0829501219022 1:0.349768 2:0.640682 
12.28896938933629 1:0.279143 2:0.915875 
42.0829501219022 1:0.557603 2:0.113056 
42.0829501219022 1:0.409476 2:0.32463 
42.0829501219022 1:0.260724 2:0.677348 
17.51218335019251 1:0.806687 2:0.135085 
24.43473586153583 1:0.572752 2:0.518822 
19.30717934960482 1:0.605664 2:0.45062 
11.00192313124581 1:0.613526 2:-0.0568415 
42.0829501219022 1:0.568974 2:0.44456 
-42.0829501219022 1:0.764904 2:0.160035 
-42.0829501219022 1:0.651305 2:0.0858687 
-20.79755306969506 1:0.442034 2:0.227804 
-8.104853792157309 1:0.321754 2:0.247614 
-23.03546060694778 1:0.0245959 2:0.678565 
-42.0829501219022 1:0.516824 2:0.435696 
-35.54978214249124 1:0.514284 2:-0.00197367 
-6.43320499471979 1:0.536825 2:0.324838 
-0.165361270757076 1:0.0451912 2:0.503292 
-10.37571880672634 1:0.208735 2:0.903645 
-42.0829501219022 1:0.587622 2:0.513772 
-15.54432335365022 1:0.289282 2:0.618659 
-0.7771962500758977 1:-0.0913975 2:0.0988509 
-42.0829501219022 1:0.613725 2:0.177919 
-42.0829501219022 1:0.375895 2:0.623272 
-35.23108291410175 1:0.55989 2:0.219357 
-42.0829501219022 1:0.220914 2:0.763926 
-12.31726328628636 1:0.18171 2:0.680757 
-42.0829501219022 1:0.308809 2:0.613917 
