svm_type nu_svc
kernel_type rbf
gamma 1
nr_class 2
total_sv 4
rho 4.61402
label 1 -1
nr_sv 2 2
SV
474.6813588827076 1:0.525915 2:0.14007 
19.901511549308 1:1.08883 2:1.01915 
-77.13636047117974 1:0.0848653 2:-0.00853323 
-417.4465099608359 1:0.613725 2:0.177919 
