svm_type nu_svc
kernel_type rbf
gamma 10
nr_class 2
total_sv 28
rho -14.2628
label 1 -1
nr_sv 12 16
SV
4255.839699444923 1:0.525915 2:0.14007 
1037.05019431661 1:0.76639 2:0.259949 
124.1642422880474 1:0.0758233 2:0.6928 
3526.019707898507 1:0.672776 2:0.0440289 
8788.200401647529 1:0.662618 2:0.149151 
98.26018339692949 1:0.349768 2:0.640682 
4159.724386806887 1:0.409476 2:0.32463 
197.4362345713429 1:0.260724 2:0.677348 
3380.015913746809 1:0.806687 2:0.135085 
355.7526865598954 1:0.572752 2:0.518822 
30.83060013041324 1:0.613526 2:-0.0568415 
411.3069541346954 1:0.568974 2:0.44456 
-6930.801228002688 1:0.764904 2:0.160035 
-8788.200401647529 1:0.651305 2:0.0858687 
-18.80313520021748 1:-0.00601104 2:0.832049 
-3295.772559267435 1:0.442034 2:0.227804 
-265.2055831277546 1:0.291704 2:0.497202 
-48.98149396597843 1:0.0245959 2:0.678565 
-444.6096596221427 1:0.497285 2:0.417946 
-458.9138626002395 1:0.514284 2:-0.00197367 
-303.5181857208731 1:0.328273 2:0.370742 
-0.2134322876330247 1:-0.110507 2:0.930729 
-8.078988278632714 1:0.119328 2:0.764488 
-559.5497964127781 1:0.587622 2:0.513772 
-1208.835553025643 1:0.38608 2:0.383324 
-421.6090467262184 1:0.613725 2:0.177919 
-3439.10091217811 1:0.55989 2:0.219357 
-172.4073668787159 1:0.220914 2:0.763926 
