svm_type nu_svc
kernel_type polynomial
degree 3
gamma 0.5
coef0 0
nr_class 2
total_sv 12
rho 4.38344
label 1 -1
nr_sv 5 7
SV
11673.0046975854 1:0.525915 2:0.14007 
9511.837469505468 1:0.335657 2:0.684751 
131.2677695542941 1:1.08883 2:1.01915 
2161.167228079934 1:0.0758233 2:0.6928 
11541.73692803111 1:0.613526 2:-0.0568415 
-1399.819069577576 1:0.764904 2:0.160035 
-11673.0046975854 1:0.651305 2:0.0858687 
-2330.681526350063 1:0.514284 2:-0.00197367 
-10829.80953471745 1:0.328273 2:0.370742 
-259.9215388842559 1:0.375895 2:0.623272 
-2018.27824684658 1:0.275484 2:0.611903 
-6507.499478794877 1:0.220914 2:0.763926 
