svm_type nu_svc
kernel_type linear
nr_class 2
total_sv 4
rho 10.8613
label 1 -1
nr_sv 1 3
SV
-69517.48494348151 1:0.525915 2:0.14007 
11826.48400247051 1:0.0848653 2:-0.00853323 
4538.761008004188 1:0.651305 2:0.0858687 
53152.23993300681 1:0.613725 2:0.177919 
