svm_type nu_svc
kernel_type rbf
gamma 0.01
nr_class 2
total_sv 7
rho -12.4906
label 1 -1
nr_sv 3 4
SV
-8676.145761397791 1:0.525915 2:0.14007 
-8676.145761397791 1:0.335657 2:0.684751 
-8676.145761397791 1:0.688557 2:-0.083797 
3900.625303177511 1:0.0848653 2:-0.00853323 
8676.145761397791 1:0.764904 2:0.160035 
8676.145761397791 1:0.651305 2:0.0858687 
4775.52045822028 1:0.208735 2:0.903645 
