svm_type c_svc
kernel_type rbf
gamma 0.1
nr_class 2
total_sv 35
rho -15.8991
label 1 -1
nr_sv 18 17
SV
1000 1:0.525915 2:0.14007 
1000 1:0.335657 2:0.684751 
1000 1:0.0758233 2:0.6928 
559.495751515298 1:0.672776 2:0.0440289 
1000 1:0.662618 2:0.149151 
1000 1:0.408354 2:0.740695 
1000 1:0.43511 2:0.674663 
1000 1:0.349768 2:0.640682 
1000 1:0.279143 2:0.915875 
1000 1:0.557603 2:0.113056 
1000 1:0.623052 2:-0.030142 
1000 1:0.409476 2:0.32463 
1000 1:0.260724 2:0.677348 
1000 1:0.572752 2:0.518822 
558.2623925620268 1:0.605664 2:0.45062 
1000 1:0.613526 2:-0.0568415 
1000 1:0.568974 2:0.44456 
480.06715632774 1:0.286071 2:0.924469 
-1000 1:0.764904 2:0.160035 
-1000 1:0.651305 2:0.0858687 
-1000 1:0.159249 2:1.05124 
-1000 1:0.442034 2:0.227804 
-1000 1:0.497285 2:0.417946 
-1000 1:0.516824 2:0.435696 
-1000 1:0.514284 2:-0.00197367 
-1000 1:0.536825 2:0.324838 
-1000 1:0.208735 2:0.903645 
-1000 1:0.587622 2:0.513772 
-597.8253004050646 1:0.38608 2:0.383324 
-1000 1:0.289282 2:0.618659 
-1000 1:0.613725 2:0.177919 
-1000 1:0.375895 2:0.623272 
-1000 1:0.55989 2:0.219357 
-1000 1:0.220914 2:0.763926 
-1000 1:0.308809 2:0.613917 
