svm_type nu_svc
kernel_type rbf
gamma 100
nr_class 2
total_sv 54
rho -0.0176368
label 1 -1
nr_sv 30 24
SV
0.9112918031396612 1:1.08883 2:1.01915 
0.9932481918663522 1:0.78708 2:1.00321 
0.8137291159957619 1:0.681286 2:0.831526 
0.8694636686195401 1:1.05778 2:0.561713 
3.567745986400799 1:0.76639 2:0.259949 
3.69632495239735 1:0.697481 2:0.514252 
118.4606685314098 1:0.0758233 2:0.6928 
16.1296650845694 1:0.672776 2:0.0440289 
0.9346813711014107 1:0.931216 2:0.473004 
1.00217986981373 1:0.643949 2:0.956236 
0.8910661185838523 1:0.45031 2:0.99531 
26.19468208435925 1:0.662618 2:0.149151 
1.331708421430346 1:1.08588 2:0.00347531 
0.5812919792031379 1:0.798443 2:0.633239 
2.274555485175901 1:0.43511 2:0.674663 
22.43634446836223 1:0.349768 2:0.640682 
0.9184547780599636 1:0.919269 2:0.816831 
2.369477437447227 1:0.279143 2:0.915875 
9.620850411959978 1:0.557603 2:0.113056 
0.7580331405630634 1:0.45775 2:0.852791 
1.174939204571078 1:0.62605 2:0.641837 
5.566791483854646 1:0.409476 2:0.32463 
2.234516180593873 1:0.260724 2:0.677348 
0.4913841469820166 1:0.955933 2:0.615135 
0.7117020043705126 1:0.939619 2:0.339713 
0.9993107343915925 1:0.312414 2:1.07403 
11.96203256840471 1:0.806687 2:0.135085 
46.05052094984629 1:0.572752 2:0.518822 
7.365981234158356 1:0.605664 2:0.45062 
1.405493584090681 1:0.568974 2:0.44456 
-0.4302363114426497 1:0.0848653 2:-0.00853323 
-17.17381112389472 1:0.764904 2:0.160035 
-27.64303671855557 1:0.651305 2:0.0858687 
-0.9939658178706231 1:0.159249 2:1.05124 
-2.358817446261767 1:0.442034 2:0.227804 
-1.786690965915783 1:0.321754 2:0.247614 
-74.48722478476321 1:0.0557913 2:0.693783 
-5.124240772198672 1:0.516824 2:0.435696 
-2.376797541727266 1:0.514284 2:-0.00197367 
-1.201036873608534 1:-0.110507 2:0.930729 
-48.09563673739871 1:0.102892 2:0.705553 
-0.6090551964383305 1:0.0443197 2:0.405143 
-2.598562901595789 1:0.208735 2:0.903645 
-0.5957416392867128 1:0.151786 2:0.351815 
-6.575054115871247 1:0.108564 2:0.597168 
-50.67954727310763 1:0.587622 2:0.513772 
-0.527802548396439 1:0.100114 2:-0.0917218 
-4.124874677371425 1:0.38608 2:0.383324 
-7.879968995203393 1:0.289282 2:0.618659 
-1.070368069681645 1:-0.0913975 2:0.0988509 
-15.12462986444126 1:0.613725 2:0.177919 
-1.013782799276929 1:0.121374 2:0.122624 
-19.62282092564162 1:0.375895 2:0.623272 
-0.624430891772625 1:-0.0420854 2:0.241917 
