svm_type c_svc
kernel_type polynomial
degree 3
gamma 0.5
coef0 0
nr_class 2
total_sv 114
rho -0.941646
label 1 -1
nr_sv 57 57
SV
0.01 1:0.525915 2:0.14007 
0.01 1:0.335657 2:0.684751 
0.01 1:0.709455 2:0.36865 
0.01 1:0.681286 2:0.831526 
0.01 1:0.677085 2:0.656024 
0.01 1:0.76639 2:0.259949 
0.01 1:0.716276 2:0.524459 
0.01 1:0.658329 2:0.89868 
0.01 1:0.809733 2:0.880612 
0.01 1:0.697481 2:0.514252 
0.01 1:0.0758233 2:0.6928 
0.01 1:0.672776 2:0.0440289 
0.01 1:0.548464 2:0.877153 
0.01 1:0.683415 2:0.438551 
0.01 1:0.599463 2:0.841292 
0.01 1:0.931216 2:0.473004 
0.01 1:0.386467 2:0.880551 
0.01 1:0.432132 2:0.837625 
0.01 1:0.643949 2:0.956236 
0.01 1:0.45031 2:0.99531 
0.01 1:0.662618 2:0.149151 
0.01 1:1.08588 2:0.00347531 
0.01 1:0.80428 2:0.58847 
0.01 1:0.719687 2:0.580146 
0.01 1:0.408354 2:0.740695 
0.01 1:0.798443 2:0.633239 
0.01 1:0.43511 2:0.674663 
0.01 1:0.349768 2:0.640682 
0.01 1:0.279143 2:0.915875 
0.01 1:0.447129 2:0.845902 
0.01 1:0.557603 2:0.113056 
0.01 1:0.830451 2:0.460743 
0.01 1:0.623052 2:-0.030142 
0.01 1:0.45775 2:0.852791 
0.01 1:0.401203 2:0.859367 
0.01 1:0.530819 2:0.965572 
0.01 1:1.09611 2:0.109935 
0.01 1:0.62605 2:0.641837 
0.01 1:0.409476 2:0.32463 
0.01 1:0.260724 2:0.677348 
0.01 1:0.955933 2:0.615135 
0.01 1:0.939619 2:0.339713 
0.01 1:0.863492 2:0.237233 
0.01 1:0.312414 2:1.07403 
0.01 1:0.736378 2:0.464168 
0.01 1:0.885389 2:0.0359631 
0.01 1:0.953689 2:0.223568 
0.01 1:0.920264 2:0.249822 
0.01 1:0.499596 2:0.712846 
0.01 1:0.688557 2:-0.083797 
0.01 1:0.833157 2:0.277062 
0.01 1:0.806687 2:0.135085 
0.01 1:0.572752 2:0.518822 
0.01 1:0.605664 2:0.45062 
0.01 1:0.613526 2:-0.0568415 
0.01 1:0.568974 2:0.44456 
0.01 1:0.286071 2:0.924469 
-0.01 1:0.0848653 2:-0.00853323 
-0.01 1:0.764904 2:0.160035 
-0.01 1:0.651305 2:0.0858687 
-0.01 1:0.159249 2:1.05124 
-0.01 1:-0.00601104 2:0.832049 
-0.01 1:0.442034 2:0.227804 
-0.01 1:0.321754 2:0.247614 
-0.01 1:0.0557913 2:0.693783 
-0.01 1:0.168483 2:0.449866 
-0.01 1:0.109356 2:0.203229 
-0.01 1:0.206942 2:0.477461 
-0.01 1:0.291704 2:0.497202 
-0.01 1:0.0245959 2:0.678565 
-0.01 1:0.497285 2:0.417946 
-0.01 1:0.516824 2:0.435696 
-0.01 1:0.514284 2:-0.00197367 
-0.01 1:0.252393 2:0.268846 
-0.01 1:0.536825 2:0.324838 
-0.01 1:0.309902 2:0.323016 
-0.01 1:0.0506605 2:0.374932 
-0.01 1:0.328273 2:0.370742 
-0.01 1:-0.110507 2:0.930729 
-0.01 1:0.102892 2:0.705553 
-0.01 1:0.0443197 2:0.405143 
-0.01 1:0.0451912 2:0.503292 
-0.01 1:0.240353 2:0.467545 
-0.01 1:0.144638 2:0.283194 
-0.01 1:0.212556 2:0.219576 
-0.01 1:0.235859 2:0.329784 
-0.01 1:0.208735 2:0.903645 
-0.01 1:0.151786 2:0.351815 
-0.01 1:0.119328 2:0.764488 
-0.01 1:0.108564 2:0.597168 
-0.01 1:0.19663 2:0.508351 
-0.01 1:0.587622 2:0.513772 
-0.01 1:0.100114 2:-0.0917218 
-0.01 1:0.147947 2:0.514568 
-0.01 1:0.38608 2:0.383324 
-0.01 1:0.334011 2:0.160909 
-0.01 1:0.289282 2:0.618659 
-0.01 1:0.303944 2:0.551695 
-0.01 1:0.128658 2:0.0221405 
-0.01 1:-0.0913975 2:0.0988509 
-0.01 1:0.41617 2:0.16888 
-0.01 1:0.221246 2:0.444439 
-0.01 1:0.613725 2:0.177919 
-0.01 1:0.121374 2:0.122624 
-0.01 1:0.375895 2:0.623272 
-0.01 1:0.24209 2:0.297752 
-0.01 1:0.55989 2:0.219357 
-0.01 1:0.275484 2:0.611903 
-0.01 1:0.186605 2:0.518318 
-0.01 1:0.220914 2:0.763926 
-0.01 1:0.185522 2:0.348112 
-0.01 1:0.18171 2:0.680757 
-0.01 1:0.308809 2:0.613917 
-0.01 1:-0.0420854 2:0.241917 
