svm_type nu_svc
kernel_type rbf
gamma 100
nr_class 2
total_sv 74
rho -0.101795
label 1 -1
nr_sv 39 35
SV
0.8967304563648588 1:1.08883 2:1.01915 
0.7220996410403956 1:0.78708 2:1.00321 
0.5412297805221079 1:0.681286 2:0.831526 
0.7249360745917335 1:1.05778 2:0.561713 
0.1394821256339248 1:0.677085 2:0.656024 
3.100323783473725 1:0.76639 2:0.259949 
0.5466495348007836 1:0.809733 2:0.880612 
6.134039477909494 1:0.697481 2:0.514252 
101.2297631190502 1:0.0758233 2:0.6928 
13.79504237817051 1:0.672776 2:0.0440289 
0.1707015850332013 1:0.548464 2:0.877153 
0.6620249679493633 1:0.979303 2:0.845029 
0.2570641441790776 1:0.599463 2:0.841292 
0.6349034531900719 1:0.931216 2:0.473004 
0.5361934502903122 1:0.643949 2:0.956236 
0.5563479069824872 1:0.45031 2:0.99531 
23.23505619095382 1:0.662618 2:0.149151 
0.6801100952100113 1:1.08588 2:0.00347531 
0.3356674659027983 1:0.798443 2:0.633239 
1.67180124690017 1:0.43511 2:0.674663 
18.29694677505667 1:0.349768 2:0.640682 
2.215181227248175 1:0.279143 2:0.915875 
8.437892997983337 1:0.557603 2:0.113056 
0.4897514988403497 1:0.45775 2:0.852791 
0.2405273912195939 1:0.530819 2:0.965572 
0.6488368718936022 1:1.09611 2:0.109935 
1.174734646700794 1:0.62605 2:0.641837 
4.818852141849646 1:0.409476 2:0.32463 
2.641252112006685 1:0.260724 2:0.677348 
0.5452453912448808 1:0.955933 2:0.615135 
0.6337215770993867 1:0.939619 2:0.339713 
0.844751218729082 1:0.312414 2:1.07403 
0.3796861140531814 1:0.953689 2:0.223568 
10.08502149247877 1:0.806687 2:0.135085 
0.5096562879393906 1:0.926007 2:0.757767 
79.84030925720946 1:0.572752 2:0.518822 
14.29930936867435 1:0.605664 2:0.45062 
0.1896139212038723 1:0.613526 2:-0.0568415 
0.8278321875703715 1:0.568974 2:0.44456 
-0.2350834256505718 1:0.0848653 2:-0.00853323 
-14.76153091096861 1:0.764904 2:0.160035 
-24.09636074987715 1:0.651305 2:0.0858687 
-1.0674406090643 1:0.159249 2:1.05124 
-2.166018175706049 1:0.442034 2:0.227804 
-0.6270280311564672 1:0.321754 2:0.247614 
-63.83406586074957 1:0.0557913 2:0.693783 
-0.4161322989605212 1:0.109356 2:0.203229 
-8.401726703995871 1:0.516824 2:0.435696 
-2.301389874877838 1:0.514284 2:-0.00197367 
-0.2967329987062983 1:0.536825 2:0.324838 
-1.139708576004624 1:0.309902 2:0.323016 
-0.1450178176886865 1:0.0506605 2:0.374932 
-1.117753946785313 1:-0.110507 2:0.930729 
-41.62210554305208 1:0.102892 2:0.705553 
-0.7132304873557771 1:0.0443197 2:0.405143 
-0.2428719035842223 1:0.144638 2:0.283194 
-0.3100813496182287 1:0.212556 2:0.219576 
-2.223681817137153 1:0.208735 2:0.903645 
-0.3938252565753587 1:0.151786 2:0.351815 
-5.587308017229129 1:0.108564 2:0.597168 
-88.02247340829119 1:0.587622 2:0.513772 
-0.8380473124252099 1:0.100114 2:-0.0917218 
-2.661847500389597 1:0.38608 2:0.383324 
-0.2854635967750056 1:0.334011 2:0.160909 
-7.195892805588588 1:0.289282 2:0.618659 
-0.4667343009098273 1:0.128658 2:0.0221405 
-0.9907495287989081 1:-0.0913975 2:0.0988509 
-0.2719935347538139 1:0.41617 2:0.16888 
-0.3854934594268572 1:0.221246 2:0.444439 
-13.44273286577514 1:0.613725 2:0.177919 
-0.5615821517292423 1:0.121374 2:0.122624 
-15.92868180355282 1:0.375895 2:0.623272 
-0.02644214064123252 1:0.185522 2:0.348112 
-0.9120605933493517 1:-0.0420854 2:0.241917 
