svm_type nu_svc
kernel_type rbf
gamma 10
nr_class 2
total_sv 19
rho 1.57933
label 1 -1
nr_sv 11 8
SV
6635.353368943781 1:0.525915 2:0.14007 
225.2314884630361 1:0.709455 2:0.36865 
319.0544737713063 1:0.76639 2:0.259949 
41.67627491084766 1:0.0758233 2:0.6928 
867.2093242963678 1:0.662618 2:0.149151 
27.40576958550204 1:0.401203 2:0.859367 
1015.432221392615 1:0.409476 2:0.32463 
214.7240965924373 1:0.688557 2:-0.083797 
112.5908404286536 1:0.806687 2:0.135085 
661.4528584348585 1:0.613526 2:-0.0568415 
663.945433516118 1:0.568974 2:0.44456 
-2170.617234987669 1:0.651305 2:0.0858687 
-558.7932489598082 1:0.442034 2:0.227804 
-105.7476586615516 1:0.291704 2:0.497202 
-1698.46231618287 1:0.514284 2:-0.00197367 
-426.7872132837891 1:0.587622 2:0.513772 
-89.28314274681685 1:0.303944 2:0.551695 
-1479.709982079162 1:0.41617 2:0.16888 
-4254.675353433858 1:0.55989 2:0.219357 
