svm_type nu_svc
kernel_type rbf
gamma 100
nr_class 2
total_sv 83
rho -0.0924743
label 1 -1
nr_sv 44 39
SV
1.166642890958725 1:0.525915 2:0.14007 
0.8972020084642027 1:1.08883 2:1.01915 
0.2051159437659435 1:0.709455 2:0.36865 
0.7146557054664748 1:0.78708 2:1.00321 
0.476181513750536 1:0.681286 2:0.831526 
0.7194744371274588 1:1.05778 2:0.561713 
0.205540700678794 1:0.677085 2:0.656024 
1.892692789273164 1:0.76639 2:0.259949 
0.5965062908785786 1:0.809733 2:0.880612 
0.8410296038381077 1:0.697481 2:0.514252 
5.99389917137911 1:0.0758233 2:0.6928 
4.01401556033179 1:0.672776 2:0.0440289 
0.05741983810520253 1:0.548464 2:0.877153 
0.6688995322223649 1:0.979303 2:0.845029 
0.3688174108388973 1:0.599463 2:0.841292 
0.4808295560496715 1:0.931216 2:0.473004 
0.1969604393071446 1:0.432132 2:0.837625 
0.5241245101286064 1:0.643949 2:0.956236 
0.5281647458117374 1:0.45031 2:0.99531 
5.99389917137911 1:0.662618 2:0.149151 
0.6903442558759914 1:1.08588 2:0.00347531 
0.01007942301872278 1:0.80428 2:0.58847 
0.6570085036498459 1:0.798443 2:0.633239 
1.708533581381117 1:0.43511 2:0.674663 
5.99389917137911 1:0.349768 2:0.640682 
2.224800917356594 1:0.279143 2:0.915875 
2.808928266032928 1:0.557603 2:0.113056 
0.5022526185648173 1:0.830451 2:0.460743 
0.3878944685529063 1:0.45775 2:0.852791 
0.3458223485855415 1:0.530819 2:0.965572 
0.665691100103819 1:1.09611 2:0.109935 
0.6406817042990982 1:0.62605 2:0.641837 
5.014110784730566 1:0.409476 2:0.32463 
4.622498436146175 1:0.260724 2:0.677348 
0.5243525991738908 1:0.955933 2:0.615135 
0.599368512570334 1:0.939619 2:0.339713 
0.8348503861512022 1:0.312414 2:1.07403 
0.1951949878755738 1:0.885389 2:0.0359631 
0.5391553796957167 1:0.953689 2:0.223568 
4.711393282003326 1:0.806687 2:0.135085 
0.5456120281008975 1:0.926007 2:0.757767 
5.307511676852303 1:0.572752 2:0.518822 
0.9294905893137017 1:0.613526 2:-0.0568415 
4.925243215379521 1:0.568974 2:0.44456 
-0.1776573633782008 1:0.0848653 2:-0.00853323 
-5.99389917137911 1:0.764904 2:0.160035 
-5.99389917137911 1:0.651305 2:0.0858687 
-1.062614729366887 1:0.159249 2:1.05124 
-0.7808939143296062 1:-0.00601104 2:0.832049 
-2.438949278493673 1:0.442034 2:0.227804 
-0.6285500298766377 1:0.321754 2:0.247614 
-5.361986367870446 1:0.0557913 2:0.693783 
-0.4152592358191534 1:0.168483 2:0.449866 
-0.3637251962783337 1:0.109356 2:0.203229 
-4.487757371891911 1:0.516824 2:0.435696 
-1.948354545970703 1:0.514284 2:-0.00197367 
-1.044512112356218 1:0.536825 2:0.324838 
-0.9900197861833577 1:0.309902 2:0.323016 
-0.646200724478591 1:0.0506605 2:0.374932 
-0.9928409925279625 1:-0.110507 2:0.930729 
-0.9911484832127092 1:0.102892 2:0.705553 
-0.03141480416200738 1:0.0443197 2:0.405143 
-0.7101342378909752 1:0.0451912 2:0.503292 
-0.3524798862670717 1:0.144638 2:0.283194 
-0.3190232675441148 1:0.212556 2:0.219576 
-2.108950213490331 1:0.208735 2:0.903645 
-0.1792091794309609 1:0.151786 2:0.351815 
-0.5167770754355107 1:0.108564 2:0.597168 
-5.99389917137911 1:0.587622 2:0.513772 
-0.8725633723475977 1:0.100114 2:-0.0917218 
-3.241279490468233 1:0.38608 2:0.383324 
-0.3959041419644104 1:0.334011 2:0.160909 
-4.766896461136644 1:0.289282 2:0.618659 
-0.5061065503876334 1:0.128658 2:0.0221405 
-0.9899624402367322 1:-0.0913975 2:0.0988509 
-0.2868571037899283 1:0.221246 2:0.444439 
-4.910898617147665 1:0.613725 2:0.177919 
-0.5733055188598445 1:0.121374 2:0.122624 
-5.99389917137911 1:0.375895 2:0.623272 
-1.746937146451158 1:0.220914 2:0.763926 
-0.04116806041285236 1:0.185522 2:0.348112 
-2.179695255753292 1:0.18171 2:0.680757 
-0.8911604158215266 1:-0.0420854 2:0.241917 
