svm_type nu_svc
kernel_type linear
nr_class 2
total_sv 28
rho 22.7544
label 1 -1
nr_sv 15 13
SV
107803.4991761312 1:0.525915 2:0.14007 
107803.4991761312 1:0.335657 2:0.684751 
102081.8021210402 1:0.709455 2:0.36865 
78832.06582888421 1:0.681286 2:0.831526 
107803.4991761312 1:0.677085 2:0.656024 
107803.4991761312 1:0.0758233 2:0.6928 
107803.4991761312 1:0.349768 2:0.640682 
107803.4991761312 1:0.279143 2:0.915875 
107803.4991761312 1:0.557603 2:0.113056 
107803.4991761312 1:0.409476 2:0.32463 
107803.4991761312 1:0.260724 2:0.677348 
25609.64517071937 1:0.312414 2:1.07403 
5721.697055090967 1:0.688557 2:-0.083797 
107803.4991761312 1:0.613526 2:-0.0568415 
3361.788176527603 1:0.286071 2:0.924469 
-107803.4991761312 1:0.764904 2:0.160035 
-107803.4991761312 1:0.651305 2:0.0858687 
-107803.4991761312 1:0.159249 2:1.05124 
-13589.56741116359 1:0.442034 2:0.227804 
-107803.4991761312 1:0.497285 2:0.417946 
-94213.93176496759 1:0.516824 2:0.435696 
-107803.4991761312 1:0.536825 2:0.324838 
-107803.4991761312 1:0.208735 2:0.903645 
-107803.4991761312 1:0.587622 2:0.513772 
-107803.4991761312 1:0.303944 2:0.551695 
-107803.4991761312 1:0.375895 2:0.623272 
-107803.4991761312 1:0.55989 2:0.219357 
-107803.4991761312 1:0.220914 2:0.763926 
