svm_type c_svc
kernel_type rbf
gamma 10
nr_class 2
total_sv 52
rho -0.240222
label 1 -1
nr_sv 27 25
SV
1 1:0.525915 2:0.14007 
1 1:0.335657 2:0.684751 
0.6647194962939322 1:1.08883 2:1.01915 
1 1:0.709455 2:0.36865 
0.09045382315596678 1:0.78708 2:1.00321 
0.3265996882278019 1:1.05778 2:0.561713 
0.5247091589289837 1:0.76639 2:0.259949 
1 1:0.0758233 2:0.6928 
1 1:0.672776 2:0.0440289 
0.02178603251012603 1:0.683415 2:0.438551 
1 1:0.662618 2:0.149151 
0.4303558054419015 1:1.08588 2:0.00347531 
0.7482109573049301 1:0.408354 2:0.740695 
1 1:0.43511 2:0.674663 
1 1:0.349768 2:0.640682 
1 1:0.279143 2:0.915875 
1 1:0.557603 2:0.113056 
1 1:0.623052 2:-0.030142 
0.2025790145910797 1:1.09611 2:0.109935 
1 1:0.409476 2:0.32463 
1 1:0.260724 2:0.677348 
0.8030180660376923 1:0.312414 2:1.07403 
1 1:0.572752 2:0.518822 
1 1:0.605664 2:0.45062 
0.4330761145520963 1:0.613526 2:-0.0568415 
1 1:0.568974 2:0.44456 
1 1:0.286071 2:0.924469 
-1 1:0.764904 2:0.160035 
-1 1:0.651305 2:0.0858687 
-1 1:0.159249 2:1.05124 
-0.3890590286610214 1:0.442034 2:0.227804 
-1 1:0.497285 2:0.417946 
-1 1:0.516824 2:0.435696 
-1 1:0.514284 2:-0.00197367 
-1 1:0.536825 2:0.324838 
-0.7118692834911503 1:-0.110507 2:0.930729 
-1 1:0.208735 2:0.903645 
-0.7030514250988478 1:0.119328 2:0.764488 
-1 1:0.587622 2:0.513772 
-0.7322847872040329 1:0.100114 2:-0.0917218 
-1 1:0.289282 2:0.618659 
-0.04503706525551867 1:0.303944 2:0.551695 
-0.4594094576107544 1:-0.0913975 2:0.0988509 
-1 1:0.41617 2:0.16888 
-1 1:0.613725 2:0.177919 
-1 1:0.375895 2:0.623272 
-1 1:0.55989 2:0.219357 
-1 1:0.275484 2:0.611903 
-1 1:0.220914 2:0.763926 
-0.7853327414170114 1:0.18171 2:0.680757 
-1 1:0.308809 2:0.613917 
-0.4194643683061737 1:-0.0420854 2:0.241917 
