svm_type c_svc
kernel_type rbf
gamma 100
nr_class 2
total_sv 73
rho -0.104897
label 1 -1
nr_sv 39 34
SV
0.8854915299406276 1:1.08883 2:1.01915 
0.7068020036926284 1:0.78708 2:1.00321 
0.4720635921851039 1:0.681286 2:0.831526 
0.6910264592430795 1:1.05778 2:0.561713 
0.1144650579388717 1:0.677085 2:0.656024 
3.01798060711894 1:0.76639 2:0.259949 
0.5870102730693573 1:0.809733 2:0.880612 
6.305698095457471 1:0.697481 2:0.514252 
100 1:0.0758233 2:0.6928 
13.37678792011627 1:0.672776 2:0.0440289 
0.03911060540852816 1:0.548464 2:0.877153 
0.6549370309609739 1:0.979303 2:0.845029 
0.3545185852177222 1:0.599463 2:0.841292 
0.6328890416856545 1:0.931216 2:0.473004 
0.5198414538516848 1:0.643949 2:0.956236 
0.5207182376230173 1:0.45031 2:0.99531 
22.5660407839683 1:0.662618 2:0.149151 
0.6832794687488601 1:1.08588 2:0.00347531 
0.283324031818881 1:0.798443 2:0.633239 
1.694138577143702 1:0.43511 2:0.674663 
18.48170018355007 1:0.349768 2:0.640682 
2.166590419149196 1:0.279143 2:0.915875 
8.184754912019116 1:0.557603 2:0.113056 
0.5529276891224185 1:0.45775 2:0.852791 
0.3324623486937331 1:0.530819 2:0.965572 
0.6612857287788966 1:1.09611 2:0.109935 
1.204877683569043 1:0.62605 2:0.641837 
4.789335469431141 1:0.409476 2:0.32463 
2.536424092091935 1:0.260724 2:0.677348 
0.5369580613831744 1:0.955933 2:0.615135 
0.609486816644055 1:0.939619 2:0.339713 
0.8316299839863698 1:0.312414 2:1.07403 
0.3866960631302694 1:0.953689 2:0.223568 
9.844059842857975 1:0.806687 2:0.135085 
0.5510240074874594 1:0.926007 2:0.757767 
82.16571867412664 1:0.572752 2:0.518822 
14.99154810938076 1:0.605664 2:0.45062 
0.2267760438652157 1:0.613526 2:-0.0568415 
0.3843596461255923 1:0.568974 2:0.44456 
-0.1675601632241987 1:0.0848653 2:-0.00853323 
-14.41172680877679 1:0.764904 2:0.160035 
-23.35893315815993 1:0.651305 2:0.0858687 
-1.067541572528386 1:0.159249 2:1.05124 
-2.184930674541752 1:0.442034 2:0.227804 
-0.5492952527553964 1:0.321754 2:0.247614 
-63.03231964976 1:0.0557913 2:0.693783 
-0.4208224326476391 1:0.109356 2:0.203229 
-8.417415214426537 1:0.516824 2:0.435696 
-2.250377035592034 1:0.514284 2:-0.00197367 
-0.3033035179678116 1:0.536825 2:0.324838 
-1.20530478160868 1:0.309902 2:0.323016 
-0.1199940729826931 1:0.0506605 2:0.374932 
-1.097893655952475 1:-0.110507 2:0.930729 
-41.13238930734223 1:0.102892 2:0.705553 
-0.735913041955081 1:0.0443197 2:0.405143 
-0.2488695115122087 1:0.144638 2:0.283194 
-0.3400088487192417 1:0.212556 2:0.219576 
-2.201132752915014 1:0.208735 2:0.903645 
-0.4254357575431447 1:0.151786 2:0.351815 
-5.556603223586267 1:0.108564 2:0.597168 
-90.52191006370565 1:0.587622 2:0.513772 
-0.8828476087021124 1:0.100114 2:-0.0917218 
-2.607565963939255 1:0.38608 2:0.383324 
-0.3619320913210157 1:0.334011 2:0.160909 
-7.166473924496009 1:0.289282 2:0.618659 
-0.5321826412611369 1:0.128658 2:0.0221405 
-0.9987658031780955 1:-0.0913975 2:0.0988509 
-0.2152221543595855 1:0.41617 2:0.16888 
-0.3945186321549416 1:0.221246 2:0.444439 
-13.05794945442281 1:0.613725 2:0.177919 
-0.5511183963664488 1:0.121374 2:0.122624 
-16.11192363700725 1:0.375895 2:0.623272 
-0.9145583251708888 1:-0.0420854 2:0.241917 
