svm_type nu_svc
kernel_type rbf
gamma 100
nr_class 2
total_sv 27
rho 0.130214
label 1 -1
nr_sv 13 14
SV
5.415464971929359 1:0.525915 2:0.14007 
1.745532695040227 1:0.709455 2:0.36865 
9.150844876657629 1:0.0758233 2:0.6928 
4.369343777750283 1:0.672776 2:0.0440289 
15.80345456546371 1:0.662618 2:0.149151 
2.911560834495276 1:0.43511 2:0.674663 
13.7991817870473 1:0.349768 2:0.640682 
2.667089801621742 1:0.279143 2:0.915875 
8.864858283187367 1:0.409476 2:0.32463 
4.548892025858285 1:0.260724 2:0.677348 
1.944659974449796 1:0.863492 2:0.237233 
3.744550509660767 1:0.806687 2:0.135085 
2.682677297244263 1:0.613526 2:-0.0568415 
-0.259730881542436 1:0.0848653 2:-0.00853323 
-6.296744736999626 1:0.764904 2:0.160035 
-11.06148974043926 1:0.651305 2:0.0858687 
-5.005920517676306 1:0.442034 2:0.227804 
-6.812454801809198 1:0.0557913 2:0.693783 
-2.22335251487296 1:0.514284 2:-0.00197367 
-2.309974433819613 1:0.102892 2:0.705553 
-2.59465633601345 1:0.208735 2:0.903645 
-7.298894016596778 1:0.38608 2:0.383324 
-6.2893866521991 1:0.289282 2:0.618659 
-10.29965646148835 1:0.613725 2:0.177919 
-13.36731904002327 1:0.375895 2:0.623272 
-1.914227699184417 1:0.220914 2:0.763926 
-1.914303567741253 1:0.18171 2:0.680757 
