svm_type nu_svc
kernel_type rbf
gamma 0.1
nr_class 2
total_sv 30
rho -34.5762
label 1 -1
nr_sv 15 15
SV
3741.938064022328 1:0.525915 2:0.14007 
3741.938064022328 1:0.335657 2:0.684751 
3741.938064022328 1:0.709455 2:0.36865 
3241.652540000348 1:0.677085 2:0.656024 
3741.938064022328 1:0.0758233 2:0.6928 
248.2445942669007 1:0.43511 2:0.674663 
3741.938064022328 1:0.349768 2:0.640682 
3741.938064022328 1:0.279143 2:0.915875 
3741.938064022328 1:0.557603 2:0.113056 
162.0769010444056 1:0.623052 2:-0.030142 
3741.938064022328 1:0.409476 2:0.32463 
3741.938064022328 1:0.260724 2:0.677348 
539.8141095829905 1:0.688557 2:-0.083797 
3741.938064022328 1:0.613526 2:-0.0568415 
3292.08798315001 1:0.286071 2:0.924469 
-3648.493750663469 1:0.764904 2:0.160035 
-3741.938064022328 1:0.651305 2:0.0858687 
-3741.938064022328 1:0.159249 2:1.05124 
-3102.05097550139 1:0.442034 2:0.227804 
-1095.441048690986 1:0.291704 2:0.497202 
-639.8870885209376 1:0.516824 2:0.435696 
-3741.938064022328 1:0.536825 2:0.324838 
-3741.938064022328 1:0.208735 2:0.903645 
-3741.938064022328 1:0.587622 2:0.513772 
-597.6386839576389 1:0.100114 2:-0.0917218 
-3741.938064022328 1:0.303944 2:0.551695 
-3741.938064022328 1:0.375895 2:0.623272 
-3741.938064022328 1:0.55989 2:0.219357 
-3397.45200259552 1:0.220914 2:0.763926 
-2486.788706159367 1:0.308809 2:0.613917 
