svm_type nu_svc
kernel_type rbf
gamma 1
nr_class 2
total_sv 31
rho -78.7017
label 1 -1
nr_sv 14 17
SV
17705.92761307106 1:0.525915 2:0.14007 
12156.23136976486 1:0.335657 2:0.684751 
4967.105888212348 1:0.76639 2:0.259949 
4762.68643519684 1:0.0758233 2:0.6928 
849.8988906921156 1:0.672776 2:0.0440289 
2154.365771798016 1:0.662618 2:0.149151 
1435.415918315491 1:0.557603 2:0.113056 
686.3088848839595 1:1.09611 2:0.109935 
384.2218308378075 1:0.863492 2:0.237233 
730.1171842418149 1:0.312414 2:1.07403 
118.1756107109536 1:0.953689 2:0.223568 
5943.250269214528 1:0.688557 2:-0.083797 
450.0368297045366 1:0.833157 2:0.277062 
774.0403425688487 1:0.806687 2:0.135085 
-8187.644933110324 1:0.764904 2:0.160035 
-16676.64867827668 1:0.651305 2:0.0858687 
-251.9930083174278 1:0.321754 2:0.247614 
-689.5785419500937 1:0.497285 2:0.417946 
-818.0296975547773 1:0.516824 2:0.435696 
-5414.183031295643 1:0.514284 2:-0.00197367 
-407.1948183347641 1:0.144638 2:0.283194 
-797.8451724576458 1:0.212556 2:0.219576 
-1516.16642894737 1:0.587622 2:0.513772 
-1229.560821960039 1:0.38608 2:0.383324 
-1336.263890172684 1:0.289282 2:0.618659 
-718.7324546570877 1:0.128658 2:0.0221405 
-3084.89393850126 1:0.375895 2:0.623272 
-525.8892077801939 1:0.275484 2:0.611903 
-401.284646878669 1:0.186605 2:0.518318 
-10191.22507272488 1:0.220914 2:0.763926 
-870.6484962936223 1:0.308809 2:0.613917 
