svm_type c_svc
kernel_type rbf
gamma 10
nr_class 2
total_sv 34
rho -0.551831
label 1 -1
nr_sv 17 17
SV
100 1:0.525915 2:0.14007 
71.28834185566207 1:0.335657 2:0.684751 
0.4221104597484677 1:1.08883 2:1.01915 
32.70295577188637 1:0.76639 2:0.259949 
100 1:0.0758233 2:0.6928 
37.50949085215244 1:0.672776 2:0.0440289 
100 1:0.662618 2:0.149151 
100 1:0.349768 2:0.640682 
11.77590382051654 1:0.279143 2:0.915875 
100 1:0.557603 2:0.113056 
100 1:0.409476 2:0.32463 
100 1:0.260724 2:0.677348 
52.32617154696663 1:0.806687 2:0.135085 
81.07593888953949 1:0.572752 2:0.518822 
2.573045565407391 1:0.605664 2:0.45062 
17.42586747802524 1:0.613526 2:-0.0568415 
100 1:0.568974 2:0.44456 
-100 1:0.764904 2:0.160035 
-100 1:0.651305 2:0.0858687 
-100 1:0.442034 2:0.227804 
-6.176729787282778 1:0.321754 2:0.247614 
-55.90206768155795 1:0.0245959 2:0.678565 
-87.45452620783608 1:0.516824 2:0.435696 
-62.00275775144226 1:0.514284 2:-0.00197367 
-2.608607126167922 1:0.0451912 2:0.503292 
-100 1:0.587622 2:0.513772 
-9.445614017631064 1:0.289282 2:0.618659 
-0.3381630935901261 1:-0.0913975 2:0.0988509 
-100 1:0.613725 2:0.177919 
-100 1:0.375895 2:0.623272 
-48.83292536280162 1:0.55989 2:0.219357 
-100 1:0.220914 2:0.763926 
-34.33843521159473 1:0.18171 2:0.680757 
-100 1:0.308809 2:0.613917 
