svm_type nu_svc
kernel_type rbf
gamma 0.1
nr_class 2
total_sv 62
rho -0.863069
label 1 -1
nr_sv 31 31
SV
5.681235162586158 1:0.525915 2:0.14007 
5.681235162586158 1:0.335657 2:0.684751 
5.681235162586158 1:0.709455 2:0.36865 
4.5366217784899 1:0.76639 2:0.259949 
5.681235162586158 1:0.0758233 2:0.6928 
5.681235162586158 1:0.672776 2:0.0440289 
5.681235162586158 1:0.683415 2:0.438551 
5.681235162586158 1:0.386467 2:0.880551 
5.681235162586158 1:0.432132 2:0.837625 
1.144613384096258 1:0.45031 2:0.99531 
5.681235162586158 1:0.662618 2:0.149151 
5.681235162586158 1:0.408354 2:0.740695 
5.681235162586158 1:0.43511 2:0.674663 
5.681235162586158 1:0.349768 2:0.640682 
5.681235162586158 1:0.279143 2:0.915875 
5.681235162586158 1:0.447129 2:0.845902 
5.681235162586158 1:0.557603 2:0.113056 
5.681235162586158 1:0.623052 2:-0.030142 
5.681235162586158 1:0.45775 2:0.852791 
5.681235162586158 1:0.401203 2:0.859367 
5.681235162586158 1:0.409476 2:0.32463 
5.681235162586158 1:0.260724 2:0.677348 
5.681235162586158 1:0.312414 2:1.07403 
5.681235162586158 1:0.499596 2:0.712846 
5.681235162586158 1:0.688557 2:-0.083797 
5.681235162586158 1:0.806687 2:0.135085 
5.681235162586158 1:0.572752 2:0.518822 
5.681235162586158 1:0.605664 2:0.45062 
5.681235162586158 1:0.613526 2:-0.0568415 
5.681235162586158 1:0.568974 2:0.44456 
5.681235162586158 1:0.286071 2:0.924469 
-5.681235162586158 1:0.764904 2:0.160035 
-5.681235162586158 1:0.651305 2:0.0858687 
-5.681235162586158 1:0.159249 2:1.05124 
-5.681235162586158 1:0.442034 2:0.227804 
-5.681235162586158 1:0.321754 2:0.247614 
-5.681235162586158 1:0.206942 2:0.477461 
-5.681235162586158 1:0.291704 2:0.497202 
-5.681235162586158 1:0.497285 2:0.417946 
-5.681235162586158 1:0.516824 2:0.435696 
-5.681235162586158 1:0.514284 2:-0.00197367 
-5.681235162586158 1:0.536825 2:0.324838 
-5.681235162586158 1:0.309902 2:0.323016 
-5.681235162586158 1:0.328273 2:0.370742 
-4.933619787059355 1:0.102892 2:0.705553 
-5.681235162586158 1:0.240353 2:0.467545 
-5.681235162586158 1:0.208735 2:0.903645 
-5.681235162586158 1:0.119328 2:0.764488 
-5.681235162586158 1:0.19663 2:0.508351 
-5.681235162586158 1:0.587622 2:0.513772 
-5.681235162586158 1:0.38608 2:0.383324 
-0.7476153755268035 1:0.334011 2:0.160909 
-5.681235162586158 1:0.289282 2:0.618659 
-5.681235162586158 1:0.303944 2:0.551695 
-5.681235162586158 1:0.41617 2:0.16888 
-5.681235162586158 1:0.613725 2:0.177919 
-5.681235162586158 1:0.375895 2:0.623272 
-5.681235162586158 1:0.55989 2:0.219357 
-5.681235162586158 1:0.275484 2:0.611903 
-5.681235162586158 1:0.220914 2:0.763926 
-5.681235162586158 1:0.18171 2:0.680757 
-5.681235162586158 1:0.308809 2:0.613917 
