svm_type nu_svc
kernel_type rbf
gamma 1
nr_class 2
total_sv 15
rho 19.0194
label 1 -1
nr_sv 7 8
SV
5809.168899449589 1:0.615029 2:0.244017 
9934.791030578623 1:0.231718 2:0.644936 
128.2924347256229 1:0.515202 2:0.953962 
9934.791030578623 1:0.644914 2:0.103336 
2665.7472658805 1:0.573259 2:0.331983 
223.4632746673671 1:0.433805 2:0.566797 
1108.119155855543 1:0.1609 2:0.955692 
-1424.532246327306 1:0.244022 2:0.746862 
-919.8836177128413 1:0.368052 2:0.615235 
-1683.526768858508 1:0.0161625 2:0.724274 
-516.6513273474718 1:0.195478 2:0.753886 
-5055.797494464575 1:0.454464 2:0.47066 
-7734.922251159891 1:0.649053 2:0.0414168 
-9563.889428682582 1:0.558874 2:0.279042 
-2905.169957182688 1:0.158846 2:0.831678 
