svm_type c_svc
kernel_type linear
nr_class 2
total_sv 31
rho 6.31194
label 1 -1
nr_sv 16 15
SV
10 1:0.615029 2:0.244017 
10 1:0.694649 2:0.181058 
10 1:0.231718 2:0.644936 
5.946599516981902 1:0.751629 2:0.112316 
10 1:0.68 2:0.238578 
10 1:0.166478 2:0.858221 
10 1:0.530382 2:0.426306 
10 1:0.37619 2:0.777682 
10 1:0.644914 2:0.103336 
10 1:0.573259 2:0.331983 
10 1:0.433805 2:0.566797 
10 1:0.1609 2:0.955692 
10 1:0.748653 2:-0.025112 
10 1:0.506909 2:0.473884 
3.882693409306221 1:0.504592 2:0.610969 
10 1:0.183935 2:0.898895 
-10 1:0.584211 2:0.155505 
-10 1:0.244022 2:0.746862 
-10 1:0.553436 2:0.165372 
-10 1:0.468442 2:0.429454 
-9.829292926288122 1:0.373653 2:0.429594 
-10 1:0.368052 2:0.615235 
-10 1:0.46197 2:0.27403 
-10 1:0.454464 2:0.47066 
-10 1:0.321501 2:0.589063 
-10 1:0.449198 2:0.347581 
-10 1:0.649053 2:0.0414168 
-10 1:0.558874 2:0.279042 
-10 1:0.297034 2:0.611751 
-10 1:0.22073 2:0.745878 
-10 1:0.285669 2:0.637481 
