svm_type nu_svc
kernel_type rbf
gamma 100
nr_class 2
total_sv 61
rho -0.0859378
label 1 -1
nr_sv 33 28
SV
4.462197513675543 1:0.615029 2:0.244017 
0.4742931390790686 1:0.942673 2:0.819079 
0.593146486429562 1:0.686523 2:0.9698 
0.3303022454549871 1:0.94772 2:0.454935 
0.6043608569274171 1:0.797859 2:0.94316 
0.3565732630596702 1:0.663343 2:0.604443 
10.42321534174603 1:0.231718 2:0.644936 
0.1440070966347429 1:0.889815 2:0.828826 
0.4524708445441614 1:0.463931 2:0.695326 
0.415566165660361 1:0.598622 2:0.896909 
0.5984542077626018 1:0.754384 2:0.809445 
0.4484313531574061 1:0.949337 2:0.0754975 
0.6427265446523288 1:0.664732 2:0.745909 
13.60735758030083 1:0.166478 2:0.858221 
0.3172895825575713 1:0.515202 2:0.953962 
1.237045521361717 1:0.37619 2:0.777682 
0.3800361588310814 1:0.867626 2:0.356872 
5.755274484042934 1:0.644914 2:0.103336 
0.4269414642179113 1:0.491467 2:0.926291 
0.5318454202695894 1:1.015 2:0.140361 
3.748498014437241 1:0.573259 2:0.331983 
2.01912766521188 1:0.433805 2:0.566797 
0.6674539776934771 1:0.890372 2:0.5435 
0.687975202493159 1:0.969995 2:0.289192 
0.296141338260107 1:0.75158 2:0.463137 
0.912432841651742 1:1.09537 2:0.45207 
0.1920370065129892 1:0.910408 2:0.173274 
1.709881185644788 1:0.748653 2:-0.025112 
0.3842326417396928 1:0.831178 2:0.434248 
0.5540602313276444 1:0.841892 2:0.115642 
0.3166458870456207 1:0.937847 2:0.854398 
4.214154729971045 1:0.506909 2:0.473884 
0.5637643274271973 1:0.712863 2:0.539319 
-0.3065254587575239 1:0.148163 2:0.110743 
-4.055122859302011 1:0.584211 2:0.155505 
-1.693356896383335 1:0.244022 2:0.746862 
-2.118162808407323 1:0.0777976 2:0.915628 
-0.1843594120814942 1:0.495526 2:0.00340735 
-0.433191464090931 1:0.172835 2:0.441088 
-1.0096376871777 1:0.468442 2:0.429454 
-0.8348975106008937 1:0.433123 2:0.039382 
-0.3235834805345688 1:0.229979 2:0.169362 
-0.351970553323439 1:0.210732 2:0.324506 
-0.2394924611770177 1:0.00624402 2:0.960052 
-0.1685598459355698 1:0.368052 2:0.615235 
-0.5802115621736591 1:0.248815 2:0.236933 
-0.7078679584685236 1:0.0161625 2:0.724274 
-0.724403493376741 1:0.0724119 2:0.367801 
-5.729398672937535 1:0.176443 2:0.612608 
-4.274112943994689 1:0.454464 2:0.47066 
-0.7582970558856061 1:0.376921 2:0.20149 
-0.9401756072827896 1:0.170048 2:0.0223303 
-0.6290875161587561 1:0.294036 2:0.408095 
-4.698278740921293 1:0.649053 2:0.0414168 
-0.1231383582388593 1:0.124256 2:0.272589 
-0.8028525149294866 1:0.0560682 2:0.196433 
-6.063862461704253 1:0.558874 2:0.279042 
-0.9538298619214692 1:-0.00679591 2:0.534034 
-12.73186601308425 1:0.158846 2:0.831678 
-6.846721593971163 1:0.285669 2:0.637481 
-0.1849755269612267 1:0.0601151 2:0.272593 
