svm_type nu_svc
kernel_type rbf
gamma 0.1
nr_class 2
total_sv 11
rho -189.849
label 1 -1
nr_sv 6 5
SV
33490.78896033471 1:0.615029 2:0.244017 
864.0211369799158 1:0.593561 2:0.550529 
32516.71991016122 1:0.231718 2:0.644936 
21632.27986535925 1:0.644914 2:0.103336 
2712.613303994538 1:0.573259 2:0.331983 
9255.943704174491 1:0.748653 2:-0.025112 
-29084.56570220433 1:0.584211 2:0.155505 
-8095.675958976366 1:0.00624402 2:0.960052 
-23273.51900380126 1:0.454464 2:0.47066 
-7220.506937733395 1:0.649053 2:0.0414168 
-32798.09927828878 1:0.558874 2:0.279042 
