svm_type nu_svc
kernel_type rbf
gamma 0.1
nr_class 2
total_sv 26
rho -7.25547
label 1 -1
nr_sv 13 13
SV
125.265111003436 1:0.615029 2:0.244017 
99.25069138765691 1:0.694649 2:0.181058 
125.265111003436 1:0.231718 2:0.644936 
125.265111003436 1:0.166478 2:0.858221 
125.265111003436 1:0.530382 2:0.426306 
26.01441961577905 1:0.37619 2:0.777682 
125.265111003436 1:0.644914 2:0.103336 
125.265111003436 1:0.573259 2:0.331983 
125.265111003436 1:0.433805 2:0.566797 
125.265111003436 1:0.1609 2:0.955692 
125.265111003436 1:0.748653 2:-0.025112 
125.265111003436 1:0.506909 2:0.473884 
125.265111003436 1:0.183935 2:0.898895 
-125.265111003436 1:0.584211 2:0.155505 
-125.265111003436 1:0.244022 2:0.746862 
-125.265111003436 1:0.553436 2:0.165372 
-125.265111003436 1:0.468442 2:0.429454 
-125.265111003436 1:0.368052 2:0.615235 
-125.265111003436 1:0.454464 2:0.47066 
-125.265111003436 1:0.321501 2:0.589063 
-79.74714535689643 1:0.449198 2:0.347581 
-125.265111003436 1:0.649053 2:0.0414168 
-125.265111003436 1:0.558874 2:0.279042 
-125.265111003436 1:0.22073 2:0.745878 
-125.265111003436 1:0.158846 2:0.831678 
-45.51796564653957 1:0.285669 2:0.637481 
