svm_type c_svc
kernel_type rbf
gamma 10
nr_class 2
total_sv 18
rho -0.300688
label 1 -1
nr_sv 9 9
SV
100 1:0.231718 2:0.644936 
100 1:0.166478 2:0.858221 
4.166186369338359 1:0.530382 2:0.426306 
11.75655396155023 1:0.37619 2:0.777682 
95.85178113557605 1:0.644914 2:0.103336 
37.26853161591298 1:0.573259 2:0.331983 
100 1:0.433805 2:0.566797 
14.16994039765471 1:0.748653 2:-0.025112 
11.38970923027737 1:0.183935 2:0.898895 
-46.94977875476194 1:0.244022 2:0.746862 
-14.64298419078779 1:0.0777976 2:0.915628 
-15.70778874844255 1:0.114946 2:0.572078 
-100 1:0.368052 2:0.615235 
-41.34492876153727 1:0.454464 2:0.47066 
-90.06631307181753 1:0.649053 2:0.0414168 
-56.74018343681392 1:0.558874 2:0.279042 
-93.28497463506888 1:0.158846 2:0.831678 
-15.86575111107978 1:0.285669 2:0.637481 
