svm_type c_svc
kernel_type rbf
gamma 10
nr_class 2
total_sv 15
rho -1.08835
label 1 -1
nr_sv 6 9
SV
1000 1:0.231718 2:0.644936 
455.3319487948553 1:0.166478 2:0.858221 
85.45429256809653 1:0.37619 2:0.777682 
93.17696537712895 1:0.644914 2:0.103336 
410.2217353310426 1:0.433805 2:0.566797 
16.85929450985653 1:0.748653 2:-0.025112 
-298.2655832751454 1:0.244022 2:0.746862 
-32.98827969755659 1:0.0777976 2:0.915628 
-514.600364738694 1:0.368052 2:0.615235 
-370.2934366913976 1:0.176443 2:0.612608 
-109.6010885198991 1:0.454464 2:0.47066 
-95.10155210280112 1:0.649053 2:0.0414168 
-15.62418395386719 1:0.558874 2:0.279042 
-407.9601433050709 1:0.158846 2:0.831678 
-216.6096042965461 1:0.285669 2:0.637481 
