svm_type nu_svc
kernel_type linear
nr_class 2
total_sv 61
rho 2.65335
label 1 -1
nr_sv 30 31
SV
0.8283462551215068 1:0.615029 2:0.244017 
0.8283462551215068 1:0.593561 2:0.550529 
0.8283462551215068 1:0.664909 2:0.338568 
0.8283462551215068 1:0.658432 2:0.4697 
0.8283462551215068 1:0.576474 2:0.567064 
0.8283462551215068 1:0.694649 2:0.181058 
0.8283462551215068 1:0.655016 2:0.52511 
0.8283462551215068 1:0.231718 2:0.644936 
0.8283462551215068 1:0.751629 2:0.112316 
0.8283462551215068 1:0.623378 2:0.45614 
0.8283462551215068 1:0.463931 2:0.695326 
0.8283462551215068 1:0.68 2:0.238578 
0.8283462551215068 1:0.166478 2:0.858221 
0.8283462551215068 1:0.596844 2:0.595744 
0.8283462551215068 1:0.530382 2:0.426306 
0.8283462551215068 1:0.515202 2:0.953962 
0.8283462551215068 1:0.37619 2:0.777682 
0.8283462551215068 1:0.791001 2:0.120888 
0.8283462551215068 1:0.644914 2:0.103336 
0.8283462551215068 1:0.491467 2:0.926291 
0.8283462551215068 1:0.594445 2:0.57848 
0.8283462551215068 1:0.573259 2:0.331983 
0.8283462551215068 1:0.433805 2:0.566797 
0.8283462551215068 1:0.1609 2:0.955692 
0.8283462551215068 1:0.811133 2:-0.00302153 
0.8283462551215068 1:0.748653 2:-0.025112 
0.8283462551215068 1:0.506909 2:0.473884 
0.8283462551215068 1:0.737188 2:0.151297 
0.8283462551215068 1:0.504592 2:0.610969 
0.8283462551215068 1:0.183935 2:0.898895 
-0.8283462551215068 1:0.584211 2:0.155505 
-0.8283462551215068 1:0.433616 2:0.264786 
-0.8283462551215068 1:0.244022 2:0.746862 
-0.3668942814930457 1:0.0777976 2:0.915628 
-0.8283462551215068 1:0.495526 2:0.00340735 
-0.8283462551215068 1:0.406026 2:0.334209 
-0.8283462551215068 1:0.553436 2:0.165372 
-0.8283462551215068 1:0.468442 2:0.429454 
-0.8283462551215068 1:0.433123 2:0.039382 
-0.8283462551215068 1:0.344985 2:0.426546 
-0.8283462551215068 1:0.355054 2:0.464659 
-0.8283462551215068 1:0.373653 2:0.429594 
-0.8283462551215068 1:0.285905 2:0.478558 
-0.8283462551215068 1:0.368052 2:0.615235 
-0.8283462551215068 1:0.46197 2:0.27403 
-0.8283462551215068 1:0.195478 2:0.753886 
-0.4614519736284612 1:0.176443 2:0.612608 
-0.8283462551215068 1:0.454464 2:0.47066 
-0.8283462551215068 1:0.376921 2:0.20149 
-0.8283462551215068 1:0.453336 2:0.0762299 
-0.8283462551215068 1:0.320178 2:0.49722 
-0.8283462551215068 1:0.321501 2:0.589063 
-0.8283462551215068 1:0.449198 2:0.347581 
-0.8283462551215068 1:0.294036 2:0.408095 
-0.8283462551215068 1:0.649053 2:0.0414168 
-0.8283462551215068 1:0.2897 2:0.531043 
-0.8283462551215068 1:0.558874 2:0.279042 
-0.8283462551215068 1:0.297034 2:0.611751 
-0.8283462551215068 1:0.22073 2:0.745878 
-0.8283462551215068 1:0.158846 2:0.831678 
-0.8283462551215068 1:0.285669 2:0.637481 
