svm_type c_svc
kernel_type rbf
gamma 1
nr_class 2
total_sv 18
rho -1.04957
label 1 -1
nr_sv 9 9
SV
100 1:0.615029 2:0.244017 
100 1:0.231718 2:0.644936 
100 1:0.166478 2:0.858221 
67.57498944582785 1:0.530382 2:0.426306 
100 1:0.644914 2:0.103336 
100 1:0.573259 2:0.331983 
100 1:0.433805 2:0.566797 
6.597334766431861 1:0.1609 2:0.955692 
100 1:0.183935 2:0.898895 
-32.62077279265435 1:0.584211 2:0.155505 
-100 1:0.244022 2:0.746862 
-100 1:0.0777976 2:0.915628 
-100 1:0.468442 2:0.429454 
-100 1:0.368052 2:0.615235 
-100 1:0.454464 2:0.47066 
-100 1:0.649053 2:0.0414168 
-100 1:0.558874 2:0.279042 
-41.55155141960531 1:0.158846 2:0.831678 
