svm_type nu_svc
kernel_type rbf
gamma 1
nr_class 2
total_sv 3
rho 5.8128
label 1 -1
nr_sv 1 2
SV
570.9514835530211 1:0.615029 2:0.244017 
-116.8267647178413 1:0.649053 2:0.0414168 
-454.12471883518 1:0.558874 2:0.279042 
