svm_type c_svc
kernel_type linear
nr_class 2
total_sv 16
rho 14.9125
label 1 -1
nr_sv 8 8
SV
1000 1:0.615029 2:0.244017 
1000 1:0.231718 2:0.644936 
1000 1:0.166478 2:0.858221 
1000 1:0.644914 2:0.103336 
342.6508313573426 1:0.573259 2:0.331983 
1000 1:0.1609 2:0.955692 
1000 1:0.748653 2:-0.025112 
1000 1:0.183935 2:0.898895 
-593.9098575662011 1:0.584211 2:0.155505 
-1000 1:0.244022 2:0.746862 
-1000 1:0.468442 2:0.429454 
-1000 1:0.368052 2:0.615235 
-1000 1:0.454464 2:0.47066 
-1000 1:0.321501 2:0.589063 
-1000 1:0.558874 2:0.279042 
-748.7409737911422 1:0.22073 2:0.745878 
