svm_type nu_svc
kernel_type rbf
gamma 10
nr_class 2
total_sv 30
rho -0.294889
label 1 -1
nr_sv 15 15
SV
3.219801915765225 1:0.615029 2:0.244017 
0.4543409096752041 1:0.694649 2:0.181058 
3.219801915765225 1:0.231718 2:0.644936 
3.219801915765225 1:0.166478 2:0.858221 
3.219801915765225 1:0.530382 2:0.426306 
2.978426137574361 1:0.37619 2:0.777682 
3.219801915765225 1:0.644914 2:0.103336 
3.219801915765225 1:0.573259 2:0.331983 
3.219801915765225 1:0.433805 2:0.566797 
3.219801915765225 1:0.1609 2:0.955692 
0.2479692476139319 1:1.09537 2:0.45207 
2.362545077819978 1:0.748653 2:-0.025112 
0.3963224588469764 1:0.937847 2:0.854398 
3.219801915765225 1:0.506909 2:0.473884 
3.219801915765225 1:0.183935 2:0.898895 
-3.219801915765225 1:0.584211 2:0.155505 
-3.219801915765225 1:0.244022 2:0.746862 
-3.219801915765225 1:0.0777976 2:0.915628 
-1.866950035719025 1:0.553436 2:0.165372 
-3.219801915765225 1:0.468442 2:0.429454 
-1.737591083961255 1:0.00624402 2:0.960052 
-3.219801915765225 1:0.368052 2:0.615235 
-3.219801915765225 1:0.454464 2:0.47066 
-0.6958631927815608 1:0.321501 2:0.589063 
-1.571498726403364 1:0.449198 2:0.347581 
-3.219801915765225 1:0.649053 2:0.0414168 
-0.5677007926652456 1:0.0560682 2:0.196433 
-3.219801915765225 1:0.558874 2:0.279042 
-3.219801915765225 1:0.22073 2:0.745878 
-3.219801915765225 1:0.158846 2:0.831678 
