svm_type nu_svc
kernel_type rbf
gamma 100
nr_class 2
total_sv 67
rho -0.0822296
label 1 -1
nr_sv 36 31
SV
4.247307456509882 1:0.615029 2:0.244017 
0.4773613875387532 1:0.942673 2:0.819079 
0.5678837611811719 1:0.686523 2:0.9698 
0.4179446555750851 1:0.94772 2:0.454935 
0.6390955294002539 1:0.797859 2:0.94316 
0.6168185908967365 1:0.663343 2:0.604443 
11.01774177546367 1:0.231718 2:0.644936 
0.01963029200159667 1:0.697316 2:0.835238 
0.170273039854302 1:0.889815 2:0.828826 
0.4662785328630323 1:0.463931 2:0.695326 
0.4442514573836906 1:0.598622 2:0.896909 
0.378120077606668 1:0.754384 2:0.809445 
0.4461419632393491 1:0.949337 2:0.0754975 
0.5757443875643233 1:0.664732 2:0.745909 
0.3085380029902037 1:0.74815 2:0.543271 
14.5547671005936 1:0.166478 2:0.858221 
0.01406218602413155 1:0.596844 2:0.595744 
0.1841582153900712 1:0.744069 2:0.779832 
0.3040223764171155 1:0.515202 2:0.953962 
1.265004181840438 1:0.37619 2:0.777682 
0.5707133239373972 1:0.867626 2:0.356872 
5.621076730052978 1:0.644914 2:0.103336 
0.4741573293732243 1:0.491467 2:0.926291 
0.5751581145885135 1:1.015 2:0.140361 
3.680492011215654 1:0.573259 2:0.331983 
1.914766719731927 1:0.433805 2:0.566797 
0.6539323764617707 1:0.890372 2:0.5435 
0.6435598720427917 1:0.969995 2:0.289192 
0.5329432054452761 1:0.75158 2:0.463137 
0.8552500218598695 1:1.09537 2:0.45207 
0.2177345684931237 1:0.910408 2:0.173274 
1.630279297993585 1:0.748653 2:-0.025112 
0.07931358934350904 1:0.831178 2:0.434248 
0.5295282236492352 1:0.841892 2:0.115642 
0.3189785511502664 1:0.937847 2:0.854398 
3.973714565184413 1:0.506909 2:0.473884 
-0.2996355779287953 1:0.148163 2:0.110743 
-3.915277016198428 1:0.584211 2:0.155505 
-1.723883172070683 1:0.244022 2:0.746862 
-2.277007061663349 1:0.0777976 2:0.915628 
-0.2988501482591696 1:0.495526 2:0.00340735 
-0.1232990734381368 1:0.406026 2:0.334209 
-0.3196042180823518 1:0.172835 2:0.441088 
-0.9752025925086764 1:0.468442 2:0.429454 
-0.7520795229221288 1:0.433123 2:0.039382 
-0.5020763411283282 1:0.229979 2:0.169362 
-0.5226577742830565 1:0.210732 2:0.324506 
-0.1051753870650271 1:0.00624402 2:0.960052 
-0.1559740153492924 1:0.285905 2:0.478558 
-0.2686702282196434 1:0.0877812 2:0.41837 
-0.3339614020575196 1:0.248815 2:0.236933 
-0.6192234893040339 1:0.0161625 2:0.724274 
-0.536183264117436 1:0.0724119 2:0.367801 
-6.008726232043546 1:0.176443 2:0.612608 
-4.03581036382072 1:0.454464 2:0.47066 
-0.03367596084554525 1:0.155187 2:0.186369 
-0.7635940093443201 1:0.376921 2:0.20149 
-0.8908734111251138 1:0.170048 2:0.0223303 
-0.5059759865518672 1:0.294036 2:0.408095 
-4.631404962926479 1:0.649053 2:0.0414168 
-0.07750381031112775 1:0.124256 2:0.272589 
-0.7407978934799343 1:0.0560682 2:0.196433 
-5.832444299773638 1:0.558874 2:0.279042 
-0.9187797623536401 1:-0.00679591 2:0.534034 
-13.66898504252446 1:0.158846 2:0.831678 
-7.267244544682124 1:0.285669 2:0.637481 
-0.2821669064790326 1:0.0601151 2:0.272593 
