svm_type nu_svc
kernel_type rbf
gamma 0.1
nr_class 2
total_sv 3
rho -39.2375
label 1 -1
nr_sv 2 1
SV
8290.778851550211 1:0.615029 2:0.244017 
612.5286066329271 1:0.1609 2:0.955692 
-8903.307458183137 1:0.558874 2:0.279042 
