svm_type nu_svc
kernel_type rbf
gamma 10
nr_class 2
total_sv 19
rho 1.23262
label 1 -1
nr_sv 8 11
SV
355.8350978281013 1:0.231718 2:0.644936 
152.4379258304065 1:0.166478 2:0.858221 
54.74073979600123 1:0.530382 2:0.426306 
53.25144266605347 1:0.37619 2:0.777682 
244.1235937367653 1:0.644914 2:0.103336 
106.6528243447142 1:0.573259 2:0.331983 
91.68734069134244 1:0.433805 2:0.566797 
13.92407036397044 1:0.748653 2:-0.025112 
-140.1190234841145 1:0.244022 2:0.746862 
-29.0437600468794 1:0.0777976 2:0.915628 
-11.32640715313054 1:0.113091 2:0.575801 
-207.5603225989384 1:0.368052 2:0.615235 
-21.23968309559713 1:0.195478 2:0.753886 
-119.0846315114687 1:0.176443 2:0.612608 
-30.76329436351625 1:0.454464 2:0.47066 
-193.3961692451544 1:0.649053 2:0.0414168 
-204.7361767881279 1:0.558874 2:0.279042 
-36.90467869920014 1:0.22073 2:0.745878 
-78.47888827122723 1:0.158846 2:0.831678 
