svm_type c_svc
kernel_type rbf
gamma 0.01
nr_class 2
total_sv 92
rho -0.138696
label 1 -1
nr_sv 46 46
SV
10 1:0.615029 2:0.244017 
10 1:0.593561 2:0.550529 
10 1:0.664909 2:0.338568 
10 1:0.658432 2:0.4697 
10 1:0.576474 2:0.567064 
10 1:0.694649 2:0.181058 
10 1:0.655016 2:0.52511 
10 1:0.663343 2:0.604443 
10 1:0.231718 2:0.644936 
10 1:0.751629 2:0.112316 
10 1:0.697316 2:0.835238 
10 1:0.623378 2:0.45614 
10 1:0.531476 2:0.919301 
10 1:0.463931 2:0.695326 
10 1:0.598622 2:0.896909 
10 1:0.556306 2:0.931088 
10 1:0.68 2:0.238578 
0.04045568961833904 1:0.949337 2:0.0754975 
10 1:0.664732 2:0.745909 
10 1:0.74815 2:0.543271 
10 1:0.166478 2:0.858221 
10 1:0.596844 2:0.595744 
10 1:0.530382 2:0.426306 
10 1:0.515202 2:0.953962 
10 1:0.37619 2:0.777682 
10 1:0.791001 2:0.120888 
10 1:0.644914 2:0.103336 
10 1:0.491467 2:0.926291 
10 1:0.615056 2:0.926993 
10 1:0.556758 2:0.900343 
10 1:0.594445 2:0.57848 
10 1:0.573259 2:0.331983 
10 1:0.433805 2:0.566797 
10 1:0.1609 2:0.955692 
10 1:0.75158 2:0.463137 
10 1:0.811133 2:-0.00302153 
10 1:0.910408 2:0.173274 
10 1:0.672017 2:0.790385 
10 1:0.748653 2:-0.025112 
10 1:0.831178 2:0.434248 
10 1:0.841892 2:0.115642 
10 1:0.506909 2:0.473884 
10 1:0.712863 2:0.539319 
10 1:0.737188 2:0.151297 
10 1:0.504592 2:0.610969 
10 1:0.183935 2:0.898895 
-10 1:0.584211 2:0.155505 
-10 1:0.433616 2:0.264786 
-10 1:0.244022 2:0.746862 
-10 1:0.0777976 2:0.915628 
-10 1:0.495526 2:0.00340735 
-10 1:0.114946 2:0.572078 
-10 1:0.15814 2:0.367966 
-10 1:0.406026 2:0.334209 
-10 1:0.113091 2:0.575801 
-10 1:0.172835 2:0.441088 
-10 1:0.0981946 2:0.613523 
-10 1:0.553436 2:0.165372 
-10 1:0.468442 2:0.429454 
-10 1:0.433123 2:0.039382 
-10 1:0.229979 2:0.169362 
-10 1:0.344985 2:0.426546 
-10 1:0.355054 2:0.464659 
-10 1:0.210732 2:0.324506 
-10 1:0.373653 2:0.429594 
-10 1:0.00624402 2:0.960052 
-10 1:0.0536251 2:0.634393 
-10 1:0.110845 2:0.463589 
-10 1:0.285905 2:0.478558 
-10 1:0.368052 2:0.615235 
-10 1:0.248815 2:0.236933 
-10 1:0.46197 2:0.27403 
-0.04045568961833904 1:0.0161625 2:0.724274 
-10 1:0.195478 2:0.753886 
-10 1:0.176443 2:0.612608 
-10 1:0.146566 2:0.438564 
-10 1:0.454464 2:0.47066 
-10 1:0.085181 2:0.690017 
-10 1:0.376921 2:0.20149 
-10 1:0.453336 2:0.0762299 
-10 1:0.320178 2:0.49722 
-10 1:0.321501 2:0.589063 
-10 1:0.449198 2:0.347581 
-10 1:0.294036 2:0.408095 
-10 1:0.649053 2:0.0414168 
-10 1:0.2897 2:0.531043 
-10 1:0.558874 2:0.279042 
-10 1:0.297034 2:0.611751 
-10 1:0.22073 2:0.745878 
-10 1:0.221766 2:0.238969 
-10 1:0.158846 2:0.831678 
-10 1:0.285669 2:0.637481 
