svm_type c_svc
kernel_type rbf
gamma 0.01
nr_class 2
total_sv 27
rho -8.39655
label 1 -1
nr_sv 14 13
SV
1000 1:0.615029 2:0.244017 
1000 1:0.694649 2:0.181058 
1000 1:0.231718 2:0.644936 
517.9223558730323 1:0.68 2:0.238578 
1000 1:0.166478 2:0.858221 
1000 1:0.530382 2:0.426306 
482.0776441269681 1:0.37619 2:0.777682 
1000 1:0.644914 2:0.103336 
1000 1:0.573259 2:0.331983 
1000 1:0.433805 2:0.566797 
1000 1:0.1609 2:0.955692 
1000 1:0.748653 2:-0.025112 
1000 1:0.506909 2:0.473884 
1000 1:0.183935 2:0.898895 
-1000 1:0.584211 2:0.155505 
-1000 1:0.244022 2:0.746862 
-1000 1:0.553436 2:0.165372 
-1000 1:0.468442 2:0.429454 
-1000 1:0.368052 2:0.615235 
-1000 1:0.454464 2:0.47066 
-1000 1:0.321501 2:0.589063 
-1000 1:0.449198 2:0.347581 
-1000 1:0.649053 2:0.0414168 
-1000 1:0.558874 2:0.279042 
-1000 1:0.297034 2:0.611751 
-1000 1:0.22073 2:0.745878 
-1000 1:0.285669 2:0.637481 
