svm_type nu_svc
kernel_type linear
nr_class 2
total_sv 3
rho 44.6004
label 1 -1
nr_sv 2 1
SV
2288.555507360228 1:0.615029 2:0.244017 
174.255848867703 1:0.1609 2:0.955692 
-2462.811356227931 1:0.558874 2:0.279042 
