svm_type nu_svc
kernel_type rbf
gamma 100
nr_class 2
total_sv 32
rho -0.0422544
label 1 -1
nr_sv 15 17
SV
5.07492226300621 1:0.615029 2:0.244017 
0.9149978063574432 1:0.686523 2:0.9698 
6.193390675959887 1:0.231718 2:0.644936 
1.04087428878773 1:0.664732 2:0.745909 
7.44812862331023 1:0.166478 2:0.858221 
1.434244270291086 1:0.37619 2:0.777682 
4.140551152903232 1:0.644914 2:0.103336 
0.9918809438511983 1:1.015 2:0.140361 
5.756801089327962 1:0.573259 2:0.331983 
2.735293084982455 1:0.433805 2:0.566797 
0.9839323850355643 1:1.09537 2:0.45207 
1.82710702699008 1:0.748653 2:-0.025112 
0.8474383127918558 1:0.831178 2:0.434248 
1.404625110931251 1:0.937847 2:0.854398 
4.141498206381648 1:0.506909 2:0.473884 
-1.106246952550098 1:0.148163 2:0.110743 
-3.733609412792832 1:0.584211 2:0.155505 
-2.017606017930748 1:0.244022 2:0.746862 
-1.367896610256808 1:0.0777976 2:0.915628 
-1.755147368937959 1:0.468442 2:0.429454 
-0.7670996913203112 1:0.433123 2:0.039382 
-0.5595507229398811 1:0.00624402 2:0.960052 
-1.887096124302921 1:0.368052 2:0.615235 
-1.053295492555749 1:0.248815 2:0.236933 
-1.111497760308771 1:0.0724119 2:0.367801 
-3.252928432968144 1:0.176443 2:0.612608 
-3.504151726201632 1:0.454464 2:0.47066 
-3.709366902510911 1:0.649053 2:0.0414168 
-8.31678362113078 1:0.558874 2:0.279042 
-0.8932686305016101 1:-0.00679591 2:0.534034 
-6.349603544173574 1:0.158846 2:0.831678 
-3.550536229525104 1:0.285669 2:0.637481 
