svm_type nu_svc
kernel_type rbf
gamma 1
nr_class 2
total_sv 7
rho 28.8942
label 1 -1
nr_sv 3 4
SV
-7130.933740571825 1:0.615029 2:0.244017 
-1305.077634255724 1:0.231718 2:0.644936 
-1198.948332045633 1:0.644914 2:0.103336 
148.1975191359276 1:0.0777976 2:0.915628 
316.7354979523149 1:0.00624402 2:0.960052 
1302.707715194477 1:0.649053 2:0.0414168 
7867.318974590461 1:0.558874 2:0.279042 
