svm_type c_svc
kernel_type rbf
gamma 100
nr_class 2
total_sv 86
rho -0.11767
label 1 -1
nr_sv 47 39
SV
1 1:0.615029 2:0.244017 
0.4703575710099121 1:0.942673 2:0.819079 
0.1809512434784473 1:0.664909 2:0.338568 
0.5508216338503842 1:0.686523 2:0.9698 
0.1834021498387863 1:0.658432 2:0.4697 
0.3976858133587866 1:0.94772 2:0.454935 
0.3909745843008717 1:0.694649 2:0.181058 
0.6156879146523498 1:0.797859 2:0.94316 
0.3871739428154922 1:0.663343 2:0.604443 
1 1:0.231718 2:0.644936 
0.2109181872594986 1:0.751629 2:0.112316 
0.03898818082940073 1:0.697316 2:0.835238 
0.169591310157323 1:0.889815 2:0.828826 
0.6679054538938937 1:0.463931 2:0.695326 
0.4145556173977122 1:0.598622 2:0.896909 
0.3131965063222755 1:0.754384 2:0.809445 
0.04142352074720277 1:0.68 2:0.238578 
0.4422258904310944 1:0.949337 2:0.0754975 
0.5470480761361687 1:0.664732 2:0.745909 
0.3518388518718177 1:0.74815 2:0.543271 
1 1:0.166478 2:0.858221 
0.3214266222416222 1:0.596844 2:0.595744 
1 1:0.530382 2:0.426306 
0.2200209270338573 1:0.744069 2:0.779832 
0.2846634621067807 1:0.515202 2:0.953962 
0.9662188053246773 1:0.37619 2:0.777682 
0.1047067995559602 1:0.791001 2:0.120888 
0.5367272423568916 1:0.867626 2:0.356872 
1 1:0.644914 2:0.103336 
0.4698213615814245 1:0.491467 2:0.926291 
0.5418900858803712 1:1.015 2:0.140361 
1 1:0.573259 2:0.331983 
1 1:0.433805 2:0.566797 
0.6254354379799519 1:0.890372 2:0.5435 
0.6196473633765491 1:0.969995 2:0.289192 
0.8863109462295469 1:0.1609 2:0.955692 
0.3967951065691193 1:0.75158 2:0.463137 
0.1863444007036977 1:0.811133 2:-0.00302153 
0.8228062817087641 1:1.09537 2:0.45207 
0.2659599912095805 1:0.910408 2:0.173274 
0.8710329004239412 1:0.748653 2:-0.025112 
0.118383138404018 1:0.831178 2:0.434248 
0.3096878282630532 1:0.841892 2:0.115642 
0.2901317296871406 1:0.937847 2:0.854398 
1 1:0.506909 2:0.473884 
0.04218508379001887 1:0.504592 2:0.610969 
0.4776898303409852 1:0.183935 2:0.898895 
-0.2924290556803858 1:0.148163 2:0.110743 
-1 1:0.584211 2:0.155505 
-1 1:0.244022 2:0.746862 
-1 1:0.0777976 2:0.915628 
-0.611325108834371 1:0.495526 2:0.00340735 
-0.1396470539325362 1:0.114946 2:0.572078 
-0.3895006891096477 1:0.172835 2:0.441088 
-0.5050882147387689 1:0.553436 2:0.165372 
-1 1:0.468442 2:0.429454 
-0.6558985504535072 1:0.433123 2:0.039382 
-0.5294143126141776 1:0.229979 2:0.169362 
-0.5319531015523477 1:0.210732 2:0.324506 
-0.725551899672553 1:0.00624402 2:0.960052 
-0.1776939547775801 1:0.0536251 2:0.634393 
-0.331288411433297 1:0.110845 2:0.463589 
-1 1:0.368052 2:0.615235 
-0.330205298336198 1:0.248815 2:0.236933 
-0.2850398046793628 1:0.46197 2:0.27403 
-0.8677975306346514 1:0.0161625 2:0.724274 
-0.6330490551043247 1:0.0724119 2:0.367801 
-0.2161420122898743 1:0.195478 2:0.753886 
-1 1:0.176443 2:0.612608 
-1 1:0.454464 2:0.47066 
-0.04441055269201858 1:0.155187 2:0.186369 
-0.144492159869076 1:0.085181 2:0.690017 
-0.7855276469809833 1:0.376921 2:0.20149 
-0.3548934645730793 1:0.320178 2:0.49722 
-0.9312921016514174 1:0.170048 2:0.0223303 
-0.6089549982966904 1:0.449198 2:0.347581 
-0.5433642300315155 1:0.294036 2:0.408095 
-1 1:0.649053 2:0.0414168 
-0.06693666924705646 1:0.124256 2:0.272589 
-0.2169388966126695 1:0.2897 2:0.531043 
-0.7635019534069633 1:0.0560682 2:0.196433 
-1 1:0.558874 2:0.279042 
-0.9213363947601582 1:-0.00679591 2:0.534034 
-1 1:0.158846 2:0.831678 
-0.8277881833484606 1:0.285669 2:0.637481 
-0.3011704878056987 1:0.0601151 2:0.272593 
