svm_type c_svc
kernel_type polynomial
degree 3
gamma 0.5
coef0 0
nr_class 2
total_sv 51
rho 1.53396
label 1 -1
nr_sv 26 25
SV
10 1:0.615029 2:0.244017 
10 1:0.593561 2:0.550529 
10 1:0.664909 2:0.338568 
10 1:0.576474 2:0.567064 
10 1:0.694649 2:0.181058 
10 1:0.231718 2:0.644936 
10 1:0.751629 2:0.112316 
10 1:0.623378 2:0.45614 
10 1:0.463931 2:0.695326 
10 1:0.68 2:0.238578 
10 1:0.166478 2:0.858221 
2.545684472432459 1:0.596844 2:0.595744 
10 1:0.530382 2:0.426306 
10 1:0.37619 2:0.777682 
7.091303828576285 1:0.791001 2:0.120888 
10 1:0.644914 2:0.103336 
10 1:0.594445 2:0.57848 
10 1:0.573259 2:0.331983 
10 1:0.433805 2:0.566797 
10 1:0.1609 2:0.955692 
10 1:0.811133 2:-0.00302153 
10 1:0.748653 2:-0.025112 
10 1:0.506909 2:0.473884 
10 1:0.737188 2:0.151297 
10 1:0.504592 2:0.610969 
10 1:0.183935 2:0.898895 
-10 1:0.584211 2:0.155505 
-10 1:0.433616 2:0.264786 
-10 1:0.244022 2:0.746862 
-9.636988301008744 1:0.0777976 2:0.915628 
-10 1:0.495526 2:0.00340735 
-10 1:0.406026 2:0.334209 
-10 1:0.553436 2:0.165372 
-10 1:0.468442 2:0.429454 
-10 1:0.344985 2:0.426546 
-10 1:0.355054 2:0.464659 
-10 1:0.373653 2:0.429594 
-10 1:0.368052 2:0.615235 
-10 1:0.46197 2:0.27403 
-10 1:0.195478 2:0.753886 
-10 1:0.454464 2:0.47066 
-10 1:0.320178 2:0.49722 
-10 1:0.321501 2:0.589063 
-10 1:0.449198 2:0.347581 
-10 1:0.649053 2:0.0414168 
-10 1:0.2897 2:0.531043 
-10 1:0.558874 2:0.279042 
-10 1:0.297034 2:0.611751 
-10 1:0.22073 2:0.745878 
-10 1:0.158846 2:0.831678 
-10 1:0.285669 2:0.637481 
