svm_type c_svc
kernel_type polynomial
degree 3
gamma 0.5
coef0 0
nr_class 2
total_sv 17
rho 5.97603
label 1 -1
nr_sv 8 9
SV
1000 1:0.615029 2:0.244017 
1000 1:0.231718 2:0.644936 
1000 1:0.166478 2:0.858221 
505.5227424104582 1:0.530382 2:0.426306 
1000 1:0.644914 2:0.103336 
1000 1:0.573259 2:0.331983 
1000 1:0.433805 2:0.566797 
1000 1:0.183935 2:0.898895 
-61.21866874543763 1:0.584211 2:0.155505 
-1000 1:0.244022 2:0.746862 
-898.9827241952443 1:0.0777976 2:0.915628 
-1000 1:0.468442 2:0.429454 
-1000 1:0.368052 2:0.615235 
-1000 1:0.454464 2:0.47066 
-1000 1:0.649053 2:0.0414168 
-1000 1:0.558874 2:0.279042 
-545.3213494697764 1:0.158846 2:0.831678 
