svm_type nu_svc
kernel_type rbf
gamma 1
nr_class 2
total_sv 27
rho -0.932171
label 1 -1
nr_sv 13 14
SV
11.39647389883463 1:0.615029 2:0.244017 
0.393621376069292 1:0.694649 2:0.181058 
11.39647389883463 1:0.231718 2:0.644936 
11.39647389883463 1:0.166478 2:0.858221 
11.39647389883463 1:0.530382 2:0.426306 
11.39647389883463 1:0.37619 2:0.777682 
11.39647389883463 1:0.644914 2:0.103336 
11.39647389883463 1:0.573259 2:0.331983 
11.39647389883463 1:0.433805 2:0.566797 
11.39647389883463 1:0.1609 2:0.955692 
11.00285252276534 1:0.748653 2:-0.025112 
11.39647389883463 1:0.506909 2:0.473884 
11.39647389883463 1:0.183935 2:0.898895 
-11.39647389883463 1:0.584211 2:0.155505 
-11.39647389883463 1:0.244022 2:0.746862 
-11.39647389883463 1:0.0777976 2:0.915628 
-11.39647389883463 1:0.553436 2:0.165372 
-11.39647389883463 1:0.468442 2:0.429454 
-3.624274412409773 1:0.00624402 2:0.960052 
-11.39647389883463 1:0.368052 2:0.615235 
-11.39647389883463 1:0.454464 2:0.47066 
-5.170076705431316 1:0.321501 2:0.589063 
-2.602122780993537 1:0.449198 2:0.347581 
-11.39647389883463 1:0.649053 2:0.0414168 
-11.39647389883463 1:0.558874 2:0.279042 
-11.39647389883463 1:0.22073 2:0.745878 
-11.39647389883463 1:0.158846 2:0.831678 
