svm_type c_svc
kernel_type rbf
gamma 100
nr_class 2
total_sv 67
rho -0.0818583
label 1 -1
nr_sv 36 31
SV
4.226286717620558 1:0.615029 2:0.244017 
0.4898240814372833 1:0.942673 2:0.819079 
0.5717068466153906 1:0.686523 2:0.9698 
0.4184038451177926 1:0.94772 2:0.454935 
0.6400078335916106 1:0.797859 2:0.94316 
0.6126251916220627 1:0.663343 2:0.604443 
11.08125133535577 1:0.231718 2:0.644936 
0.04074469675788676 1:0.697316 2:0.835238 
0.1756666510740295 1:0.889815 2:0.828826 
0.4567707754346186 1:0.463931 2:0.695326 
0.4328925909296535 1:0.598622 2:0.896909 
0.3380627850683373 1:0.754384 2:0.809445 
0.4398354605092122 1:0.949337 2:0.0754975 
0.5679484066017363 1:0.664732 2:0.745909 
0.3083730899082075 1:0.74815 2:0.543271 
14.64050789560007 1:0.166478 2:0.858221 
0.02385182255066771 1:0.596844 2:0.595744 
0.2144989334761485 1:0.744069 2:0.779832 
0.3147815077973714 1:0.515202 2:0.953962 
1.272356402851234 1:0.37619 2:0.777682 
0.5763282981007499 1:0.867626 2:0.356872 
5.581578558813352 1:0.644914 2:0.103336 
0.465096862868293 1:0.491467 2:0.926291 
0.5799303361386838 1:1.015 2:0.140361 
3.660644256183688 1:0.573259 2:0.331983 
1.925061450410317 1:0.433805 2:0.566797 
0.6579060816532102 1:0.890372 2:0.5435 
0.6484344963765397 1:0.969995 2:0.289192 
0.5381086723170375 1:0.75158 2:0.463137 
0.8556214624701086 1:1.09537 2:0.45207 
0.2242809486864095 1:0.910408 2:0.173274 
1.625099177037781 1:0.748653 2:-0.025112 
0.07029953668747982 1:0.831178 2:0.434248 
0.5214811604044529 1:0.841892 2:0.115642 
0.302422987833455 1:0.937847 2:0.854398 
3.962913185762345 1:0.506909 2:0.473884 
-0.2825013199429061 1:0.148163 2:0.110743 
-3.896657667824818 1:0.584211 2:0.155505 
-1.729018952461168 1:0.244022 2:0.746862 
-2.292134594760702 1:0.0777976 2:0.915628 
-0.301540377456602 1:0.495526 2:0.00340735 
-0.1298219822445739 1:0.406026 2:0.334209 
-0.3032191478664517 1:0.172835 2:0.441088 
-0.9513186183414037 1:0.468442 2:0.429454 
-0.7534269895205861 1:0.433123 2:0.039382 
-0.5150096031172241 1:0.229979 2:0.169362 
-0.5423147759195995 1:0.210732 2:0.324506 
-0.09252873410053411 1:0.00624402 2:0.960052 
-0.1655923091759282 1:0.285905 2:0.478558 
-0.3148336247509709 1:0.0877812 2:0.41837 
-0.3092464493664736 1:0.248815 2:0.236933 
-0.6182444480540941 1:0.0161625 2:0.724274 
-0.4851927539493612 1:0.0724119 2:0.367801 
-6.03776025336906 1:0.176443 2:0.612608 
-4.0465530020244 1:0.454464 2:0.47066 
-0.04630145039334911 1:0.155187 2:0.186369 
-0.7664653197210685 1:0.376921 2:0.20149 
-0.9014256780222303 1:0.170048 2:0.0223303 
-0.4990583362709716 1:0.294036 2:0.408095 
-4.599235996995898 1:0.649053 2:0.0414168 
-0.05581170546112049 1:0.124256 2:0.272589 
-0.7264238881425246 1:0.0560682 2:0.196433 
-5.803243040171954 1:0.558874 2:0.279042 
-0.9078081537419607 1:-0.00679591 2:0.534034 
-13.7507928017118 1:0.158846 2:0.831678 
-7.312872997413656 1:0.285669 2:0.637481 
-0.3252493693701547 1:0.0601151 2:0.272593 
