svm_type c_svc
kernel_type rbf
gamma 1
nr_class 2
total_sv 13
rho -4.46721
label 1 -1
nr_sv 6 7
SV
1000 1:0.231718 2:0.644936 
1000 1:0.166478 2:0.858221 
1000 1:0.644914 2:0.103336 
642.1351529600119 1:0.573259 2:0.331983 
1000 1:0.433805 2:0.566797 
374.5715922728199 1:0.183935 2:0.898895 
-1000 1:0.244022 2:0.746862 
-521.1037055401204 1:0.0777976 2:0.915628 
-1000 1:0.368052 2:0.615235 
-413.5568112512368 1:0.454464 2:0.47066 
-634.8152165384071 1:0.649053 2:0.0414168 
-1000 1:0.558874 2:0.279042 
-447.2310119030676 1:0.158846 2:0.831678 
