svm_type nu_svc
kernel_type rbf
gamma 100
nr_class 2
total_sv 87
rho -0.129507
label 1 -1
nr_sv 47 40
SV
0.702172707592707 1:0.615029 2:0.244017 
0.4645720956547218 1:0.942673 2:0.819079 
0.3044654238159269 1:0.664909 2:0.338568 
0.543661691365431 1:0.686523 2:0.9698 
0.2636978316789084 1:0.658432 2:0.4697 
0.4036984592797428 1:0.94772 2:0.454935 
0.4408004611962406 1:0.694649 2:0.181058 
0.6075968291975703 1:0.797859 2:0.94316 
0.3747501344056829 1:0.663343 2:0.604443 
0.702172707592707 1:0.231718 2:0.644936 
0.2399295331331443 1:0.751629 2:0.112316 
0.03800461294709608 1:0.697316 2:0.835238 
0.1672707414226678 1:0.889815 2:0.828826 
0.6565225409253458 1:0.463931 2:0.695326 
0.4097439614980921 1:0.598622 2:0.896909 
0.3085686173870882 1:0.754384 2:0.809445 
0.1262054555352374 1:0.68 2:0.238578 
0.4295074878972893 1:0.949337 2:0.0754975 
0.5396275848893978 1:0.664732 2:0.745909 
0.3563538359850721 1:0.74815 2:0.543271 
0.702172707592707 1:0.166478 2:0.858221 
0.3039982024069657 1:0.596844 2:0.595744 
0.702172707592707 1:0.530382 2:0.426306 
0.2180560943443265 1:0.744069 2:0.779832 
0.2601823241882799 1:0.515202 2:0.953962 
0.702172707592707 1:0.37619 2:0.777682 
0.06058553596170617 1:0.791001 2:0.120888 
0.5179983006599911 1:0.867626 2:0.356872 
0.702172707592707 1:0.644914 2:0.103336 
0.488587028814241 1:0.491467 2:0.926291 
0.5359803772098642 1:1.015 2:0.140361 
0.702172707592707 1:0.573259 2:0.331983 
0.702172707592707 1:0.433805 2:0.566797 
0.6123008492236839 1:0.890372 2:0.5435 
0.6134892723265023 1:0.969995 2:0.289192 
0.702172707592707 1:0.1609 2:0.955692 
0.3346150100651251 1:0.75158 2:0.463137 
0.2757777206793428 1:0.811133 2:-0.00302153 
0.702172707592707 1:1.09537 2:0.45207 
0.2666129599321327 1:0.910408 2:0.173274 
0.702172707592707 1:0.748653 2:-0.025112 
0.1397468119657805 1:0.831178 2:0.434248 
0.3091308202878225 1:0.841892 2:0.115642 
0.285704111229698 1:0.937847 2:0.854398 
0.702172707592707 1:0.506909 2:0.473884 
0.1636691951469808 1:0.504592 2:0.610969 
0.5776968240116275 1:0.183935 2:0.898895 
-0.4408490931708052 1:0.148163 2:0.110743 
-0.702172707592707 1:0.584211 2:0.155505 
-0.702172707592707 1:0.244022 2:0.746862 
-0.702172707592707 1:0.0777976 2:0.915628 
-0.6418662790084926 1:0.495526 2:0.00340735 
-0.2695853491725528 1:0.114946 2:0.572078 
-0.3802327681507917 1:0.172835 2:0.441088 
-0.6915643824754638 1:0.553436 2:0.165372 
-0.702172707592707 1:0.468442 2:0.429454 
-0.6531875350113369 1:0.433123 2:0.039382 
-0.5185899158035528 1:0.229979 2:0.169362 
-0.2141129541124233 1:0.355054 2:0.464659 
-0.5331110271517014 1:0.210732 2:0.324506 
-0.702172707592707 1:0.00624402 2:0.960052 
-0.2585196750454398 1:0.0536251 2:0.634393 
-0.3572000797168141 1:0.110845 2:0.463589 
-0.702172707592707 1:0.368052 2:0.615235 
-0.3647917966620224 1:0.248815 2:0.236933 
-0.3216404954670216 1:0.46197 2:0.27403 
-0.702172707592707 1:0.0161625 2:0.724274 
-0.6266233292405771 1:0.0724119 2:0.367801 
-0.4820119533619122 1:0.195478 2:0.753886 
-0.702172707592707 1:0.176443 2:0.612608 
-0.702172707592707 1:0.454464 2:0.47066 
-0.198191571141383 1:0.085181 2:0.690017 
-0.702172707592707 1:0.376921 2:0.20149 
-0.1188017985372197 1:0.320178 2:0.49722 
-0.07210570779797006 1:0.321501 2:0.589063 
-0.702172707592707 1:0.170048 2:0.0223303 
-0.6591603873734793 1:0.449198 2:0.347581 
-0.5335081363029256 1:0.294036 2:0.408095 
-0.702172707592707 1:0.649053 2:0.0414168 
-0.07619604570381015 1:0.124256 2:0.272589 
-0.3699492276263843 1:0.2897 2:0.531043 
-0.702172707592707 1:0.0560682 2:0.196433 
-0.702172707592707 1:0.558874 2:0.279042 
-0.702172707592707 1:-0.00679591 2:0.534034 
-0.702172707592707 1:0.158846 2:0.831678 
-0.702172707592707 1:0.285669 2:0.637481 
-0.3464456906711114 1:0.0601151 2:0.272593 
