svm_type nu_svc
kernel_type linear
nr_class 2
total_sv 9
rho 42.4015
label 1 -1
nr_sv 5 4
SV
9034.277747941498 1:0.615029 2:0.244017 
1259.161976375791 1:0.231718 2:0.644936 
2851.062983966209 1:0.166478 2:0.858221 
6444.285570661263 1:0.1609 2:0.955692 
9373.680140604118 1:0.748653 2:-0.025112 
-138.0574565634512 1:0.584211 2:0.155505 
-9516.098683286176 1:0.468442 2:0.429454 
-9654.156139849627 1:0.454464 2:0.47066 
-9654.156139849627 1:0.558874 2:0.279042 
