svm_type c_svc
kernel_type rbf
gamma 10
nr_class 2
total_sv 24
rho -0.36179
label 1 -1
nr_sv 13 11
SV
10 1:0.615029 2:0.244017 
10 1:0.231718 2:0.644936 
10 1:0.166478 2:0.858221 
5.488413609793709 1:0.530382 2:0.426306 
2.676860906074413 1:0.37619 2:0.777682 
10 1:0.644914 2:0.103336 
5.019649004927905 1:0.573259 2:0.331983 
10 1:0.433805 2:0.566797 
3.261927856529777 1:0.1609 2:0.955692 
3.948691876328167 1:0.748653 2:-0.025112 
0.1974722078056092 1:0.937847 2:0.854398 
10 1:0.506909 2:0.473884 
10 1:0.183935 2:0.898895 
-8.401256882092021 1:0.584211 2:0.155505 
-10 1:0.244022 2:0.746862 
-10 1:0.0777976 2:0.915628 
-10 1:0.468442 2:0.429454 
-10 1:0.368052 2:0.615235 
-10 1:0.454464 2:0.47066 
-10 1:0.649053 2:0.0414168 
-0.3497602179903636 1:0.0560682 2:0.196433 
-10 1:0.558874 2:0.279042 
-1.841998361377193 1:0.22073 2:0.745878 
-10 1:0.158846 2:0.831678 
