svm_type c_svc
kernel_type rbf
gamma 10
nr_class 2
total_sv 38
rho -0.11982
label 1 -1
nr_sv 19 19
SV
1 1:0.615029 2:0.244017 
1 1:0.694649 2:0.181058 
0.0575962533843721 1:0.797859 2:0.94316 
1 1:0.231718 2:0.644936 
1 1:0.463931 2:0.695326 
0.4390158240019165 1:0.68 2:0.238578 
1 1:0.166478 2:0.858221 
1 1:0.530382 2:0.426306 
1 1:0.37619 2:0.777682 
1 1:0.644914 2:0.103336 
1 1:0.573259 2:0.331983 
1 1:0.433805 2:0.566797 
1 1:0.1609 2:0.955692 
0.5264065703044767 1:1.09537 2:0.45207 
1 1:0.748653 2:-0.025112 
0.5300403448844421 1:0.937847 2:0.854398 
1 1:0.506909 2:0.473884 
0.8018946907092166 1:0.504592 2:0.610969 
1 1:0.183935 2:0.898895 
-1 1:0.584211 2:0.155505 
-1 1:0.244022 2:0.746862 
-1 1:0.0777976 2:0.915628 
-0.7180913220740868 1:0.495526 2:0.00340735 
-1 1:0.553436 2:0.165372 
-1 1:0.468442 2:0.429454 
-1 1:0.00624402 2:0.960052 
-1 1:0.368052 2:0.615235 
-0.123371773596854 1:0.46197 2:0.27403 
-1 1:0.454464 2:0.47066 
-1 1:0.321501 2:0.589063 
-0.09817539619699549 1:0.170048 2:0.0223303 
-1 1:0.449198 2:0.347581 
-1 1:0.649053 2:0.0414168 
-0.5138935664249642 1:0.0560682 2:0.196433 
-1 1:0.558874 2:0.279042 
-1 1:0.22073 2:0.745878 
-1 1:0.158846 2:0.831678 
-0.9014216249915233 1:0.285669 2:0.637481 
