svm_type nu_svc
kernel_type polynomial
degree 3
gamma 0.5
coef0 0
nr_class 2
total_sv 26
rho 3.04224
label 1 -1
nr_sv 13 13
SV
129.2176971914652 1:0.615029 2:0.244017 
80.53064852027825 1:0.694649 2:0.181058 
129.2176971914652 1:0.231718 2:0.644936 
129.2176971914652 1:0.166478 2:0.858221 
129.2176971914652 1:0.530382 2:0.426306 
48.68704867118693 1:0.37619 2:0.777682 
129.2176971914652 1:0.644914 2:0.103336 
129.2176971914652 1:0.573259 2:0.331983 
129.2176971914652 1:0.433805 2:0.566797 
129.2176971914652 1:0.1609 2:0.955692 
129.2176971914652 1:0.748653 2:-0.025112 
129.2176971914652 1:0.506909 2:0.473884 
129.2176971914652 1:0.183935 2:0.898895 
-129.2176971914652 1:0.584211 2:0.155505 
-129.2176971914652 1:0.244022 2:0.746862 
-129.2176971914652 1:0.0777976 2:0.915628 
-129.2176971914652 1:0.553436 2:0.165372 
-129.2176971914652 1:0.468442 2:0.429454 
-25.02928412396104 1:0.00624402 2:0.960052 
-129.2176971914652 1:0.368052 2:0.615235 
-129.2176971914652 1:0.454464 2:0.47066 
-104.1884130675041 1:0.321501 2:0.589063 
-129.2176971914652 1:0.649053 2:0.0414168 
-129.2176971914652 1:0.558874 2:0.279042 
-129.2176971914652 1:0.22073 2:0.745878 
-129.2176971914652 1:0.158846 2:0.831678 
