svm_type c_svc
kernel_type polynomial
degree 3
gamma 0.5
coef0 0
nr_class 2
total_sv 28
rho 2.90049
label 1 -1
nr_sv 13 15
SV
100 1:0.615029 2:0.244017 
94.26724518390266 1:0.694649 2:0.181058 
100 1:0.231718 2:0.644936 
100 1:0.166478 2:0.858221 
100 1:0.530382 2:0.426306 
100 1:0.37619 2:0.777682 
100 1:0.644914 2:0.103336 
100 1:0.573259 2:0.331983 
100 1:0.433805 2:0.566797 
100 1:0.1609 2:0.955692 
100 1:0.748653 2:-0.025112 
100 1:0.506909 2:0.473884 
100 1:0.183935 2:0.898895 
-100 1:0.584211 2:0.155505 
-100 1:0.244022 2:0.746862 
-100 1:0.0777976 2:0.915628 
-100 1:0.553436 2:0.165372 
-100 1:0.468442 2:0.429454 
-0.3767557907171297 1:0.00624402 2:0.960052 
-100 1:0.368052 2:0.615235 
-90.52108326767167 1:0.195478 2:0.753886 
-100 1:0.454464 2:0.47066 
-100 1:0.321501 2:0.589063 
-100 1:0.649053 2:0.0414168 
-100 1:0.558874 2:0.279042 
-100 1:0.22073 2:0.745878 
-100 1:0.158846 2:0.831678 
-3.369406125513896 1:0.285669 2:0.637481 
