svm_type nu_svc
kernel_type polynomial
degree 3
gamma 0.5
coef0 0
nr_class 2
total_sv 2
rho 1.0399
label 1 -1
nr_sv 1 1
SV
198.3706069704012 1:0.615029 2:0.244017 
-198.3706069704012 1:0.148163 2:0.110743 
