svm_type c_svc
kernel_type rbf
gamma 0.1
nr_class 2
total_sv 27
rho -6.29326
label 1 -1
nr_sv 13 14
SV
100 1:0.615029 2:0.244017 
100 1:0.694649 2:0.181058 
100 1:0.231718 2:0.644936 
100 1:0.166478 2:0.858221 
100 1:0.530382 2:0.426306 
88.29874664204608 1:0.37619 2:0.777682 
100 1:0.644914 2:0.103336 
100 1:0.573259 2:0.331983 
100 1:0.433805 2:0.566797 
100 1:0.1609 2:0.955692 
100 1:0.748653 2:-0.025112 
100 1:0.506909 2:0.473884 
100 1:0.183935 2:0.898895 
-100 1:0.584211 2:0.155505 
-100 1:0.244022 2:0.746862 
-1.618694761265323 1:0.0777976 2:0.915628 
-100 1:0.553436 2:0.165372 
-100 1:0.468442 2:0.429454 
-100 1:0.368052 2:0.615235 
-100 1:0.454464 2:0.47066 
-100 1:0.321501 2:0.589063 
-86.68005188078077 1:0.449198 2:0.347581 
-100 1:0.649053 2:0.0414168 
-100 1:0.558874 2:0.279042 
-100 1:0.22073 2:0.745878 
-100 1:0.158846 2:0.831678 
-100 1:0.285669 2:0.637481 
