svm_type nu_svc
kernel_type rbf
gamma 10
nr_class 2
total_sv 11
rho -0.418754
label 1 -1
nr_sv 6 5
SV
119.7210619178629 1:0.615029 2:0.244017 
10.09450304172013 1:0.231718 2:0.644936 
4.095464966364839 1:0.166478 2:0.858221 
5.956476769556848 1:0.530382 2:0.426306 
10.18382984015419 1:0.433805 2:0.566797 
8.650122041196781 1:0.748653 2:-0.025112 
-11.83653389848171 1:0.584211 2:0.155505 
-11.90437341522594 1:0.244022 2:0.746862 
-5.690939797717181 1:0.368052 2:0.615235 
-27.66358103615082 1:0.649053 2:0.0414168 
-101.6060304292801 1:0.558874 2:0.279042 
