svm_type nu_svc
kernel_type polynomial
degree 3
gamma 0.5
coef0 0
nr_class 2
total_sv 61
rho 1.27464
label 1 -1
nr_sv 30 31
SV
4.358703694703524 1:0.615029 2:0.244017 
4.358703694703524 1:0.593561 2:0.550529 
4.358703694703524 1:0.664909 2:0.338568 
4.358703694703524 1:0.658432 2:0.4697 
4.358703694703524 1:0.576474 2:0.567064 
4.358703694703524 1:0.694649 2:0.181058 
4.358703694703524 1:0.655016 2:0.52511 
4.358703694703524 1:0.231718 2:0.644936 
4.358703694703524 1:0.751629 2:0.112316 
4.358703694703524 1:0.623378 2:0.45614 
4.358703694703524 1:0.463931 2:0.695326 
4.358703694703524 1:0.68 2:0.238578 
4.358703694703524 1:0.166478 2:0.858221 
4.358703694703524 1:0.596844 2:0.595744 
4.358703694703524 1:0.530382 2:0.426306 
4.358703694703524 1:0.37619 2:0.777682 
4.358703694703524 1:0.791001 2:0.120888 
4.358703694703524 1:0.644914 2:0.103336 
4.358703694703524 1:0.491467 2:0.926291 
4.358703694703524 1:0.594445 2:0.57848 
4.358703694703524 1:0.573259 2:0.331983 
4.358703694703524 1:0.433805 2:0.566797 
4.358703694703524 1:0.1609 2:0.955692 
4.358703694703524 1:0.811133 2:-0.00302153 
4.358703694703524 1:0.748653 2:-0.025112 
4.358703694703524 1:0.841892 2:0.115642 
4.358703694703524 1:0.506909 2:0.473884 
4.358703694703524 1:0.737188 2:0.151297 
4.358703694703524 1:0.504592 2:0.610969 
4.358703694703524 1:0.183935 2:0.898895 
-4.358703694703524 1:0.584211 2:0.155505 
-4.358703694703524 1:0.433616 2:0.264786 
-4.358703694703524 1:0.244022 2:0.746862 
-4.358703694703524 1:0.0777976 2:0.915628 
-4.358703694703524 1:0.495526 2:0.00340735 
-4.358703694703524 1:0.406026 2:0.334209 
-4.358703694703524 1:0.553436 2:0.165372 
-4.358703694703524 1:0.468442 2:0.429454 
-4.358703694703524 1:0.344985 2:0.426546 
-4.358703694703524 1:0.355054 2:0.464659 
-4.358703694703524 1:0.373653 2:0.429594 
-2.802402406490522 1:0.00624402 2:0.960052 
-4.358703694703524 1:0.285905 2:0.478558 
-4.358703694703524 1:0.368052 2:0.615235 
-4.358703694703524 1:0.46197 2:0.27403 
-4.358703694703524 1:0.195478 2:0.753886 
-4.358703694703524 1:0.176443 2:0.612608 
-4.358703694703524 1:0.454464 2:0.47066 
-1.556301288213003 1:0.376921 2:0.20149 
-4.358703694703524 1:0.453336 2:0.0762299 
-4.358703694703524 1:0.320178 2:0.49722 
-4.358703694703524 1:0.321501 2:0.589063 
-4.358703694703524 1:0.449198 2:0.347581 
-4.358703694703524 1:0.294036 2:0.408095 
-4.358703694703524 1:0.649053 2:0.0414168 
-4.358703694703524 1:0.2897 2:0.531043 
-4.358703694703524 1:0.558874 2:0.279042 
-4.358703694703524 1:0.297034 2:0.611751 
-4.358703694703524 1:0.22073 2:0.745878 
-4.358703694703524 1:0.158846 2:0.831678 
-4.358703694703524 1:0.285669 2:0.637481 
