svm_type nu_svc
kernel_type rbf
gamma 100
nr_class 2
total_sv 77
rho -0.0912816
label 1 -1
nr_sv 42 35
SV
2.828628573640854 1:0.615029 2:0.244017 
0.4847806891593351 1:0.942673 2:0.819079 
0.5669363316409314 1:0.686523 2:0.9698 
0.08417848388746695 1:0.658432 2:0.4697 
0.411821905011395 1:0.94772 2:0.454935 
0.6335098499479451 1:0.797859 2:0.94316 
0.5864956875554106 1:0.663343 2:0.604443 
2.895988543840147 1:0.231718 2:0.644936 
0.01689037741261055 1:0.751629 2:0.112316 
0.04142027291855741 1:0.697316 2:0.835238 
0.1729028884170321 1:0.889815 2:0.828826 
0.6626944379097713 1:0.463931 2:0.695326 
0.4270618258962277 1:0.598622 2:0.896909 
0.3351375007394284 1:0.754384 2:0.809445 
0.479567045452151 1:0.949337 2:0.0754975 
0.5600068092698147 1:0.664732 2:0.745909 
0.3043267666346158 1:0.74815 2:0.543271 
2.895988543840147 1:0.166478 2:0.858221 
0.0482478493119086 1:0.596844 2:0.595744 
0.4880937102986967 1:0.530382 2:0.426306 
0.212326447295296 1:0.744069 2:0.779832 
0.307878894735554 1:0.515202 2:0.953962 
1.10729426880974 1:0.37619 2:0.777682 
0.3706934093200057 1:0.791001 2:0.120888 
0.5667782295252357 1:0.867626 2:0.356872 
2.895988543840147 1:0.644914 2:0.103336 
0.4672364638085354 1:0.491467 2:0.926291 
0.551910711382112 1:1.015 2:0.140361 
1.948327625234285 1:0.573259 2:0.331983 
2.450516557181603 1:0.433805 2:0.566797 
0.6502824718480184 1:0.890372 2:0.5435 
0.6358647978441064 1:0.969995 2:0.289192 
1.023437799908625 1:0.1609 2:0.955692 
0.5029292344625452 1:0.75158 2:0.463137 
0.8472581207077627 1:1.09537 2:0.45207 
0.2747159669337224 1:0.910408 2:0.173274 
1.35881747066701 1:0.748653 2:-0.025112 
0.08522717591929387 1:0.831178 2:0.434248 
0.2329879669308619 1:0.841892 2:0.115642 
0.2993415440091229 1:0.937847 2:0.854398 
2.895988543840147 1:0.506909 2:0.473884 
0.1413821890935862 1:0.183935 2:0.898895 
-0.2843739788675115 1:0.148163 2:0.110743 
-2.730049898296644 1:0.584211 2:0.155505 
-0.0767211672642085 1:0.433616 2:0.264786 
-1.37440133938451 1:0.244022 2:0.746862 
-1.535076547976591 1:0.0777976 2:0.915628 
-0.4167471583807209 1:0.495526 2:0.00340735 
-0.2073248924445633 1:0.406026 2:0.334209 
-0.3255836620170748 1:0.172835 2:0.441088 
-1.422506985285074 1:0.468442 2:0.429454 
-0.7203606473871887 1:0.433123 2:0.039382 
-0.5199059272618988 1:0.229979 2:0.169362 
-0.5620935506855358 1:0.210732 2:0.324506 
-0.4550587093951765 1:0.00624402 2:0.960052 
-0.1094138016941694 1:0.0536251 2:0.634393 
-0.3109820977314689 1:0.110845 2:0.463589 
-0.4224448323817856 1:0.285905 2:0.478558 
-1.985610892493261 1:0.368052 2:0.615235 
-0.3043167403932989 1:0.248815 2:0.236933 
-0.8859304466938825 1:0.0161625 2:0.724274 
-0.6321937786568586 1:0.0724119 2:0.367801 
-2.260136252185554 1:0.176443 2:0.612608 
-2.895988543840147 1:0.454464 2:0.47066 
-0.04871293641579981 1:0.155187 2:0.186369 
-0.7880635899380245 1:0.376921 2:0.20149 
-0.9093220215809806 1:0.170048 2:0.0223303 
-0.3701523701670222 1:0.294036 2:0.408095 
-2.895988543840147 1:0.649053 2:0.0414168 
-0.04908014859056524 1:0.124256 2:0.272589 
-0.002392142252276374 1:0.2897 2:0.531043 
-0.7461591801477977 1:0.0560682 2:0.196433 
-2.895988543840147 1:0.558874 2:0.279042 
-0.927633709590901 1:-0.00679591 2:0.534034 
-2.895988543840147 1:0.158846 2:0.831678 
-1.488831155792667 1:0.285669 2:0.637481 
-0.2963277893681645 1:0.0601151 2:0.272593 
