svm_type c_svc
kernel_type rbf
gamma 100
nr_class 2
total_sv 68
rho -0.0725876
label 1 -1
nr_sv 36 32
SV
4.232675367548803 1:0.615029 2:0.244017 
0.4930753815268459 1:0.942673 2:0.819079 
0.5781990622842916 1:0.686523 2:0.9698 
0.4230733223465964 1:0.94772 2:0.454935 
0.6459950388994475 1:0.797859 2:0.94316 
0.6181440511581515 1:0.663343 2:0.604443 
10 1:0.231718 2:0.644936 
0.04050133459480267 1:0.697316 2:0.835238 
0.1763555257639469 1:0.889815 2:0.828826 
0.4651372524731834 1:0.463931 2:0.695326 
0.4368696719642799 1:0.598622 2:0.896909 
0.3434692492231277 1:0.754384 2:0.809445 
0.4433166771977533 1:0.949337 2:0.0754975 
0.5737588828494975 1:0.664732 2:0.745909 
0.311181102077342 1:0.74815 2:0.543271 
10 1:0.166478 2:0.858221 
0.02660255036791754 1:0.596844 2:0.595744 
0.215854858037981 1:0.744069 2:0.779832 
0.3187896303794954 1:0.515202 2:0.953962 
1.284082906392236 1:0.37619 2:0.777682 
0.5821249943932506 1:0.867626 2:0.356872 
5.584169531398279 1:0.644914 2:0.103336 
0.4692063961378771 1:0.491467 2:0.926291 
0.5862104846820287 1:1.015 2:0.140361 
3.666924244215574 1:0.573259 2:0.331983 
1.955116144875284 1:0.433805 2:0.566797 
0.664462265282976 1:0.890372 2:0.5435 
0.6549611522776829 1:0.969995 2:0.289192 
0.544002042924193 1:0.75158 2:0.463137 
0.8645488889542678 1:1.09537 2:0.45207 
0.2268323698737731 1:0.910408 2:0.173274 
1.632259234004871 1:0.748653 2:-0.025112 
0.07110081738435968 1:0.831178 2:0.434248 
0.5273322887383256 1:0.841892 2:0.115642 
0.3076489793002475 1:0.937847 2:0.854398 
3.962846489229743 1:0.506909 2:0.473884 
-0.2798305148526453 1:0.148163 2:0.110743 
-3.892723842431577 1:0.584211 2:0.155505 
-1.841686757247861 1:0.244022 2:0.746862 
-1.732164651439902 1:0.0777976 2:0.915628 
-0.2963018724835977 1:0.495526 2:0.00340735 
-0.1273236578214183 1:0.406026 2:0.334209 
-0.3158770902815862 1:0.172835 2:0.441088 
-0.9423494658498661 1:0.468442 2:0.429454 
-0.7478296029855082 1:0.433123 2:0.039382 
-0.5093802993574986 1:0.229979 2:0.169362 
-0.5376607926421654 1:0.210732 2:0.324506 
-0.3111687606918167 1:0.00624402 2:0.960052 
-0.1948238394282146 1:0.285905 2:0.478558 
-0.1198641217963199 1:0.368052 2:0.615235 
-0.3088903366800826 1:0.0877812 2:0.41837 
-0.3081979356466301 1:0.248815 2:0.236933 
-0.7160367178113187 1:0.0161625 2:0.724274 
-0.480853705578457 1:0.0724119 2:0.367801 
-5.526481476530993 1:0.176443 2:0.612608 
-4.051642073903357 1:0.454464 2:0.47066 
-0.04620300249430753 1:0.155187 2:0.186369 
-0.7587604937813097 1:0.376921 2:0.20149 
-0.8940705686946848 1:0.170048 2:0.0223303 
-0.4742227390841163 1:0.294036 2:0.408095 
-4.594948643735271 1:0.649053 2:0.0414168 
-0.05404395606561439 1:0.124256 2:0.272589 
-0.720607332075927 1:0.0560682 2:0.196433 
-5.804402186527303 1:0.558874 2:0.279042 
-0.9054710111893203 1:-0.00679591 2:0.534034 
-9.539179658173596 1:0.158846 2:0.831678 
-6.570475800344994 1:0.285669 2:0.637481 
-0.3233552811311701 1:0.0601151 2:0.272593 
