svm_type c_svc
kernel_type rbf
gamma 0.1
nr_class 2
total_sv 18
rho -13.245
label 1 -1
nr_sv 9 9
SV
1000 1:0.615029 2:0.244017 
1000 1:0.231718 2:0.644936 
1000 1:0.166478 2:0.858221 
374.7330581225638 1:0.530382 2:0.426306 
1000 1:0.644914 2:0.103336 
1000 1:0.573259 2:0.331983 
1000 1:0.433805 2:0.566797 
110.8991807467126 1:0.748653 2:-0.025112 
1000 1:0.183935 2:0.898895 
-165.3883779654135 1:0.584211 2:0.155505 
-1000 1:0.244022 2:0.746862 
-320.2438609038626 1:0.0777976 2:0.915628 
-1000 1:0.468442 2:0.429454 
-1000 1:0.368052 2:0.615235 
-1000 1:0.454464 2:0.47066 
-1000 1:0.649053 2:0.0414168 
-1000 1:0.558874 2:0.279042 
-1000 1:0.158846 2:0.831678 
