svm_type nu_svc
kernel_type rbf
gamma 0.01
nr_class 2
total_sv 8
rho -63.5826
label 1 -1
nr_sv 5 3
SV
11635.18297625178 1:0.615029 2:0.244017 
1504.648484671143 1:0.593561 2:0.550529 
2536.034809644805 1:0.166478 2:0.858221 
7931.051494376358 1:0.1609 2:0.955692 
11298.63116381126 1:0.748653 2:-0.025112 
-11635.18297625178 1:0.584211 2:0.155505 
-11635.18297625178 1:0.468442 2:0.429454 
-11635.18297625178 1:0.454464 2:0.47066 
