svm_type nu_svc
kernel_type rbf
gamma 0.01
nr_class 2
total_sv 24
rho -10.0511
label 1 -1
nr_sv 12 12
SV
1260.875995791372 1:0.615029 2:0.244017 
1260.875995791372 1:0.694649 2:0.181058 
1260.875995791372 1:0.231718 2:0.644936 
1260.875995791372 1:0.166478 2:0.858221 
1260.875995791372 1:0.530382 2:0.426306 
1260.875995791372 1:0.644914 2:0.103336 
1260.875995791372 1:0.573259 2:0.331983 
1260.875995791372 1:0.433805 2:0.566797 
1260.875995791372 1:0.1609 2:0.955692 
1260.875995791372 1:0.748653 2:-0.025112 
1260.875995791372 1:0.506909 2:0.473884 
1260.875995791372 1:0.183935 2:0.898895 
-1260.875995791372 1:0.584211 2:0.155505 
-1260.875995791372 1:0.244022 2:0.746862 
-1260.875995791372 1:0.406026 2:0.334209 
-1260.875995791372 1:0.468442 2:0.429454 
-1260.875995791372 1:0.368052 2:0.615235 
-1260.875995791372 1:0.46197 2:0.27403 
-1260.875995791372 1:0.454464 2:0.47066 
-1260.875995791372 1:0.320178 2:0.49722 
-1260.875995791372 1:0.649053 2:0.0414168 
-1260.875995791372 1:0.558874 2:0.279042 
-1260.875995791372 1:0.158846 2:0.831678 
-1260.875995791372 1:0.285669 2:0.637481 
