svm_type nu_svc
kernel_type linear
nr_class 2
total_sv 25
rho 9.32678
label 1 -1
nr_sv 12 13
SV
29.23640871796485 1:0.615029 2:0.244017 
29.23640871796485 1:0.694649 2:0.181058 
29.23640871796485 1:0.231718 2:0.644936 
29.23640871796485 1:0.166478 2:0.858221 
29.23640871796485 1:0.530382 2:0.426306 
29.23640871796485 1:0.644914 2:0.103336 
29.23640871796485 1:0.573259 2:0.331983 
29.23640871796485 1:0.433805 2:0.566797 
29.23640871796485 1:0.1609 2:0.955692 
29.23640871796485 1:0.748653 2:-0.025112 
29.23640871796485 1:0.506909 2:0.473884 
29.23640871796485 1:0.183935 2:0.898895 
-29.23640871796485 1:0.584211 2:0.155505 
-29.23640871796485 1:0.244022 2:0.746862 
-13.18189633236346 1:0.553436 2:0.165372 
-29.23640871796485 1:0.468442 2:0.429454 
-29.23640871796485 1:0.368052 2:0.615235 
-29.23640871796485 1:0.454464 2:0.47066 
-29.23640871796485 1:0.321501 2:0.589063 
-29.23640871796485 1:0.449198 2:0.347581 
-29.23640871796485 1:0.649053 2:0.0414168 
-29.23640871796485 1:0.558874 2:0.279042 
-29.23640871796485 1:0.297034 2:0.611751 
-16.0545123856014 1:0.22073 2:0.745878 
-29.23640871796485 1:0.285669 2:0.637481 
