svm_type c_svc
kernel_type rbf
gamma 0.01
nr_class 2
total_sv 48
rho -1.09994
label 1 -1
nr_sv 24 24
SV
100 1:0.615029 2:0.244017 
100 1:0.593561 2:0.550529 
100 1:0.664909 2:0.338568 
100 1:0.576474 2:0.567064 
100 1:0.694649 2:0.181058 
100 1:0.231718 2:0.644936 
100 1:0.751629 2:0.112316 
100 1:0.623378 2:0.45614 
100 1:0.463931 2:0.695326 
100 1:0.68 2:0.238578 
100 1:0.166478 2:0.858221 
100 1:0.530382 2:0.426306 
100 1:0.37619 2:0.777682 
100 1:0.644914 2:0.103336 
85.05997186518978 1:0.594445 2:0.57848 
100 1:0.573259 2:0.331983 
100 1:0.433805 2:0.566797 
100 1:0.1609 2:0.955692 
65.57277813143482 1:0.811133 2:-0.00302153 
100 1:0.748653 2:-0.025112 
100 1:0.506909 2:0.473884 
100 1:0.737188 2:0.151297 
100 1:0.504592 2:0.610969 
100 1:0.183935 2:0.898895 
-100 1:0.584211 2:0.155505 
-100 1:0.433616 2:0.264786 
-100 1:0.244022 2:0.746862 
-100 1:0.495526 2:0.00340735 
-100 1:0.406026 2:0.334209 
-100 1:0.553436 2:0.165372 
-100 1:0.468442 2:0.429454 
-100 1:0.344985 2:0.426546 
-100 1:0.355054 2:0.464659 
-100 1:0.373653 2:0.429594 
-100 1:0.368052 2:0.615235 
-100 1:0.46197 2:0.27403 
-50.63274999662463 1:0.195478 2:0.753886 
-100 1:0.454464 2:0.47066 
-100 1:0.453336 2:0.0762299 
-100 1:0.320178 2:0.49722 
-100 1:0.321501 2:0.589063 
-100 1:0.449198 2:0.347581 
-100 1:0.649053 2:0.0414168 
-100 1:0.2897 2:0.531043 
-100 1:0.558874 2:0.279042 
-100 1:0.297034 2:0.611751 
-100 1:0.22073 2:0.745878 
-100 1:0.285669 2:0.637481 
