svm_type nu_svc
kernel_type polynomial
degree 3
gamma 0.5
coef0 0
nr_class 2
total_sv 14
rho 18.7881
label 1 -1
nr_sv 7 7
SV
15095.86156384728 1:0.615029 2:0.244017 
15095.86156384728 1:0.231718 2:0.644936 
3469.056047228922 1:0.530382 2:0.426306 
3057.778318010342 1:0.644914 2:0.103336 
2012.277910913082 1:0.573259 2:0.331983 
67.29488420103134 1:0.748653 2:-0.025112 
6489.454403493901 1:0.506909 2:0.473884 
-5983.382509997547 1:0.584211 2:0.155505 
-2490.955907967094 1:0.244022 2:0.746862 
-1817.468210848639 1:0.0777976 2:0.915628 
-15095.86156384728 1:0.468442 2:0.429454 
-3379.831738573894 1:0.454464 2:0.47066 
-15095.86156384728 1:0.558874 2:0.279042 
-1424.223196460106 1:0.158846 2:0.831678 
