svm_type nu_svc
kernel_type rbf
gamma 10
nr_class 2
total_sv 15
rho -1.28749
label 1 -1
nr_sv 6 9
SV
436.4397605142998 1:0.231718 2:0.644936 
354.5609112066066 1:0.166478 2:0.858221 
35.58685906200492 1:0.37619 2:0.777682 
121.1777404454932 1:0.644914 2:0.103336 
341.224956932868 1:0.433805 2:0.566797 
20.32905338162668 1:0.748653 2:-0.025112 
-106.9711158886568 1:0.244022 2:0.746862 
-19.3084559208596 1:0.0777976 2:0.915628 
-0.2266904601325087 1:0.110845 2:0.463589 
-436.4397605142998 1:0.368052 2:0.615235 
-157.9893642666977 1:0.176443 2:0.612608 
-87.35863109049993 1:0.454464 2:0.47066 
-120.6266068385398 1:0.649053 2:0.0414168 
-26.79879423611031 1:0.558874 2:0.279042 
-353.5998623271034 1:0.158846 2:0.831678 
