svm_type epsilon_svr
kernel_type rbf
gamma 10
nr_class 2
total_sv 10
rho -1.02107
SV
-0.0857620405541519 1:2.6093513 
-0.158140453831063 1:3.8833121 
-0.1843518261560071 1:2.4735931 
-0.03764260017952129 1:4.9109722 
0.04692511147200536 1:3.0543424 
-0.03081692025785521 1:1.2419512 
0.05059665351930819 1:4.1190759 
0.07971902831943098 1:4.4196367 
0.260065860028929 1:3.1601833 
0.05940718763892498 1:1.9826193 
