svm_type nu_svr
kernel_type rbf
gamma 10
nr_class 2
total_sv 32
rho -1.00526
SV
934.3909483300095 1:4.9848066 
-0.07105861995982599 1:3.1772913 
1.98683558532497 1:3.3383598 
-0.1414368619892453 1:2.6093513 
52.55279972430611 1:6.18229 
109.752945262625 1:5.9566648 
219.821801347663 1:5.6259751 
-0.2627611109957506 1:2.4735931 
26.20800107945067 1:3.9117231 
-315.2237802931003 1:4.9109722 
-690.9911145876001 1:5.2967751 
0.0887676890942819 1:0.98776147 
522.8573209689589 1:5.1331359 
-113.8360018161047 1:4.211864 
-2.467898372399228 1:3.4994656 
770.900593687042 1:5.3690224 
-1000 1:5.0361158 
-99.72637279800148 1:4.4797874 
-122.8022915961415 1:5.780912 
-0.2762825201537218 1:1.2419512 
0.2211087907692693 1:3.0191213 
185.2748864398195 1:4.1190759 
57.56595002172131 1:4.7629933 
-410.4121294737536 1:5.4897863 
118.0460709531921 1:4.4196367 
0.2018309608705998 1:1.9826193 
-99.94883361335495 1:6.065606 
-84.67529733574504 1:4.0121099 
0.1301391591144813 1:1.4331881 
-43.50038911397672 1:4.1144174 
-15.38884259932108 1:6.2744768 
-0.2755092874123092 1:3.1321985 
