svm_type epsilon_svr
kernel_type rbf
gamma 10
nr_class 2
total_sv 19
rho -1.00756
SV
0.1313840729584184 1:4.9848066 
-0.1412304062545473 1:2.6093513 
-0.4068367583700133 1:3.8833121 
-0.2378339873603053 1:2.4735931 
-0.2442970422407326 1:4.9109722 
-0.1843574038675549 1:5.2967751 
0.001878199449563493 1:0.98776147 
-0.2654812056321814 1:4.211864 
-0.05325319397250484 1:3.4994656 
0.2240927115180225 1:5.3690224 
0.09550275903831622 1:3.0543424 
-0.1296778925492872 1:1.2419512 
0.4984030251127848 1:4.1190759 
-0.03806330366387994 1:5.4897863 
0.2114086582506936 1:4.4196367 
0.3516307064914428 1:3.1601833 
0.1781699937745305 1:1.9826193 
-0.007476505732246833 1:6.065606 
0.01603757304948111 1:1.4331881 
