svm_type nu_svr
kernel_type rbf
gamma 1
nr_class 2
total_sv 67
rho -1.10775
SV
-10 1:2.4546853 
10 1:4.9848066 
10 1:3.1772913 
0.8931873686534078 1:5.975306 
-10 1:3.3685751 
10 1:4.3434217 
-10 1:0.4072258 
10 1:3.1327996 
7.609950675850014 1:0.28378615 
10 1:4.1472487 
-10 1:2.6093513 
5.149431931729654 1:6.18229 
-10 1:1.4935029 
1.834811232558915 1:0.78320274 
-10 1:3.8833121 
10 1:5.9566648 
-10 1:2.4358525 
-10 1:3.4171664 
-10 1:4.716947 
-10 1:2.4735931 
-4.405080131921842 1:3.9117231 
10 1:2.2645348 
-0.9770611787862917 1:4.9545943 
-10 1:4.9109722 
-10 1:5.2967751 
10 1:3.1515643 
-10 1:4.6823773 
-0.04384166297570205 1:4.6049721 
10 1:0.98776147 
-10 1:0.28903084 
10 1:5.1331359 
-10 1:4.79685 
4.159200502647437 1:4.0971703 
-10 1:3.4994656 
10 1:4.2289196 
10 1:2.1833838 
-10 1:3.4489636 
-10 1:2.4597538 
-10 1:1.6458729 
10 1:5.3690224 
-10 1:3.4327108 
7.559265886839182 1:2.0144432 
-10 1:2.8172866 
10 1:0.99657565 
10 1:2.1333297 
10 1:3.0543424 
10 1:5.41326 
-10 1:2.7477751 
-10 1:5.780912 
-7.044109615923526 1:1.3818296 
5.678927176646127 1:0.079622346 
-10 1:1.2419512 
10 1:3.0191213 
10 1:4.1190759 
-7.529907410392635 1:1.7884086 
-10 1:5.4897863 
10 1:4.4196367 
10 1:3.1601833 
10 1:1.9826193 
-10 1:6.065606 
10 1:3.2338012 
-10 1:4.0121099 
-10 1:4.6225946 
7.974587842448333 1:1.4331881 
10 1:5.0388117 
10 1:2.0343889 
9.140637382626922 1:3.1321985 
