svm_type nu_svr
kernel_type rbf
gamma 0.01
nr_class 2
total_sv 4
rho -0.164953
SV
-130.602675972001 1:3.8833121 
-169.3973240279991 1:2.4735931 
6.187939618969684 1:0.079622346 
293.8120603810303 1:3.1601833 
