svm_type nu_svr
kernel_type rbf
gamma 0.01
nr_class 2
total_sv 8
rho -1.05572
SV
0.1 1:3.1327996 
-0.1 1:2.6093513 
-2.775557561562891e-17 1:2.4358525 
-0.1 1:2.4735931 
2.775557561562891e-17 1:3.1515643 
-0.1 1:2.4597538 
0.1 1:3.0543424 
0.1 1:3.1601833 
