svm_type epsilon_svr
kernel_type rbf
gamma 1
nr_class 2
total_sv 30
rho -1.00423
SV
-0.3131606287990387 1:2.4546853 
1 1:3.1772913 
0.08296733709180402 1:0.68183331 
0.7655810994091016 1:4.3434217 
1 1:3.1327996 
-1 1:2.6093513 
0.02591336692519627 1:1.8859761 
0.1511015354892842 1:0.78320274 
-1 1:3.8833121 
-1 1:2.4358525 
-1 1:2.4735931 
-1 1:3.9117231 
-1 1:4.9109722 
1 1:3.1515643 
-1 1:3.4994656 
-1 1:3.4489636 
-1 1:2.4597538 
0.1695201977903417 1:5.3690224 
-0.7343894970069679 1:3.4327108 
1 1:2.0144432 
1 1:3.0543424 
-1 1:2.7477751 
-1 1:1.2419512 
1 1:3.0191213 
0.7288849798024111 1:4.1190759 
1 1:4.4196367 
1 1:3.1601833 
1 1:1.9826193 
1 1:2.0343889 
0.1235816092978677 1:3.1321985 
