svm_type epsilon_svr
kernel_type rbf
gamma 100
nr_class 2
total_sv 111
rho -1.00599
SV
10 1:2.4546853 
10 1:4.9848066 
-4.592617720603602 1:3.1772913 
-2.324220934953067 1:0.66135807 
3.238111585968415 1:5.975306 
2.015891306697343 1:0.68183331 
-5.700064560058701 1:1.3090798 
-6.739547160293015 1:3.3685751 
-0.9032047735880333 1:4.3434217 
0.3942954579795837 1:0.4072258 
7.83913632049942 1:3.1327996 
-1.827055046408856 1:5.1873545 
-2.353952173372476 1:2.0531295 
2.146279246509509 1:2.2190821 
10 1:0.28378615 
10 1:4.5614463 
10 1:3.3383598 
0.6803415691270427 1:4.1472487 
-0.1586702252776969 1:2.6093513 
0.4506262144024592 1:0.82916265 
-0.584000964459541 1:6.18229 
1.904126615609997 1:4.1753719 
-0.08212129183128528 1:1.4935029 
-0.4335564721923949 1:0.78320274 
-0.8498296780331298 1:3.8833121 
-0.7550408627562754 1:0.56133996 
7.062121344415992 1:0.18210352 
-0.9260245179937863 1:0.92804736 
-2.213070816996852 1:5.9566648 
-5.355071625868726 1:2.4358525 
10 1:3.4171664 
-9.812943766637886 1:4.716947 
-0.01240957869453652 1:5.6259751 
-5.413873200253323 1:2.4735931 
0.6025248659628519 1:3.9117231 
1.244011786139384 1:2.2645348 
-6.022673051152177 1:4.9545943 
9.590701843578607 1:1.3384962 
0.9273992307907613 1:5.1201746 
2.185360257820291 1:4.9109722 
-10 1:5.1240698 
1.231532446495656 1:0.59106696 
-5.685935913447693 1:5.2967751 
-0.8376538503580481 1:1.7182214 
-3.518640894236647 1:3.1515643 
7.591519574478895 1:4.6823773 
6.675709948856822 1:4.6049721 
0.02054380665437835 1:1.102152 
10 1:0.98776147 
-10 1:2.2066628 
-10 1:0.28903084 
10 1:5.1331359 
9.45131151209886 1:6.0766647 
-9.620943348978615 1:5.3359902 
-4.659575255678458 1:4.79685 
-10 1:4.211864 
-0.08566793065567052 1:4.0971703 
0.3106840674064089 1:3.4994656 
8.023997990896158 1:4.2289196 
8.930496146798481 1:2.1833838 
10 1:5.2908885 
-3.430896770681763 1:0.055630634 
-2.028694638068369 1:1.6458729 
10 1:5.3690224 
-7.242525956812992 1:3.4327108 
-0.9689460139476933 1:4.5454569 
-10 1:2.0144432 
0.6058114334403955 1:0.99657565 
-2.6898608131326 1:2.1333297 
0.8710103841009377 1:3.0543424 
-6.596701498143085 1:1.4452738 
-3.909552874601508 1:5.41326 
-10 1:4.5700694 
-0.197404585068542 1:2.7477751 
-10 1:5.0361158 
-5.396126567774274 1:4.9970912 
-1.385675116915283 1:4.4797874 
4.318277233840842 1:0.28792094 
-0.01914559463995483 1:5.780912 
-8.017029847506695 1:1.3818296 
4.985073368012961 1:0.079622346 
-10 1:0.14168031 
0.6118002221873391 1:1.2419512 
-0.9518412029968883 1:5.2459606 
-0.08828921567659535 1:3.0191213 
-0.2492731138099531 1:1.8690259 
10 1:4.1190759 
3.736869004444745 1:0.12932952 
8.550639423569125 1:4.7629933 
0.4453456367796155 1:1.7884086 
-6.010680154941168 1:3.3352342 
-10 1:0.99257012 
0.6236581873325316 1:5.4897863 
0.05030551265038816 1:5.6673413 
1.477765131162723 1:4.4196367 
10 1:3.1601833 
3.301654646469826 1:1.9826193 
-10 1:6.065606 
0.1265470265471795 1:3.2338012 
0.1218597306822176 1:2.8694185 
0.03018956998091521 1:4.0121099 
-7.298755131922071 1:4.6225946 
2.641748594226794 1:1.6645631 
-1.090523655296388 1:0.34783688 
10 1:1.4331881 
-10 1:4.1144174 
10 1:5.0388117 
10 1:2.0343889 
0.1711436894854793 1:6.2744768 
-6.146133567385042 1:0.24433872 
-10 1:3.1321985 
