svm_type nu_svr
kernel_type rbf
gamma 1
nr_class 2
total_sv 9
rho -1.05632
SV
-1 1:2.6093513 
-1 1:3.8833121 
-0.8259130243933971 1:2.4735931 
-0.009663795310256788 1:4.9109722 
0.7459726951433917 1:3.0543424 
-0.1644231802963458 1:1.2419512 
0.4393567090990658 1:4.4196367 
0.953666353653714 1:3.1601833 
0.8610042421038284 1:1.9826193 
