svm_type nu_svr
kernel_type rbf
gamma 1
nr_class 2
total_sv 30
rho -1.00431
SV
-0.307913053835911 1:2.4546853 
1 1:3.1772913 
0.121373972249999 1:0.68183331 
0.7950898456316382 1:4.3434217 
1 1:3.1327996 
-1 1:2.6093513 
0.02787002367525731 1:1.8859761 
0.1117156003674986 1:0.78320274 
-1 1:3.8833121 
-1 1:2.4358525 
-1 1:2.4735931 
-1 1:3.9117231 
-1 1:4.9109722 
1 1:3.1515643 
-1 1:3.4994656 
-1 1:3.4489636 
-1 1:2.4597538 
0.1669444792984978 1:5.3690224 
-0.6920869461640888 1:3.4327108 
1 1:2.0144432 
1 1:3.0543424 
-1 1:2.7477751 
-1 1:1.2419512 
1 1:3.0191213 
0.6864081053381856 1:4.1190759 
1 1:4.4196367 
1 1:3.1601833 
1 1:1.9826193 
1 1:2.0343889 
0.09059797343892348 1:3.1321985 
