svm_type nu_svr
kernel_type rbf
gamma 100
nr_class 2
total_sv 103
rho -1.0097
SV
1 1:2.4546853 
1 1:4.9848066 
-0.1348469077538587 1:3.1772913 
-0.6842851863586359 1:0.66135807 
0.6150279126145657 1:0.68183331 
-1 1:1.3090798 
-1 1:3.3685751 
-0.1083072998203234 1:4.3434217 
-0.5289224581944909 1:5.1873545 
-0.3827279042176568 1:2.0531295 
-0.05274879643869729 1:2.2190821 
1 1:0.28378615 
1 1:4.5614463 
1 1:3.3383598 
1 1:4.1472487 
-0.2978128650054287 1:2.6093513 
-0.006014173239181742 1:6.18229 
0.05221065032097331 1:1.8859761 
-0.7270007151039973 1:4.1753719 
-0.3442377104204289 1:1.4935029 
-0.9446711990507448 1:3.8833121 
-0.08030841863035598 1:0.56133996 
1 1:0.18210352 
-0.1070032011198224 1:0.92804736 
0.1474429743714081 1:5.9566648 
-0.7325412600837807 1:2.4358525 
1 1:3.4171664 
-0.4523718996978038 1:4.716947 
0.08823975532817158 1:5.6259751 
-1 1:2.4735931 
0.7481790081406728 1:3.9117231 
0.1662228714711062 1:2.2645348 
-0.7826023533509217 1:4.9545943 
1 1:1.3384962 
0.02341635121722485 1:4.9109722 
-0.7179669578329194 1:5.1240698 
0.2221151532929421 1:0.59106696 
-1 1:5.2967751 
-0.1187012637746212 1:1.7182214 
0.02822922608527939 1:4.6823773 
-0.04401174460372372 1:1.102152 
1 1:0.98776147 
-1 1:2.2066628 
-1 1:0.28903084 
1 1:5.1331359 
0.9658868095917938 1:6.0766647 
-0.8488957700678659 1:5.3359902 
-0.7168423867106078 1:4.79685 
-0.8686891002587918 1:4.211864 
-0.1642183912282759 1:4.0971703 
-0.1292653295014178 1:3.4994656 
1 1:4.2289196 
1 1:2.1833838 
1 1:5.2908885 
-0.1076831220297667 1:3.4489636 
0.3044400953623521 1:2.4597538 
-0.6876586929552926 1:0.055630634 
-0.8223813748834612 1:1.6458729 
1 1:5.3690224 
-0.4356737492480871 1:3.4327108 
0.07129321540567451 1:4.5454569 
-1 1:2.0144432 
0.07578527153559593 1:0.99657565 
-0.09021685602558235 1:2.1333297 
0.4342023267337 1:3.0543424 
0.1631042626769217 1:1.4452738 
-0.2093124614876051 1:5.41326 
-0.7839867519966751 1:4.5700694 
-0.1727345232983791 1:2.7477751 
-1 1:5.0361158 
-0.7852189715275335 1:1.4031909 
-0.4953064948301611 1:4.4797874 
0.7825765045130174 1:0.28792094 
-0.04827679347113761 1:5.780912 
-1 1:1.3818296 
1 1:0.079622346 
-1 1:0.14168031 
-0.05723882579579096 1:1.2419512 
0.3167341558415711 1:5.2459606 
0.07150385613733154 1:3.0191213 
1 1:4.1190759 
0.005989434607460153 1:0.12932952 
1 1:4.7629933 
0.07123018726116753 1:1.7884086 
-0.1756457186143063 1:3.3352342 
-1 1:0.99257012 
-0.1039836536280184 1:5.4897863 
0.609747680679962 1:4.4196367 
1 1:3.1601833 
0.5876936430261827 1:1.9826193 
-1 1:6.065606 
0.7633670842293769 1:1.3431388 
0.006978204547602673 1:3.2338012 
0.1040243385101818 1:2.8694185 
-0.2132028934119917 1:4.0121099 
1 1:1.6645631 
-0.2142459106221065 1:0.34783688 
1 1:1.4331881 
-1 1:4.1144174 
0.5772377126604392 1:5.0388117 
0.9971213138373246 1:2.0343889 
-1 1:0.24433872 
-0.622239913709751 1:3.1321985 
