svm_type nu_svr
kernel_type rbf
gamma 10
nr_class 2
total_sv 6
rho -1.05289
SV
0.009999999999999997 1:3.1327996 
-0.01 1:2.6093513 
-0.01 1:2.4735931 
-0.009999999999999997 1:2.4597538 
0.01 1:3.0543424 
0.01 1:3.1601833 
