svm_type nu_svr
kernel_type rbf
gamma 10
nr_class 2
total_sv 53
rho -0.963569
SV
1000 1:4.9848066 
-4.276407954302102 1:0.66135807 
-757.0469833903315 1:3.3685751 
26.04483223703278 1:0.4072258 
-39.88276189638354 1:2.0531295 
999.9864751041154 1:0.28378615 
539.8847973176803 1:4.5614463 
599.2351443141029 1:3.3383598 
0.2290703453956713 1:2.6093513 
73.84839469932578 1:6.18229 
-393.7753656506605 1:1.4935029 
-637.2755070252268 1:3.8833121 
-7.319628851281175 1:0.92804736 
290.0069665247711 1:5.9566648 
232.3975724755011 1:3.4171664 
400.3448886890976 1:5.6259751 
-0.9531394803871651 1:2.4735931 
1000 1:3.9117231 
-431.6168240543694 1:4.9109722 
-423.7249831727851 1:5.1240698 
-943.7067260175759 1:5.2967751 
-323.1048513527439 1:4.6823773 
70.78111172848639 1:1.102152 
957.3707963846316 1:0.98776147 
-996.7955783360837 1:0.28903084 
1000 1:5.1331359 
770.6645200896118 1:6.0766647 
-549.2671314395558 1:4.211864 
7.571995876633411 1:2.1833838 
1000 1:5.3690224 
10.50920970695939 1:3.0543424 
162.5517593503175 1:5.41326 
-1000 1:5.0361158 
-1000 1:4.4797874 
-250.0607052597983 1:5.780912 
-338.3267817024186 1:1.3818296 
19.48882023320887 1:0.079622346 
-46.19033625902778 1:0.14168031 
1000 1:4.1190759 
276.6040375164376 1:4.7629933 
-63.2817404160525 1:1.7884086 
-1000 1:0.99257012 
-719.7277605351175 1:5.4897863 
752.883035040996 1:4.4196367 
51.10800937862965 1:1.9826193 
-1000 1:6.065606 
-77.67380601252523 1:3.2338012 
-1.986848888391974 1:2.8694185 
-761.7357804694255 1:4.0121099 
106.6677570581615 1:1.6645631 
651.8208059288493 1:1.4331881 
-201.367461491409 1:4.1144174 
-30.90289034415823 1:6.2744768 
