svm_type epsilon_svr
kernel_type rbf
gamma 100
nr_class 2
total_sv 110
rho -1.02183
SV
-0.05087471826651013 1:2.4546853 
0.1 1:4.9848066 
0.1 1:3.1772913 
-0.1 1:0.66135807 
-0.01199624230819702 1:5.975306 
0.1 1:0.68183331 
-0.1 1:1.3090798 
-0.1 1:3.3685751 
0.1 1:4.3434217 
-0.04674283909007698 1:0.4072258 
0.1 1:3.1327996 
-0.1 1:5.1873545 
-0.1 1:2.0531295 
-0.1 1:2.2190821 
0.1 1:0.28378615 
0.1 1:4.5614463 
0.1 1:3.3383598 
0.1 1:4.1472487 
-0.1 1:2.6093513 
-0.01454264145469117 1:0.82916265 
0.02906005600691289 1:6.18229 
0.01712333039269658 1:4.7677898 
0.1 1:1.8859761 
-0.1 1:1.4935029 
0.04141960043671664 1:0.78320274 
-0.1 1:3.8833121 
0.07529218502292309 1:0.18210352 
-0.06889102008605247 1:0.92804736 
0.08718523554376523 1:5.9566648 
-0.1 1:2.4358525 
0.1 1:3.4171664 
-0.008230526391156179 1:4.716947 
0.07909659463942292 1:5.6259751 
-0.1 1:2.4735931 
-0.06515586368665138 1:3.9117231 
-0.002857971595393055 1:2.2645348 
-0.1 1:4.9545943 
0.1 1:1.3384962 
-0.02192716537909334 1:5.1201746 
-0.1 1:4.9109722 
-0.1 1:5.1240698 
0.01035339944115454 1:0.59106696 
-0.1 1:5.2967751 
0.1 1:1.7182214 
0.03950666319113691 1:3.1515643 
-0.03752999532050243 1:4.6823773 
0.07232276717782554 1:4.6049721 
-0.08344406069452842 1:1.102152 
0.1 1:0.98776147 
-0.1 1:2.2066628 
-0.1 1:0.28903084 
0.1 1:5.1331359 
0.07718004683324753 1:6.0766647 
-0.1 1:5.3359902 
-0.1 1:4.79685 
-0.1 1:4.211864 
0.004077827274501122 1:4.0971703 
-0.1 1:3.4994656 
0.1 1:4.2289196 
0.1 1:2.1833838 
0.01295723033414435 1:5.2908885 
-0.04071983027708245 1:3.4489636 
-0.1 1:2.4597538 
-0.1 1:0.055630634 
-0.1 1:1.6458729 
0.1 1:5.3690224 
0.0312566968336092 1:2.0144432 
-0.04331401000605992 1:2.8172866 
0.0519691698139263 1:0.99657565 
0.1 1:2.1333297 
0.1 1:3.0543424 
0.07706120723159141 1:1.4452738 
0.08076083492899561 1:5.41326 
-0.1 1:2.7477751 
-0.1 1:5.0361158 
-0.1 1:1.4031909 
-0.02964183939712095 1:4.4797874 
0.1 1:0.28792094 
-0.06132134012231666 1:5.780912 
-0.1 1:1.3818296 
-0.0396896279818043 1:2.0495031 
0.1 1:0.079622346 
-0.1 1:0.14168031 
-0.1 1:1.2419512 
0.07723898708561892 1:5.2459606 
0.1 1:3.0191213 
0.00929988120041856 1:1.8690259 
0.1 1:4.1190759 
0.1 1:4.7629933 
0.01284697644826906 1:1.7884086 
0.1 1:3.3352342 
-0.1 1:0.99257012 
-0.1 1:5.4897863 
0.1 1:4.4196367 
0.1 1:3.1601833 
0.1 1:1.9826193 
-0.1 1:6.065606 
0.02037091474866004 1:1.3431388 
0.1 1:3.2338012 
0.1 1:2.8694185 
-0.1 1:4.0121099 
-0.1 1:4.6225946 
0.1 1:1.6645631 
-0.02272975292924595 1:0.34783688 
0.1 1:1.4331881 
-0.1 1:4.1144174 
0.06851080675135496 1:5.0388117 
0.1 1:2.0343889 
-0.02528096635040858 1:6.2744768 
-0.1 1:0.24433872 
