svm_type epsilon_svr
kernel_type rbf
gamma 10
nr_class 2
total_sv 108
rho -0.99394
SV
10 1:2.4546853 
10 1:4.9848066 
-6.081989917218591 1:3.1772913 
-10 1:0.66135807 
2.400771553202817 1:5.975306 
8.621647827120645 1:0.68183331 
-10 1:1.3090798 
-10 1:3.3685751 
0.2181040313044697 1:4.3434217 
-1.244850593912468 1:0.4072258 
-0.9605767569130663 1:3.1327996 
-9.20063412112121 1:5.1873545 
-10 1:2.0531295 
-10 1:2.2190821 
10 1:0.28378615 
10 1:4.5614463 
10 1:3.3383598 
10 1:4.1472487 
2.053491367342005 1:2.6093513 
-7.572662214243121 1:0.82916265 
10 1:6.18229 
10 1:4.7677898 
9.828023990654986 1:1.8859761 
-10 1:4.1753719 
-10 1:1.4935029 
10 1:0.78320274 
-6.820429373657919 1:3.8833121 
1.955484184937211 1:0.18210352 
-10 1:0.92804736 
10 1:5.9566648 
-2.387875849783854 1:2.4358525 
10 1:3.4171664 
7.114399135602642 1:4.716947 
-10 1:2.4735931 
10 1:3.9117231 
7.926350856285231 1:2.2645348 
-10 1:4.9545943 
10 1:1.3384962 
-10 1:4.9109722 
-10 1:5.1240698 
-10 1:5.2967751 
10 1:1.7182214 
-10 1:3.1515643 
-10 1:4.6823773 
0.176059083936632 1:4.6049721 
2.306145971746663 1:1.102152 
10 1:0.98776147 
-10 1:2.2066628 
-10 1:0.28903084 
10 1:5.1331359 
-4.616812933289202 1:6.0766647 
-10 1:5.3359902 
-10 1:4.79685 
-10 1:4.211864 
1.509254155031719 1:4.0971703 
3.874899453210554 1:3.4994656 
1.972753474332257 1:4.2289196 
10 1:2.1833838 
4.693967646327321 1:5.2908885 
-2.30790741582281 1:3.4489636 
-7.442427650121254 1:0.055630634 
-10 1:1.6458729 
10 1:5.3690224 
-10 1:3.4327108 
10 1:0.99657565 
10 1:2.1333297 
10 1:3.0543424 
5.768052563603669 1:1.4452738 
7.707006620101479 1:5.41326 
-10 1:5.0361158 
-10 1:1.4031909 
9.258608420290512 1:4.9970912 
-10 1:4.4797874 
10 1:0.28792094 
-10 1:5.780912 
-10 1:1.3818296 
-10 1:2.0495031 
10 1:0.079622346 
-10 1:0.14168031 
-10 1:1.2419512 
10 1:5.2459606 
0.9495701158486736 1:3.0191213 
-10 1:1.8690259 
10 1:4.1190759 
6.907034470269025 1:0.12932952 
10 1:4.7629933 
-10 1:1.7884086 
-2.802741222641578 1:3.3352342 
-10 1:0.99257012 
-10 1:5.4897863 
8.832101026972676 1:5.6673413 
10 1:4.4196367 
10 1:3.1601833 
10 1:1.9826193 
-10 1:6.065606 
10 1:1.3431388 
10 1:3.2338012 
-2.78833524157578 1:2.8694185 
-10 1:4.0121099 
-10 1:4.6225946 
8.955068798600889 1:1.3377643 
10 1:1.6645631 
10 1:1.4331881 
10 1:5.0388117 
4.735491238986205 1:2.0343889 
-3.537042695407418 1:6.2744768 
-10 1:0.24433872 
-10 1:3.1321985 
