svm_type epsilon_svr
kernel_type rbf
gamma 1
nr_class 2
total_sv 22
rho -1.10043
SV
84.04844727479295 1:4.9848066 
-13.47039777836913 1:0.66135807 
-100 1:2.6093513 
-35.14686018570629 1:3.8833121 
18.67313736494051 1:5.9566648 
-100 1:4.9109722 
19.80402478863488 1:0.98776147 
-100 1:3.4994656 
95.31723188409666 1:2.1833838 
-9.45704302361575 1:3.4489636 
-60.51422335053751 1:1.6458729 
99.29743291300686 1:5.3690224 
64.05861705585374 1:3.0543424 
-41.00853607868991 1:2.7477751 
-34.60963544753604 1:4.4797874 
2.037229031018572 1:0.079622346 
100 1:4.1190759 
-100 1:5.4897863 
100 1:3.1601833 
-6.594473570556278 1:6.065606 
-0.9212667278921959 1:4.6225946 
18.48631585055868 1:1.4331881 
