svm_type nu_svr
kernel_type rbf
gamma 100
nr_class 2
total_sv 85
rho -1.01164
SV
2.222305982428821 1:2.4546853 
1.197510623425453 1:4.9848066 
2.227014227285014 1:5.975306 
0.01007520006954009 1:0.68183331 
-1.516106214242994 1:1.3090798 
-4.943060481892958 1:3.3685751 
-0.2494314216446781 1:4.3434217 
-2.009269489786869 1:5.1873545 
-0.07051533073427395 1:2.0531295 
10 1:0.28378615 
0.3512030250589981 1:4.5614463 
10 1:3.3383598 
0.4940327609864872 1:4.1472487 
-0.2709288497867136 1:2.6093513 
0.1134043880557719 1:0.82916265 
-0.5106457228383159 1:6.18229 
0.08921161872969198 1:1.8859761 
-0.2014276964833595 1:1.4935029 
-0.6221807907361319 1:3.8833121 
1.180666457446687 1:0.18210352 
-0.7553708692131511 1:0.92804736 
-1.318797108688176 1:5.9566648 
-1.219644438515389 1:2.4358525 
6.06059016364366 1:3.4171664 
-0.102220975476655 1:4.716947 
0.04596027770200059 1:5.6259751 
-1.45328172361934 1:2.4735931 
0.3721106780577424 1:3.9117231 
0.1063519222206643 1:2.2645348 
-0.8190457702882683 1:4.9545943 
2.601452340375207 1:1.3384962 
-9.104864733374459 1:5.1240698 
-9.067846223705445 1:5.2967751 
0.08991869374327544 1:1.102152 
10 1:0.98776147 
-0.8347934783584819 1:2.2066628 
-10 1:0.28903084 
10 1:5.1331359 
8.600755372850184 1:6.0766647 
-3.061254826672239 1:5.3359902 
-0.3583442365484544 1:4.79685 
-3.716373121544634 1:4.211864 
0.2272813573138242 1:4.0971703 
3.211559586372584 1:4.2289196 
0.7536958417949513 1:2.1833838 
10 1:5.2908885 
-0.7415725294436393 1:0.055630634 
-0.2842002377248313 1:1.6458729 
4.083230798122351 1:5.3690224 
-4.059867592620674 1:3.4327108 
0.4697074817221354 1:0.99657565 
0.2091789932402964 1:3.0543424 
-5.812250223239087 1:1.4452738 
-1.548055962695355 1:5.41326 
-0.1602078437478786 1:2.7477751 
-10 1:5.0361158 
-5.324301207894897 1:1.4031909 
-0.4197848555046863 1:4.4797874 
1.352697684589632 1:0.28792094 
-0.0161851733080039 1:5.780912 
1.085446786497346 1:0.079622346 
-1.069658158226894 1:0.14168031 
-0.02979992775295682 1:1.2419512 
0.199225564764142 1:3.0191213 
10 1:4.1190759 
0.4252324012473467 1:4.7629933 
0.0338243176266681 1:1.7884086 
-6.828301289770023 1:3.3352342 
-10 1:0.99257012 
0.1174145336225833 1:5.4897863 
0.6214494596165432 1:4.4196367 
0.6127931273809087 1:3.1601833 
0.221739225477531 1:1.9826193 
-9.03401036661668 1:6.065606 
-0.05053883206817655 1:3.2338012 
0.0797023321630692 1:2.8694185 
-0.1622826779180048 1:4.6225946 
0.3934693706110015 1:1.6645631 
0.06948477093437262 1:0.34783688 
10 1:1.4331881 
-9.998119311118273 1:4.1144174 
9.949004741664398 1:5.0388117 
0.1212978931591208 1:6.2744768 
-1.993259218262547 1:0.24433872 
-0.2622010879364112 1:3.1321985 
