svm_type epsilon_svr
kernel_type rbf
gamma 0.1
nr_class 2
total_sv 24
rho -1.03175
SV
-10 1:2.4546853 
10 1:3.1772913 
10 1:3.1327996 
-10 1:2.6093513 
7.031140637998334 1:1.8859761 
-10 1:3.8833121 
0.6984271860010672 1:5.9566648 
-10 1:2.4358525 
-10 1:2.4735931 
-10 1:3.9117231 
-0.2029836635352936 1:4.9109722 
10 1:3.1515643 
-10 1:3.4994656 
-7.526584160464106 1:3.4489636 
-10 1:2.4597538 
10 1:3.0543424 
-10 1:2.7477751 
10 1:3.0191213 
10 1:4.4196367 
10 1:3.1601833 
10 1:1.9826193 
10 1:3.2338012 
-10 1:4.0121099 
10 1:3.1321985 
