svm_type nu_svr
kernel_type rbf
gamma 100
nr_class 2
total_sv 35
rho -1.02283
SV
0.1067677850722084 1:4.9848066 
0.04895940766758754 1:4.3434217 
-0.01000432665059806 1:2.2190821 
0.01969666790117153 1:4.5614463 
0.2015095426414226 1:3.3383598 
-0.2821569668317678 1:2.6093513 
0.07161502122779584 1:1.8859761 
-0.243335478862502 1:3.8833121 
0.01222622081087377 1:5.9566648 
-0.04248202447354382 1:2.4358525 
-0.2917357210379158 1:2.4735931 
-0.01971759313967127 1:2.2645348 
-0.1941588759776975 1:4.9109722 
-0.09926162957240367 1:5.2967751 
0.08270124664951695 1:1.7182214 
-0.003789968038935276 1:0.28903084 
-0.06921118949835009 1:3.4994656 
0.09348586467521169 1:5.3690224 
0.07951059985160407 1:3.0543424 
-0.1081439945223713 1:2.7477751 
-0.1253944576189116 1:5.0361158 
-0.02475668395525338 1:1.3818296 
-0.1550077936258347 1:1.2419512 
0.2330078806322899 1:3.0191213 
1.322915514660354 1:4.1190759 
-0.01360941783821618 1:0.99257012 
-0.03052733033934171 1:5.4897863 
0.1817571963483154 1:4.4196367 
0.2914843605557901 1:3.1601833 
0.1370118781480029 1:1.9826193 
-0.05258406316481207 1:6.065606 
0.1065587576178325 1:3.2338012 
0.01079205554002168 1:2.8694185 
-0.03680019947704285 1:4.0121099 
-1.197322285374831 1:4.1144174 
