svm_type epsilon_svr
kernel_type rbf
gamma 100
nr_class 2
total_sv 108
rho -1.00195
SV
83.01673433589156 1:2.4546853 
100 1:4.9848066 
-26.26471969094727 1:3.1772913 
-3.126158548503792 1:0.66135807 
6.162506739439315 1:5.975306 
2.78606863118481 1:0.68183331 
-10.31114165241894 1:1.3090798 
-40.42585199009342 1:3.3685751 
-0.817573098005186 1:4.3434217 
0.3705706097733278 1:0.4072258 
100 1:3.1327996 
-15.18562018663556 1:5.1873545 
64.70857981578601 1:2.2190821 
100 1:0.28378615 
100 1:4.5614463 
100 1:3.3383598 
-8.380216326656672 1:4.1472487 
1.040251200060123 1:0.82916265 
-1.031770761341412 1:6.18229 
-3.773814351687861 1:1.8859761 
5.32329686736342 1:1.4935029 
-0.9032757945987906 1:0.78320274 
-0.6293500665267775 1:3.8833121 
-0.9614473940425009 1:0.56133996 
35.73488142803639 1:0.18210352 
-2.301344276123035 1:0.92804736 
-4.434943443924673 1:5.9566648 
-17.76678003153619 1:2.4358525 
86.14839832131084 1:3.4171664 
-17.94114099199499 1:4.716947 
-0.1525691493702394 1:5.6259751 
0.3117480390290432 1:3.9117231 
-3.033058569493161 1:2.2645348 
-31.27625177075316 1:4.9545943 
16.51149858814151 1:1.3384962 
4.34549167881188 1:5.1201746 
7.032730506010894 1:4.9109722 
-100 1:5.1240698 
1.584267841698454 1:0.59106696 
-100 1:5.2967751 
-1.763015672461917 1:1.7182214 
-88.92616604976614 1:3.1515643 
16.50056144618103 1:4.6823773 
48.9213693082832 1:4.6049721 
0.06078870833649563 1:1.102152 
58.58761210876226 1:0.98776147 
-100 1:2.2066628 
-100 1:0.28903084 
100 1:5.1331359 
16.13871525900454 1:6.0766647 
-7.808051267777488 1:4.79685 
-5.627577444269754 1:4.211864 
8.680197709625832 1:4.0971703 
5.619976401868199 1:4.2289196 
45.05700748751202 1:2.1833838 
99.03938834849855 1:5.2908885 
32.55984474942847 1:3.4489636 
-66.37794168184996 1:2.4597538 
1.039774356696887 1:0.055630634 
-4.653538516858686 1:1.6458729 
10.83894629871507 1:5.3690224 
-100 1:3.4327108 
-19.39865829848224 1:4.5454569 
-72.95830529046623 1:2.0144432 
43.06845249645105 1:0.99657565 
-6.748424337812215 1:2.1333297 
1.117940441846082 1:3.0543424 
-74.46121406715001 1:1.4452738 
-5.693879966022338 1:5.41326 
-100 1:4.5700694 
-0.2213437167652224 1:2.7477751 
-82.92278886073213 1:5.0361158 
-38.14030232221487 1:1.4031909 
-84.82583666241901 1:4.9970912 
-0.9970778303407027 1:4.4797874 
17.57597434186087 1:0.28792094 
-44.6250237761273 1:2.0495031 
-8.159865515878819 1:0.079622346 
-100 1:0.14168031 
1.278192180441478 1:1.2419512 
-1.544668545568619 1:5.2459606 
-0.3170668591207489 1:3.0191213 
2.334716502460977 1:1.8690259 
100 1:4.1190759 
82.12886582949656 1:0.12932952 
14.26943095540726 1:4.7629933 
0.6536502857575553 1:1.7884086 
-77.62098822236949 1:3.3352342 
-100 1:0.99257012 
1.112071375944844 1:5.4897863 
0.1483775434076337 1:5.6673413 
1.362745833829529 1:4.4196367 
100 1:3.1601833 
19.36411546548253 1:1.9826193 
-17.14730063885192 1:6.065606 
0.386387942233777 1:3.2338012 
0.14642105469132 1:2.8694185 
0.3143201654338105 1:4.0121099 
-35.29597171430607 1:4.6225946 
5.694461906471501 1:1.6645631 
0.2949757830644661 1:0.34783688 
100 1:1.4331881 
-100 1:4.1144174 
100 1:5.0388117 
100 1:2.0343889 
0.3239963018425945 1:6.2744768 
-29.13732415691397 1:0.24433872 
-85.60694368239467 1:3.1321985 
