svm_type nu_svr
kernel_type rbf
gamma 1
nr_class 2
total_sv 36
rho -1.03962
SV
100 1:4.9848066 
-20.1127427057508 1:0.66135807 
2.970234263455079 1:5.975306 
4.229098619030918 1:0.28378615 
76.48734444402295 1:3.3383598 
16.38259704862842 1:4.1472487 
-100 1:2.6093513 
18.8134859055399 1:6.18229 
-38.98685146010951 1:3.8833121 
100 1:5.9566648 
37.42867583259329 1:2.2645348 
-100 1:4.9109722 
-100 1:5.2967751 
32.89150081009989 1:0.98776147 
100 1:5.1331359 
-100 1:3.4994656 
100 1:2.1833838 
-100 1:3.4489636 
-100 1:1.6458729 
100 1:5.3690224 
100 1:3.0543424 
-100 1:2.7477751 
-100 1:4.4797874 
-4.362355565749347 1:5.780912 
0.6676761719155502 1:0.079622346 
-47.74904684155462 1:1.2419512 
3.414507363942516 1:3.0191213 
100 1:4.1190759 
-22.63957622643433 1:1.7884086 
-100 1:5.4897863 
100 1:4.4196367 
100 1:3.1601833 
-91.15392897510718 1:6.065606 
-74.99549822529436 1:4.6225946 
100 1:1.4331881 
6.714879540771181 1:5.0388117 
