svm_type nu_svr
kernel_type rbf
gamma 10
nr_class 2
total_sv 24
rho -1.00576
SV
6.65105720389097 1:4.9848066 
0.04300883447913703 1:3.3383598 
-0.1495252344765664 1:2.6093513 
0.00155233035536384 1:6.18229 
1.482385285364617 1:5.6259751 
-0.2381878354362126 1:2.4735931 
-7.851323187128174 1:4.9109722 
-8.688482027008082 1:5.2967751 
0.03218756964621405 1:0.98776147 
-3.298661126068786 1:4.211864 
-0.08949888542693619 1:3.4994656 
11.70909781887566 1:5.3690224 
0.126305300546041 1:3.0543424 
-0.1800031975262678 1:1.2419512 
4.656909250294366 1:4.1190759 
3.409055417608647 1:4.7629933 
-5.598334751788234 1:5.4897863 
1.332566744884566 1:4.4196367 
0.3131794088500407 1:3.1601833 
0.1869617593263838 1:1.9826193 
-0.09431527917579363 1:6.065606 
-2.206495338744532 1:4.0121099 
-1.605173137220443 1:4.6225946 
0.05573307587798017 1:1.4331881 
