svm_type nu_svr
kernel_type rbf
gamma 100
nr_class 2
total_sv 66
rho -1.01804
SV
0.3490505698138472 1:4.9848066 
0.02611416990639595 1:5.975306 
-1 1:3.3685751 
-0.2494307160242087 1:5.1873545 
1 1:0.28378615 
0.1751209349358553 1:4.5614463 
1 1:3.3383598 
-0.3043807304162993 1:2.6093513 
0.09929668366384591 1:1.8859761 
-0.2557542919573993 1:1.4935029 
0.01167471366658095 1:0.78320274 
-0.522358682117514 1:3.8833121 
-0.04533409734355509 1:0.92804736 
0.09457643347197839 1:5.9566648 
-0.06527721836832243 1:2.4358525 
0.4376559145069907 1:3.4171664 
0.05150553338181929 1:5.6259751 
-0.2977307636110984 1:2.4735931 
0.2926817174376516 1:3.9117231 
0.1467635525422504 1:1.3384962 
-0.324632304309072 1:4.9109722 
-0.8584365308300043 1:5.1240698 
0.1022938378084438 1:1.7182214 
1 1:0.98776147 
-0.3297312199284426 1:2.2066628 
-1 1:0.28903084 
1 1:5.1331359 
0.9334729847956231 1:6.0766647 
-0.5278640820982272 1:5.3359902 
-0.01124710094610528 1:4.79685 
-0.3874060258290174 1:4.211864 
-0.1965758961436533 1:3.4994656 
0.4160803855055053 1:4.2289196 
0.2983667548397288 1:2.1833838 
0.02395436800041886 1:5.2908885 
-0.01045260680161597 1:0.055630634 
0.5802169916077178 1:5.3690224 
0.04413939600358117 1:3.0543424 
-0.0471340566920888 1:5.41326 
-0.1435704909052465 1:2.7477751 
-1 1:5.0361158 
-0.7169553614469715 1:1.4031909 
-0.1840828567981015 1:4.4797874 
0.04405744276277979 1:0.28792094 
-0.02583797801772741 1:5.780912 
-0.02137066597846576 1:0.14168031 
-0.2108356355859886 1:1.2419512 
0.07945891476722751 1:5.2459606 
0.2878742332860421 1:3.0191213 
1 1:4.1190759 
0.0244877232177048 1:4.7629933 
-0.05335284955221309 1:3.3352342 
-1 1:0.99257012 
-0.1082556165063486 1:5.4897863 
0.3506514779949265 1:4.4196367 
0.3774085923572177 1:3.1601833 
0.1612625184507897 1:1.9826193 
-1 1:6.065606 
0.05288373752459558 1:2.8694185 
-0.1413799066333257 1:4.0121099 
-0.06470152092449878 1:4.6225946 
0.02492450110737698 1:1.6645631 
0.7621755823648135 1:1.4331881 
-0.833629321304963 1:4.1144174 
0.7518503342782913 1:5.0388117 
-0.06228147292952518 1:0.24433872 
