svm_type nu_svr
kernel_type rbf
gamma 0.1
nr_class 2
total_sv 9
rho -1.08502
SV
-1000 1:2.6093513 
-1000 1:3.8833121 
-973.6469799034352 1:2.4735931 
-26.3530200965684 1:0.055630634 
7.795219958151471 1:5.3690224 
967.2331021729863 1:3.0543424 
298.1883427514334 1:4.4196367 
1000 1:3.1601833 
726.7833351174279 1:1.9826193 
