svm_type nu_svr
kernel_type rbf
gamma 0.1
nr_class 2
total_sv 9
rho -1.2883
SV
20.00225102961686 1:3.1327996 
-100 1:2.6093513 
-84.16897154134315 1:3.8833121 
-100 1:2.4735931 
-15.83102845865692 1:2.4597538 
9.132006159550309 1:5.3690224 
100 1:3.0543424 
100 1:3.1601833 
70.8657428108329 1:1.9826193 
