svm_type epsilon_svr
kernel_type rbf
gamma 10
nr_class 2
total_sv 107
rho -0.955409
SV
100 1:2.4546853 
100 1:4.9848066 
-6.93541690890825 1:3.1772913 
-100 1:0.66135807 
-2.599663912104978 1:5.975306 
-50.019345118601 1:1.3090798 
-100 1:3.3685751 
-30.17891145020774 1:4.3434217 
-49.69054712714545 1:0.4072258 
-100 1:5.1873545 
-100 1:2.0531295 
-100 1:2.2190821 
100 1:0.28378615 
100 1:4.5614463 
100 1:3.3383598 
100 1:4.1472487 
18.28059138133985 1:2.6093513 
-10.44933659550467 1:0.82916265 
63.72338216709055 1:6.18229 
100 1:4.7677898 
96.81746601200852 1:1.8859761 
-100 1:4.1753719 
-100 1:1.4935029 
100 1:0.78320274 
-56.8553839053618 1:3.8833121 
73.02704557813543 1:0.56133996 
79.98481350611766 1:0.18210352 
-100 1:0.92804736 
100 1:5.9566648 
-17.48230295056702 1:2.4358525 
100 1:3.4171664 
54.11174445513342 1:4.716947 
-7.081459817437604 1:5.6259751 
-100 1:2.4735931 
100 1:3.9117231 
75.37618779612214 1:2.2645348 
-93.37677376288229 1:4.9545943 
100 1:1.3384962 
-15.44075431360327 1:5.1201746 
-100 1:4.9109722 
-100 1:5.1240698 
-100 1:5.2967751 
97.49718508683712 1:1.7182214 
-100 1:3.1515643 
-100 1:4.6823773 
21.66923435690271 1:4.6049721 
51.75953958749 1:1.102152 
100 1:0.98776147 
-100 1:2.2066628 
-100 1:0.28903084 
100 1:5.1331359 
-1.779158578832523 1:6.0766647 
-100 1:5.3359902 
-100 1:4.79685 
-100 1:4.211864 
-4.598981545490612 1:3.4994656 
63.59029182248844 1:4.2289196 
100 1:2.1833838 
76.35569914543724 1:5.2908885 
-29.98575051750544 1:3.4489636 
-54.83602199747018 1:0.055630634 
-100 1:1.6458729 
100 1:5.3690224 
47.11877414122673 1:0.99657565 
100 1:2.1333297 
69.99827544571264 1:3.0543424 
73.31265117846445 1:1.4452738 
58.76667016537348 1:5.41326 
-100 1:5.0361158 
-100 1:1.4031909 
100 1:4.9970912 
-100 1:4.4797874 
100 1:0.28792094 
-96.76960021525005 1:5.780912 
-100 1:1.3818296 
-100 1:2.0495031 
100 1:0.079622346 
-100 1:0.14168031 
-100 1:1.2419512 
100 1:5.2459606 
-100 1:1.8690259 
100 1:4.1190759 
1.40517828991532 1:0.12932952 
100 1:4.7629933 
-100 1:1.7884086 
-100 1:3.3352342 
-100 1:0.99257012 
-100 1:5.4897863 
100 1:5.6673413 
100 1:4.4196367 
100 1:3.1601833 
100 1:1.9826193 
-100 1:6.065606 
100 1:1.3431388 
83.04465206399091 1:3.2338012 
-15.91515652451685 1:2.8694185 
-100 1:4.0121099 
-100 1:4.6225946 
23.62321535393937 1:1.3377643 
100 1:1.6645631 
100 1:1.4331881 
-12.5626222958077 1:4.1144174 
100 1:5.0388117 
48.85195092123045 1:2.0343889 
-21.75736091775881 1:6.2744768 
-100 1:0.24433872 
-100 1:3.1321985 
