svm_type epsilon_svr
kernel_type rbf
gamma 100
nr_class 2
total_sv 13
rho -1.0325
SV
0.07767510425580425 1:3.3383598 
-0.1945130782036744 1:2.6093513 
-0.1346609005802097 1:3.8833121 
-0.2267248092186951 1:2.4735931 
-0.04187426526204624 1:4.9109722 
0.09905785388509757 1:3.0543424 
-0.001736364110515809 1:2.7477751 
-0.04194139560867938 1:1.2419512 
0.09467145890156561 1:3.0191213 
0.07620936714530613 1:4.4196367 
0.1953089503563237 1:3.1601833 
0.02938582054451588 1:1.9826193 
0.06914225789520762 1:3.2338012 
