svm_type nu_svr
kernel_type rbf
gamma 1
nr_class 2
total_sv 16
rho -0.98881
SV
-3.128402009583839 1:0.4072258 
-65.98520475134248 1:2.6093513 
1.177768140081608 1:6.18229 
-124.2482383662386 1:3.8833121 
7.790871140401091 1:0.98776147 
28.79040384633814 1:5.1331359 
-11.33773908360615 1:3.4994656 
49.3495866579886 1:2.1833838 
-20.81599053815075 1:1.6458729 
-19.09047525552172 1:4.4797874 
-0.6774694405440705 1:5.780912 
0.6044474529128057 1:0.079622346 
147.0764550384486 1:4.1190759 
-11.00309890658083 1:5.4897863 
65.21046772382788 1:3.1601833 
-43.71338164843102 1:4.6225946 
