svm_type nu_svr
kernel_type rbf
gamma 1
nr_class 2
total_sv 14
rho -1.01059
SV
-5.696869304966145 1:0.4072258 
-82.62108231672485 1:2.6093513 
1.065860332669681 1:6.18229 
-63.71815632998744 1:3.8833121 
10.75080765046555 1:0.98776147 
29.00273108724817 1:5.1331359 
-59.19050882748073 1:3.4994656 
60.54814310383929 1:2.1833838 
-26.08267426004057 1:1.6458729 
1.943493872473162 1:0.079622346 
100 1:4.1190759 
-11.96186961696491 1:5.4897863 
96.68896395330415 1:3.1601833 
-50.72883934383534 1:4.6225946 
