svm_type nu_svr
kernel_type rbf
gamma 100
nr_class 2
total_sv 41
rho -1.02067
SV
0.1810079027015915 1:4.9848066 
-0.02478898028237139 1:3.3685751 
-0.01901757518530445 1:2.2190821 
0.02737850369444589 1:4.5614463 
0.2349804928821675 1:3.3383598 
-0.286685301380942 1:2.6093513 
0.07838035966193957 1:1.8859761 
-2.756099782208441 1:4.1753719 
-0.2935410328648327 1:3.8833121 
0.04300176487453794 1:5.9566648 
-0.04747313604933002 1:2.4358525 
0.01081974740424396 1:5.6259751 
-0.2928168431649648 1:2.4735931 
-0.01892096636130922 1:2.2645348 
-0.2311384135272193 1:4.9109722 
-0.1192506295020661 1:5.2967751 
0.09243295409123486 1:1.7182214 
-0.002390568484353485 1:1.102152 
-0.009812856335522091 1:0.28903084 
0.251506439508421 1:6.0766647 
-0.07268420613575607 1:3.4994656 
0.8980866113949716 1:4.2289196 
0.1180223687672644 1:5.3690224 
0.005195225059696856 1:2.1333297 
0.07736674605757113 1:3.0543424 
-0.115757256573044 1:2.7477751 
-0.1803674257496074 1:5.0361158 
-0.02945231113566227 1:1.3818296 
-0.1597287442158409 1:1.2419512 
0.2428476554643828 1:3.0191213 
26.68320394619627 1:4.1190759 
-0.01827555127002217 1:0.99257012 
-0.0437610299987678 1:5.4897863 
0.2006910192158476 1:4.4196367 
0.3010650582312933 1:3.1601833 
0.1438430927272614 1:1.9826193 
-0.3165208774874604 1:6.065606 
0.1038652121884528 1:3.2338012 
0.02182973631717458 1:2.8694185 
0.2844751635612491 1:4.0121099 
-24.96151651208717 1:4.1144174 
