svm_type nu_svr
kernel_type rbf
gamma 1
nr_class 2
total_sv 35
rho -1.10529
SV
1000 1:4.9848066 
-5.77981842012833 1:0.66135807 
73.21466655297385 1:5.975306 
-407.7760482433884 1:3.3685751 
-52.97833793441688 1:0.4072258 
26.30162137812824 1:0.28378615 
1000 1:3.3383598 
113.8878790060783 1:4.1472487 
292.9662680199705 1:6.18229 
1000 1:5.9566648 
1000 1:5.6259751 
-1000 1:4.9109722 
-1000 1:5.2967751 
306.4109891650079 1:0.98776147 
531.5086384653446 1:5.1331359 
-1000 1:4.211864 
827.9986292564566 1:2.1833838 
-1000 1:3.4489636 
1000 1:5.3690224 
748.9377067268051 1:3.0543424 
104.7697796009028 1:1.4452738 
-847.0511494981338 1:2.7477751 
-513.8993937338977 1:5.0361158 
-1000 1:4.4797874 
-764.1162280364251 1:5.780912 
2.422660634784723 1:0.079622346 
-1000 1:1.2419512 
-910.7787694210381 1:1.8690259 
1000 1:4.1190759 
971.5811611935858 1:4.7629933 
-1000 1:5.4897863 
1000 1:4.4196367 
-1000 1:6.065606 
-497.6202547125787 1:4.6225946 
1000 1:1.4331881 
