svm_type epsilon_svr
kernel_type rbf
gamma 1
nr_class 2
total_sv 108
rho -1.01877
SV
-1 1:2.4546853 
1 1:4.9848066 
1 1:3.1772913 
1 1:0.68183331 
-1 1:1.3090798 
-1 1:3.3685751 
1 1:4.3434217 
-1 1:0.4072258 
1 1:3.1327996 
-1 1:5.1873545 
0.9481292693519264 1:2.0531295 
-1 1:2.2190821 
1 1:0.28378615 
1 1:4.5614463 
1 1:3.3383598 
1 1:4.1472487 
-1 1:2.6093513 
1 1:0.82916265 
1 1:6.18229 
1 1:1.8859761 
0.008930200363045811 1:4.1753719 
-1 1:1.4935029 
1 1:0.78320274 
-1 1:3.8833121 
-0.9302590925850464 1:0.56133996 
1 1:0.92804736 
1 1:5.9566648 
-1 1:2.4358525 
-1 1:3.4171664 
-1 1:4.716947 
1 1:5.6259751 
-1 1:2.4735931 
-1 1:3.9117231 
-1 1:2.2645348 
-1 1:4.9545943 
-1 1:1.3384962 
-1 1:5.1201746 
-1 1:4.9109722 
-1 1:5.1240698 
-1 1:5.2967751 
1 1:1.7182214 
1 1:3.1515643 
-1 1:4.6823773 
1 1:0.98776147 
-1 1:2.2066628 
-1 1:0.28903084 
1 1:5.1331359 
-1 1:6.0766647 
0.4010146728872305 1:5.3359902 
-1 1:4.79685 
-1 1:4.0971703 
-1 1:3.4994656 
1 1:4.2289196 
1 1:5.2908885 
-1 1:3.4489636 
-1 1:2.4597538 
-0.06951307099235958 1:0.055630634 
-1 1:1.6458729 
1 1:5.3690224 
-1 1:3.4327108 
1 1:4.5454569 
1 1:2.0144432 
-1 1:2.8172866 
1 1:0.99657565 
1 1:2.1333297 
1 1:3.0543424 
-0.8342146411983902 1:1.4452738 
1 1:5.41326 
1 1:4.5700694 
-1 1:2.7477751 
-1 1:5.0361158 
-1 1:1.4031909 
1 1:4.4797874 
1 1:0.28792094 
-1 1:5.780912 
-1 1:1.3818296 
1 1:2.0495031 
1 1:0.079622346 
-1 1:0.14168031 
-1 1:1.2419512 
1 1:3.0191213 
1 1:1.8690259 
1 1:4.1190759 
0.6445863663216741 1:0.12932952 
0.4330625305053893 1:4.7629933 
1 1:1.7884086 
0.4930730335664721 1:3.3352342 
-1 1:5.4897863 
1 1:5.6673413 
1 1:4.4196367 
1 1:3.1601833 
1 1:1.9826193 
-1 1:6.065606 
-1 1:1.3431388 
1 1:3.2338012 
0.2452084970296096 1:2.8694185 
-1 1:4.0121099 
-1 1:4.6225946 
-1 1:1.3377643 
1 1:1.6645631 
-1 1:0.34783688 
1 1:1.4331881 
-1 1:4.1144174 
1 1:5.0388117 
1 1:2.0343889 
-0.3400177652495522 1:6.2744768 
-1 1:0.24433872 
1 1:3.1321985 
