svm_type nu_svr
kernel_type rbf
gamma 10
nr_class 2
total_sv 50
rho -0.993147
SV
100 1:4.9848066 
-6.719788661660098 1:3.1772913 
-47.05977126808319 1:3.3685751 
-0.7639857293174193 1:2.0531295 
99.99511360111708 1:0.28378615 
1.366543760947437 1:4.5614463 
42.73230722868312 1:3.3383598 
24.07560081227226 1:4.1472487 
29.85920217395043 1:6.18229 
-62.05198324158388 1:1.4935029 
-19.87004423724313 1:3.8833121 
-6.579610604944733 1:0.92804736 
55.64772009112677 1:5.9566648 
8.850805133732893 1:3.4171664 
64.7228363652534 1:5.6259751 
-0.04662991595625748 1:2.4735931 
47.85345967631229 1:3.9117231 
-100 1:4.9109722 
0.9350321869022817 1:0.59106696 
-80.32605927977514 1:5.2967751 
4.215792835001246 1:1.102152 
100 1:0.98776147 
-0.2834778559764259 1:2.2066628 
-96.88367005450606 1:0.28903084 
27.83039763666896 1:5.1331359 
45.07180693504786 1:6.0766647 
-100 1:4.211864 
100 1:5.3690224 
27.48167179537565 1:5.41326 
-0.6975236250801877 1:2.7477751 
-100 1:5.0361158 
59.89634699699987 1:4.9970912 
-85.00144922695017 1:4.4797874 
-46.32407725735824 1:5.780912 
-49.34475763951178 1:1.3818296 
2.582325396184455 1:0.079622346 
-6.327770872538887 1:0.14168031 
2.604828104882382 1:3.0191213 
100 1:4.1190759 
36.4606798496806 1:4.7629933 
-7.08622638152721 1:1.7884086 
-96.17908273361473 1:0.99257012 
-100 1:5.4897863 
100 1:4.4196367 
2.550546525813551 1:1.9826193 
-100 1:6.065606 
-78.24793585280175 1:4.0121099 
15.26698289404744 1:1.6645631 
100 1:1.4331881 
-10.20615556157403 1:6.2744768 
