svm_type nu_svr
kernel_type rbf
gamma 0.01
nr_class 2
total_sv 26
rho -1.05761
SV
-0.01 1:2.4546853 
0.01 1:3.1772913 
-1.040834085586084e-17 1:1.3090798 
1.040834085586084e-17 1:4.3434217 
0.01 1:3.1327996 
0.01 1:3.3383598 
-0.01 1:2.6093513 
-0.01 1:3.8833121 
-0.01 1:2.4358525 
-0.01 1:2.4735931 
-0.01 1:3.9117231 
-0.01 1:4.9109722 
0.01 1:3.1515643 
-0.01 1:2.4597538 
0.01 1:3.0543424 
-0.01 1:2.7477751 
-0.01 1:5.0361158 
-0.01 1:1.2419512 
0.01 1:3.0191213 
0.01 1:3.3352342 
0.01 1:4.4196367 
0.01 1:3.1601833 
0.01 1:1.9826193 
0.01 1:3.2338012 
-0.01 1:4.0121099 
0.01 1:3.1321985 
