svm_type epsilon_svr
kernel_type rbf
gamma 1
nr_class 2
total_sv 18
rho -0.923019
SV
1000 1:4.9848066 
-12.11576243622136 1:0.66135807 
134.3946810516119 1:3.3383598 
-523.9645201169369 1:3.8833121 
150.4356417060306 1:5.9566648 
-923.8433424681862 1:4.9109722 
-50.84847191369489 1:5.2967751 
18.61381397418063 1:0.98776147 
-528.9276624121641 1:4.211864 
61.3185830927706 1:2.1833838 
-42.85680634783336 1:1.6458729 
-95.10514642492419 1:2.7477751 
1.909538259088703 1:0.079622346 
1000 1:4.1190759 
-126.6925119877927 1:5.4897863 
25.7855087001559 1:3.1601833 
-98.08005970479961 1:6.065606 
9.976517028720313 1:1.4331881 
