svm_type nu_svr
kernel_type rbf
gamma 10
nr_class 2
total_sv 83
rho -0.958445
SV
98.59066261744253 1:2.4546853 
100 1:4.9848066 
-56.95084433648976 1:0.66135807 
-100 1:3.3685751 
-41.35066530016168 1:0.4072258 
-100 1:2.0531295 
-8.072493105723495 1:2.2190821 
100 1:0.28378615 
100 1:4.5614463 
100 1:3.3383598 
100 1:4.1472487 
10.16401401371657 1:2.6093513 
59.31781289817397 1:6.18229 
100 1:4.7677898 
7.142881020464439 1:1.8859761 
-33.12172226256753 1:4.1753719 
-100 1:1.4935029 
45.71777191128537 1:0.78320274 
-56.15058902294233 1:3.8833121 
31.30422785832418 1:0.56133996 
-42.50579957540465 1:0.92804736 
90.697633882023 1:5.9566648 
42.77776824157976 1:3.4171664 
-100 1:2.4735931 
100 1:3.9117231 
-55.13000943572444 1:4.9545943 
100 1:1.3384962 
-8.315660496641749 1:5.1201746 
-100 1:4.9109722 
-100 1:5.1240698 
15.78179238521112 1:0.59106696 
-100 1:5.2967751 
73.25763348381015 1:1.7182214 
-41.43737217573302 1:4.6823773 
54.38706236022521 1:1.102152 
100 1:0.98776147 
-100 1:2.2066628 
-100 1:0.28903084 
100 1:5.1331359 
4.666504105004362 1:6.0766647 
-100 1:4.79685 
-100 1:4.211864 
-5.830631285299912 1:3.4994656 
100 1:2.1833838 
-63.28527414147425 1:0.055630634 
-85.78574387787594 1:1.6458729 
100 1:5.3690224 
58.56745078766866 1:2.1333297 
34.57460844097992 1:3.0543424 
32.49679354741605 1:1.4452738 
37.78661876886457 1:5.41326 
-100 1:5.0361158 
100 1:4.9970912 
-100 1:4.4797874 
98.44059515478656 1:0.28792094 
-88.20204406424128 1:5.780912 
-100 1:1.3818296 
-35.57954870343546 1:2.0495031 
100 1:0.079622346 
-37.14301889143756 1:0.14168031 
-81.33435628467596 1:1.2419512 
21.08998953631793 1:5.2459606 
100 1:4.1190759 
100 1:4.7629933 
-100 1:1.7884086 
-36.75493381071973 1:3.3352342 
-100 1:0.99257012 
-100 1:5.4897863 
87.72046149536695 1:5.6673413 
87.87788869124525 1:4.4196367 
70.21117749139202 1:3.1601833 
100 1:1.9826193 
-100 1:6.065606 
-6.656943923828499 1:2.8694185 
-100 1:4.0121099 
-89.54841523000403 1:4.6225946 
100 1:1.6645631 
100 1:1.4331881 
-34.46551747427477 1:4.1144174 
37.42865130870129 1:5.0388117 
-20.2715039632187 1:6.2744768 
-72.10691263812713 1:0.24433872 
-100 1:3.1321985 
