svm_type nu_svr
kernel_type rbf
gamma 10
nr_class 2
total_sv 43
rho -1.00856
SV
10 1:4.9848066 
0.3151826179033549 1:0.68183331 
-9.999466047238071 1:3.3685751 
7.108656739472434 1:0.28378615 
10 1:3.3383598 
1.855294587847196 1:4.1472487 
5.296705979422806 1:6.18229 
-9.760541836690765 1:1.4935029 
-2.940755320736982 1:0.92804736 
9.583243331951683 1:5.9566648 
0.9376628842679017 1:3.4171664 
7.470461120250216 1:5.6259751 
-0.3085578580862489 1:2.4735931 
1.43259395361552 1:3.9117231 
-10 1:4.9109722 
-10 1:5.2967751 
3.716171895407562 1:0.98776147 
-7.027491808478804 1:0.28903084 
3.966163415373373 1:5.1331359 
-10 1:4.211864 
10 1:5.3690224 
3.591271973947831 1:5.41326 
-0.2983559099818197 1:2.7477751 
-10 1:5.0361158 
-7.349880327386066 1:4.4797874 
-6.9737757422328 1:5.780912 
-0.168627061851807 1:0.14168031 
-3.167441994914014 1:1.2419512 
1.207252331407019 1:3.0191213 
-0.8271903334062307 1:1.8690259 
10 1:4.1190759 
5.833061057198625 1:4.7629933 
-10 1:5.4897863 
10 1:4.4196367 
0.5059336268636198 1:1.9826193 
-10 1:6.065606 
-6.160448277747809 1:4.0121099 
-1.958665010829718 1:4.6225946 
2.385589856877913 1:1.6645631 
10 1:1.4331881 
4.794754628192957 1:5.0388117 
-1.331433155108376 1:6.2744768 
-1.727369315310505 1:3.1321985 
