svm_type epsilon_svr
kernel_type rbf
gamma 1
nr_class 2
total_sv 38
rho -1.02278
SV
5.295041434976159 1:3.1772913 
-5.877666526869801 1:3.3685751 
-6.341364020910433 1:0.4072258 
10 1:3.1327996 
10 1:4.1472487 
-10 1:2.6093513 
1.97245592527148 1:6.18229 
-10 1:1.4935029 
-10 1:3.8833121 
-10 1:2.4358525 
-10 1:2.4735931 
-10 1:4.9109722 
10 1:3.1515643 
10 1:0.98776147 
5.019335046838433 1:5.1331359 
-3.383854196467471 1:4.79685 
-10 1:3.4994656 
10 1:2.1833838 
-10 1:3.4489636 
-10 1:2.4597538 
-5.987349645248791 1:1.6458729 
10 1:5.3690224 
-10 1:3.4327108 
6.786919123651173 1:0.99657565 
10 1:2.1333297 
10 1:3.0543424 
-10 1:2.7477751 
-7.285259539033914 1:5.780912 
2.141790709688181 1:0.079622346 
-10 1:1.2419512 
10 1:3.0191213 
10 1:4.1190759 
10 1:4.4196367 
10 1:3.1601833 
10 1:1.9826193 
-1.521578224242502 1:4.0121099 
-9.786784773213565 1:4.6225946 
8.968314685561053 1:2.0343889 
