svm_type epsilon_svr
kernel_type rbf
gamma 0.01
nr_class 2
total_sv 110
rho -0.730556
SV
-10 1:2.4546853 
-10 1:4.9848066 
10 1:3.1772913 
10 1:5.975306 
10 1:0.68183331 
-10 1:1.3090798 
10 1:3.3685751 
10 1:4.3434217 
-10 1:0.4072258 
10 1:3.1327996 
-10 1:5.1873545 
10 1:2.0531295 
-10 1:2.2190821 
10 1:0.28378615 
10 1:4.5614463 
10 1:3.3383598 
10 1:4.1472487 
-10 1:2.6093513 
10 1:6.18229 
-10 1:4.7677898 
10 1:1.8859761 
10 1:4.1753719 
-10 1:1.4935029 
10 1:0.78320274 
-10 1:3.8833121 
10 1:0.18210352 
-10 1:0.92804736 
10 1:5.9566648 
-10 1:2.4358525 
10 1:3.4171664 
-10 1:4.716947 
10 1:5.6259751 
-10 1:2.4735931 
-10 1:3.9117231 
-10 1:2.2645348 
-10 1:4.9545943 
-10 1:1.3384962 
-10 1:5.1201746 
-10 1:4.9109722 
-10 1:5.1240698 
10 1:0.59106696 
-10 1:5.2967751 
10 1:1.7182214 
10 1:3.1515643 
-10 1:4.6823773 
10 1:4.6049721 
-10 1:1.102152 
10 1:0.98776147 
-10 1:2.2066628 
-10 1:0.28903084 
10 1:6.0766647 
-10 1:5.3359902 
-10 1:4.79685 
10 1:4.211864 
-10 1:3.4994656 
10 1:4.2289196 
-10 1:2.1833838 
-10 1:5.2908885 
-10 1:3.4489636 
-10 1:2.4597538 
-10 1:0.055630634 
10 1:5.3690224 
-10 1:3.4327108 
10 1:4.5454569 
10 1:2.0144432 
-10 1:2.8172866 
-3.890652651781552 1:0.99657565 
10 1:2.1333297 
10 1:3.0543424 
-10 1:1.4452738 
10 1:5.41326 
10 1:4.5700694 
-10 1:2.7477751 
-10 1:5.0361158 
-10 1:1.4031909 
-10 1:4.9970912 
10 1:4.4797874 
10 1:0.28792094 
-9.698025582692038 1:5.780912 
-10 1:1.3818296 
10 1:2.0495031 
10 1:0.079622346 
-10 1:0.14168031 
-10 1:1.2419512 
-10 1:5.2459606 
10 1:3.0191213 
10 1:1.8690259 
10 1:4.1190759 
10 1:0.12932952 
10 1:1.7884086 
10 1:3.3352342 
-10 1:0.99257012 
-10 1:5.4897863 
10 1:5.6673413 
10 1:4.4196367 
10 1:3.1601833 
10 1:1.9826193 
-10 1:6.065606 
-10 1:1.3431388 
10 1:3.2338012 
10 1:2.8694185 
-10 1:4.0121099 
-10 1:4.6225946 
-10 1:1.3377643 
10 1:1.6645631 
3.588678234473578 1:4.1144174 
-10 1:5.0388117 
10 1:2.0343889 
10 1:6.2744768 
10 1:3.1321985 
