svm_type nu_svr
kernel_type rbf
gamma 0.01
nr_class 2
total_sv 62
rho -1.05764
SV
-100 1:2.4546853 
100 1:3.1772913 
80.63908161159321 1:5.975306 
-100 1:1.3090798 
19.36091838840687 1:3.3685751 
100 1:4.3434217 
100 1:3.1327996 
-100 1:5.1873545 
-100 1:2.2190821 
100 1:0.28378615 
100 1:4.5614463 
100 1:3.3383598 
100 1:4.1472487 
-100 1:2.6093513 
100 1:1.8859761 
-100 1:3.8833121 
100 1:5.9566648 
-100 1:2.4358525 
100 1:5.6259751 
-100 1:2.4735931 
-100 1:3.9117231 
-100 1:2.2645348 
-100 1:4.9545943 
-100 1:5.1201746 
-100 1:4.9109722 
-100 1:5.1240698 
-100 1:5.2967751 
100 1:1.7182214 
100 1:3.1515643 
-77.36687520116179 1:1.102152 
-100 1:2.2066628 
-100 1:4.79685 
-100 1:3.4994656 
100 1:4.2289196 
-100 1:3.4489636 
-100 1:2.4597538 
100 1:5.3690224 
100 1:2.0144432 
-22.63312479883854 1:2.8172866 
100 1:3.0543424 
-100 1:2.7477751 
-100 1:5.0361158 
-100 1:1.4031909 
-100 1:4.9970912 
100 1:0.28792094 
-100 1:1.3818296 
-100 1:1.2419512 
100 1:3.0191213 
100 1:1.8690259 
100 1:4.1190759 
100 1:1.7884086 
100 1:3.3352342 
100 1:4.4196367 
100 1:3.1601833 
100 1:1.9826193 
-100 1:1.3431388 
100 1:3.2338012 
-100 1:4.0121099 
-100 1:1.3377643 
100 1:1.6645631 
100 1:2.0343889 
100 1:3.1321985 
