svm_type epsilon_svr
kernel_type rbf
gamma 1
nr_class 2
total_sv 15
rho -1.03007
SV
-10 1:2.6093513 
-4.749603943992337 1:1.4935029 
0.8950449836613116 1:0.78320274 
-8.305527057081978 1:3.8833121 
-4.738064020803768 1:2.4735931 
-4.711850989406792 1:4.9109722 
-10 1:3.4994656 
-0.01736360160791997 1:0.055630634 
2.454264555318658 1:5.3690224 
8.282989068024847 1:3.0543424 
10 1:4.1190759 
1.32173589431998 1:4.4196367 
10 1:3.1601833 
10 1:1.9826193 
-0.4316248884320005 1:6.065606 
