svm_type nu_svr
kernel_type rbf
gamma 0.1
nr_class 2
total_sv 65
rho -1.18675
SV
-10 1:2.4546853 
10 1:3.1772913 
10 1:0.68183331 
-10 1:1.3090798 
10 1:4.3434217 
10 1:3.1327996 
-6.577339087342868 1:5.1873545 
-10 1:2.2190821 
10 1:4.5614463 
10 1:3.3383598 
-10 1:2.6093513 
10 1:1.8859761 
10 1:0.78320274 
-10 1:3.8833121 
10 1:5.9566648 
-10 1:2.4358525 
-1.050525237425028 1:3.4171664 
10 1:5.6259751 
-10 1:2.4735931 
-10 1:3.9117231 
-10 1:2.2645348 
-10 1:4.9545943 
-10 1:4.9109722 
-10 1:5.1240698 
-10 1:5.2967751 
10 1:1.7182214 
10 1:3.1515643 
3.162457409901196 1:0.98776147 
-10 1:2.2066628 
-10 1:4.79685 
-4.618300727911208 1:4.0971703 
-10 1:3.4994656 
10 1:4.2289196 
-10 1:3.4489636 
-10 1:2.4597538 
-4.833157152875894 1:0.055630634 
10 1:5.3690224 
-10 1:3.4327108 
2.119813407171638 1:4.5454569 
10 1:2.0144432 
-10 1:2.8172866 
10 1:3.0543424 
10 1:5.41326 
-10 1:2.7477751 
-10 1:5.0361158 
-10 1:1.4031909 
-10 1:1.3818296 
-10 1:1.2419512 
10 1:3.0191213 
10 1:1.8690259 
10 1:4.1190759 
10 1:1.7884086 
4.717729182927138 1:3.3352342 
10 1:5.6673413 
10 1:4.4196367 
10 1:3.1601833 
10 1:1.9826193 
-10 1:6.065606 
10 1:3.2338012 
-10 1:4.0121099 
-10 1:1.3377643 
10 1:1.6645631 
10 1:2.0343889 
-2.920677794445013 1:6.2744768 
10 1:3.1321985 
