svm_type nu_svr
kernel_type rbf
gamma 100
nr_class 2
total_sv 8
rho -1.02843
SV
0.002659756993321434 1:3.3383598 
-0.1137429469867164 1:2.6093513 
-0.04036775816881416 1:3.8833121 
-0.1458892948444695 1:2.4735931 
0.1142461706076589 1:3.0543424 
0.003972920640719808 1:3.0191213 
0.135439614838507 1:3.1601833 
0.0436815369197928 1:3.2338012 
