svm_type nu_svr
kernel_type rbf
gamma 1
nr_class 2
total_sv 19
rho -0.916621
SV
1000 1:4.9848066 
-5.921467747358874 1:0.4072258 
102.6586438176312 1:3.3383598 
-509.1977938296331 1:3.8833121 
177.2417593022992 1:5.9566648 
-898.2622832951233 1:4.9109722 
-428.2274574015352 1:5.2967751 
4.150301757520056 1:0.98776147 
-541.2027710949935 1:4.211864 
70.82268980296583 1:2.1833838 
-64.62888903708291 1:1.6458729 
548.1629719644843 1:5.3690224 
-108.6327329424047 1:2.7477751 
2.869277114111818 1:0.079622346 
1000 1:4.1190759 
-331.3058061184408 1:5.4897863 
60.14671842380317 1:3.1601833 
-112.6207985333968 1:6.065606 
33.94763781718316 1:1.4331881 
