svm_type nu_svr
kernel_type rbf
gamma 10
nr_class 2
total_sv 26
rho -1.01076
SV
38.22052525685528 1:4.9848066 
0.7595043030168337 1:3.3383598 
-0.1743736026174469 1:2.6093513 
1.54799481504481 1:6.18229 
9.49585148658495 1:5.9566648 
29.89563452212864 1:5.6259751 
-0.2338190243130793 1:2.4735931 
9.205779409026359 1:3.9117231 
-45.78422241137608 1:4.9109722 
-54.99731837253803 1:5.2967751 
0.05280148342966107 1:0.98776147 
-46.79769801078097 1:4.211864 
-0.8879379904117448 1:3.4994656 
82.6627787462631 1:5.3690224 
-42.69199817499877 1:4.4797874 
-14.61037520204503 1:5.780912 
-0.2227936860925898 1:1.2419512 
0.2032858312421406 1:3.0191213 
57.38505180206814 1:4.1190759 
19.72714528386489 1:4.7629933 
-54.45573619759053 1:5.4897863 
50.57148014608337 1:4.4196367 
0.1875713723846743 1:1.9826193 
-6.160249606069335 1:6.065606 
-32.98347772116663 1:4.0121099 
0.08459554200674058 1:1.4331881 
