svm_type nu_svr
kernel_type rbf
gamma 100
nr_class 2
total_sv 57
rho -1.01813
SV
0.8324409113501565 1:4.9848066 
0.267069669850501 1:5.975306 
-0.6428509823499964 1:3.3685751 
-0.07540300387001256 1:2.2190821 
0.9547922109207935 1:0.28378615 
0.07727037980940721 1:4.5614463 
0.724490190364202 1:3.3383598 
-0.2963040819882833 1:2.6093513 
-0.05847148306278349 1:6.18229 
0.09080404089402294 1:1.8859761 
-1.021168820167923 1:4.1753719 
-0.0489328670898036 1:1.4935029 
0.007499351168971158 1:0.78320274 
-0.3234767627257061 1:3.8833121 
-0.1388730428093009 1:0.92804736 
-0.05969905707172568 1:2.4358525 
0.2306363189889581 1:3.4171664 
0.03572279623675906 1:5.6259751 
-0.2935798962139523 1:2.4735931 
0.06519014471905216 1:3.9117231 
-0.4056048824419056 1:4.9109722 
-0.1064684338203048 1:5.1240698 
-0.05469053552909595 1:5.2967751 
0.1089606640207632 1:1.7182214 
2.523899736508855 1:0.98776147 
-1.227195975343442 1:0.28903084 
2.436527301684975 1:6.0766647 
-0.2016050558349929 1:5.3359902 
-0.1283294469563351 1:3.4994656 
0.3816624764486944 1:4.2289196 
0.0169995477173581 1:2.1833838 
0.2878909552787404 1:5.3690224 
0.03253611144190646 1:2.1333297 
0.04886810212315504 1:3.0543424 
-0.1308112498871871 1:2.7477751 
-10 1:5.0361158 
-0.08164978773069353 1:4.4797874 
0.2554922237757344 1:0.28792094 
-0.01502315211358968 1:5.780912 
-0.089946387380947 1:1.3818296 
-0.03035415379593514 1:0.14168031 
-0.1650462361513413 1:1.2419512 
0.2760042299430569 1:3.0191213 
10 1:4.1190759 
0.002754042608584234 1:4.7629933 
-2.45819455239155 1:0.99257012 
-0.08246864023937411 1:5.4897863 
0.2789296659541023 1:4.4196367 
0.3623511332021363 1:3.1601833 
0.1535801159441741 1:1.9826193 
-2.577295964573265 1:6.065606 
0.01564771115493715 1:3.2338012 
0.0405889533181827 1:2.8694185 
0.0003981532734119719 1:1.6645631 
0.08073714623085038 1:1.4331881 
-9.286555548460548 1:4.1144174 
9.41025571506758 1:5.0388117 
