svm_type nu_svr
kernel_type rbf
gamma 0.01
nr_class 2
total_sv 64
rho -0.670548
SV
-10 1:2.4546853 
10 1:3.1772913 
-10 1:1.3090798 
9.245651607857107 1:3.3685751 
10 1:4.3434217 
10 1:3.1327996 
-10 1:5.1873545 
-10 1:2.2190821 
10 1:0.28378615 
10 1:4.5614463 
10 1:3.3383598 
10 1:4.1472487 
-10 1:2.6093513 
10 1:1.8859761 
-10 1:3.8833121 
10 1:5.9566648 
-10 1:2.4358525 
10 1:5.6259751 
-10 1:2.4735931 
-10 1:3.9117231 
-10 1:2.2645348 
-10 1:4.9545943 
-0.1148915987029917 1:1.3384962 
-10 1:5.1201746 
-10 1:4.9109722 
-10 1:5.1240698 
-10 1:5.2967751 
10 1:1.7182214 
10 1:3.1515643 
-10 1:1.102152 
-10 1:2.2066628 
-10 1:4.79685 
-10 1:3.4994656 
10 1:4.2289196 
-7.892219220221844 1:3.4489636 
-10 1:2.4597538 
10 1:5.3690224 
10 1:2.0144432 
-10 1:2.8172866 
10 1:3.0543424 
-10 1:2.7477751 
-10 1:5.0361158 
-10 1:1.4031909 
-1.655162841032599 1:4.9970912 
10 1:0.28792094 
-10 1:1.3818296 
0.7543483921428878 1:0.079622346 
-10 1:1.2419512 
10 1:3.0191213 
10 1:1.8690259 
10 1:4.1190759 
10 1:1.7884086 
10 1:3.3352342 
10 1:4.4196367 
10 1:3.1601833 
10 1:1.9826193 
-0.3377263400425557 1:6.065606 
-10 1:1.3431388 
10 1:3.2338012 
-10 1:4.0121099 
-10 1:1.3377643 
10 1:1.6645631 
10 1:2.0343889 
10 1:3.1321985 
