svm_type nu_svr
kernel_type rbf
gamma 10
nr_class 2
total_sv 80
rho -1.0071
SV
10 1:2.4546853 
10 1:4.9848066 
0.05877279163554646 1:5.975306 
1.04305424000191 1:0.68183331 
-10 1:3.3685751 
0.8649990244300126 1:4.3434217 
-3.872023919152744 1:0.4072258 
-0.749009259206584 1:5.1873545 
-10 1:2.0531295 
-1.669330038707036 1:2.2190821 
10 1:0.28378615 
8.289141218009998 1:4.5614463 
10 1:3.3383598 
10 1:4.1472487 
5.563498398457314 1:6.18229 
10 1:4.7677898 
-7.096409288200841 1:4.1753719 
-10 1:1.4935029 
1.663954838868865 1:0.78320274 
-6.386481030301912 1:3.8833121 
-10 1:0.92804736 
10 1:5.9566648 
1.847309900482934 1:3.4171664 
-9.516716448741198 1:2.4735931 
10 1:3.9117231 
-10 1:4.9545943 
10 1:1.3384962 
-10 1:4.9109722 
-10 1:5.1240698 
-10 1:5.2967751 
9.923798490407172 1:1.7182214 
-2.42003624484035 1:4.6823773 
1.102335611531414 1:1.102152 
10 1:0.98776147 
-10 1:2.2066628 
-10 1:0.28903084 
10 1:5.1331359 
-8.544152661635945 1:4.79685 
-10 1:4.211864 
10 1:2.1833838 
-4.539662592229525 1:0.055630634 
-10 1:1.6458729 
10 1:5.3690224 
9.852563618986713 1:0.99657565 
6.098175427891372 1:2.1333297 
3.818772257837936 1:3.0543424 
4.972660796201674 1:5.41326 
-10 1:5.0361158 
7.758852836978805 1:4.9970912 
-10 1:4.4797874 
10 1:0.28792094 
-9.586067284355767 1:5.780912 
-6.921184331285288 1:1.3818296 
-2.532600830253233 1:2.0495031 
10 1:0.079622346 
-7.48335821891451 1:0.14168031 
-10 1:1.2419512 
-0.75787499579547 1:1.8690259 
10 1:4.1190759 
10 1:4.7629933 
-10 1:1.7884086 
-1.204178277762367 1:3.3352342 
-10 1:0.99257012 
-10 1:5.4897863 
8.846928852222762 1:5.6673413 
10 1:4.4196367 
6.244869031940066 1:3.1601833 
10 1:1.9826193 
-10 1:6.065606 
2.050312664115523 1:1.3431388 
-0.2455010289863178 1:2.8694185 
-10 1:4.0121099 
-10 1:4.6225946 
10 1:1.6645631 
10 1:1.4331881 
-0.0387384025163632 1:4.1144174 
10 1:5.0388117 
-1.656537110285814 1:6.2744768 
-4.780138036828692 1:0.24433872 
-10 1:3.1321985 
