svm_type nu_svr
kernel_type rbf
gamma 10
nr_class 2
total_sv 24
rho -1.00475
SV
6.580876682149226 1:4.9848066 
0.01413031438360747 1:3.3383598 
-0.1474992971604347 1:2.6093513 
1.179931525509749 1:5.6259751 
-0.239788521937633 1:2.4735931 
-8.035719003113929 1:4.9109722 
-7.591033583072434 1:5.2967751 
0.03495800245745334 1:0.98776147 
-4.15235556240062 1:4.211864 
-0.06535106225416214 1:3.4994656 
10 1:5.3690224 
0.1128472710642866 1:3.0543424 
-0.5829557447421889 1:4.4797874 
-0.1826949638551827 1:1.2419512 
5.533071989894824 1:4.1190759 
3.76168555648978 1:4.7629933 
-4.616476789654178 1:5.4897863 
2.194004090314192 1:4.4196367 
0.3410004124889593 1:3.1601833 
0.1886024037937286 1:1.9826193 
-0.07461765866571282 1:6.065606 
-2.511244229244778 1:4.0121099 
-1.800263583898754 1:4.6225946 
0.05889175145419689 1:1.4331881 
