svm_type nu_svr
kernel_type rbf
gamma 100
nr_class 2
total_sv 39
rho -1.03283
SV
0.05611500788628612 1:3.1772913 
0.06932110368289744 1:4.3434217 
0.1 1:3.1327996 
-0.00667626431092739 1:5.1873545 
-0.009855140366261433 1:2.2190821 
0.00527185940642394 1:4.5614463 
0.1 1:3.3383598 
-0.1 1:2.6093513 
0.06214229858912826 1:1.8859761 
-0.1 1:3.8833121 
-0.1 1:2.4358525 
-0.1 1:2.4735931 
-0.002124823505561702 1:3.9117231 
-0.01232452727846463 1:2.2645348 
-0.1 1:4.9109722 
-0.0009284658776275712 1:5.1240698 
-0.06139497287197984 1:5.2967751 
0.05788427670498475 1:1.7182214 
-0.003318732249620149 1:1.102152 
-0.009031998634355054 1:4.79685 
-0.0562267259599416 1:3.4994656 
0.007730037698359212 1:4.2289196 
-0.1 1:2.4597538 
0.04153541603192043 1:5.3690224 
0.1 1:3.0543424 
-0.1 1:2.7477751 
-0.05641030646491225 1:5.0361158 
-0.02702998209574137 1:1.3818296 
-0.1 1:1.2419512 
0.1 1:3.0191213 
0.1 1:4.1190759 
-0.007327938486016039 1:0.99257012 
-0.0144117408558805 1:5.4897863 
0.1 1:4.4196367 
0.1 1:3.1601833 
0.1 1:1.9826193 
-0.04381213589242339 1:6.065606 
0.1 1:3.2338012 
-0.08912624515028725 1:4.0121099 
