svm_type epsilon_svr
kernel_type rbf
gamma 0.01
nr_class 2
total_sv 24
rho -0.50551
SV
-10 1:2.4546853 
10 1:3.1772913 
10 1:3.1327996 
10 1:3.3383598 
-10 1:2.6093513 
-10 1:3.8833121 
-10 1:2.4358525 
-10 1:2.4735931 
-10 1:3.9117231 
-10 1:4.9109722 
10 1:3.1515643 
-5.785651614864289 1:3.4994656 
-10 1:2.4597538 
10 1:3.0543424 
-10 1:2.7477751 
-0.7481878208919224 1:5.0361158 
-3.46616056424379 1:1.2419512 
10 1:3.0191213 
10 1:4.4196367 
10 1:3.1601833 
10 1:1.9826193 
10 1:3.2338012 
-10 1:4.0121099 
10 1:3.1321985 
