svm_type nu_svr
kernel_type rbf
gamma 10
nr_class 2
total_sv 9
rho -1.02583
SV
0.03607538386488048 1:3.1327996 
-0.1 1:2.6093513 
-0.09579811183046262 1:3.8833121 
-0.1 1:2.4735931 
-0.004201888169537417 1:4.9109722 
0.1 1:3.0543424 
0.05278847988483102 1:4.4196367 
0.1 1:3.1601833 
0.01113613625028854 1:1.9826193 
