svm_type nu_svr
kernel_type rbf
gamma 1
nr_class 2
total_sv 68
rho -1.00191
SV
-1 1:2.4546853 
1 1:3.1772913 
0.6357765082691312 1:0.68183331 
-1 1:1.3090798 
-1 1:3.3685751 
1 1:4.3434217 
-0.2634447868781632 1:0.4072258 
1 1:3.1327996 
-1 1:2.2190821 
1 1:4.5614463 
1 1:3.3383598 
0.05528580259635504 1:4.1472487 
-1 1:2.6093513 
0.2602563743462852 1:6.18229 
1 1:1.8859761 
-1 1:1.4935029 
1 1:0.78320274 
-1 1:3.8833121 
0.5239588690992968 1:5.9566648 
-1 1:2.4358525 
-1 1:3.4171664 
1 1:5.6259751 
-1 1:2.4735931 
-1 1:3.9117231 
-0.02333838530442453 1:2.2645348 
-1 1:4.9545943 
-1 1:4.9109722 
1 1:1.7182214 
1 1:3.1515643 
1 1:0.98776147 
-1 1:2.2066628 
-1 1:0.28903084 
-1 1:4.79685 
-1 1:3.4994656 
1 1:4.2289196 
-1 1:3.4489636 
-1 1:2.4597538 
1 1:5.3690224 
-1 1:3.4327108 
0.091647262996263 1:4.5454569 
1 1:2.0144432 
-0.5939744578952301 1:2.8172866 
1 1:0.99657565 
1 1:2.1333297 
1 1:3.0543424 
1 1:5.41326 
-1 1:2.7477751 
-1 1:5.0361158 
-1 1:1.4031909 
-1 1:5.780912 
-1 1:1.3818296 
1 1:2.0495031 
0.1746382116055248 1:0.079622346 
-1 1:1.2419512 
1 1:3.0191213 
1 1:1.8690259 
1 1:4.1190759 
-0.1192423699221817 1:5.4897863 
1 1:4.4196367 
1 1:3.1601833 
1 1:1.9826193 
-1 1:6.065606 
1 1:3.2338012 
-1 1:4.0121099 
-1 1:1.3377643 
0.2584369710871445 1:1.6645631 
1 1:2.0343889 
1 1:3.1321985 
