svm_type nu_svr
kernel_type rbf
gamma 100
nr_class 2
total_sv 101
rho -1.00853
SV
11.48202438819325 1:2.4546853 
100 1:4.9848066 
-38.02407014060583 1:3.1772913 
-0.4233640319193949 1:0.66135807 
4.15172359527487 1:5.975306 
0.4365974397049604 1:0.68183331 
-9.475856478184074 1:1.3090798 
-25.04924544652832 1:3.3685751 
-0.8483158706066583 1:4.3434217 
-0.4415696703316816 1:0.4072258 
-15.29581820708492 1:5.1873545 
100 1:0.28378615 
25.38746418194174 1:4.5614463 
100 1:3.3383598 
-8.674251858288292 1:4.1472487 
-0.1234727829501419 1:2.6093513 
0.4743760080887767 1:0.82916265 
-0.7650569973038881 1:6.18229 
0.09307212011853677 1:1.8859761 
-0.01959005178319716 1:4.1753719 
5.14258012486584 1:1.4935029 
-0.2271241407318715 1:0.78320274 
-0.5135412249248793 1:3.8833121 
11.27495995583939 1:0.18210352 
-1.85591262770134 1:0.92804736 
-2.845564253749768 1:5.9566648 
-6.060452217425937 1:2.4358525 
29.58677903494026 1:3.4171664 
-2.103692607760082 1:4.716947 
-0.01785438614189071 1:5.6259751 
-6.226706390857144 1:2.4735931 
0.1895055477905303 1:3.9117231 
0.890649143319993 1:2.2645348 
-28.08350052404249 1:4.9545943 
15.60217401714015 1:1.3384962 
4.073608587539485 1:5.1201746 
4.99220206074216 1:4.9109722 
-100 1:5.1240698 
0.0771670704486109 1:0.59106696 
-100 1:5.2967751 
-0.5759246164891063 1:1.7182214 
-65.58236109263331 1:3.1515643 
5.183488653706434 1:4.6049721 
0.02643744734503853 1:1.102152 
56.72403837826131 1:0.98776147 
-3.953550820285445 1:2.2066628 
-100 1:0.28903084 
100 1:5.1331359 
12.2709418000157 1:6.0766647 
3.270494487722228 1:5.3359902 
-2.889436358941197 1:4.79685 
-4.581806741141581 1:4.211864 
8.785809460393944 1:4.0971703 
1.360918511282298 1:3.4994656 
4.734429914842338 1:4.2289196 
4.028859091045489 1:2.1833838 
96.96784395153692 1:5.2908885 
-3.733666816617675 1:0.055630634 
-2.567798409301796 1:1.6458729 
7.945361923922323 1:5.3690224 
-21.50061825629729 1:3.4327108 
44.6620764390486 1:0.99657565 
-0.949394932941353 1:2.1333297 
2.323151907625076 1:3.0543424 
-74.45333475547649 1:1.4452738 
-4.562190045286961 1:5.41326 
-28.62594002399511 1:4.5700694 
-0.2016424802745466 1:2.7477751 
-81.57161972565032 1:5.0361158 
-37.79852020194318 1:1.4031909 
-87.66662734894393 1:4.9970912 
-2.436718355925068 1:4.4797874 
10.77192239618883 1:0.28792094 
5.831528253805864 1:0.079622346 
-12.01738903529677 1:0.14168031 
1.06707608936611 1:1.2419512 
-0.6128553943329853 1:5.2459606 
-0.8539071363936852 1:3.0191213 
100 1:4.1190759 
3.439608893227613 1:0.12932952 
3.901422293558876 1:4.7629933 
0.1563487570315531 1:1.7884086 
-84.59467602793343 1:3.3352342 
-100 1:0.99257012 
0.853441793384894 1:5.4897863 
0.02897362454233077 1:5.6673413 
1.80452215329347 1:4.4196367 
100 1:3.1601833 
0.1355610562209429 1:1.9826193 
-12.98649506439213 1:6.065606 
3.332390540417809 1:3.2338012 
0.1481443009369314 1:2.8694185 
0.3072769648378484 1:4.0121099 
2.898468924473407 1:1.6645631 
2.820506114887111 1:0.34783688 
100 1:1.4331881 
-100 1:4.1144174 
100 1:5.0388117 
0.1453913789608642 1:2.0343889 
0.2186812221689139 1:6.2744768 
-18.20856645058564 1:0.24433872 
