svm_type epsilon_svr
kernel_type rbf
gamma 10
nr_class 2
total_sv 43
rho -1.04215
SV
-0.01 1:2.4546853 
0.01 1:3.1772913 
-0.01 1:1.3090798 
0.01 1:4.3434217 
0.01 1:3.1327996 
-0.01 1:2.2190821 
0.01 1:3.3383598 
0.01 1:4.1472487 
-0.01 1:2.6093513 
0.01 1:1.8859761 
-0.01 1:3.8833121 
-0.01 1:2.4358525 
-0.01 1:2.4735931 
-0.01 1:3.9117231 
-0.003592947126683396 1:2.2645348 
-0.01 1:4.9545943 
-0.01 1:4.9109722 
-0.0007810894674505908 1:5.1240698 
-0.01 1:5.2967751 
0.01 1:1.7182214 
0.01 1:3.1515643 
-0.01 1:4.79685 
-0.01 1:3.4994656 
0.01 1:4.2289196 
-0.01 1:2.4597538 
0.01 1:2.0144432 
0.01 1:3.0543424 
-0.01 1:2.7477751 
-0.01 1:5.0361158 
-0.01 1:1.3818296 
-0.01 1:1.2419512 
0.01 1:3.0191213 
0.01 1:1.8690259 
0.01 1:4.1190759 
0.01 1:3.3352342 
0.01 1:4.4196367 
0.01 1:3.1601833 
0.01 1:1.9826193 
-0.01 1:6.065606 
0.01 1:3.2338012 
-0.01 1:4.0121099 
0.004374036594133987 1:2.0343889 
0.01 1:3.1321985 
