svm_type nu_svr
kernel_type rbf
gamma 10
nr_class 2
total_sv 74
rho -1.00802
SV
0.6329271736801803 1:2.4546853 
1 1:4.9848066 
0.2374344970569452 1:5.975306 
0.2958506422509274 1:0.68183331 
-1 1:3.3685751 
0.1460271778484453 1:4.3434217 
-0.6491019539838978 1:0.4072258 
-0.9361774370442095 1:5.1873545 
-1 1:2.0531295 
-0.2012086557916931 1:2.2190821 
1 1:0.28378615 
0.8068798341346897 1:4.5614463 
1 1:3.3383598 
1 1:4.1472487 
0.2943688871472701 1:6.18229 
1 1:4.7677898 
-0.5093910269553359 1:4.1753719 
-1 1:1.4935029 
-0.9442143876090077 1:3.8833121 
-0.8682873940507528 1:0.92804736 
1 1:5.9566648 
0.7975813200803282 1:3.4171664 
0.9030908462853191 1:5.6259751 
-1 1:2.4735931 
1 1:3.9117231 
0.3213339836244868 1:2.2645348 
-1 1:4.9545943 
0.8559794061124835 1:1.3384962 
-1 1:4.9109722 
-0.02131210956036717 1:5.1240698 
-1 1:5.2967751 
0.9147316565552632 1:1.7182214 
-0.08329475381653563 1:4.6823773 
1 1:0.98776147 
-1 1:2.2066628 
-1 1:0.28903084 
1 1:5.1331359 
-1 1:4.79685 
-1 1:4.211864 
1 1:2.1833838 
-0.7859584173385009 1:3.4489636 
-0.4550855207759989 1:0.055630634 
-1 1:1.6458729 
1 1:5.3690224 
1 1:0.99657565 
0.2799459622461363 1:2.1333297 
0.5590524380705156 1:5.41326 
-0.1961344462731137 1:2.7477751 
-1 1:5.0361158 
0.4925560164583954 1:4.9970912 
-1 1:4.4797874 
1 1:0.28792094 
-1 1:5.780912 
-0.3878515237181279 1:1.3818296 
1 1:0.079622346 
-1 1:0.14168031 
-1 1:1.2419512 
0.5512146304924668 1:3.0191213 
1 1:4.1190759 
1 1:4.7629933 
-0.8951517546603214 1:1.7884086 
-1 1:0.99257012 
-1 1:5.4897863 
1 1:4.4196367 
0.9110255279561472 1:3.1601833 
1 1:1.9826193 
-1 1:6.065606 
-1 1:4.0121099 
-1 1:4.6225946 
1 1:1.6645631 
1 1:1.4331881 
1 1:5.0388117 
-0.06683061842213776 1:0.24433872 
-1 1:3.1321985 
