svm_type nu_svr
kernel_type rbf
gamma 10
nr_class 2
total_sv 85
rho -0.849325
SV
993.2923657921829 1:2.4546853 
1000 1:4.9848066 
-624.3481283054412 1:0.66135807 
-1000 1:3.3685751 
-234.6164742219131 1:0.4072258 
-1000 1:2.0531295 
-447.5642369762998 1:2.2190821 
1000 1:0.28378615 
1000 1:4.5614463 
1000 1:3.3383598 
1000 1:4.1472487 
98.19249198037011 1:2.6093513 
91.87821935892042 1:6.18229 
987.761542739182 1:4.7677898 
33.33604781347622 1:1.8859761 
-158.8581992535206 1:4.1753719 
-588.910077897022 1:1.4935029 
410.711104889814 1:0.78320274 
-660.6928722127461 1:3.8833121 
-496.3479426040657 1:0.92804736 
307.8271766387312 1:5.9566648 
642.6722578805305 1:3.4171664 
446.0313064564725 1:5.6259751 
-1000 1:2.4735931 
1000 1:3.9117231 
154.6964254098407 1:2.2645348 
1000 1:1.3384962 
-132.6843029450624 1:5.1201746 
-1000 1:4.9109722 
-1000 1:5.1240698 
491.4641592487776 1:0.59106696 
-1000 1:5.2967751 
457.5684625129235 1:1.7182214 
-1000 1:4.6823773 
33.62301558295913 1:1.102152 
1000 1:0.98776147 
-1000 1:2.2066628 
-1000 1:0.28903084 
1000 1:5.1331359 
747.8187263862925 1:6.0766647 
-1000 1:5.3359902 
-1000 1:4.79685 
-1000 1:4.211864 
320.7736492771609 1:4.2289196 
1000 1:2.1833838 
-188.4094065952992 1:3.4489636 
-589.5860586159361 1:0.055630634 
-1000 1:1.6458729 
1000 1:5.3690224 
348.1034121982833 1:0.99657565 
1000 1:2.1333297 
300.0177437822996 1:3.0543424 
789.2885391482303 1:1.4452738 
909.9921022616861 1:5.41326 
-1000 1:5.0361158 
-1000 1:1.4031909 
790.0059717830268 1:4.9970912 
-1000 1:4.4797874 
346.2815994615914 1:0.28792094 
-266.8502177259178 1:5.780912 
-1000 1:1.3818296 
-606.5665619437832 1:2.0495031 
1000 1:0.079622346 
-558.4581047739896 1:0.14168031 
-265.1293258605161 1:1.2419512 
918.8002755072431 1:5.2459606 
1000 1:4.1190759 
1000 1:4.7629933 
-659.8143215158148 1:1.7884086 
-475.3933891194249 1:3.3352342 
-1000 1:0.99257012 
-1000 1:5.4897863 
614.0404543006872 1:4.4196367 
765.8229495893661 1:3.1601833 
1000 1:1.9826193 
-1000 1:6.065606 
-55.630848198771 1:2.8694185 
-617.5675921883337 1:4.0121099 
-266.9901102804542 1:4.6225946 
1000 1:1.6645631 
1000 1:1.4331881 
-1000 1:4.1144174 
-37.3520445062214 1:6.2744768 
-68.22978425948298 1:0.24433872 
-1000 1:3.1321985 
