svm_type epsilon_svr
kernel_type rbf
gamma 1
nr_class 2
total_sv 47
rho -1.02015
SV
-1 1:2.4546853 
1 1:3.1772913 
-1 1:1.3090798 
-0.1233936508593277 1:3.3685751 
1 1:4.3434217 
1 1:3.1327996 
0.4196793625388924 1:4.1472487 
-1 1:2.6093513 
1 1:1.8859761 
-0.6411297962712134 1:1.4935029 
1 1:0.78320274 
-1 1:3.8833121 
-1 1:2.4358525 
-1 1:3.4171664 
-1 1:2.4735931 
-1 1:3.9117231 
-0.2577689432771634 1:4.9545943 
-1 1:4.9109722 
1 1:3.1515643 
0.9868722491451825 1:0.98776147 
-0.4278838395910444 1:0.28903084 
-1 1:4.79685 
-1 1:3.4994656 
1 1:4.2289196 
-1 1:3.4489636 
-1 1:2.4597538 
1 1:5.3690224 
-1 1:3.4327108 
1 1:2.0144432 
-0.6044129491424919 1:2.8172866 
1 1:3.0543424 
0.2524420792744389 1:5.41326 
-1 1:2.7477751 
-0.295055994252408 1:5.0361158 
-1 1:1.3818296 
-1 1:1.2419512 
1 1:3.0191213 
1 1:1.8690259 
1 1:4.1190759 
1 1:4.4196367 
1 1:3.1601833 
1 1:1.9826193 
-0.3093485175648651 1:6.065606 
1 1:3.2338012 
-1 1:4.0121099 
1 1:2.0343889 
1 1:3.1321985 
