svm_type epsilon_svr
kernel_type rbf
gamma 0.1
nr_class 2
total_sv 112
rho -1.01165
SV
-0.01 1:2.4546853 
-0.01 1:4.9848066 
0.01 1:3.1772913 
0.01 1:5.975306 
0.01 1:0.68183331 
-0.01 1:1.3090798 
0.01 1:3.3685751 
0.01 1:4.3434217 
-0.01 1:0.4072258 
0.01 1:3.1327996 
-0.01 1:5.1873545 
0.01 1:2.0531295 
-0.01 1:2.2190821 
0.01 1:0.28378615 
0.01 1:4.5614463 
0.01 1:3.3383598 
0.01 1:4.1472487 
-0.01 1:2.6093513 
0.01 1:6.18229 
-0.01 1:4.7677898 
0.01 1:1.8859761 
0.01 1:4.1753719 
-0.01 1:1.4935029 
0.01 1:0.78320274 
-0.01 1:3.8833121 
-0.01 1:0.92804736 
0.01 1:5.9566648 
-0.01 1:2.4358525 
0.01 1:3.4171664 
-0.01 1:4.716947 
0.01 1:5.6259751 
-0.01 1:2.4735931 
-0.01 1:3.9117231 
-0.01 1:2.2645348 
-0.01 1:4.9545943 
-0.01 1:1.3384962 
-0.01 1:5.1201746 
-0.01 1:4.9109722 
-0.01 1:5.1240698 
0.01 1:0.59106696 
-0.01 1:5.2967751 
0.01 1:1.7182214 
0.01 1:3.1515643 
-0.01 1:4.6823773 
0.01 1:4.6049721 
-0.01 1:1.102152 
0.01 1:0.98776147 
-0.01 1:2.2066628 
-0.01 1:0.28903084 
-0.01 1:5.1331359 
0.01 1:6.0766647 
-0.01 1:5.3359902 
-0.01 1:4.79685 
0.01 1:4.211864 
0.01 1:4.0971703 
-0.01 1:3.4994656 
0.01 1:4.2289196 
0.006270354901142142 1:2.1833838 
-0.01 1:5.2908885 
-0.01 1:3.4489636 
-0.01 1:2.4597538 
-0.01 1:0.055630634 
0.01 1:1.6458729 
0.01 1:5.3690224 
-0.01 1:3.4327108 
0.01 1:4.5454569 
0.01 1:2.0144432 
-0.01 1:2.8172866 
0.01 1:2.1333297 
0.01 1:3.0543424 
-0.01 1:1.4452738 
0.01 1:5.41326 
0.01 1:4.5700694 
-0.01 1:2.7477751 
-0.01 1:5.0361158 
-0.01 1:1.4031909 
-0.01 1:4.9970912 
0.01 1:4.4797874 
0.01 1:0.28792094 
-0.01 1:5.780912 
-0.01 1:1.3818296 
0.01 1:2.0495031 
0.01 1:0.079622346 
-0.01 1:0.14168031 
-0.01 1:1.2419512 
-0.01 1:5.2459606 
0.01 1:3.0191213 
0.01 1:1.8690259 
0.01 1:4.1190759 
0.01 1:1.7884086 
0.01 1:3.3352342 
-0.01 1:0.99257012 
-0.01 1:5.4897863 
0.01 1:5.6673413 
0.01 1:4.4196367 
0.01 1:3.1601833 
0.01 1:1.9826193 
-0.01 1:6.065606 
-0.01 1:1.3431388 
0.01 1:3.2338012 
0.01 1:2.8694185 
-0.01 1:4.0121099 
-0.006270354901142142 1:4.6225946 
-0.01 1:1.3377643 
0.01 1:1.6645631 
-0.01 1:0.34783688 
0.01 1:1.4331881 
0.01 1:4.1144174 
-0.01 1:5.0388117 
0.01 1:2.0343889 
-0.01 1:0.24433872 
0.01 1:3.1321985 
