svm_type nu_svr
kernel_type rbf
gamma 0.1
nr_class 2
total_sv 63
rho -0.831351
SV
-100 1:2.4546853 
100 1:3.1772913 
26.87340190250241 1:0.68183331 
-100 1:1.3090798 
100 1:4.3434217 
100 1:3.1327996 
-48.62039382542173 1:5.1873545 
-100 1:2.2190821 
100 1:4.5614463 
100 1:3.3383598 
-100 1:2.6093513 
100 1:1.8859761 
100 1:0.78320274 
-100 1:3.8833121 
100 1:5.9566648 
-100 1:2.4358525 
-100 1:3.4171664 
100 1:5.6259751 
-100 1:2.4735931 
-100 1:3.9117231 
-100 1:2.2645348 
-100 1:4.9545943 
-100 1:4.9109722 
-100 1:5.1240698 
-100 1:5.2967751 
100 1:1.7182214 
100 1:3.1515643 
-100 1:2.2066628 
-30.09384911509105 1:0.28903084 
-100 1:4.79685 
-85.99666791401803 1:4.0971703 
-100 1:3.4994656 
100 1:4.2289196 
-100 1:3.4489636 
-100 1:2.4597538 
100 1:5.3690224 
-100 1:3.4327108 
100 1:4.5454569 
100 1:2.0144432 
-100 1:2.8172866 
100 1:3.0543424 
100 1:5.41326 
-100 1:2.7477751 
-100 1:5.0361158 
-100 1:1.3818296 
-100 1:1.2419512 
100 1:3.0191213 
100 1:1.8690259 
100 1:4.1190759 
100 1:1.7884086 
73.12659809749771 1:3.3352342 
100 1:5.6673413 
100 1:4.4196367 
100 1:3.1601833 
100 1:1.9826193 
-100 1:6.065606 
100 1:3.2338012 
-100 1:4.0121099 
-81.22164114593346 1:1.3377643 
100 1:1.6645631 
100 1:2.0343889 
-54.06744799953604 1:6.2744768 
100 1:3.1321985 
