svm_type nu_svr
kernel_type rbf
gamma 0.01
nr_class 2
total_sv 27
rho -0.283722
SV
-100 1:2.4546853 
100 1:3.1772913 
100 1:3.1327996 
100 1:3.3383598 
-100 1:2.6093513 
21.02117012513144 1:1.8859761 
-100 1:3.8833121 
21.97648042366507 1:5.9566648 
-100 1:2.4358525 
-100 1:2.4735931 
-100 1:3.9117231 
-100 1:4.9109722 
100 1:3.1515643 
-100 1:3.4994656 
-100 1:2.4597538 
100 1:3.0543424 
-100 1:2.7477751 
-4.263256414560601e-14 1:5.0361158 
57.00234945120351 1:0.079622346 
-100 1:1.2419512 
100 1:3.0191213 
100 1:4.4196367 
100 1:3.1601833 
100 1:1.9826193 
100 1:3.2338012 
-100 1:4.0121099 
100 1:3.1321985 
