svm_type nu_svr
kernel_type rbf
gamma 10
nr_class 2
total_sv 28
rho -1.0121
SV
40.53936235573119 1:4.9848066 
0.5456427347845719 1:3.3383598 
-0.1704938660748926 1:2.6093513 
2.282016397803806 1:6.18229 
12.90423735500774 1:5.9566648 
37.87546157869653 1:5.6259751 
-0.2358098649691134 1:2.4735931 
5.838644797046083 1:3.9117231 
-53.78229242776619 1:4.9109722 
-73.14090713813698 1:5.2967751 
0.05003581859431627 1:0.98776147 
4.897902083541115 1:5.1331359 
-29.21678377901394 1:4.211864 
-0.6099978516338949 1:3.4994656 
106.1153644522474 1:5.3690224 
0.2551839471886678 1:3.0543424 
-8.539281695079595 1:4.4797874 
-19.00407833172962 1:5.780912 
-0.2200388795681038 1:1.2419512 
37.57448991470952 1:4.1190759 
30.62119322707872 1:4.7629933 
-68.59538455838376 1:5.4897863 
20.23233916495898 1:4.4196367 
0.1865444281062782 1:1.9826193 
-8.652834388243468 1:6.065606 
-21.80462435194089 1:4.0121099 
-16.0274728674593 1:4.6225946 
0.08158174450491662 1:1.4331881 
