svm_type epsilon_svr
kernel_type rbf
gamma 10
nr_class 2
total_sv 106
rho -1.00413
SV
1 1:2.4546853 
1 1:4.9848066 
-0.06217024063119733 1:3.1772913 
-1 1:0.66135807 
0.5493453335739195 1:5.975306 
1 1:0.68183331 
-1 1:1.3090798 
-1 1:3.3685751 
0.4419964507903733 1:4.3434217 
-1 1:0.4072258 
-1 1:3.1327996 
-0.7810513518995846 1:5.1873545 
-1 1:2.0531295 
-1 1:2.2190821 
1 1:0.28378615 
1 1:4.5614463 
1 1:3.3383598 
1 1:4.1472487 
-0.9261218820387067 1:0.82916265 
1 1:6.18229 
1 1:4.7677898 
1 1:1.8859761 
-1 1:4.1753719 
-1 1:1.4935029 
1 1:0.78320274 
-1 1:3.8833121 
0.8389344397494989 1:0.18210352 
-1 1:0.92804736 
1 1:5.9566648 
-0.4875970263099194 1:2.4358525 
1 1:3.4171664 
0.6174423012620625 1:4.716947 
0.8496050674999424 1:5.6259751 
-1 1:2.4735931 
1 1:3.9117231 
0.9239435301597643 1:2.2645348 
-1 1:4.9545943 
1 1:1.3384962 
-1 1:4.9109722 
-1 1:5.1240698 
0.2312803741480466 1:0.59106696 
-1 1:5.2967751 
1 1:1.7182214 
-1 1:3.1515643 
-1 1:4.6823773 
0.3535468658627813 1:1.102152 
1 1:0.98776147 
-1 1:2.2066628 
-1 1:0.28903084 
1 1:5.1331359 
-0.671181282569549 1:6.0766647 
-1 1:5.3359902 
-1 1:4.79685 
-1 1:4.211864 
0.4689516398780987 1:4.0971703 
-0.158690983243472 1:4.2289196 
1 1:2.1833838 
0.02601510667046699 1:5.2908885 
-1 1:3.4489636 
-0.6805856749189327 1:0.055630634 
-1 1:1.6458729 
1 1:5.3690224 
-0.1181431920070845 1:3.4327108 
1 1:0.99657565 
1 1:2.1333297 
1 1:3.0543424 
1 1:1.4452738 
1 1:5.41326 
-0.03455473144489761 1:2.7477751 
-1 1:5.0361158 
-1 1:1.4031909 
0.9579545796481379 1:4.9970912 
-1 1:4.4797874 
1 1:0.28792094 
-1 1:5.780912 
-1 1:1.3818296 
-1 1:2.0495031 
1 1:0.079622346 
-1 1:0.14168031 
-1 1:1.2419512 
1 1:5.2459606 
1 1:3.0191213 
-0.8375334037066934 1:1.8690259 
1 1:4.1190759 
1 1:4.7629933 
-1 1:1.7884086 
-1 1:0.99257012 
-1 1:5.4897863 
1 1:4.4196367 
1 1:3.1601833 
1 1:1.9826193 
-1 1:6.065606 
1 1:1.3431388 
1 1:3.2338012 
-0.5244878099270578 1:2.8694185 
-1 1:4.0121099 
-1 1:4.6225946 
0.3936085456863321 1:1.3377643 
0.9084797969378769 1:1.6645631 
0.5780572534702829 1:0.34783688 
1 1:1.4331881 
1 1:5.0388117 
0.4684709708387068 1:2.0343889 
-0.3255146774791953 1:6.2744768 
-1 1:0.24433872 
-1 1:3.1321985 
