svm_type nu_svr
kernel_type rbf
gamma 100
nr_class 2
total_sv 63
rho -1.01802
SV
8.166401411260356 1:4.9848066 
0.2732248443364058 1:5.975306 
-0.6483002918905629 1:3.3685751 
-0.08820997550112369 1:4.3434217 
-0.05074492327462238 1:0.4072258 
-0.3614863458555266 1:5.1873545 
-0.07684695402508439 1:2.2190821 
0.08167274067202739 1:4.5614463 
0.7290520447373205 1:3.3383598 
-6.992022709466392 1:4.1472487 
-0.2968593283124233 1:2.6093513 
-0.06239492846337008 1:6.18229 
0.09154749182514743 1:1.8859761 
-2.841699963448406 1:4.1753719 
-0.04710293924925563 1:1.4935029 
0.01530765116146948 1:0.78320274 
-0.334082033185283 1:3.8833121 
-0.2383179414892113 1:0.92804736 
-0.05945173466509462 1:2.4358525 
0.2327525711085406 1:3.4171664 
0.03552366326669265 1:5.6259751 
-0.2936428126462937 1:2.4735931 
-3.495615566865371 1:4.9545943 
-9.719458474896365 1:5.1240698 
-0.07018300107340429 1:5.2967751 
0.1096352439633535 1:1.7182214 
3.83896622373574 1:0.98776147 
-66.00043698761507 1:0.28903084 
8.359380936682404 1:5.1331359 
2.496041530630077 1:6.0766647 
-0.1504837116089284 1:5.3359902 
8.26894084544168 1:4.0971703 
-0.1288011269471296 1:3.4994656 
1.418539320647862 1:4.2289196 
0.01886527138224572 1:2.1833838 
0.2556310853178259 1:5.3690224 
0.03238238224984749 1:2.1333297 
0.0465594848937077 1:3.0543424 
-0.1310329543599913 1:2.7477751 
-100 1:5.0361158 
-0.09915580269776458 1:4.4797874 
66.47923863037553 1:0.28792094 
-0.01470657656366864 1:5.780912 
-0.08696722931430212 1:1.3818296 
-0.1654297333867398 1:1.2419512 
0.2780935732610256 1:3.0191213 
100 1:4.1190759 
0.001633712507459067 1:4.7629933 
-3.705763490977563 1:0.99257012 
-0.0793526857404943 1:5.4897863 
0.3182171005856902 1:4.4196367 
0.3647211472754083 1:3.1601833 
0.1536995633966096 1:1.9826193 
-2.638220345750373 1:6.065606 
0.01359086401284675 1:3.2338012 
0.04071275512592326 1:2.8694185 
0.422417155187089 1:4.0121099 
0.0006418901723622694 1:1.6645631 
0.6196955981451331 1:0.34783688 
0.07706809668746706 1:1.4331881 
-100 1:4.1144174 
96.75984516995479 1:5.0388117 
-1.123229430730522 1:0.24433872 
