svm_type nu_svr
kernel_type rbf
gamma 1
nr_class 2
total_sv 69
rho -0.891776
SV
13.31182263847061 1:2.4546853 
100 1:4.9848066 
55.40613533862756 1:5.975306 
-100 1:3.3685751 
-92.76276720972524 1:0.4072258 
40.78103293962091 1:3.1327996 
-37.85820286000207 1:5.1873545 
-48.6485055096513 1:2.0531295 
100 1:0.28378615 
100 1:3.3383598 
100 1:4.1472487 
-100 1:2.6093513 
8.860677622384831 1:6.18229 
100 1:4.7677898 
-50.48640094824032 1:1.4935029 
-95.86306232765676 1:3.8833121 
100 1:5.9566648 
100 1:5.6259751 
-100 1:2.4735931 
100 1:3.9117231 
100 1:2.2645348 
60.82258481925164 1:1.3384962 
-100 1:4.9109722 
-100 1:5.2967751 
-100 1:4.6823773 
100 1:0.98776147 
-100 1:0.28903084 
100 1:5.1331359 
-100 1:5.3359902 
-100 1:4.79685 
-100 1:4.211864 
27.36722718829298 1:4.0971703 
-100 1:3.4994656 
100 1:2.1833838 
-100 1:3.4489636 
-58.89984273639288 1:0.055630634 
-100 1:1.6458729 
100 1:5.3690224 
-100 1:3.4327108 
-100 1:2.8172866 
20.85795668910655 1:0.99657565 
100 1:2.1333297 
100 1:3.0543424 
100 1:1.4452738 
33.47455205252615 1:5.41326 
-15.48121840833106 1:4.5700694 
-100 1:2.7477751 
-100 1:5.0361158 
100 1:4.9970912 
-100 1:4.4797874 
100 1:0.28792094 
-100 1:5.780912 
39.11801071171708 1:0.079622346 
-100 1:1.2419512 
100 1:3.0191213 
-100 1:1.8690259 
100 1:4.1190759 
100 1:4.7629933 
-100 1:1.7884086 
-100 1:0.99257012 
-100 1:5.4897863 
100 1:4.4196367 
100 1:3.1601833 
100 1:1.9826193 
-100 1:6.065606 
100 1:3.2338012 
-100 1:4.6225946 
100 1:1.4331881 
100 1:5.0388117 
