svm_type epsilon_svr
kernel_type rbf
gamma 100
nr_class 2
total_sv 112
rho -0.989914
SV
66.09542262534954 1:2.4546853 
1000 1:4.9848066 
-238.8123125239078 1:3.1772913 
-2.67692527432053 1:0.66135807 
6.213694123557939 1:5.975306 
2.862270326314375 1:0.68183331 
14.83515833998091 1:1.3090798 
-298.2416885193189 1:3.3685751 
-0.4899383574136705 1:4.3434217 
-5.658669619420444 1:0.4072258 
1000 1:3.1327996 
-73.43490230367746 1:5.1873545 
149.7641947637924 1:2.2190821 
1000 1:0.28378615 
985.3572861576416 1:4.5614463 
1000 1:3.3383598 
-145.9355696544941 1:4.1472487 
-0.02060347449487004 1:2.6093513 
2.435382922028985 1:0.82916265 
-1.033298422328527 1:6.18229 
-2.127369653381147 1:1.8859761 
41.84735226527236 1:4.1753719 
40.39263791325639 1:1.4935029 
-1.800770595127461 1:0.78320274 
-0.7188749862760317 1:3.8833121 
0.6370620170420908 1:0.56133996 
189.1249485926962 1:0.18210352 
-7.693104341350934 1:0.92804736 
-4.466653802773958 1:5.9566648 
-13.54688347107791 1:2.4358525 
733.3705711536813 1:3.4171664 
-106.7304511425756 1:4.716947 
0.2988324010201243 1:5.6259751 
0.4884328473870339 1:3.9117231 
-9.416736698976901 1:2.2645348 
-311.2219327002827 1:4.9545943 
333.2152854884965 1:5.1201746 
63.71565493183093 1:4.9109722 
-1000 1:5.1240698 
-1000 1:5.2967751 
-6.554005076169008 1:1.7182214 
-975.6151936163722 1:3.1515643 
112.2612758923868 1:4.6823773 
487.7008862149324 1:4.6049721 
-0.7980789074544099 1:1.102152 
491.547230051549 1:0.98776147 
-223.3830946050542 1:2.2066628 
-1000 1:0.28903084 
675.2872047258986 1:5.1331359 
16.2519749617544 1:6.0766647 
197.0593433770639 1:5.3359902 
-43.68138126038239 1:4.79685 
-10.34046630569222 1:4.211864 
110.6382619836806 1:4.0971703 
-20.7551830435001 1:3.4994656 
4.626373483190864 1:4.2289196 
97.65730664144465 1:2.1833838 
901.8911343185745 1:5.2908885 
418.0787604112317 1:3.4489636 
-53.4109411167559 1:2.4597538 
28.41166574059435 1:0.055630634 
-18.01588554046077 1:1.6458729 
-78.2859687143107 1:5.3690224 
-1000 1:3.4327108 
-193.2086663618621 1:4.5454569 
-72.47980259000275 1:2.0144432 
0.1211540127790232 1:2.8172866 
515.6074866178279 1:0.99657565 
-17.15030453111486 1:2.1333297 
-4.798461921234251 1:3.0543424 
-671.3967491015607 1:1.4452738 
13.72307168963853 1:5.41326 
-1000 1:4.5700694 
-0.249062755778042 1:2.7477751 
-872.3044136212879 1:5.0361158 
-688.6388304360763 1:1.4031909 
-824.2173879119113 1:4.9970912 
1.42473529700243 1:4.4797874 
109.6149413152725 1:0.28792094 
0.03569757060595996 1:5.780912 
373.5360954619143 1:1.3818296 
-32.81489068309632 1:2.0495031 
-78.85657745495061 1:0.079622346 
-542.4853150508054 1:0.14168031 
0.4973679310994825 1:1.2419512 
-17.37212226227599 1:5.2459606 
1.909370476191296 1:3.0191213 
1000 1:4.1190759 
465.474425053082 1:0.12932952 
78.24172944872019 1:4.7629933 
2.581373366587389 1:1.7884086 
-834.6314377516795 1:3.3352342 
-1000 1:0.99257012 
-1.12546914911477 1:5.4897863 
-0.1353353518412914 1:5.6673413 
0.9042096233036334 1:4.4196367 
1000 1:3.1601833 
20.50008495764334 1:1.9826193 
-17.26014513093784 1:6.065606 
11.2502592338302 1:3.2338012 
-0.4700767913881228 1:4.0121099 
-328.9722146570023 1:4.6225946 
-67.20993003547139 1:1.3377643 
21.1190584379529 1:1.6645631 
30.64595034252418 1:0.34783688 
1000 1:1.4331881 
-1000 1:4.1144174 
1000 1:5.0388117 
88.87138534722341 1:2.0343889 
0.3361214554601927 1:6.2744768 
-196.5738419727778 1:0.24433872 
-791.2422030607963 1:3.1321985 
