svm_type nu_svr
kernel_type rbf
gamma 10
nr_class 2
total_sv 20
rho -1.00636
SV
0.3368901636099344 1:4.9848066 
-0.1413981853184622 1:2.6093513 
-0.3115614770919222 1:3.8833121 
-0.2371003429641609 1:2.4735931 
-0.4074860240218633 1:4.9109722 
-0.5874864833129356 1:5.2967751 
0.006159862629755097 1:0.98776147 
-0.5784721917334527 1:4.211864 
-0.06162737951310257 1:3.4994656 
0.7280452179968244 1:5.3690224 
0.09196496643259322 1:3.0543424 
-0.1358497207130819 1:1.2419512 
1 1:4.1190759 
-0.2065717529812385 1:5.4897863 
0.2763898444669515 1:4.4196367 
0.3587971979712482 1:3.1601833 
0.1800477166091618 1:1.9826193 
-0.003960410075002717 1:6.065606 
-0.3284860322747774 1:4.0121099 
0.02170503028353155 1:1.4331881 
