svm_type epsilon_svr
kernel_type rbf
gamma 100
nr_class 2
total_sv 28
rho -1.02786
SV
0.02560062607370173 1:4.3434217 
0.1727380127405799 1:3.3383598 
-0.2662623786333058 1:2.6093513 
0.0512732749733259 1:1.8859761 
-0.2205785990686971 1:3.8833121 
-0.02674118346801316 1:2.4358525 
-0.2877445353210853 1:2.4735931 
-0.008615186469099867 1:2.2645348 
-0.1301240693000223 1:4.9109722 
-0.001225893713890813 1:5.1240698 
-0.03314934166240727 1:5.2967751 
0.05284020239803582 1:1.7182214 
-0.04639085522927697 1:3.4994656 
0.01189868411761541 1:4.2289196 
0.01584752937517123 1:5.3690224 
0.07980265415227951 1:3.0543424 
-0.08680431158256952 1:2.7477751 
-0.03538818611620964 1:5.0361158 
-0.006632370422295475 1:1.3818296 
-0.1360340337942276 1:1.2419512 
0.2064156229914783 1:3.0191213 
0.09954354056839887 1:4.1190759 
0.166202032021442 1:4.4196367 
0.2703880781364607 1:3.1601833 
0.113987277800676 1:1.9826193 
-0.02761208524450709 1:6.065606 
0.09798206828157525 1:3.2338012 
-0.05121657360513254 1:4.0121099 
