svm_type nu_svr
kernel_type rbf
gamma 1
nr_class 2
total_sv 74
rho -1.06933
SV
1000 1:2.4546853 
1000 1:4.9848066 
-32.80042851797089 1:0.66135807 
139.6518840130834 1:5.975306 
-1000 1:1.3090798 
-1000 1:3.3685751 
-1000 1:0.4072258 
-1000 1:5.1873545 
-1000 1:2.0531295 
1000 1:0.28378615 
1000 1:3.3383598 
1000 1:4.1472487 
-1000 1:2.6093513 
295.6398534129194 1:6.18229 
1000 1:4.7677898 
-393.0383087616044 1:4.1753719 
611.0448285104427 1:0.78320274 
-235.5931155621752 1:3.8833121 
1000 1:5.9566648 
1000 1:5.6259751 
-531.7364915000907 1:2.4735931 
1000 1:3.9117231 
1000 1:2.2645348 
-23.863690926768 1:4.9545943 
236.6931407564242 1:1.3384962 
-1000 1:4.9109722 
-1000 1:5.1240698 
-1000 1:5.2967751 
800.2954306251671 1:1.7182214 
1000 1:0.98776147 
-1000 1:0.28903084 
1000 1:5.1331359 
-464.6295906349451 1:5.3359902 
-985.3578806451959 1:4.79685 
-1000 1:4.211864 
1000 1:2.1833838 
-1000 1:3.4489636 
-655.7440527137418 1:0.055630634 
-1000 1:1.6458729 
1000 1:5.3690224 
-23.60693187604083 1:3.4327108 
47.34621312489281 1:0.99657565 
210.6725966237581 1:2.1333297 
1000 1:3.0543424 
1000 1:1.4452738 
1000 1:5.41326 
-1000 1:2.7477751 
-1000 1:5.0361158 
1000 1:4.9970912 
-1000 1:4.4797874 
1000 1:0.28792094 
-1000 1:5.780912 
-1000 1:2.0495031 
1000 1:0.079622346 
-629.6779068637329 1:0.14168031 
-1000 1:1.2419512 
239.6379141418269 1:3.0191213 
-1000 1:1.8690259 
1000 1:4.1190759 
1000 1:4.7629933 
-1000 1:1.7884086 
-1000 1:0.99257012 
-1000 1:5.4897863 
22.53596046033131 1:5.6673413 
1000 1:4.4196367 
396.482178331136 1:3.1601833 
1000 1:1.9826193 
-1000 1:6.065606 
-1000 1:4.0121099 
-1000 1:4.6225946 
1000 1:1.6645631 
1000 1:1.4331881 
1000 1:5.0388117 
-23.95160199772655 1:3.1321985 
