svm_type nu_svr
kernel_type rbf
gamma 10
nr_class 2
total_sv 32
rho -1.01068
SV
0.01114127119342749 1:4.9848066 
0.01308212655389016 1:4.3434217 
0.0372756548378714 1:3.1327996 
0.1 1:3.3383598 
0.07010366017236451 1:4.1472487 
-0.1 1:2.6093513 
0.03397371863502699 1:1.8859761 
-0.1 1:3.8833121 
0.09486724475161346 1:5.9566648 
-0.01521019330059535 1:2.4358525 
-0.1 1:2.4735931 
-0.01973297393160598 1:3.9117231 
-0.1 1:4.9109722 
-0.08940557376759768 1:5.2967751 
0.03178520430718511 1:1.7182214 
0.007771119548621043 1:0.98776147 
-0.1 1:3.4994656 
-0.07134278282316144 1:3.4489636 
-0.1 1:2.4597538 
0.1 1:5.3690224 
0.1 1:3.0543424 
-0.07867532447473637 1:2.7477751 
-0.1 1:1.2419512 
0.1 1:3.0191213 
0.1 1:4.1190759 
-0.02563315170230334 1:5.4897863 
0.1 1:4.4196367 
0.1 1:3.1601833 
0.1 1:1.9826193 
-0.1 1:6.065606 
0.1 1:3.2338012 
-0.1 1:4.0121099 
