svm_type epsilon_svr
kernel_type rbf
gamma 0.01
nr_class 2
total_sv 52
rho -0.812887
SV
-1 1:2.4546853 
1 1:3.1772913 
-1 1:1.3090798 
0.5241150922036355 1:3.3685751 
1 1:4.3434217 
1 1:3.1327996 
-1 1:5.1873545 
-1 1:2.2190821 
1 1:4.5614463 
1 1:3.3383598 
1 1:4.1472487 
-1 1:2.6093513 
1 1:1.8859761 
-1 1:3.8833121 
-1 1:2.4358525 
-1 1:2.4735931 
-1 1:3.9117231 
-1 1:2.2645348 
-1 1:4.9545943 
-1 1:4.9109722 
-1 1:5.1240698 
-1 1:5.2967751 
1 1:1.7182214 
1 1:3.1515643 
-0.5241150922036354 1:1.102152 
-1 1:2.2066628 
-1 1:4.79685 
-1 1:3.4994656 
1 1:4.2289196 
-1 1:2.4597538 
1 1:5.3690224 
1 1:2.0144432 
1 1:3.0543424 
-1 1:2.7477751 
-1 1:5.0361158 
-1 1:1.4031909 
-1 1:1.3818296 
-1 1:1.2419512 
1 1:3.0191213 
1 1:1.8690259 
1 1:4.1190759 
1 1:1.7884086 
1 1:3.3352342 
1 1:4.4196367 
1 1:3.1601833 
1 1:1.9826193 
1 1:3.2338012 
-1 1:4.0121099 
-1 1:1.3377643 
1 1:1.6645631 
1 1:2.0343889 
1 1:3.1321985 
