svm_type nu_svr
kernel_type rbf
gamma 100
nr_class 2
total_sv 119
rho -1.00341
SV
100 1:2.4546853 
100 1:4.9848066 
-29.99025797249021 1:3.1772913 
-6.606972973362573 1:0.66135807 
8.388152829009712 1:5.975306 
5.780000724490634 1:0.68183331 
-12.77949329576182 1:1.3090798 
-40.57234745830073 1:3.3685751 
-2.050981473699109 1:4.3434217 
0.5915431025568445 1:0.4072258 
100 1:3.1327996 
-15.47478604339945 1:5.1873545 
-37.97584921585877 1:2.0531295 
64.550994951193 1:2.2190821 
100 1:0.28378615 
85.30404050352067 1:4.5614463 
100 1:3.3383598 
-37.06049749551786 1:4.1472487 
-0.1260991848558959 1:2.6093513 
1.729920829501964 1:0.82916265 
-1.325635848504476 1:6.18229 
-67.22786741192112 1:4.7677898 
-8.295765383692254 1:1.8859761 
46.58039515552288 1:4.1753719 
6.754226601479673 1:1.4935029 
-1.743798281034898 1:0.78320274 
-1.515365094705217 1:3.8833121 
-2.222922490712733 1:0.56133996 
35.63831882405105 1:0.18210352 
-2.844029070813994 1:0.92804736 
-6.205632296252467 1:5.9566648 
-17.44364970916122 1:2.4358525 
86.61861665243619 1:3.4171664 
-56.30828397669302 1:4.716947 
-0.2736895439241168 1:5.6259751 
7.277235666401468 1:2.4735931 
1.474488680758481 1:3.9117231 
-3.101268776189441 1:2.2645348 
-35.58190445789639 1:4.9545943 
100 1:1.3384962 
4.896206628676063 1:5.1201746 
9.69447630245857 1:4.9109722 
-100 1:5.1240698 
3.569790342879148 1:0.59106696 
-100 1:5.2967751 
-2.08443610657754 1:1.7182214 
-81.46471530455354 1:3.1515643 
51.84309794186919 1:4.6823773 
100 1:4.6049721 
0.05731708268651521 1:1.102152 
60.78305234300417 1:0.98776147 
-100 1:2.2066628 
-100 1:0.28903084 
100 1:5.1331359 
20.36155533574041 1:6.0766647 
-1.918731037045132 1:5.3359902 
-10.79799755451088 1:4.79685 
-57.69058954255623 1:4.211864 
15.10453393531021 1:4.0971703 
0.09234373273279027 1:3.4994656 
35.14825615966198 1:4.2289196 
45.45311265300687 1:2.1833838 
100 1:5.2908885 
32.17651008952181 1:3.4489636 
-90.75787463988732 1:2.4597538 
1.912999907071124 1:0.055630634 
-6.244922932863251 1:1.6458729 
12.72474061192757 1:5.3690224 
-100 1:3.4327108 
-14.77263868692384 1:4.5454569 
-84.37404840098925 1:2.0144432 
-0.06291994928123382 1:2.8172866 
41.20374018176911 1:0.99657565 
-6.912227822105918 1:2.1333297 
2.15139157903503 1:3.0543424 
-80.46615926621591 1:1.4452738 
-6.511861111537414 1:5.41326 
-100 1:4.5700694 
-0.1941408905282288 1:2.7477751 
-84.91940695467093 1:5.0361158 
-15.91398925197385 1:1.4031909 
-80.84885761075941 1:4.9970912 
-0.6520462083698939 1:4.4797874 
18.06216479113685 1:0.28792094 
0.008019194223502264 1:5.780912 
-28.18654803530702 1:1.3818296 
-9.431533988046871 1:0.079622346 
-100 1:0.14168031 
1.88604432605165 1:1.2419512 
-1.74414591171161 1:5.2459606 
-0.9084409211297738 1:3.0191213 
6.375674001996416 1:1.8690259 
100 1:4.1190759 
82.75249049687524 1:0.12932952 
100 1:4.7629933 
0.2385554666059388 1:1.7884086 
-77.7434399232569 1:3.3352342 
-100 1:0.99257012 
1.313774330826641 1:5.4897863 
0.2491405766605737 1:5.6673413 
1.864392000631703 1:4.4196367 
100 1:3.1601833 
24.94266622441549 1:1.9826193 
-21.70035303215634 1:6.065606 
29.12191699414803 1:1.3431388 
1.030828812354032 1:3.2338012 
0.2275463086196032 1:2.8694185 
-0.9766583978679292 1:4.0121099 
-89.9196261425496 1:4.6225946 
-100 1:1.3377643 
7.498165004913701 1:1.6645631 
-0.06221271125317759 1:0.34783688 
100 1:1.4331881 
-100 1:4.1144174 
100 1:5.0388117 
100 1:2.0343889 
0.4307758658775757 1:6.2744768 
-29.48485241669511 1:0.24433872 
-90.39074153753796 1:3.1321985 
