svm_type nu_svr
kernel_type rbf
gamma 1
nr_class 2
total_sv 26
rho -1.04499
SV
-0.1 1:2.4546853 
0.1 1:3.1772913 
0.07761921505596259 1:4.3434217 
0.1 1:3.1327996 
-0.1 1:2.6093513 
0.1 1:1.8859761 
-0.1 1:3.8833121 
-0.1 1:2.4358525 
-0.1 1:2.4735931 
-0.1 1:3.9117231 
-0.09190093593670683 1:4.9109722 
0.1 1:3.1515643 
-0.1 1:3.4994656 
-0.09548460217814933 1:3.4489636 
-0.1 1:2.4597538 
0.1 1:3.0543424 
-0.1 1:2.7477751 
-0.07934250627212051 1:1.2419512 
0.1 1:3.0191213 
0.02238078494403757 1:1.8690259 
0.1 1:4.4196367 
0.1 1:3.1601833 
0.1 1:1.9826193 
0.1 1:3.2338012 
-0.03327195561302348 1:4.0121099 
0.1 1:3.1321985 
