svm_type nu_svr
kernel_type rbf
gamma 10
nr_class 2
total_sv 21
rho -1.00754
SV
0.2423357341633812 1:4.9848066 
0.002447855273221702 1:3.3383598 
-0.14073964778467 1:2.6093513 
-0.2262133210361391 1:3.8833121 
-0.2383039476507687 1:2.4735931 
-0.3387464457850374 1:4.9109722 
-0.3642663540018604 1:5.2967751 
0.003959740146511792 1:0.98776147 
-0.7766450439334137 1:4.211864 
-0.07192442580011989 1:3.4994656 
0.4439686634874332 1:5.3690224 
0.08735899998370343 1:3.0543424 
-0.1338925223874762 1:1.2419512 
1.356741797375545 1:4.1190759 
-0.1101659882180653 1:5.4897863 
0.3025796425772322 1:4.4196367 
0.3628985092720146 1:3.1601833 
0.1785930102226971 1:1.9826193 
-0.007154713865105105 1:6.065606 
-0.5919475895373447 1:4.0121099 
0.01911604749826051 1:1.4331881 
