svm_type epsilon_svr
kernel_type rbf
gamma 10
nr_class 2
total_sv 27
rho -1.01191
SV
0.01411046339152047 1:4.3434217 
0.1 1:3.3383598 
0.0186178346525459 1:4.1472487 
-0.1 1:2.6093513 
0.0185861957048396 1:1.8859761 
-0.1 1:3.8833121 
-0.001521461827599269 1:2.4358525 
-0.1 1:2.4735931 
-0.1 1:4.9109722 
-0.0774055116463131 1:5.2967751 
0.0192551486552455 1:1.7182214 
-0.1 1:3.4994656 
-0.03559890685785184 1:3.4489636 
-0.1 1:2.4597538 
0.1 1:5.3690224 
0.1 1:3.0543424 
-0.05315972768026762 1:2.7477751 
-0.1 1:1.2419512 
0.1 1:3.0191213 
0.1 1:4.1190759 
-0.004088352825634293 1:5.4897863 
0.1 1:4.4196367 
0.1 1:3.1601833 
0.1 1:1.9826193 
-0.01233505005295771 1:6.065606 
0.09552125551173563 1:3.2338012 
-0.08198188702526331 1:4.0121099 
