svm_type nu_svr
kernel_type rbf
gamma 10
nr_class 2
total_sv 7
rho -1.0246
SV
-0.05499167106616161 1:2.6093513 
-0.08439018537894066 1:3.8833121 
-0.1606181435548977 1:2.4735931 
0.004043494421461769 1:3.0543424 
0.04269758901840299 1:4.4196367 
0.2465331192692592 1:3.1601833 
0.006725797290876008 1:1.9826193 
