svm_type nu_svr
kernel_type rbf
gamma 10
nr_class 2
total_sv 41
rho -1.00969
SV
1 1:4.9848066 
0.1746592790819226 1:5.975306 
-0.5349260604248348 1:3.3685751 
-0.2114818951728936 1:5.1873545 
-0.01347609824827271 1:2.0531295 
0.1281789863127456 1:0.28378615 
1 1:3.3383598 
0.2996128314833675 1:4.1472487 
-0.03900284280329355 1:2.6093513 
0.3018250163133605 1:6.18229 
-0.7131628812258832 1:1.4935029 
-0.2525312016046478 1:3.8833121 
-0.2612836161833775 1:0.92804736 
1 1:5.9566648 
1 1:5.6259751 
-0.3150215684493218 1:2.4735931 
-1 1:4.9109722 
-1 1:5.2967751 
0.06394330964439021 1:1.7182214 
0.4901025485212893 1:0.98776147 
-0.1391113400453419 1:0.28903084 
1 1:5.1331359 
-1 1:4.211864 
-0.3530206110486952 1:3.4489636 
1 1:5.3690224 
0.2309303999823422 1:5.41326 
-0.1470676050074214 1:2.7477751 
-1 1:5.0361158 
-0.48708328923987 1:4.4797874 
-0.9756865547737167 1:5.780912 
-0.6480263448078285 1:1.2419512 
0.3254151484911392 1:3.0191213 
1 1:4.1190759 
0.7565662657847043 1:4.7629933 
-1 1:5.4897863 
1 1:4.4196367 
0.2287662143847389 1:1.9826193 
-1 1:6.065606 
-0.46046478224163 1:4.0121099 
-0.4486533087229715 1:4.6225946 
1 1:1.4331881 
