svm_type epsilon_svr
kernel_type rbf
gamma 0.01
nr_class 2
total_sv 24
rho -0.134974
SV
-100 1:2.4546853 
100 1:3.1772913 
100 1:3.1327996 
100 1:3.3383598 
-100 1:2.6093513 
-100 1:3.8833121 
25.27351069698852 1:5.9566648 
-100 1:2.4358525 
-100 1:2.4735931 
-100 1:3.9117231 
-100 1:4.9109722 
100 1:3.1515643 
-100 1:3.4994656 
-100 1:2.4597538 
100 1:3.0543424 
-100 1:2.7477751 
23.95786137154085 1:0.079622346 
100 1:3.0191213 
100 1:4.4196367 
100 1:3.1601833 
50.76862793147062 1:1.9826193 
100 1:3.2338012 
-100 1:4.0121099 
100 1:3.1321985 
