svm_type epsilon_svr
kernel_type rbf
gamma 10
nr_class 2
total_sv 12
rho -1.02749
SV
0.07039674338101014 1:3.1327996 
-0.1 1:2.6093513 
-0.1 1:3.8833121 
-0.1 1:2.4735931 
-0.04471358890966498 1:4.9109722 
-0.03336681508379115 1:2.4597538 
0.1 1:3.0543424 
-0.03694744593168164 1:1.2419512 
0.007816619105616412 1:4.1190759 
0.08764084058172793 1:4.4196367 
0.1 1:3.1601833 
0.0491736468567833 1:1.9826193 
