svm_type nu_svr
kernel_type rbf
gamma 1
nr_class 2
total_sv 7
rho -1.05337
SV
-1.966038670395763 1:2.6093513 
-0.9251077855779615 1:3.8833121 
1.766267758973099 1:3.0543424 
-0.1088535440262756 1:1.2419512 
0.3941657381381219 1:4.4196367 
0.1364653153316391 1:3.1601833 
0.7031011875571406 1:1.9826193 
