svm_type nu_svr
kernel_type rbf
gamma 1
nr_class 2
total_sv 11
rho -1.03846
SV
-10 1:2.6093513 
0.9158132424878648 1:0.78320274 
-7.935779088679399 1:3.8833121 
-2.469492176471014 1:4.9109722 
-7.118452580121666 1:3.4994656 
0.9450025442897325 1:5.3690224 
3.990678541312362 1:3.0543424 
-2.47627615472792 1:1.2419512 
9.121539033867478 1:4.1190759 
10 1:3.1601833 
5.02696663804256 1:1.9826193 
