svm_type nu_svr
kernel_type rbf
gamma 0.1
nr_class 2
total_sv 6
rho -1.2455
SV
-210.6962031170875 1:2.6093513 
-89.30379688291286 1:3.8833121 
0.3584236932110535 1:5.9566648 
7.755243579619168 1:5.3690224 
231.7210101056186 1:3.1601833 
60.16532262155138 1:1.9826193 
