svm_type nu_svr
kernel_type rbf
gamma 0.1
nr_class 2
total_sv 25
rho -0.965804
SV
-1 1:2.4546853 
1 1:3.1772913 
1 1:3.1327996 
0.8635047162659196 1:3.3383598 
-1 1:2.6093513 
0.8307680971691881 1:1.8859761 
-1 1:3.8833121 
0.3057271865648923 1:5.9566648 
-1 1:2.4358525 
-1 1:2.4735931 
-1 1:3.9117231 
-1 1:2.2645348 
-1 1:4.9109722 
1 1:3.1515643 
-1 1:3.4994656 
-1 1:2.4597538 
1 1:3.0543424 
-1 1:2.7477751 
1 1:3.0191213 
1 1:4.4196367 
1 1:3.1601833 
1 1:1.9826193 
1 1:3.2338012 
-1 1:4.0121099 
1 1:3.1321985 
