svm_type nu_svr
kernel_type rbf
gamma 100
nr_class 2
total_sv 120
rho -0.994347
SV
929.5387871787358 1:2.4546853 
1000 1:4.9848066 
-239.7282092567944 1:3.1772913 
-6.315637439554507 1:0.66135807 
8.453746412335022 1:5.975306 
5.96558542735977 1:0.68183331 
37.60101007565748 1:1.3090798 
-298.4677487281515 1:3.3685751 
-4.162650547308964 1:4.3434217 
-3.402174886972887 1:0.4072258 
1000 1:3.1327996 
-74.69859154668829 1:5.1873545 
485.5336509616175 1:2.0531295 
370.9676426643989 1:2.2190821 
1000 1:0.28378615 
655.2853164779765 1:4.5614463 
1000 1:3.3383598 
-191.6921284966517 1:4.1472487 
-1.016169971128988 1:2.6093513 
3.221661897373679 1:0.82916265 
-1.325727974477445 1:6.18229 
-861.2968604372496 1:4.7677898 
-54.63331071877536 1:1.8859761 
117.4959615871034 1:4.1753719 
35.88404476704381 1:1.4935029 
-2.709928413939338 1:0.78320274 
-2.039629100342836 1:3.8833121 
-0.9925692746386403 1:0.56133996 
273.5326303476008 1:0.18210352 
-8.498647403386817 1:0.92804736 
-6.258277828460105 1:5.9566648 
-102.3963741509603 1:2.4358525 
733.6946137600114 1:3.4171664 
-335.2358018892501 1:4.716947 
0.5396944047996182 1:5.6259751 
172.8293688706869 1:2.4735931 
2.24013043575201 1:3.9117231 
-27.04240037646008 1:2.2645348 
-314.2519342876994 1:4.9545943 
1000 1:1.3384962 
334.557787603923 1:5.1201746 
64.76594442242187 1:4.9109722 
-1000 1:5.1240698 
2.300913338206894 1:0.59106696 
-1000 1:5.2967751 
0.04506038930854281 1:1.7182214 
-974.2982653011229 1:3.1515643 
315.2976962305314 1:4.6823773 
965.0180593263931 1:4.6049721 
-0.4600663744534665 1:1.102152 
496.0538070550327 1:0.98776147 
-527.3333634661249 1:2.2066628 
-1000 1:0.28903084 
674.8771324482065 1:5.1331359 
20.4404712133134 1:6.0766647 
203.9743911507766 1:5.3359902 
0.9407260468442424 1:4.79685 
-97.91381560134676 1:4.211864 
120.6909362891452 1:4.0971703 
-20.75861446052824 1:3.4994656 
55.48107349363296 1:4.2289196 
206.5031342884294 1:2.1833838 
897.2104457181706 1:5.2908885 
417.9023226904898 1:3.4489636 
-1000 1:2.4597538 
63.28498236669522 1:0.055630634 
-10.4701695915428 1:1.6458729 
-84.2344163265325 1:5.3690224 
-1000 1:3.4327108 
15.7386874414598 1:4.5454569 
-584.2140250224991 1:2.0144432 
-0.04828470682448258 1:2.8172866 
511.5001916409769 1:0.99657565 
-19.63236431100902 1:2.1333297 
-4.88898531587382 1:3.0543424 
-653.1567969689166 1:1.4452738 
15.96799070317362 1:5.41326 
-1000 1:4.5700694 
-0.04261582214527936 1:2.7477751 
-874.5193352278608 1:5.0361158 
-747.4695692066836 1:1.4031909 
-820.5903084381922 1:4.9970912 
-16.05420879826548 1:4.4797874 
129.0096283677769 1:0.28792094 
0.1108624492445179 1:5.780912 
437.2170401075363 1:1.3818296 
-1000 1:2.0495031 
-160.0276232864562 1:0.079622346 
-893.1990016210308 1:0.14168031 
-1.797921659057732 1:1.2419512 
-14.70737824305944 1:5.2459606 
1.998867234680409 1:3.0191213 
45.71514248329515 1:1.8690259 
1000 1:4.1190759 
797.3909542822042 1:0.12932952 
1000 1:4.7629933 
-4.949684959508617 1:1.7884086 
-834.6032344268241 1:3.3352342 
-1000 1:0.99257012 
-1.600502011405272 1:5.4897863 
-0.3552013666427508 1:5.6673413 
7.39319009032518 1:4.4196367 
1000 1:3.1601833 
146.3695956771072 1:1.9826193 
-21.78226921737537 1:6.065606 
-106.9626253284616 1:1.3431388 
11.4826132632116 1:3.2338012 
0.07838023916312241 1:2.8694185 
-2.485754122689379 1:4.0121099 
-751.8112710447086 1:4.6225946 
-1000 1:1.3377643 
10.33752208271621 1:1.6645631 
23.64272862452974 1:0.34783688 
1000 1:1.4331881 
-1000 1:4.1144174 
1000 1:5.0388117 
961.3152623235239 1:2.0343889 
0.4394794599763256 1:6.2744768 
-229.4690904781814 1:0.24433872 
-791.8353303765668 1:3.1321985 
