svm_type epsilon_svr
kernel_type rbf
gamma 10
nr_class 2
total_sv 105
rho -0.879078
SV
1000 1:2.4546853 
1000 1:4.9848066 
-1000 1:0.66135807 
-762.6799900965706 1:5.975306 
-1000 1:3.3685751 
-464.574514549413 1:4.3434217 
-481.6686342950451 1:0.4072258 
491.5282502438628 1:5.1873545 
-1000 1:2.0531295 
-1000 1:2.2190821 
1000 1:0.28378615 
1000 1:4.5614463 
1000 1:3.3383598 
1000 1:4.1472487 
-0.6772894805366583 1:2.6093513 
46.38327589459087 1:6.18229 
1000 1:4.7677898 
1000 1:1.8859761 
-901.0441946078631 1:4.1753719 
-870.2628990915581 1:1.4935029 
790.7414448544914 1:0.78320274 
-653.3797707593545 1:3.8833121 
444.6961386517423 1:0.56133996 
807.0520749913336 1:0.18210352 
-993.5312231107787 1:0.92804736 
1000 1:5.9566648 
-762.5667710273157 1:2.4358525 
1000 1:3.4171664 
471.7127949295415 1:5.6259751 
-1000 1:2.4735931 
1000 1:3.9117231 
486.3531044273815 1:2.2645348 
-454.3991810397308 1:4.9545943 
1000 1:1.3384962 
-1000 1:5.1201746 
-1000 1:4.9109722 
-1000 1:5.1240698 
333.7739631663213 1:0.59106696 
-1000 1:5.2967751 
783.7691014365362 1:1.7182214 
-658.2888517245666 1:3.1515643 
-1000 1:4.6823773 
972.000514345943 1:4.6049721 
1000 1:0.98776147 
-673.8265424026519 1:2.2066628 
-1000 1:0.28903084 
1000 1:5.1331359 
890.5219501092114 1:6.0766647 
-1000 1:5.3359902 
-905.5574836672547 1:4.79685 
-1000 1:4.211864 
1000 1:4.2289196 
1000 1:2.1833838 
-157.6302265546203 1:5.2908885 
-374.578678751845 1:3.4489636 
731.6274033111314 1:2.4597538 
-543.211851315826 1:0.055630634 
-1000 1:1.6458729 
1000 1:5.3690224 
-404.9355129257109 1:4.5454569 
-483.6867078195023 1:2.0144432 
201.6531473059001 1:2.8172866 
735.8865046738596 1:0.99657565 
1000 1:2.1333297 
538.8865019960546 1:3.0543424 
1000 1:1.4452738 
913.2944569711501 1:5.41326 
-0.8046544788507553 1:2.7477751 
-1000 1:5.0361158 
-1000 1:1.4031909 
1000 1:4.9970912 
-1000 1:4.4797874 
1000 1:0.28792094 
-321.0538982172268 1:5.780912 
-1000 1:1.3818296 
-1000 1:2.0495031 
1000 1:0.079622346 
-1000 1:0.14168031 
-380.6087403190544 1:1.2419512 
1000 1:5.2459606 
-771.5690285244395 1:1.8690259 
1000 1:4.1190759 
1.563013000858053 1:0.12932952 
1000 1:4.7629933 
-1000 1:1.7884086 
-837.147096067741 1:3.3352342 
-1000 1:0.99257012 
-1000 1:5.4897863 
1000 1:4.4196367 
1000 1:3.1601833 
1000 1:1.9826193 
-1000 1:6.065606 
82.84719392674226 1:1.3431388 
435.3764116279128 1:3.2338012 
-285.5186722727766 1:2.8694185 
-668.7451504778174 1:4.0121099 
-1000 1:4.6225946 
1000 1:1.6645631 
1000 1:1.4331881 
-685.7148027895079 1:4.1144174 
617.0709598968899 1:5.0388117 
749.1283360362783 1:2.0343889 
-28.20417543017032 1:6.2744768 
-1000 1:0.24433872 
-1000 1:3.1321985 
