svm_type nu_svr
kernel_type rbf
gamma 0.01
nr_class 2
total_sv 64
rho -3.72171
SV
-1000 1:2.4546853 
1000 1:3.1772913 
1000 1:5.975306 
106.0644904564975 1:0.68183331 
-1000 1:1.3090798 
1000 1:4.3434217 
1000 1:3.1327996 
-1000 1:5.1873545 
-1000 1:2.2190821 
892.9025200424493 1:0.28378615 
1000 1:4.5614463 
1000 1:3.3383598 
1000 1:4.1472487 
-1000 1:2.6093513 
1.032989501050765 1:6.18229 
1000 1:1.8859761 
1000 1:0.78320274 
-1000 1:3.8833121 
1000 1:5.9566648 
-1000 1:2.4358525 
1000 1:5.6259751 
-1000 1:2.4735931 
-1000 1:3.9117231 
-1000 1:2.2645348 
-1000 1:4.9545943 
-1000 1:5.1201746 
-1000 1:4.9109722 
-1000 1:5.1240698 
-1000 1:5.2967751 
1000 1:1.7182214 
1000 1:3.1515643 
-171.4816069250625 1:1.102152 
-1000 1:2.2066628 
-1000 1:4.79685 
-1000 1:3.4994656 
1000 1:4.2289196 
-1000 1:3.4489636 
-1000 1:2.4597538 
1000 1:5.3690224 
1000 1:2.0144432 
-1000 1:2.8172866 
1000 1:3.0543424 
-1000 1:2.7477751 
-1000 1:5.0361158 
-1000 1:1.4031909 
-508.060846991054 1:4.9970912 
-1000 1:1.3818296 
-1000 1:1.2419512 
1000 1:3.0191213 
1000 1:1.8690259 
1000 1:4.1190759 
1000 1:1.7884086 
1000 1:3.3352342 
1000 1:4.4196367 
1000 1:3.1601833 
1000 1:1.9826193 
-320.4575460838947 1:6.065606 
-1000 1:1.3431388 
1000 1:3.2338012 
-1000 1:4.0121099 
-1000 1:1.3377643 
1000 1:1.6645631 
1000 1:2.0343889 
1000 1:3.1321985 
