svm_type nu_svr
kernel_type rbf
gamma 0.1
nr_class 2
total_sv 5
rho -0.824379
SV
-18.50574646627415 1:2.6093513 
1.477550407722422 1:0.78320274 
-11.49425353372584 1:3.8833121 
0.4063896200139518 1:5.9566648 
28.11605997226364 1:3.1601833 
