svm_type epsilon_svr
kernel_type rbf
gamma 0.1
nr_class 2
total_sv 48
rho -0.520012
SV
-1000 1:2.4546853 
1000 1:3.1772913 
-1000 1:1.3090798 
1000 1:4.3434217 
1000 1:3.1327996 
-1000 1:2.2190821 
182.0980520674586 1:0.28378615 
1000 1:4.5614463 
1000 1:3.3383598 
-1000 1:2.6093513 
1000 1:1.8859761 
70.97101986559336 1:0.78320274 
-1000 1:3.8833121 
-1000 1:2.4358525 
930.0692242038044 1:5.6259751 
-1000 1:2.4735931 
-1000 1:3.9117231 
-1000 1:2.2645348 
-1000 1:4.9545943 
-1000 1:4.9109722 
1000 1:1.7182214 
1000 1:3.1515643 
-1000 1:2.2066628 
-1000 1:3.4994656 
-1000 1:3.4489636 
-1000 1:2.4597538 
1000 1:5.3690224 
-1000 1:3.4327108 
1000 1:2.0144432 
-1000 1:2.8172866 
1000 1:3.0543424 
-1000 1:2.7477751 
-1000 1:5.0361158 
-798.3129935488982 1:1.3818296 
-1000 1:1.2419512 
1000 1:3.0191213 
1000 1:1.8690259 
405.4419837711205 1:4.1190759 
1000 1:1.7884086 
1000 1:4.4196367 
1000 1:3.1601833 
1000 1:1.9826193 
-506.0144844887738 1:6.065606 
1000 1:3.2338012 
-1000 1:4.0121099 
1000 1:1.6645631 
715.7471981296912 1:2.0343889 
1000 1:3.1321985 
