svm_type epsilon_svr
kernel_type rbf
gamma 100
nr_class 2
total_sv 34
rho -1.03658
SV
0.04198942690754115 1:3.1772913 
0.05706065285547857 1:4.3434217 
0.1 1:3.1327996 
-0.00760499029332238 1:5.1873545 
-0.007439603161353873 1:2.2190821 
0.1 1:3.3383598 
-0.1 1:2.6093513 
0.04871719395272933 1:1.8859761 
-0.1 1:3.8833121 
-0.1 1:2.4358525 
-0.1 1:2.4735931 
-0.007439384902986308 1:2.2645348 
-0.1 1:4.9109722 
-0.03566859820653494 1:5.2967751 
0.04406854124690514 1:1.7182214 
-0.001693146212860228 1:4.79685 
-0.04939921838575467 1:3.4994656 
-0.1 1:2.4597538 
0.008926110239176482 1:5.3690224 
0.1 1:3.0543424 
-0.1 1:2.7477751 
-0.05005378367523672 1:5.0361158 
-0.02021890253532585 1:1.3818296 
-0.1 1:1.2419512 
0.1 1:3.0191213 
0.1 1:4.1190759 
-0.001127680795178221 1:0.99257012 
-0.0006213739500177118 1:5.4897863 
0.1 1:4.4196367 
0.1 1:3.1601833 
0.1 1:1.9826193 
-0.03682970290623011 1:6.065606 
0.1 1:3.2338012 
-0.08266554017702968 1:4.0121099 
