svm_type epsilon_svr
kernel_type rbf
gamma 100
nr_class 2
total_sv 111
rho -1.00888
SV
1 1:2.4546853 
1 1:4.9848066 
-0.2848241055669978 1:3.1772913 
-1 1:0.66135807 
0.8566227434965308 1:0.68183331 
-1 1:1.3090798 
-1 1:3.3685751 
-0.1553567618993201 1:4.3434217 
0.03835816271238263 1:0.4072258 
0.5039352260436474 1:3.1327996 
-0.5149373054638595 1:5.1873545 
-0.4129653474597238 1:2.0531295 
-0.1021532698095825 1:2.2190821 
1 1:0.28378615 
1 1:4.5614463 
1 1:3.3383598 
1 1:4.1472487 
-0.3056436373359694 1:2.6093513 
-0.01125550421233068 1:6.18229 
0.4871625594780944 1:4.7677898 
0.04368999490740223 1:1.8859761 
-0.7579493843065025 1:4.1753719 
-0.4553951300173705 1:1.4935029 
-0.01087499699148983 1:0.78320274 
-1 1:3.8833121 
-0.2633726388701198 1:0.56133996 
1 1:0.18210352 
-0.1182484885574215 1:0.92804736 
0.1511011699339443 1:5.9566648 
-0.829854195675122 1:2.4358525 
1 1:3.4171664 
-1 1:4.716947 
0.0948921791550198 1:5.6259751 
-1 1:2.4735931 
0.8117155949620909 1:3.9117231 
0.210356825195212 1:2.2645348 
-0.8832670073018281 1:4.9545943 
1 1:1.3384962 
0.253900996736332 1:5.1201746 
0.1295842203758501 1:4.9109722 
-1 1:5.1240698 
0.4799739058912847 1:0.59106696 
-1 1:5.2967751 
-0.1430597058417432 1:1.7182214 
0.4541654304944208 1:4.6823773 
0.05276254480695206 1:4.6049721 
-0.04821791115967766 1:1.102152 
1 1:0.98776147 
-1 1:2.2066628 
-1 1:0.28903084 
1 1:5.1331359 
0.9726672296288862 1:6.0766647 
-0.8593951415430328 1:5.3359902 
-1 1:4.79685 
-0.842569975933707 1:4.211864 
-0.1484221659143025 1:4.0971703 
-0.1401906061777648 1:3.4994656 
1 1:4.2289196 
1 1:2.1833838 
1 1:5.2908885 
-0.09543677471004972 1:3.4489636 
0.4017844144281996 1:2.4597538 
-0.6963061187543175 1:0.055630634 
-0.8073033182197492 1:1.6458729 
1 1:5.3690224 
-0.436905902146094 1:3.4327108 
0.3807638560070358 1:4.5454569 
-1 1:2.0144432 
0.08969631463117143 1:0.99657565 
-0.06493968277002163 1:2.1333297 
0.3601028496227004 1:3.0543424 
0.4042842084100962 1:1.4452738 
-0.2055871001682724 1:5.41326 
-1 1:4.5700694 
-0.1767708413839091 1:2.7477751 
-1 1:5.0361158 
-1 1:1.4031909 
-0.6733917615959321 1:4.4797874 
0.8123527390517853 1:0.28792094 
-0.0532618310745071 1:5.780912 
-1 1:1.3818296 
1 1:0.079622346 
-1 1:0.14168031 
-0.08077673502278722 1:1.2419512 
0.3274470113969244 1:5.2459606 
0.1196980614669947 1:3.0191213 
1 1:4.1190759 
0.0139119663431424 1:0.12932952 
1 1:4.7629933 
0.09221063418746951 1:1.7884086 
-0.1985456253092249 1:3.3352342 
-1 1:0.99257012 
-0.1093493518798132 1:5.4897863 
0.7244821122334721 1:4.4196367 
1 1:3.1601833 
0.60948311185163 1:1.9826193 
-1 1:6.065606 
0.85426792559063 1:1.3431388 
0.0844466812804308 1:3.2338012 
0.1080874144456516 1:2.8694185 
-0.2353472557930609 1:4.0121099 
-0.1526566476916022 1:4.6225946 
1 1:1.6645631 
-0.2641814561786344 1:0.34783688 
1 1:1.4331881 
-1 1:4.1144174 
0.6158309434310363 1:5.0388117 
1 1:2.0343889 
-0.001025345460580307 1:6.2744768 
-1 1:0.24433872 
-1 1:3.1321985 
