svm_type nu_svr
kernel_type rbf
gamma 100
nr_class 2
total_sv 103
rho -1.00962
SV
12.94809022402758 1:2.4546853 
891.2700155316409 1:4.9848066 
-302.7253437763566 1:3.1772913 
-1.633512466146063 1:0.66135807 
4.438219006041723 1:5.975306 
1.78027863469987 1:0.68183331 
-11.21751167302991 1:1.3090798 
-176.704048620597 1:3.3685751 
-0.2712786067078501 1:4.3434217 
-3.525803660644818 1:0.4072258 
126.0078803031199 1:3.1327996 
-69.60613458516524 1:5.1873545 
337.5801773539363 1:0.28378615 
1000 1:4.5614463 
1000 1:3.3383598 
-138.3901244521448 1:4.1472487 
-0.1017461027586635 1:2.6093513 
1.976963491578478 1:0.82916265 
-0.8043147945587099 1:6.18229 
0.7403621782422217 1:1.8859761 
31.20952605459365 1:4.1753719 
28.70547828993785 1:1.4935029 
-1.33384055663183 1:0.78320274 
-0.3540777832399588 1:3.8833121 
0.3677683872289446 1:0.56133996 
55.6153262843 1:0.18210352 
-7.184736818689402 1:0.92804736 
-3.072697339563151 1:5.9566648 
-6.838223417680846 1:2.4358525 
199.558557987733 1:3.4171664 
-34.25003227850092 1:4.716947 
0.1101011705363047 1:5.6259751 
-6.975090621511643 1:2.4735931 
1.108545836370794 1:2.2645348 
-270.2765209446094 1:4.9545943 
344.8866053744948 1:5.1201746 
51.59115651368574 1:4.9109722 
-1000 1:5.1240698 
-1000 1:5.2967751 
-4.050625664984397 1:1.7182214 
-843.6727181331611 1:3.1515643 
30.23017016419276 1:4.6823773 
254.5969414083485 1:4.6049721 
-1.064968840796132 1:1.102152 
488.5225918197146 1:0.98776147 
-5.114392008225436 1:2.2066628 
-1000 1:0.28903084 
662.9739690594962 1:5.1331359 
12.83161975711965 1:6.0766647 
189.1710800195174 1:5.3359902 
-23.69675644392644 1:4.79685 
-0.9395971501125813 1:4.211864 
108.59881208284 1:4.0971703 
0.3271302767395146 1:3.4994656 
-0.07159368616577366 1:4.2289196 
5.452008585647793 1:2.1833838 
907.9584163467053 1:5.2908885 
59.05086957675341 1:3.4489636 
-3.016237839314845 1:0.055630634 
-12.45510952514134 1:1.6458729 
-71.90711162199109 1:5.3690224 
-204.1024034240924 1:3.4327108 
-242.3306768861233 1:4.5454569 
-2.630937571395489 1:2.0144432 
518.3694993343472 1:0.99657565 
-1.606355077264778 1:2.1333297 
-430.4548316039767 1:1.4452738 
11.434822764222 1:5.41326 
-897.6209847390384 1:4.5700694 
-0.2075216955937415 1:2.7477751 
-884.0848812162873 1:5.0361158 
-357.322501219039 1:1.4031909 
-736.3475043590213 1:4.9970912 
5.047009278006225 1:4.4797874 
706.3221545312247 1:0.28792094 
155.6970329960917 1:1.3818296 
-107.5206592172449 1:0.14168031 
2.577817827614928 1:1.2419512 
-21.6914814526756 1:5.2459606 
-0.3596464196816081 1:3.0191213 
-1.107383642167816 1:1.8690259 
1000 1:4.1190759 
76.70834846724198 1:0.12932952 
34.71479468327882 1:4.7629933 
1.432227349657589 1:1.7884086 
-885.0753160955168 1:3.3352342 
-1000 1:0.99257012 
-0.6871532778033891 1:5.4897863 
0.1012572012449166 1:4.4196367 
1000 1:3.1601833 
1.110515244099304 1:1.9826193 
-13.59047706099287 1:6.065606 
28.71643298955367 1:3.2338012 
0.1505342258832679 1:2.8694185 
-131.4145732809583 1:4.6225946 
14.2915700848869 1:1.6645631 
17.75054620664636 1:0.34783688 
613.6581675402936 1:1.4331881 
-1000 1:4.1144174 
1000 1:5.0388117 
2.076349763160747 1:2.0343889 
0.2322577933332667 1:6.2744768 
-80.5905623488262 1:0.24433872 
