svm_type epsilon_svr
kernel_type rbf
gamma 0.01
nr_class 2
total_sv 24
rho -1.07814
SV
-1000 1:2.4546853 
1000 1:3.1772913 
1000 1:3.1327996 
722.8738133173808 1:3.3383598 
-1000 1:2.6093513 
323.3094326169452 1:6.18229 
-1000 1:3.8833121 
-1000 1:2.4358525 
-1000 1:2.4735931 
-1000 1:3.9117231 
-1000 1:4.9109722 
1000 1:3.1515643 
-1000 1:3.4994656 
-1000 1:2.4597538 
1000 1:3.0543424 
-1000 1:2.7477751 
210.726347563192 1:0.079622346 
1000 1:3.0191213 
1000 1:4.4196367 
1000 1:3.1601833 
743.090406502482 1:1.9826193 
1000 1:3.2338012 
-1000 1:4.0121099 
1000 1:3.1321985 
