svm_type nu_svr
kernel_type rbf
gamma 100
nr_class 2
total_sv 41
rho -1.02135
SV
0.1755748473137605 1:4.9848066 
-0.01683250979356491 1:3.3685751 
0.05205553008629193 1:4.3434217 
-0.01752600344147307 1:2.2190821 
0.02737515002468738 1:4.5614463 
0.2266456218957223 1:3.3383598 
-0.2867639217725514 1:2.6093513 
0.07734236387102994 1:1.8859761 
-0.2464445645356337 1:3.8833121 
0.03108444691649037 1:5.9566648 
-0.04730355208777014 1:2.4358525 
0.009344648343171169 1:5.6259751 
-0.292769382944513 1:2.4735931 
-0.02006649097227409 1:2.2645348 
-0.2287960966319765 1:4.9109722 
-0.1174199977935786 1:5.2967751 
0.09079245464286317 1:1.7182214 
-0.002682782770578564 1:1.102152 
-0.009789011079311238 1:0.28903084 
0.1055744600204687 1:6.0766647 
-0.07369418882364914 1:3.4994656 
0.01141565670482449 1:4.2289196 
0.1155348055696634 1:5.3690224 
0.003399458068255059 1:2.1333297 
0.07903469375563243 1:3.0543424 
-0.1148354412085488 1:2.7477751 
-0.1769817263925277 1:5.0361158 
-0.02960040760345045 1:1.3818296 
-0.1592816894287905 1:1.2419512 
0.2398396386642675 1:3.0191213 
1 1:4.1190759 
-0.01846033654504667 1:0.99257012 
-0.04269991910926701 1:5.4897863 
0.1874268157948714 1:4.4196367 
0.2998958905070226 1:3.1601833 
0.1429834678864804 1:1.9826193 
-0.1680986636306646 1:6.065606 
0.1045129531045847 1:3.2338012 
0.02016709682991247 1:2.8694185 
-0.05115745126457355 1:4.0121099 
-0.8787958621702566 1:4.1144174 
