svm_type nu_svr
kernel_type rbf
gamma 1
nr_class 2
total_sv 10
rho -1.02128
SV
-10.92058834166234 1:2.6093513 
-0.2888837435853355 1:1.4935029 
0.941032355780967 1:0.78320274 
-1.623185960015519 1:4.9109722 
-14.75572174093753 1:3.4994656 
0.5577782067543909 1:5.3690224 
-2.411620213799276 1:1.2419512 
4.464172297754505 1:4.1190759 
18.43900102282096 1:3.1601833 
5.598016116889177 1:1.9826193 
