svm_type epsilon_svr
kernel_type rbf
gamma 100
nr_class 2
total_sv 16
rho -1.04509
SV
0.02988802083671397 1:3.1327996 
0.05779584347800398 1:3.3383598 
-0.1 1:2.6093513 
-0.1 1:3.8833121 
-0.08771883544981492 1:2.4358525 
-0.1 1:2.4735931 
-0.05467303429636367 1:4.9109722 
-0.02964372141612932 1:2.4597538 
0.1 1:3.0543424 
-0.02831653989257366 1:2.7477751 
-0.05479358536125301 1:1.2419512 
0.08637704481745288 1:3.0191213 
0.06372225041801949 1:4.4196367 
0.1 1:3.1601833 
0.01736255686594423 1:1.9826193 
0.1 1:3.2338012 
