svm_type nu_svr
kernel_type rbf
gamma 100
nr_class 2
total_sv 117
rho -1.00118
SV
10 1:2.4546853 
10 1:4.9848066 
-3.134237687428998 1:3.1772913 
-4.509862514664639 1:0.66135807 
3.464096607551912 1:5.975306 
3.870442472350361 1:0.68183331 
-5.079336732056841 1:1.3090798 
-6.644548470359783 1:3.3685751 
-0.8965681690967754 1:4.3434217 
0.71457350879909 1:0.4072258 
10 1:3.1327996 
-1.8804115502184 1:5.1873545 
-1.651420224283216 1:2.0531295 
1.266414712164145 1:2.2190821 
10 1:0.28378615 
10 1:4.5614463 
10 1:3.3383598 
1.053233506059281 1:4.1472487 
-0.04957963148163945 1:2.6093513 
0.786477620192791 1:0.82916265 
-0.5876996580665378 1:6.18229 
-1.715388449604201 1:4.7677898 
0.4790601349451211 1:1.8859761 
1.591891277234434 1:4.1753719 
-0.8882538073551945 1:0.78320274 
-0.9072869590289765 1:3.8833121 
-1.612806851360251 1:0.56133996 
8.374365562979019 1:0.18210352 
-1.047366229864516 1:0.92804736 
-2.428598364145509 1:5.9566648 
-7.87691160893756 1:2.4358525 
10 1:3.4171664 
-10 1:4.716947 
-0.06671097862480019 1:5.6259751 
-9.777493281467486 1:2.4735931 
0.656021974412761 1:3.9117231 
1.633319771549791 1:2.2645348 
-6.093902812349617 1:4.9545943 
10 1:1.3384962 
0.9581495120770011 1:5.1201746 
2.231415487906845 1:4.9109722 
-10 1:5.1240698 
2.548630127093019 1:0.59106696 
-5.784121416024992 1:5.2967751 
-1.528485487727725 1:1.7182214 
-6.81578911850826 1:3.1515643 
8.248749880247638 1:4.6823773 
9.433268902631962 1:4.6049721 
0.00621858526556972 1:1.102152 
10 1:0.98776147 
-10 1:2.2066628 
-10 1:0.28903084 
10 1:5.1331359 
9.434072903409012 1:6.0766647 
-9.548613414343835 1:5.3359902 
-4.401517796553044 1:4.79685 
-10 1:4.211864 
-0.242991920300492 1:4.0971703 
0.3509023903175366 1:3.4994656 
8.106403554869772 1:4.2289196 
9.799160333903982 1:2.1833838 
10 1:5.2908885 
6.654313208264981 1:2.4597538 
-4.488663745662653 1:0.055630634 
-3.214654301318944 1:1.6458729 
10 1:5.3690224 
-7.307597254875635 1:3.4327108 
-1.67714931665814 1:4.5454569 
-10 1:2.0144432 
0.03906719073547383 1:2.8172866 
0.6816077373549729 1:0.99657565 
-3.092158628340559 1:2.1333297 
0.6002932818573341 1:3.0543424 
-6.7640595395657 1:1.4452738 
-3.94953248361962 1:5.41326 
-10 1:4.5700694 
-0.2359316620503993 1:2.7477751 
-10 1:5.0361158 
0.9592939618162798 1:1.4031909 
-5.367477192674508 1:4.9970912 
-1.094577741524995 1:4.4797874 
5.566345838632369 1:0.28792094 
-0.02683083065622272 1:5.780912 
-10 1:1.3818296 
-0.5819185215308278 1:2.0495031 
6.773139548739417 1:0.079622346 
-10 1:0.14168031 
0.6453912630125528 1:1.2419512 
-0.8760246671866365 1:5.2459606 
0.001961779237946049 1:3.0191213 
-0.8422710001298015 1:1.8690259 
10 1:4.1190759 
2.252142805053903 1:0.12932952 
10 1:4.7629933 
0.8156091296981361 1:1.7884086 
-6.073346219530679 1:3.3352342 
-10 1:0.99257012 
0.6585799893147726 1:5.4897863 
0.107225971274427 1:5.6673413 
1.380956271826979 1:4.4196367 
10 1:3.1601833 
3.253402393104977 1:1.9826193 
-10 1:6.065606 
10 1:1.3431388 
0.1105140026500858 1:2.8694185 
0.07032851117346647 1:4.0121099 
-10 1:4.6225946 
-9.911187594553049 1:1.3377643 
4.238470263003214 1:1.6645631 
-1.774753836885028 1:0.34783688 
10 1:1.4331881 
-10 1:4.1144174 
10 1:5.0388117 
10 1:2.0343889 
0.1844880272877324 1:6.2744768 
-7.551962329383375 1:0.24433872 
-10 1:3.1321985 
