svm_type epsilon_svr
kernel_type rbf
gamma 0.1
nr_class 2
total_sv 111
rho 0.270086
SV
-1000 1:2.4546853 
1000 1:4.9848066 
1000 1:3.1772913 
1000 1:5.975306 
1000 1:0.68183331 
-1000 1:1.3090798 
-1000 1:3.3685751 
1000 1:4.3434217 
-1000 1:0.4072258 
1000 1:3.1327996 
-1000 1:5.1873545 
1000 1:2.0531295 
-1000 1:2.2190821 
1000 1:0.28378615 
1000 1:4.5614463 
1000 1:3.3383598 
1000 1:4.1472487 
-1000 1:2.6093513 
808.5462278786323 1:0.82916265 
580.7104489448593 1:6.18229 
1000 1:1.8859761 
-1000 1:1.4935029 
1000 1:0.78320274 
-1000 1:3.8833121 
1000 1:0.18210352 
-1000 1:0.92804736 
1000 1:5.9566648 
-1000 1:2.4358525 
-1000 1:3.4171664 
-1000 1:4.716947 
1000 1:5.6259751 
-1000 1:2.4735931 
-1000 1:3.9117231 
-1000 1:2.2645348 
-1000 1:4.9545943 
-1000 1:1.3384962 
-1000 1:5.1201746 
-1000 1:4.9109722 
-1000 1:5.1240698 
1000 1:0.59106696 
-1000 1:5.2967751 
1000 1:1.7182214 
1000 1:3.1515643 
-1000 1:4.6823773 
1000 1:4.6049721 
-1000 1:1.102152 
1000 1:0.98776147 
-1000 1:2.2066628 
-1000 1:0.28903084 
1000 1:5.1331359 
617.1028372687033 1:5.3359902 
-1000 1:4.79685 
-471.6771177742791 1:4.211864 
-1000 1:4.0971703 
-1000 1:3.4994656 
1000 1:4.2289196 
-355.1742414704719 1:2.1833838 
-1000 1:3.4489636 
-1000 1:2.4597538 
-1000 1:0.055630634 
1000 1:1.6458729 
1000 1:5.3690224 
-1000 1:3.4327108 
1000 1:4.5454569 
1000 1:2.0144432 
-1000 1:2.8172866 
1000 1:0.99657565 
1000 1:2.1333297 
1000 1:3.0543424 
1000 1:5.41326 
1000 1:4.5700694 
-1000 1:2.7477751 
-1000 1:5.0361158 
-1000 1:1.4031909 
-1000 1:4.9970912 
1000 1:4.4797874 
1000 1:0.28792094 
-1000 1:5.780912 
-1000 1:1.3818296 
1000 1:2.0495031 
1000 1:0.079622346 
-1000 1:0.14168031 
-1000 1:1.2419512 
1000 1:3.0191213 
1000 1:1.8690259 
1000 1:4.1190759 
210.7756562148001 1:0.12932952 
1000 1:4.7629933 
1000 1:1.7884086 
1000 1:3.3352342 
-1000 1:0.99257012 
-1000 1:5.4897863 
1000 1:5.6673413 
1000 1:4.4196367 
1000 1:3.1601833 
1000 1:1.9826193 
-1000 1:6.065606 
-1000 1:1.3431388 
1000 1:3.2338012 
-1000 1:2.8694185 
-1000 1:4.0121099 
-68.49320053326912 1:4.6225946 
-1000 1:1.3377643 
1000 1:1.6645631 
-321.7906105289842 1:0.34783688 
1000 1:1.4331881 
-1000 1:4.1144174 
1000 1:2.0343889 
-1000 1:6.2744768 
-1000 1:0.24433872 
1000 1:3.1321985 
