svm_type nu_svr
kernel_type rbf
gamma 100
nr_class 2
total_sv 9
rho -1.0379
SV
0.0008282617361676753 1:3.3383598 
-0.1 1:2.6093513 
-0.06588122919760467 1:3.8833121 
-0.03411877080239537 1:2.4358525 
-0.1 1:2.4735931 
0.1 1:3.0543424 
0.02793339862367184 1:3.0191213 
0.1 1:3.1601833 
0.07123833964016052 1:3.2338012 
