svm_type epsilon_svr
kernel_type rbf
gamma 0.1
nr_class 2
total_sv 110
rho -0.879102
SV
-100 1:2.4546853 
100 1:4.9848066 
100 1:3.1772913 
100 1:5.975306 
100 1:0.68183331 
-100 1:1.3090798 
-90.52255674965316 1:3.3685751 
100 1:4.3434217 
-100 1:0.4072258 
100 1:3.1327996 
-100 1:5.1873545 
100 1:2.0531295 
-100 1:2.2190821 
100 1:0.28378615 
100 1:4.5614463 
100 1:3.3383598 
100 1:4.1472487 
-100 1:2.6093513 
100 1:0.82916265 
100 1:1.8859761 
30.69852870389066 1:4.1753719 
-100 1:1.4935029 
100 1:0.78320274 
-100 1:3.8833121 
94.24388491462446 1:0.18210352 
-100 1:0.92804736 
100 1:5.9566648 
-100 1:2.4358525 
-100 1:3.4171664 
-100 1:4.716947 
100 1:5.6259751 
-100 1:2.4735931 
-100 1:3.9117231 
-100 1:2.2645348 
-100 1:4.9545943 
-100 1:1.3384962 
-100 1:5.1201746 
-100 1:4.9109722 
-100 1:5.1240698 
100 1:0.59106696 
-100 1:5.2967751 
100 1:1.7182214 
100 1:3.1515643 
-100 1:4.6823773 
100 1:4.6049721 
-100 1:1.102152 
100 1:0.98776147 
-100 1:2.2066628 
-100 1:0.28903084 
100 1:5.1331359 
71.37734379447274 1:6.0766647 
70.03555389951529 1:5.3359902 
-100 1:4.79685 
-100 1:4.0971703 
-100 1:3.4994656 
100 1:4.2289196 
-64.13195645278866 1:2.1833838 
-100 1:3.4489636 
-100 1:2.4597538 
-100 1:0.055630634 
100 1:1.6458729 
100 1:5.3690224 
-100 1:3.4327108 
100 1:4.5454569 
100 1:2.0144432 
-100 1:2.8172866 
100 1:0.99657565 
100 1:2.1333297 
100 1:3.0543424 
100 1:5.41326 
100 1:4.5700694 
-100 1:2.7477751 
-100 1:5.0361158 
-100 1:1.4031909 
-100 1:4.9970912 
100 1:4.4797874 
100 1:0.28792094 
-100 1:5.780912 
-100 1:1.3818296 
100 1:2.0495031 
100 1:0.079622346 
-100 1:0.14168031 
-100 1:1.2419512 
100 1:3.0191213 
100 1:1.8690259 
100 1:4.1190759 
100 1:4.7629933 
100 1:1.7884086 
100 1:3.3352342 
-100 1:0.99257012 
-100 1:5.4897863 
100 1:5.6673413 
100 1:4.4196367 
100 1:3.1601833 
100 1:1.9826193 
-100 1:6.065606 
-100 1:1.3431388 
100 1:3.2338012 
-100 1:2.8694185 
-100 1:4.0121099 
-100 1:4.6225946 
-100 1:1.3377643 
100 1:1.6645631 
-11.70079811006116 1:0.34783688 
100 1:1.4331881 
-100 1:4.1144174 
100 1:2.0343889 
-100 1:6.2744768 
-100 1:0.24433872 
100 1:3.1321985 
