svm_type nu_svr
kernel_type rbf
gamma 10
nr_class 2
total_sv 72
rho -1.01342
SV
0.1 1:4.9848066 
0.00154414183713824 1:3.1772913 
0.04278158615414165 1:5.975306 
-0.08597901775363467 1:1.3090798 
0.1 1:4.3434217 
-0.07184686881442628 1:0.4072258 
0.1 1:3.1327996 
-0.1 1:5.1873545 
0.1 1:0.28378615 
0.05748940374784248 1:4.5614463 
0.1 1:3.3383598 
0.1 1:4.1472487 
-0.1 1:2.6093513 
0.01729097336248016 1:6.18229 
0.06353512078225433 1:4.7677898 
-0.1 1:1.4935029 
0.03008138807186949 1:0.78320274 
-0.1 1:3.8833121 
0.1 1:5.9566648 
-0.1 1:2.4358525 
0.1 1:5.6259751 
-0.1 1:2.4735931 
-0.05658893259203098 1:3.9117231 
-0.1 1:4.9545943 
-0.1 1:4.9109722 
-0.01233391609662782 1:5.1240698 
-0.1 1:5.2967751 
0.1 1:1.7182214 
0.1 1:0.98776147 
-0.09942313809209594 1:2.2066628 
-0.1 1:0.28903084 
0.1 1:5.1331359 
-0.02676670548174059 1:5.3359902 
-0.1 1:4.79685 
-0.1 1:4.211864 
-0.1 1:3.4994656 
0.02313700697023224 1:4.2289196 
0.1 1:2.1833838 
-0.1 1:3.4489636 
-0.06384219408153066 1:2.4597538 
-0.02545042770315796 1:0.055630634 
-0.1 1:1.6458729 
0.1 1:5.3690224 
-0.02251591168288384 1:3.4327108 
0.02246933305083308 1:0.99657565 
0.0517458744155878 1:2.1333297 
0.1 1:3.0543424 
0.03777298576176212 1:1.4452738 
0.1 1:5.41326 
-0.1 1:2.7477751 
-0.1 1:5.0361158 
-0.03525288770186976 1:4.4797874 
0.1 1:0.28792094 
-0.1 1:5.780912 
0.05787761412141265 1:0.079622346 
-0.1 1:0.14168031 
-0.1 1:1.2419512 
0.1 1:3.0191213 
0.1 1:4.1190759 
0.1 1:4.7629933 
-0.1 1:0.99257012 
-0.1 1:5.4897863 
0.1 1:4.4196367 
0.1 1:3.1601833 
0.1 1:1.9826193 
-0.1 1:6.065606 
0.1 1:3.2338012 
-0.1 1:4.0121099 
-0.1 1:4.6225946 
0.09427457172444423 1:1.6645631 
0.1 1:1.4331881 
0.1 1:5.0388117 
