svm_type nu_svr
kernel_type rbf
gamma 100
nr_class 2
total_sv 63
rho -1.02503
SV
-0.01 1:2.4546853 
0.01 1:3.1772913 
-0.01 1:1.3090798 
0.01 1:3.3685751 
0.01 1:4.3434217 
0.01 1:3.1327996 
-0.01 1:5.1873545 
-0.01 1:2.2190821 
0.01 1:4.5614463 
0.01 1:3.3383598 
0.01 1:4.1472487 
-0.01 1:2.6093513 
0.01 1:1.8859761 
-0.01 1:3.8833121 
0.001555489949198741 1:5.9566648 
-0.01 1:2.4358525 
0.00844451005080126 1:3.4171664 
-0.01 1:2.4735931 
-0.01 1:3.9117231 
-0.01 1:2.2645348 
-0.01 1:4.9545943 
-0.002707142590028966 1:5.1201746 
-0.01 1:4.9109722 
-0.01 1:5.1240698 
-0.01 1:5.2967751 
0.01 1:1.7182214 
0.01 1:3.1515643 
-0.01 1:1.102152 
-0.01 1:2.2066628 
-0.01 1:0.28903084 
-0.01 1:4.79685 
-0.01 1:3.4994656 
0.01 1:4.2289196 
-0.01 1:2.4597538 
0.01 1:5.3690224 
0.01 1:4.5454569 
0.01 1:2.0144432 
0.004626971080234354 1:2.1333297 
0.01 1:3.0543424 
-0.01 1:2.7477751 
-0.01 1:5.0361158 
-0.01 1:1.4031909 
0.005373028919765504 1:4.4797874 
-0.01 1:1.3818296 
-0.01 1:1.2419512 
0.01 1:3.0191213 
0.01 1:1.8690259 
0.01 1:4.1190759 
0.01 1:1.7884086 
0.01 1:3.3352342 
-0.01 1:0.99257012 
-0.01 1:5.4897863 
0.01 1:4.4196367 
0.01 1:3.1601833 
0.01 1:1.9826193 
-0.01 1:6.065606 
0.01 1:3.2338012 
0.01 1:2.8694185 
-0.01 1:4.0121099 
-0.007292857409970892 1:1.3377643 
0.01 1:1.6645631 
0.01 1:2.0343889 
0.01 1:3.1321985 
