svm_type nu_svr
kernel_type rbf
gamma 0.1
nr_class 2
total_sv 26
rho -1.10948
SV
-10 1:2.4546853 
10 1:3.1772913 
3.586268261102707 1:4.3434217 
10 1:3.1327996 
-10 1:2.6093513 
10 1:1.8859761 
-10 1:3.8833121 
-10 1:2.4358525 
-10 1:2.4735931 
-10 1:3.9117231 
-4.49173721556944 1:2.2645348 
-10 1:4.9109722 
10 1:3.1515643 
-10 1:3.4994656 
-5.508262784430555 1:3.4489636 
-10 1:2.4597538 
6.413731738897291 1:5.3690224 
10 1:3.0543424 
-10 1:2.7477751 
10 1:3.0191213 
10 1:4.4196367 
10 1:3.1601833 
10 1:1.9826193 
10 1:3.2338012 
-10 1:4.0121099 
10 1:3.1321985 
