svm_type nu_svr
kernel_type rbf
gamma 100
nr_class 2
total_sv 71
rho -1.01587
SV
81.99997846375943 1:4.9848066 
0.2912046497923462 1:5.975306 
-0.7580766269601229 1:3.3685751 
-0.5215974451154286 1:4.3434217 
-1.537435965006703 1:0.4072258 
-20.4931199187337 1:5.1873545 
-0.08713779717736027 1:2.2190821 
0.2312040001186199 1:4.5614463 
0.8079279424333728 1:3.3383598 
-82.44882142599337 1:4.1472487 
-0.295394229239777 1:2.6093513 
-0.07276561028835632 1:6.18229 
0.09417342266779745 1:1.8859761 
-0.05549490762747333 1:1.4935029 
0.03078366584826845 1:0.78320274 
-0.2199309722352609 1:3.8833121 
0.03006836327128651 1:0.56133996 
3.980827099827573 1:0.18210352 
-0.3927484009151309 1:0.92804736 
-0.05784804767267596 1:2.4358525 
0.2871543898789845 1:3.4171664 
0.03063716622170549 1:5.6259751 
-0.2945561390051147 1:2.4735931 
-43.66522737418379 1:4.9545943 
7.686914351400797 1:4.9109722 
-179.4488873948246 1:5.1240698 
-3.560317233633099 1:5.2967751 
0.1094777676188337 1:1.7182214 
-0.06802890326897187 1:4.6823773 
0.01066111088705365 1:1.102152 
5.914538072255643 1:0.98776147 
-637.3519447257041 1:0.28903084 
173.2709088732331 1:5.1331359 
2.656322381423648 1:6.0766647 
-1.017218934758038 1:4.79685 
5.754251406220289 1:4.211864 
130.8437194793449 1:4.0971703 
-0.1412183147676934 1:3.4994656 
0.03410808120757636 1:2.1833838 
1.438409217909235 1:5.3690224 
0.02852844512735095 1:2.1333297 
0.04202809016378288 1:3.0543424 
-0.542515565337865 1:5.41326 
-0.1312665812515609 1:2.7477751 
-1000 1:5.0361158 
-0.3725979019557681 1:4.4797874 
644.0762350100503 1:0.28792094 
-0.01426017317462496 1:5.780912 
-0.09773418126950437 1:1.3818296 
0.08750479730377106 1:0.079622346 
-1.437039889892564 1:0.14168031 
-0.1642193736055468 1:1.2419512 
7.787473333483271 1:5.2459606 
0.2841967491981083 1:3.0191213 
947.3010618194737 1:4.1190759 
0.6591782822805111 1:4.7629933 
-5.677087067165013 1:0.99257012 
0.7108114784308083 1:4.4196367 
0.3734637167494309 1:3.1601833 
0.1560084203911978 1:1.9826193 
-2.800511744869971 1:6.065606 
0.001501878547453206 1:3.2338012 
0.04344199094910728 1:2.8694185 
-0.9563165356019065 1:4.0121099 
-0.06695836784232743 1:4.6225946 
0.004305908550673847 1:1.6645631 
7.204292828095069 1:0.34783688 
0.09491285775728431 1:1.4331881 
-1000 1:4.1144174 
975.6417844881269 1:5.0388117 
-15.25172225092703 1:0.24433872 
