svm_type nu_svr
kernel_type rbf
gamma 100
nr_class 2
total_sv 81
rho -1.0243
SV
-0.03114550341854292 1:2.4546853 
0.1 1:4.9848066 
0.1 1:3.1772913 
0.0003815918938450576 1:0.68183331 
-0.01345378864470708 1:1.3090798 
0.1 1:4.3434217 
-0.02638369414981503 1:0.4072258 
0.1 1:3.1327996 
-0.05038557892357085 1:5.1873545 
-0.0799971025887467 1:2.2190821 
0.1 1:0.28378615 
0.1 1:4.5614463 
0.1 1:3.3383598 
0.1 1:4.1472487 
-0.1 1:2.6093513 
0.1 1:1.8859761 
-0.07323211468467099 1:1.4935029 
0.01261867786603738 1:0.78320274 
-0.1 1:3.8833121 
-0.02013469813670642 1:0.92804736 
0.05291787007577221 1:5.9566648 
-0.1 1:2.4358525 
0.03386067506905657 1:3.4171664 
0.05174654451170169 1:5.6259751 
-0.1 1:2.4735931 
-0.04579987603916646 1:3.9117231 
-0.07128200721758551 1:4.9545943 
-0.1 1:4.9109722 
-0.1 1:5.1240698 
-0.1 1:5.2967751 
0.09688853332300856 1:1.7182214 
0.01605040903243882 1:3.1515643 
-0.01144756875378236 1:4.6823773 
-0.04954337657010849 1:1.102152 
0.1 1:0.98776147 
-0.1 1:2.2066628 
-0.1 1:0.28903084 
0.1 1:5.1331359 
0.06541656104124549 1:6.0766647 
-0.02246812974041779 1:5.3359902 
-0.1 1:4.79685 
-0.08630079581191744 1:4.211864 
-0.1 1:3.4994656 
0.1 1:4.2289196 
0.1 1:2.1833838 
-0.1 1:2.4597538 
-0.1 1:0.055630634 
-0.08543632475258364 1:1.6458729 
0.1 1:5.3690224 
0.0449595797619646 1:2.1333297 
0.1 1:3.0543424 
0.01456135248586933 1:5.41326 
-0.1 1:2.7477751 
-0.1 1:5.0361158 
-0.01744267081067334 1:1.4031909 
-0.002638178209098563 1:4.4797874 
0.002934318038196725 1:0.28792094 
-0.03761524859174425 1:5.780912 
-0.1 1:1.3818296 
0.1 1:0.079622346 
-0.0608032127324826 1:0.14168031 
-0.1 1:1.2419512 
0.1 1:3.0191213 
0.1 1:4.1190759 
0.08817347962434788 1:4.7629933 
0.03843738316529663 1:3.3352342 
-0.1 1:0.99257012 
-0.08935932695486679 1:5.4897863 
0.1 1:4.4196367 
0.1 1:3.1601833 
0.1 1:1.9826193 
-0.1 1:6.065606 
0.1 1:3.2338012 
0.06219010370822647 1:2.8694185 
-0.1 1:4.0121099 
-0.04324986348766496 1:4.6225946 
0.1 1:1.6645631 
0.1 1:1.4331881 
-0.08188093978114633 1:4.1144174 
0.01390254766487252 1:5.0388117 
0.004960372738118598 1:2.0343889 
