svm_type nu_svr
kernel_type rbf
gamma 1
nr_class 2
total_sv 30
rho -0.961827
SV
-2.062386940177272 1:0.4072258 
10 1:3.1327996 
9.512249474987829 1:4.1472487 
-10 1:2.6093513 
0.7514048549139776 1:6.18229 
-10 1:1.4935029 
-10 1:3.8833121 
-3.199359238522385 1:2.4358525 
-10 1:2.4735931 
-10 1:4.9109722 
7.823858846661515 1:3.1515643 
10 1:0.98776147 
-10 1:3.4994656 
10 1:2.1833838 
-10 1:3.4489636 
-10 1:2.4597538 
-1.094623790459418 1:1.6458729 
10 1:5.3690224 
-9.980254592912543 1:3.4327108 
10 1:2.1333297 
10 1:3.0543424 
-10 1:2.7477751 
-4.712782737108251 1:5.780912 
-6.000348843721686 1:1.2419512 
10 1:3.0191213 
10 1:4.1190759 
1.91248682343664 1:4.4196367 
10 1:3.1601833 
10 1:1.9826193 
-2.95024385709841 1:4.6225946 
