svm_type nu_svr
kernel_type rbf
gamma 0.01
nr_class 2
total_sv 27
rho -1.46265
SV
-1000 1:2.4546853 
1000 1:3.1772913 
1000 1:3.1327996 
489.2475561337282 1:0.28378615 
1000 1:3.3383598 
-1000 1:2.6093513 
194.4893366708835 1:6.18229 
-1000 1:3.8833121 
316.2631071953874 1:5.9566648 
-1000 1:2.4358525 
-1000 1:2.4735931 
-1000 1:3.9117231 
-1000 1:4.9109722 
1000 1:3.1515643 
-1000 1:3.4994656 
-1000 1:2.4597538 
1000 1:3.0543424 
-1000 1:2.7477751 
-370.7914827230867 1:5.0361158 
-629.2085172769213 1:1.2419512 
1000 1:3.0191213 
1000 1:4.4196367 
1000 1:3.1601833 
1000 1:1.9826193 
1000 1:3.2338012 
-1000 1:4.0121099 
1000 1:3.1321985 
