svm_type nu_svr
kernel_type rbf
gamma 0.1
nr_class 2
total_sv 28
rho -1.26866
SV
-100 1:2.4546853 
100 1:3.1772913 
43.53924235833353 1:4.3434217 
100 1:3.1327996 
-100 1:2.6093513 
100 1:1.8859761 
-100 1:3.8833121 
-100 1:2.4358525 
-100 1:2.4735931 
-100 1:3.9117231 
-5.831613722288948 1:4.9109722 
56.46075764166632 1:1.7182214 
100 1:3.1515643 
-100 1:3.4994656 
-100 1:3.4489636 
-100 1:2.4597538 
-1.508916675108097 1:0.055630634 
-51.979003780027 1:2.8172866 
100 1:3.0543424 
-100 1:2.7477751 
-40.68046582257584 1:1.2419512 
100 1:3.0191213 
100 1:4.4196367 
100 1:3.1601833 
100 1:1.9826193 
100 1:3.2338012 
-100 1:4.0121099 
100 1:3.1321985 
