svm_type epsilon_svr
kernel_type rbf
gamma 0.1
nr_class 2
total_sv 49
rho -1.1278
SV
-10 1:2.4546853 
10 1:3.1772913 
-10 1:1.3090798 
10 1:4.3434217 
10 1:3.1327996 
-10 1:2.2190821 
8.180831868633577 1:4.5614463 
10 1:3.3383598 
-10 1:2.6093513 
10 1:1.8859761 
4.757653576222784 1:0.78320274 
-10 1:3.8833121 
8.352916178034661 1:5.9566648 
-10 1:2.4358525 
10 1:5.6259751 
-10 1:2.4735931 
-10 1:3.9117231 
-10 1:2.2645348 
-10 1:4.9545943 
-10 1:4.9109722 
10 1:1.7182214 
10 1:3.1515643 
-10 1:2.2066628 
-10 1:4.79685 
-10 1:3.4994656 
-10 1:3.4489636 
-10 1:2.4597538 
10 1:5.3690224 
-10 1:3.4327108 
10 1:2.0144432 
-10 1:2.8172866 
10 1:3.0543424 
-10 1:2.7477751 
-10 1:5.0361158 
-7.226089589221013 1:1.3818296 
-10 1:1.2419512 
10 1:3.0191213 
10 1:1.8690259 
10 1:4.1190759 
10 1:1.7884086 
5.93468796632999 1:3.3352342 
10 1:4.4196367 
10 1:3.1601833 
10 1:1.9826193 
-10 1:6.065606 
10 1:3.2338012 
-10 1:4.0121099 
10 1:1.6645631 
10 1:3.1321985 
