svm_type nu_svr
kernel_type rbf
gamma 0.1
nr_class 2
total_sv 9
rho -0.836083
SV
6.28580248604694 1:3.1327996 
-10 1:2.6093513 
1.183068992518869 1:0.78320274 
-10 1:3.8833121 
0.3729042406175436 1:5.9566648 
-10 1:2.4735931 
10 1:3.0543424 
10 1:3.1601833 
2.158224280816646 1:1.9826193 
