svm_type epsilon_svr
kernel_type rbf
gamma 1
nr_class 2
total_sv 12
rho -1.01909
SV
-23.73989420453473 1:2.6093513 
-7.373683667475946 1:1.4935029 
-5.369613846000289 1:4.9109722 
2.14072485575754 1:0.98776147 
-29.59991370641301 1:3.4994656 
5.56875889745739 1:2.1833838 
-0.08732890861899877 1:0.055630634 
3.176815140909028 1:5.3690224 
10.09935419660412 1:4.1190759 
36.32065854296456 1:3.1601833 
9.518243521228383 1:1.9826193 
-0.6541208218780263 1:6.065606 
