svm_type nu_svr
kernel_type rbf
gamma 1
nr_class 2
total_sv 66
rho -1.04455
SV
-0.1 1:2.4546853 
0.1 1:3.1772913 
0.1 1:0.68183331 
-0.1 1:1.3090798 
0.1 1:4.3434217 
0.1 1:3.1327996 
0.05884440047178876 1:2.0531295 
-0.1 1:2.2190821 
0.1 1:4.5614463 
0.1 1:3.3383598 
-0.1 1:2.6093513 
0.1 1:1.8859761 
-0.005568694049605221 1:1.4935029 
0.1 1:0.78320274 
-0.1 1:3.8833121 
0.03335260163675378 1:5.9566648 
-0.1 1:2.4358525 
-0.004201640074618914 1:3.4171664 
0.1 1:5.6259751 
-0.1 1:2.4735931 
-0.1 1:3.9117231 
-0.1 1:2.2645348 
-0.1 1:4.9545943 
-0.1 1:4.9109722 
-0.0680547962830589 1:5.1240698 
-0.1 1:5.2967751 
0.1 1:1.7182214 
0.1 1:3.1515643 
-0.1 1:2.2066628 
-0.03498600327220018 1:0.28903084 
-0.1 1:4.79685 
-0.07197015035213852 1:4.0971703 
-0.1 1:3.4994656 
0.1 1:4.2289196 
-0.1 1:3.4489636 
-0.1 1:2.4597538 
-0.02556416372887117 1:0.055630634 
0.1 1:5.3690224 
-0.1 1:3.4327108 
0.1 1:4.5454569 
0.1 1:2.0144432 
-0.1 1:2.8172866 
0.1 1:3.0543424 
0.1 1:5.41326 
-0.1 1:2.7477751 
-0.1 1:5.0361158 
-0.1 1:1.4031909 
-0.1 1:1.3818296 
0.1 1:2.0495031 
-0.1 1:1.2419512 
0.1 1:3.0191213 
0.1 1:1.8690259 
0.1 1:4.1190759 
0.1 1:1.7884086 
0.007802997891455932 1:3.3352342 
0.1 1:4.4196367 
0.1 1:3.1601833 
0.1 1:1.9826193 
-0.1 1:6.065606 
-0.08965455223950561 1:1.3431388 
0.1 1:3.2338012 
-0.1 1:4.0121099 
-0.1 1:1.3377643 
0.1 1:1.6645631 
0.1 1:2.0343889 
0.1 1:3.1321985 
