svm_type epsilon_svr
kernel_type rbf
gamma 1
nr_class 2
total_sv 106
rho -0.933324
SV
1000 1:2.4546853 
1000 1:4.9848066 
-1000 1:0.66135807 
1000 1:0.68183331 
-1000 1:1.3090798 
-1000 1:3.3685751 
941.7500456515552 1:4.3434217 
-1000 1:0.4072258 
-1000 1:5.1873545 
-1000 1:2.0531295 
-64.96234722727426 1:2.2190821 
1000 1:0.28378615 
1000 1:4.5614463 
1000 1:3.3383598 
1000 1:4.1472487 
-1000 1:2.6093513 
1000 1:6.18229 
1000 1:4.7677898 
135.2004789510297 1:1.8859761 
-1000 1:4.1753719 
-1000 1:1.4935029 
1000 1:0.78320274 
-377.8262133488265 1:3.8833121 
1000 1:0.18210352 
-1000 1:0.92804736 
1000 1:5.9566648 
1000 1:3.4171664 
1000 1:4.716947 
1000 1:5.6259751 
-1000 1:2.4735931 
1000 1:3.9117231 
1000 1:2.2645348 
-972.4034444402728 1:4.9545943 
1000 1:1.3384962 
1000 1:5.1201746 
-1000 1:4.9109722 
-329.5712620795828 1:5.1240698 
144.5951253776273 1:0.59106696 
-1000 1:5.2967751 
1000 1:1.7182214 
-962.9486298608198 1:3.1515643 
-1000 1:4.6823773 
-1000 1:1.102152 
1000 1:0.98776147 
-1000 1:2.2066628 
-1000 1:0.28903084 
1000 1:5.1331359 
-500.8972416071732 1:6.0766647 
-1000 1:5.3359902 
-1000 1:4.79685 
-1000 1:4.211864 
982.4759468081896 1:4.0971703 
-35.697248831315 1:3.4994656 
-1000 1:4.2289196 
1000 1:2.1833838 
-640.9247392623539 1:5.2908885 
-1000 1:3.4489636 
886.5554441952789 1:2.4597538 
-1000 1:0.055630634 
-1000 1:1.6458729 
1000 1:5.3690224 
-1000 1:3.4327108 
-83.33795892547769 1:2.0144432 
-318.4994386454331 1:2.8172866 
1000 1:0.99657565 
1000 1:2.1333297 
1000 1:3.0543424 
1000 1:1.4452738 
1000 1:5.41326 
-1000 1:4.5700694 
-1000 1:2.7477751 
-1000 1:5.0361158 
1000 1:4.9970912 
-1000 1:4.4797874 
1000 1:0.28792094 
-1000 1:5.780912 
-1000 1:1.3818296 
-1000 1:2.0495031 
1000 1:0.079622346 
-1000 1:0.14168031 
-1000 1:1.2419512 
1000 1:3.0191213 
-1000 1:1.8690259 
1000 1:4.1190759 
597.2161117704668 1:0.12932952 
1000 1:4.7629933 
-1000 1:1.7884086 
-221.0522201126818 1:3.3352342 
-1000 1:0.99257012 
-1000 1:5.4897863 
511.1222212765111 1:5.6673413 
1000 1:4.4196367 
1000 1:3.1601833 
1000 1:1.9826193 
-1000 1:6.065606 
1000 1:1.3431388 
1000 1:3.2338012 
-1000 1:4.0121099 
-1000 1:4.6225946 
560.6986995787548 1:1.3377643 
1000 1:1.6645631 
1000 1:1.4331881 
1000 1:5.0388117 
-251.493329268168 1:6.2744768 
-1000 1:0.24433872 
-1000 1:3.1321985 
