svm_type nu_svr
kernel_type rbf
gamma 0.01
nr_class 2
total_sv 8
rho -0.464387
SV
91.41213186075316 1:3.1327996 
-96.08958500655596 1:2.6093513 
-100 1:3.8833121 
-100 1:2.4735931 
-3.910414993444062 1:4.9109722 
100 1:3.0543424 
8.587868139246867 1:0.079622346 
100 1:3.1601833 
