svm_type epsilon_svr
kernel_type rbf
gamma 0.01
nr_class 2
total_sv 23
rho -0.948145
SV
-1 1:2.4546853 
1 1:3.1772913 
1 1:3.1327996 
1 1:3.3383598 
-1 1:2.6093513 
-1 1:3.8833121 
-1 1:2.4358525 
-1 1:2.4735931 
-1 1:3.9117231 
-1 1:4.9109722 
1 1:3.1515643 
-1 1:2.4597538 
1 1:3.0543424 
-1 1:2.7477751 
-1 1:5.0361158 
-1 1:1.2419512 
1 1:3.0191213 
5.551115123125783e-17 1:3.3352342 
1 1:4.4196367 
1 1:3.1601833 
1 1:1.9826193 
1 1:3.2338012 
1 1:3.1321985 
