svm_type nu_svr
kernel_type rbf
gamma 0.1
nr_class 2
total_sv 28
rho -0.242413
SV
-1000 1:2.4546853 
1000 1:3.1772913 
549.2033439105792 1:4.3434217 
1000 1:3.1327996 
-1000 1:2.6093513 
1000 1:1.8859761 
-1000 1:3.8833121 
-1000 1:2.4358525 
-1000 1:2.4735931 
-1000 1:3.9117231 
769.4785653576259 1:1.7182214 
1000 1:3.1515643 
-1000 1:3.4994656 
-1000 1:3.4489636 
-1000 1:2.4597538 
-63.01343814449504 1:3.4327108 
-305.0599391804656 1:2.8172866 
1000 1:3.0543424 
-1000 1:2.7477751 
-584.791605981014 1:1.2419512 
1000 1:3.0191213 
1000 1:4.4196367 
1000 1:3.1601833 
1000 1:1.9826193 
-47.13501669401789 1:6.065606 
681.3180907317911 1:3.2338012 
-1000 1:4.0121099 
1000 1:3.1321985 
