svm_type nu_svr
kernel_type rbf
gamma 100
nr_class 2
total_sv 47
rho -1.02259
SV
0.20637531932103 1:4.9848066 
-0.0722177935497514 1:3.3685751 
-0.06071350486868068 1:4.3434217 
-0.02654819237775255 1:2.2190821 
0.02651391742280607 1:4.5614463 
0.2836207597629362 1:3.3383598 
-24.51201034118163 1:4.1472487 
-0.2910315822628112 1:2.6093513 
0.07948777548123045 1:1.8859761 
-0.0009124249596660916 1:1.4935029 
-0.3054052200030503 1:3.8833121 
0.06940305170498812 1:5.9566648 
-0.05153564721760925 1:2.4358525 
0.0129701864877545 1:5.6259751 
-0.2933277482883065 1:2.4735931 
-0.01900463075996854 1:2.2645348 
-0.2462857202148236 1:4.9109722 
-0.1297378281406984 1:5.2967751 
0.09333168424287597 1:1.7182214 
-0.005565242902228706 1:1.102152 
-0.01468252237287931 1:0.28903084 
0.5785469982367368 1:6.0766647 
30.71820634009175 1:4.0971703 
-0.07347966883024641 1:3.4994656 
1.444846945272703 1:4.2289196 
-0.001151111728195264 1:0.055630634 
0.1273121196625491 1:5.3690224 
0.009941142621925692 1:2.1333297 
0.07258757907958577 1:3.0543424 
-0.1200300227868812 1:2.7477751 
-0.201384092377817 1:5.0361158 
-0.001972615254349941 1:5.780912 
-0.03405032589699697 1:1.3818296 
-0.003359119454965587 1:0.14168031 
-0.1630819196061198 1:1.2419512 
0.2468684643631039 1:3.0191213 
265.0569281813339 1:4.1190759 
-0.02226470246933271 1:0.99257012 
-0.05093607183986851 1:5.4897863 
0.2218778692060661 1:4.4196367 
0.309725201836745 1:3.1601833 
0.1441939220217808 1:1.9826193 
-0.6525210341078853 1:6.065606 
0.09130773815225113 1:3.2338012 
0.02339247840414782 1:2.8694185 
0.1825623252931005 1:4.0121099 
-272.6467909165509 1:4.1144174 
