svm_type nu_svr
kernel_type rbf
gamma 0.1
nr_class 2
total_sv 66
rho -0.164516
SV
-1000 1:2.4546853 
1000 1:3.1772913 
236.4977744082889 1:0.68183331 
-1000 1:1.3090798 
1000 1:4.3434217 
1000 1:3.1327996 
-296.8046438068662 1:5.1873545 
-1000 1:2.2190821 
1000 1:4.5614463 
1000 1:3.3383598 
-1000 1:2.6093513 
1000 1:1.8859761 
1000 1:0.78320274 
-1000 1:3.8833121 
129.8277454501883 1:5.9566648 
-1000 1:2.4358525 
-1000 1:3.4171664 
1000 1:5.6259751 
-1000 1:2.4735931 
-1000 1:3.9117231 
-1000 1:2.2645348 
-1000 1:4.9545943 
-1000 1:4.9109722 
-1000 1:5.1240698 
-1000 1:5.2967751 
1000 1:1.7182214 
1000 1:3.1515643 
-1000 1:2.2066628 
-163.6152413551294 1:0.28903084 
-1000 1:4.79685 
-1000 1:4.0971703 
-1000 1:3.4994656 
1000 1:4.2289196 
-1000 1:3.4489636 
-1000 1:2.4597538 
1000 1:5.3690224 
-1000 1:3.4327108 
1000 1:4.5454569 
1000 1:2.0144432 
-1000 1:2.8172866 
1000 1:3.0543424 
1000 1:5.41326 
-1000 1:2.7477751 
-1000 1:5.0361158 
-507.815094288543 1:1.4031909 
633.6744801415279 1:4.4797874 
-1000 1:1.3818296 
1000 1:2.0495031 
-1000 1:1.2419512 
1000 1:3.0191213 
1000 1:1.8690259 
1000 1:4.1190759 
1000 1:1.7884086 
1000 1:5.6673413 
1000 1:4.4196367 
1000 1:3.1601833 
1000 1:1.9826193 
-1000 1:6.065606 
1000 1:3.2338012 
-2.092377419051941 1:2.8694185 
-1000 1:4.0121099 
-1000 1:1.3377643 
1000 1:1.6645631 
-29.67264313044002 1:4.1144174 
1000 1:2.0343889 
1000 1:3.1321985 
