svm_type nu_svr
kernel_type rbf
gamma 0.01
nr_class 2
total_sv 8
rho -0.470398
SV
865.1752961355975 1:3.1327996 
-1000 1:2.6093513 
-1000 1:3.8833121 
-1000 1:2.4735931 
-6.821210263296962e-13 1:4.9109722 
1000 1:3.0543424 
134.8247038644031 1:0.079622346 
1000 1:3.1601833 
