svm_type nu_svr
kernel_type linear
nr_class 2
total_sv 26
rho -0.535392
SV
1000 1:4.9848066 
-1000 1:3.1327996 
1000 1:0.82916265 
-1000 1:1.8859761 
1000 1:0.56133996 
-4.217781679471955e-11 1:5.9566648 
1000 1:2.2645348 
-1000 1:5.1201746 
-1000 1:0.59106696 
-1000 1:5.2967751 
-1000 1:1.7182214 
1000 1:4.6049721 
-1000 1:0.98776147 
-1000 1:2.0144432 
-1000 1:0.99657565 
-1000 1:2.7477751 
1000 1:0.28792094 
88.3403114434756 1:5.780912 
-1000 1:1.3818296 
1000 1:3.0191213 
-1000 1:1.7884086 
1000 1:3.1601833 
1000 1:1.3431388 
1000 1:1.6645631 
911.6596885561 1:0.34783688 
1000 1:4.1144174 
