svm_type nu_svr
kernel_type linear
nr_class 2
total_sv 25
rho -0.530292
SV
10 1:4.9848066 
-10 1:3.1327996 
10 1:0.82916265 
-10 1:1.8859761 
10 1:0.56133996 
10 1:2.2645348 
-10 1:5.1201746 
-10 1:0.59106696 
-10 1:5.2967751 
-10 1:1.7182214 
10 1:4.6049721 
-10 1:0.98776147 
-10 1:2.0144432 
-10 1:0.99657565 
-9.999999999999989 1:2.7477751 
10 1:0.28792094 
1.115015201775747 1:5.780912 
-10 1:1.3818296 
10 1:3.0191213 
-10 1:1.7884086 
10 1:3.1601833 
8.884984798224192 1:1.3431388 
10 1:1.6645631 
10 1:0.34783688 
10 1:4.1144174 
