svm_type nu_svr
kernel_type linear
nr_class 2
total_sv 62
rho -0.530655
SV
100 1:4.9848066 
-100 1:3.1772913 
-0.0002177188514784036 1:5.975306 
13.40538466494999 1:3.3685751 
100 1:0.4072258 
-100 1:3.1327996 
-100 1:2.0531295 
-100 1:2.2190821 
100 1:0.28378615 
-100 1:2.6093513 
100 1:0.82916265 
100 1:6.18229 
-100 1:1.8859761 
100 1:0.56133996 
100 1:0.18210352 
-100 1:5.9566648 
-100 1:3.4171664 
100 1:2.2645348 
100 1:1.3384962 
-100 1:5.1201746 
-100 1:4.9109722 
-100 1:0.59106696 
-100 1:5.2967751 
-100 1:1.7182214 
100 1:4.6049721 
-100 1:0.98776147 
-100 1:2.2066628 
100 1:6.0766647 
-100 1:5.3359902 
-100 1:4.79685 
100 1:4.211864 
-100 1:3.4994656 
-100 1:3.4327108 
-100 1:2.0144432 
-100 1:2.8172866 
-100 1:0.99657565 
-100 1:2.1333297 
-100 1:2.7477751 
-100 1:4.9970912 
-99.99978228114719 1:4.4797874 
100 1:0.28792094 
100 1:5.780912 
-100 1:1.3818296 
-100 1:0.14168031 
100 1:3.0191213 
-100 1:1.7884086 
-100 1:3.3352342 
100 1:5.4897863 
100 1:5.6673413 
100 1:4.4196367 
100 1:3.1601833 
100 1:1.9826193 
100 1:1.3431388 
100 1:4.0121099 
100 1:4.6225946 
100 1:1.6645631 
100 1:0.34783688 
86.59461533505149 1:1.4331881 
100 1:4.1144174 
100 1:6.2744768 
100 1:0.24433872 
100 1:3.1321985 
