svm_type nu_svr
kernel_type linear
nr_class 2
total_sv 62
rho -0.53005
SV
10 1:4.9848066 
-10 1:3.1772913 
-4.400058450837414 1:5.975306 
4.811294537086179 1:3.3685751 
10 1:0.4072258 
-10 1:3.1327996 
-10 1:2.0531295 
-10 1:2.2190821 
10 1:0.28378615 
-10 1:2.6093513 
10 1:0.82916265 
10 1:6.18229 
-10 1:1.8859761 
10 1:0.56133996 
10 1:0.18210352 
-10 1:5.9566648 
-10 1:3.4171664 
10 1:2.2645348 
10 1:1.3384962 
-10 1:5.1201746 
-10 1:4.9109722 
-10 1:0.59106696 
-10 1:5.2967751 
-10 1:1.7182214 
10 1:4.6049721 
-10 1:0.98776147 
-10 1:2.2066628 
10 1:6.0766647 
-10 1:5.3359902 
-10 1:4.79685 
10 1:4.211864 
-10 1:3.4994656 
-10 1:3.4327108 
-10 1:2.0144432 
-10 1:2.8172866 
-10 1:0.99657565 
-10 1:2.1333297 
-10 1:2.7477751 
-10 1:4.9970912 
-5.599941549162544 1:4.4797874 
10 1:0.28792094 
10 1:5.780912 
-10 1:1.3818296 
-10 1:0.14168031 
10 1:3.0191213 
-10 1:1.7884086 
-10 1:3.3352342 
10 1:5.4897863 
10 1:5.6673413 
10 1:4.4196367 
10 1:3.1601833 
10 1:1.9826193 
10 1:1.3431388 
10 1:4.0121099 
10 1:4.6225946 
10 1:1.6645631 
10 1:0.34783688 
5.188705462913785 1:1.4331881 
10 1:4.1144174 
10 1:6.2744768 
10 1:0.24433872 
10 1:3.1321985 
