svm_type nu_svr
kernel_type linear
nr_class 2
total_sv 61
rho -0.530132
SV
1 1:4.9848066 
-1 1:3.1772913 
0.2119548056789983 1:3.3685751 
1 1:0.4072258 
-1 1:3.1327996 
-1 1:2.0531295 
-1 1:2.2190821 
1 1:0.28378615 
-1 1:2.6093513 
1 1:0.82916265 
1 1:6.18229 
-1 1:1.8859761 
1 1:0.56133996 
1 1:0.18210352 
-1 1:5.9566648 
-1 1:3.4171664 
1 1:2.2645348 
1 1:1.3384962 
-1 1:5.1201746 
-1 1:4.9109722 
-1 1:0.59106696 
-1 1:5.2967751 
-1 1:1.7182214 
1 1:4.6049721 
-1 1:0.98776147 
-1 1:2.2066628 
1 1:6.0766647 
-1 1:5.3359902 
-1 1:4.79685 
1 1:4.211864 
-1 1:3.4994656 
-1 1:3.4327108 
-1 1:2.0144432 
-1 1:2.8172866 
-1 1:0.99657565 
-1 1:2.1333297 
-1 1:2.7477751 
-1 1:4.9970912 
-0.9999999999999993 1:4.4797874 
1 1:0.28792094 
1 1:5.780912 
-1 1:1.3818296 
-1 1:0.14168031 
1 1:3.0191213 
-1 1:1.7884086 
-1 1:3.3352342 
1 1:5.4897863 
1 1:5.6673413 
1 1:4.4196367 
1 1:3.1601833 
1 1:1.9826193 
1 1:1.3431388 
1 1:4.0121099 
1 1:4.6225946 
1 1:1.6645631 
1 1:0.34783688 
0.7880890101310714 1:1.4331881 
1 1:4.1144174 
0.9999561841899276 1:6.2744768 
1 1:0.24433872 
1 1:3.1321985 
