svm_type nu_svr
kernel_type linear
nr_class 2
total_sv 63
rho -0.531201
SV
1000 1:4.9848066 
-1000 1:3.1772913 
859.0228296430572 1:3.3685751 
-5.479705578181893e-11 1:4.3434217 
1000 1:0.4072258 
-1000 1:3.1327996 
-1000 1:2.0531295 
-1000 1:2.2190821 
1000 1:0.28378615 
-1000 1:2.6093513 
1000 1:0.82916265 
1000 1:6.18229 
-1000 1:1.8859761 
1000 1:0.56133996 
1000 1:0.18210352 
-1000 1:5.9566648 
-1000 1:3.4171664 
1000 1:2.2645348 
-1000 1:4.9545943 
0.4974812488357978 1:1.3384962 
-1000 1:5.1201746 
-1000 1:4.9109722 
-1000 1:0.59106696 
-1000 1:5.2967751 
-1000 1:1.7182214 
1000 1:4.6049721 
-1000 1:0.98776147 
-1000 1:2.2066628 
1000 1:6.0766647 
-1000 1:5.3359902 
-1000 1:4.79685 
1000 1:4.211864 
-1000 1:3.4994656 
-1000 1:3.4327108 
-1000 1:2.0144432 
-1000 1:2.8172866 
-1000 1:0.99657565 
-1000 1:2.1333297 
1000 1:4.5700694 
-1000 1:2.7477751 
-1000 1:4.9970912 
1000 1:0.28792094 
1000 1:5.780912 
-1000 1:1.3818296 
-1000 1:0.14168031 
1000 1:3.0191213 
-1000 1:1.7884086 
-1000 1:3.3352342 
1000 1:5.4897863 
1000 1:5.6673413 
1000 1:4.4196367 
1000 1:3.1601833 
1000 1:1.9826193 
1000 1:1.3431388 
1000 1:4.0121099 
1000 1:4.6225946 
1000 1:1.6645631 
1000 1:0.34783688 
1000 1:1.4331881 
1000 1:4.1144174 
140.4796891080282 1:6.2744768 
1000 1:0.24433872 
1000 1:3.1321985 
