svm_type nu_svr
kernel_type linear
nr_class 2
total_sv 61
rho -0.530128
SV
0.1 1:4.9848066 
-0.1 1:3.1772913 
0.09201453432156212 1:3.3685751 
0.1 1:0.4072258 
-0.1 1:3.1327996 
-0.1 1:2.0531295 
-0.1 1:2.2190821 
0.1 1:0.28378615 
-0.1 1:2.6093513 
0.1 1:0.82916265 
0.1 1:6.18229 
-0.1 1:1.8859761 
0.1 1:0.56133996 
0.1 1:0.18210352 
-0.1 1:5.9566648 
-0.1 1:3.4171664 
0.1 1:2.2645348 
0.1 1:1.3384962 
-0.1 1:5.1201746 
-0.1 1:4.9109722 
-0.1 1:0.59106696 
-0.1 1:5.2967751 
-0.1 1:1.7182214 
0.1 1:4.6049721 
-0.1 1:0.98776147 
-0.1 1:2.2066628 
0.1 1:6.0766647 
-0.1 1:5.3359902 
-0.1 1:4.79685 
0.1 1:4.211864 
-0.1 1:3.4994656 
-0.1 1:3.4327108 
-0.1 1:2.0144432 
-0.1 1:2.8172866 
-0.1 1:0.99657565 
-0.1 1:2.1333297 
-0.1 1:2.7477751 
-0.1 1:4.9970912 
-0.09999999999999856 1:4.4797874 
0.1 1:0.28792094 
0.1 1:5.780912 
-0.1 1:1.3818296 
-0.1 1:0.14168031 
0.1 1:3.0191213 
-0.1 1:1.7884086 
-0.1 1:3.3352342 
0.1 1:5.4897863 
0.1 1:5.6673413 
0.1 1:4.4196367 
0.1 1:3.1601833 
0.1 1:1.9826193 
0.1 1:1.3431388 
0.1 1:4.0121099 
0.1 1:4.6225946 
0.1 1:1.6645631 
0.1 1:0.34783688 
0.008029089636833686 1:1.4331881 
0.1 1:4.1144174 
0.09995637604160258 1:6.2744768 
0.1 1:0.24433872 
0.1 1:3.1321985 
