svm_type nu_svr
kernel_type linear
nr_class 2
total_sv 8
rho -0.523918
SV
-10 1:3.1327996 
-10 1:1.8859761 
10 1:2.2645348 
-0.640928473176661 1:5.2967751 
2.486899575160351e-14 1:4.6049721 
10 1:0.28792094 
-9.35907152682335 1:1.3818296 
10 1:4.1144174 
