svm_type nu_svr
kernel_type linear
nr_class 2
total_sv 26
rho -0.535286
SV
0.1 1:4.9848066 
-0.1 1:3.1327996 
0.1 1:0.82916265 
-0.1 1:1.8859761 
0.1 1:0.56133996 
0.1 1:2.2645348 
-0.1 1:5.1201746 
-0.1 1:0.59106696 
-0.1 1:5.2967751 
-0.1 1:1.7182214 
0.1 1:4.6049721 
-0.1 1:0.98776147 
-1.387778780781446e-16 1:3.4994656 
-0.1 1:2.0144432 
-0.1 1:0.99657565 
-0.1 1:2.7477751 
0.1 1:0.28792094 
0.04463334003583985 1:5.780912 
-0.1 1:1.3818296 
0.1 1:3.0191213 
-0.1 1:1.7884086 
0.1 1:3.1601833 
0.05536665996416033 1:1.3431388 
0.1 1:1.6645631 
0.1 1:0.34783688 
0.1 1:4.1144174 
