svm_type epsilon_svr
kernel_type linear
nr_class 2
total_sv 10
rho -0.582094
SV
0.01 1:4.9848066 
0.004353622664668641 1:6.18229 
-0.01 1:1.8859761 
0.01 1:2.2645348 
-0.01 1:0.59106696 
0.01 1:4.6049721 
-0.01 1:0.98776147 
-0.004353622664668641 1:0.99657565 
-0.01 1:1.3818296 
0.01 1:4.1144174 
