svm_type nu_svr
kernel_type linear
nr_class 2
total_sv 61
rho -0.537603
SV
0.01 1:4.9848066 
-0.01 1:3.1772913 
0.01 1:3.3685751 
0.01 1:0.4072258 
-0.01 1:3.1327996 
-0.01 1:2.0531295 
-0.01 1:2.2190821 
-0.01 1:2.6093513 
0.01 1:0.82916265 
0.01 1:6.18229 
-0.01 1:1.8859761 
0.01 1:0.56133996 
0.01 1:0.18210352 
-0.01 1:5.9566648 
-0.01 1:3.4171664 
0.01 1:2.2645348 
-0.01 1:5.1201746 
-0.01 1:0.59106696 
-0.01 1:5.2967751 
-0.01 1:1.7182214 
0.01 1:4.6049721 
-0.002687928295841574 1:1.102152 
-0.01 1:0.98776147 
-0.01 1:2.2066628 
0.01 1:6.0766647 
-0.01 1:5.3359902 
-0.01 1:4.79685 
0.01 1:4.211864 
-0.01 1:3.4994656 
-0.01 1:3.4327108 
0.009999999999999856 1:4.5454569 
-0.01 1:2.0144432 
-0.01 1:2.8172866 
-0.01 1:0.99657565 
-0.01 1:2.1333297 
0.01 1:4.5700694 
-0.01 1:2.7477751 
-0.007312071704158284 1:4.9970912 
-0.01 1:4.4797874 
0.01 1:0.28792094 
0.01 1:5.780912 
-0.01 1:1.3818296 
-0.01 1:0.14168031 
0.01 1:3.0191213 
-0.01 1:0.12932952 
-0.01 1:1.7884086 
-0.01 1:3.3352342 
0.01 1:5.4897863 
0.01 1:5.6673413 
0.01 1:4.4196367 
0.01 1:3.1601833 
0.01 1:1.9826193 
0.01 1:1.3431388 
0.01 1:4.0121099 
0.01 1:4.6225946 
0.01 1:1.6645631 
0.01 1:0.34783688 
0.01 1:4.1144174 
0.01 1:6.2744768 
0.01 1:0.24433872 
0.01 1:3.1321985 
