svm_type nu_svr
kernel_type linear
nr_class 2
total_sv 7
rho -0.52843
SV
-1000 1:3.1327996 
-1000 1:1.8859761 
1000 1:2.2645348 
-67.97402626765644 1:5.2967751 
1000 1:0.28792094 
-932.0259737323678 1:1.3818296 
999.9999999999872 1:4.1144174 
