svm_type nu_svr
kernel_type linear
nr_class 2
total_sv 25
rho -0.530148
SV
100 1:4.9848066 
-100 1:3.1327996 
100 1:0.82916265 
-100 1:1.8859761 
100 1:0.56133996 
100 1:2.2645348 
-100 1:5.1201746 
-100 1:0.59106696 
-100 1:5.2967751 
-100 1:1.7182214 
100 1:4.6049721 
-100 1:0.98776147 
-100 1:2.0144432 
-100 1:0.99657565 
-100 1:2.7477751 
100 1:0.28792094 
10.84575939937176 1:5.780912 
-100 1:1.3818296 
100 1:3.0191213 
-99.99999999999994 1:1.7884086 
100 1:3.1601833 
89.1542406006181 1:1.3431388 
100 1:1.6645631 
100 1:0.34783688 
100 1:4.1144174 
