svm_type nu_svr
kernel_type linear
nr_class 2
total_sv 8
rho -0.547483
SV
-0.05248172930692732 1:3.1327996 
-0.1 1:1.8859761 
0.1 1:2.2645348 
-0.04751827069307279 1:0.59106696 
5.551115123125783e-17 1:4.6049721 
0.1 1:0.28792094 
-0.1 1:1.3818296 
0.1 1:4.1144174 
