svm_type nu_svr
kernel_type linear
nr_class 2
total_sv 7
rho -0.623783
SV
0.01 1:4.9848066 
0.01 1:6.18229 
-0.008728034317906978 1:1.8859761 
-0.01 1:0.59106696 
0.009999999999999997 1:4.6049721 
-0.001271965682093018 1:0.98776147 
-0.01 1:1.3818296 
