svm_type nu_svr
kernel_type linear
nr_class 2
total_sv 7
rho -0.527641
SV
-1 1:3.1327996 
-1 1:1.8859761 
1 1:2.2645348 
-0.02880940218943685 1:5.2967751 
1 1:0.28792094 
-0.9711905978105633 1:1.3818296 
0.999999999999999 1:4.1144174 
