svm_type nu_svr
kernel_type linear
nr_class 2
total_sv 7
rho -0.527719
SV
-100 1:3.1327996 
-100 1:1.8859761 
100 1:2.2645348 
-6.76211918163978 1:5.2967751 
100 1:0.28792094 
-93.2378808183597 1:1.3818296 
99.99999999999983 1:4.1144174 
