svm_type nu_svr
kernel_type linear
nr_class 2
total_sv 25
rho -0.530287
SV
1 1:4.9848066 
-1 1:3.1327996 
1 1:0.82916265 
-1 1:1.8859761 
1 1:0.56133996 
1 1:2.2645348 
-1 1:5.1201746 
-1 1:0.59106696 
-1 1:5.2967751 
-1 1:1.7182214 
1 1:4.6049721 
-1 1:0.98776147 
-1 1:2.0144432 
-1 1:0.99657565 
-0.9999999999999991 1:2.7477751 
1 1:0.28792094 
0.1419407820060973 1:5.780912 
-1 1:1.3818296 
1 1:3.0191213 
-1 1:1.7884086 
1 1:3.1601833 
0.8580592179939051 1:1.3431388 
1 1:1.6645631 
1 1:0.34783688 
1 1:4.1144174 
