svm_type nu_svc
kernel_type linear
nr_class 2
total_sv 4
rho 116.106
label 1 -1
nr_sv 2 2
SV
799955.3323172769 1:0.840499 2:0.281478 
260525.4275961287 1:-0.0264878 2:0.27404 
-514820.4436164205 1:0.636672 2:0.126339 
-545660.316296985 1:0.61887 2:0.423515 
