svm_type nu_svc
kernel_type rbf
gamma 1
nr_class 2
total_sv 54
rho -12.4889
label 1 -1
nr_sv 27 27
SV
-570.1337012871588 1:0.840499 2:0.281478 
-13859.5842138249 1:0.360093 2:0.646983 
-13859.5842138249 1:0.418695 2:0.10468 
-9357.196645619415 1:-0.0157762 2:0.738099 
-13691.17049645906 1:0.540073 2:0.632543 
-13761.65107268518 1:0.13663 2:0.262902 
-6553.274612030066 1:0.495125 2:0.325213 
-852.6884163063471 1:0.779512 2:0.30135 
-7110.569019205363 1:0.379863 2:0.529109 
-2024.021278874822 1:0.246365 2:0.855081 
-529.1258821311818 1:0.440172 2:1.00841 
-13859.5842138249 1:0.487871 2:0.111103 
-1307.89852710871 1:0.543957 2:0.349208 
-179.6425792685944 1:0.278634 2:0.808098 
-13517.99007044867 1:0.0110814 2:0.859311 
-554.5148488016831 1:0.533272 2:0.552468 
-13859.5842138249 1:0.250564 2:0.753809 
-13357.39152217232 1:0.62957 2:0.0690551 
-353.9906018238166 1:0.850866 2:0.235648 
-87.96302899211761 1:0.506484 2:1.02326 
-216.5104295682696 1:0.979422 2:0.225369 
-2806.504175900042 1:0.300382 2:0.946313 
-247.3882549044942 1:0.765891 2:0.256365 
-553.0274093249702 1:0.881001 2:0.387735 
-1651.473829409944 1:0.894811 2:0.336494 
-13613.65448399732 1:0.607621 2:-0.077997 
-7978.892824279665 1:-0.0264878 2:0.27404 
3611.686528196788 1:0.0206407 2:0.0295645 
13859.5842138249 1:0.498192 2:0.0323012 
13725.26819713773 1:0.385996 2:0.887502 
12436.22894186745 1:0.636672 2:0.126339 
7633.834651727951 1:0.421366 2:-0.0562014 
11332.42876226272 1:0.0522963 2:0.774322 
11520.04818421668 1:0.376192 2:0.201014 
13859.5842138249 1:0.0838738 2:0.489403 
13792.34961016015 1:0.285938 2:0.623338 
8522.201477042629 1:0.0798416 2:0.738393 
13289.8857585684 1:0.604777 2:0.331108 
13377.46974316186 1:0.61887 2:0.423515 
619.2385271127988 1:0.627738 2:-0.127439 
413.5843394562376 1:0.408612 2:0.3708 
5127.628406931002 1:-0.0387023 2:0.942066 
348.035570970867 1:0.0786966 2:0.378012 
3695.295765765936 1:-0.0214035 2:0.379025 
195.143884225701 1:0.276979 2:0.259471 
189.4863317922723 1:-0.0355963 2:0.681824 
687.1092035890753 1:0.306633 2:0.236396 
1588.486560864723 1:0.387878 2:0.112702 
144.9338107999274 1:0.225396 2:0.513348 
149.5129769016237 1:0.292266 2:0.277087 
197.2653923321057 1:0.300529 2:0.29863 
6827.861469661403 1:0.689716 2:-0.12555 
2848.139766036547 1:0.117103 2:0.233079 
6322.718277466432 1:0.37597 2:0.744311 
