svm_type nu_svc
kernel_type rbf
gamma 100
nr_class 2
total_sv 77
rho -0.0857932
label 1 -1
nr_sv 43 34
SV
0.2929049535977515 1:0.840499 2:0.281478 
2.443603863381208 1:0.360093 2:0.646983 
13.38599588866593 1:0.418695 2:0.10468 
0.8991549769853553 1:1.0466 2:0.827462 
5.365488265187468 1:-0.0157762 2:0.738099 
0.1541326368075253 1:0.72364 2:0.622105 
0.7209859463515939 1:0.638593 2:1.01177 
0.1956202930438498 1:0.828389 2:0.562402 
2.638949818548578 1:0.673529 2:0.0949919 
0.4914213353521391 1:0.540073 2:0.632543 
0.2660549927253681 1:1.02553 2:0.0551194 
4.492507949204102 1:0.68337 2:0.440545 
8.868232991733221 1:0.13663 2:0.262902 
0.5139630690718601 1:0.812446 2:0.053315 
0.3714339323844103 1:0.630965 2:0.794841 
0.5589498699706417 1:0.771956 2:0.829553 
0.3144078184893253 1:0.889988 2:0.885488 
8.857754434719565 1:0.379863 2:0.529109 
8.647138880079517 1:0.246365 2:0.855081 
0.3165459647329259 1:0.521771 2:0.879311 
1.088751058779625 1:0.440172 2:1.00841 
0.7250273228581803 1:1.09276 2:0.0378117 
3.11800069343796 1:0.543957 2:0.349208 
2.375044947084221 1:0.0110814 2:0.859311 
0.5477486314811438 1:0.864102 2:0.753841 
0.7125760971911718 1:0.693385 2:0.670709 
1.142469922343185 1:0.511632 2:0.808351 
1.99094154481784 1:0.250564 2:0.753809 
2.612489679108966 1:0.62957 2:0.0690551 
0.3107026011273055 1:1.01851 2:0.151464 
2.601201024831813 1:0.497388 2:0.446537 
2.922742445011039 1:0.578727 2:0.476415 
0.7022846509021571 1:0.87112 2:0.531096 
0.5999984944727889 1:0.979422 2:0.225369 
1.053503272725472 1:0.300382 2:0.946313 
0.39011989376004 1:0.877117 2:0.157584 
0.7683605731823636 1:1.01771 2:0.507909 
0.7587638130238598 1:0.765891 2:0.256365 
0.27839359270364 1:0.718745 2:0.919881 
0.5494666210734568 1:0.881001 2:0.387735 
0.5925910180469279 1:0.848907 2:0.958624 
3.795906307734482 1:0.607621 2:-0.077997 
1.736901578240883 1:-0.0264878 2:0.27404 
-0.1490045007162384 1:0.0206407 2:0.0295645 
-3.767192617572107 1:0.498192 2:0.0323012 
-2.340470579682839 1:0.385996 2:0.887502 
-4.857617526152926 1:0.636672 2:0.126339 
-0.6316750500030988 1:0.421366 2:-0.0562014 
-3.741175376457809 1:0.0522963 2:0.774322 
-2.713254985774069 1:0.285938 2:0.623338 
-1.291460284106098 1:0.604777 2:0.331108 
-6.864646523727324 1:0.61887 2:0.423515 
-3.780655888971685 1:0.627738 2:-0.127439 
-0.8958855859358658 1:0.232653 2:0.419853 
-0.8306838040848775 1:0.408612 2:0.3708 
-1.989027981886402 1:-0.0387023 2:0.942066 
-0.1445348757489646 1:0.142306 2:0.697557 
-1.283538338620813 1:0.0786966 2:0.378012 
-7.957612927274064 1:0.417023 2:0.505005 
-1.239170937586797 1:-0.0214035 2:0.379025 
-1.326418587292473 1:0.276979 2:0.259471 
-0.2404678686066114 1:0.0289955 2:0.69457 
-3.945921320767869 1:-0.0355963 2:0.681824 
-12.43875279201466 1:0.387878 2:0.112702 
-0.4349969750712625 1:0.225396 2:0.513348 
-1.000126350300373 1:-0.133257 2:-0.0944183 
-0.7938492250476332 1:-0.00114044 2:-0.00856001 
-0.06486780577800108 1:0.689716 2:-0.12555 
-0.6567320758934349 1:0.127793 2:0.0509834 
-0.3631577337370376 1:0.15762 2:0.649708 
-8.649820495088496 1:0.117103 2:0.233079 
-1.575607005242319 1:0.528421 2:0.233206 
-2.173780675882381 1:0.371765 2:0.479916 
-0.6391982167604989 1:0.0622781 2:0.523608 
-1.350270450771442 1:0.37597 2:0.744311 
-9.240857943740256 1:0.215411 2:0.863786 
-1.796800358674125 1:0.312654 2:0.703243 
