svm_type nu_svc
kernel_type rbf
gamma 100
nr_class 2
total_sv 37
rho 0.0555077
label 1 -1
nr_sv 19 18
SV
1.28989174512484 1:0.840499 2:0.281478 
1.50870353689113 1:0.360093 2:0.646983 
5.48194524737479 1:0.418695 2:0.10468 
1.187215090749812 1:-0.0157762 2:0.738099 
1.629311929231199 1:0.673529 2:0.0949919 
5.033401185780977 1:0.68337 2:0.440545 
11.00640084157969 1:0.379863 2:0.529109 
4.453399721784658 1:0.246365 2:0.855081 
1.515250073900822 1:0.440172 2:1.00841 
3.323802551523412 1:0.487871 2:0.111103 
4.813459085878532 1:0.543957 2:0.349208 
1.318002568999323 1:0.533272 2:0.552468 
1.297713189181283 1:0.511632 2:0.808351 
1.581988779224027 1:0.250564 2:0.753809 
3.222466950942136 1:0.62957 2:0.0690551 
2.21604062517379 1:0.497388 2:0.446537 
3.222441722256919 1:0.578727 2:0.476415 
0.9845478358604793 1:0.300382 2:0.946313 
1.202742077583716 1:0.607621 2:-0.077997 
-0.6883330819126502 1:0.0206407 2:0.0295645 
-4.168648030474651 1:0.498192 2:0.0323012 
-1.654500957625461 1:0.385996 2:0.887502 
-4.316687660386365 1:0.636672 2:0.126339 
-3.690905182937384 1:0.285938 2:0.623338 
-1.362807984151228 1:0.604777 2:0.331108 
-8.183635117705865 1:0.61887 2:0.423515 
-1.00045477167552 1:0.627738 2:-0.127439 
-1.202553048433752 1:0.408612 2:0.3708 
-1.397818032841865 1:0.142306 2:0.697557 
-9.510468414546615 1:0.417023 2:0.505005 
-1.462512233983132 1:-0.0355963 2:0.681824 
-5.723258821790771 1:0.387878 2:0.112702 
-1.083816035725462 1:0.689716 2:-0.12555 
-2.616001494177129 1:0.528421 2:0.233206 
-2.237168900038589 1:0.371765 2:0.479916 
-1.380723219625719 1:0.37597 2:0.744311 
-4.608431771009374 1:0.215411 2:0.863786 
