svm_type c_svc
kernel_type rbf
gamma 0.1
nr_class 2
total_sv 50
rho -7.02068
label 1 -1
nr_sv 25 25
SV
100 1:0.360093 2:0.646983 
100 1:0.418695 2:0.10468 
100 1:-0.0157762 2:0.738099 
100 1:0.673529 2:0.0949919 
100 1:0.479623 2:0.637502 
100 1:0.13663 2:0.262902 
100 1:0.495125 2:0.325213 
100 1:0.379863 2:0.529109 
100 1:0.246365 2:0.855081 
100 1:0.487871 2:0.111103 
100 1:0.543957 2:0.349208 
100 1:0.278634 2:0.808098 
100 1:0.0110814 2:0.859311 
100 1:0.533272 2:0.552468 
100 1:0.250564 2:0.753809 
100 1:0.62957 2:0.0690551 
100 1:0.654752 2:0.0335914 
100 1:0.497388 2:0.446537 
18.36335063148952 1:0.578727 2:0.476415 
100 1:0.300382 2:0.946313 
100 1:0.70321 2:0.0420763 
100 1:0.41679 2:0.620476 
100 1:0.607621 2:-0.077997 
100 1:-0.0264878 2:0.27404 
100 1:0.301218 2:0.929714 
-100 1:0.498192 2:0.0323012 
-100 1:0.385996 2:0.887502 
-100 1:0.636672 2:0.126339 
-100 1:0.376192 2:0.201014 
-100 1:0.285938 2:0.623338 
-100 1:0.604777 2:0.331108 
-100 1:0.61887 2:0.423515 
-100 1:0.627738 2:-0.127439 
-100 1:0.408612 2:0.3708 
-100 1:-0.0387023 2:0.942066 
-100 1:0.142306 2:0.697557 
-100 1:0.201533 2:0.56849 
-100 1:0.417023 2:0.505005 
-100 1:0.298553 2:0.444681 
-100 1:0.397879 2:0.428277 
-32.4527653453885 1:0.387878 2:0.112702 
-85.91058528610105 1:0.225396 2:0.513348 
-100 1:0.348561 2:0.369815 
-100 1:0.689716 2:-0.12555 
-100 1:0.15762 2:0.649708 
-100 1:0.528421 2:0.233206 
-100 1:0.371765 2:0.479916 
-100 1:0.37597 2:0.744311 
-100 1:0.215411 2:0.863786 
-100 1:0.312654 2:0.703243 
