svm_type c_svc
kernel_type rbf
gamma 10
nr_class 2
total_sv 45
rho 0.0563044
label 1 -1
nr_sv 23 22
SV
100 1:0.360093 2:0.646983 
100 1:0.418695 2:0.10468 
100 1:-0.0157762 2:0.738099 
25.62679242202237 1:0.673529 2:0.0949919 
32.57670975350093 1:0.68337 2:0.440545 
100 1:0.13663 2:0.262902 
100 1:0.495125 2:0.325213 
100 1:0.379863 2:0.529109 
28.91075607219279 1:0.246365 2:0.855081 
22.03503549113251 1:0.521771 2:0.879311 
4.578692990488122 1:0.440172 2:1.00841 
100 1:0.487871 2:0.111103 
100 1:0.543957 2:0.349208 
100 1:0.278634 2:0.808098 
100 1:0.0110814 2:0.859311 
28.74157185954661 1:0.511632 2:0.808351 
100 1:0.250564 2:0.753809 
51.10599880643503 1:0.62957 2:0.0690551 
97.97483349971253 1:0.497388 2:0.446537 
34.93573182155335 1:0.765891 2:0.256365 
100 1:0.607621 2:-0.077997 
16.71699155349283 1:-0.0264878 2:0.27404 
67.0769293017061 1:0.301218 2:0.929714 
-100 1:0.498192 2:0.0323012 
-100 1:0.385996 2:0.887502 
-100 1:0.636672 2:0.126339 
-100 1:0.0522963 2:0.774322 
-48.50531255569528 1:0.0798416 2:0.738393 
-60.22157142069658 1:0.604777 2:0.331108 
-100 1:0.61887 2:0.423515 
-58.79832254998387 1:0.627738 2:-0.127439 
-27.07523651522143 1:0.408612 2:0.3708 
-53.47256614145297 1:-0.0387023 2:0.942066 
-100 1:0.417023 2:0.505005 
-12.70068491845312 1:-0.0214035 2:0.379025 
-100 1:0.397879 2:0.428277 
-35.70638004085045 1:-0.0355963 2:0.681824 
-88.95168120165219 1:0.387878 2:0.112702 
-18.6713589923131 1:0.689716 2:-0.12555 
-87.51976939397616 1:0.117103 2:0.233079 
-98.4494784068406 1:0.528421 2:0.233206 
-20.20768143464754 1:0.371765 2:0.479916 
-100 1:0.37597 2:0.744311 
-100 1:0.215411 2:0.863786 
-100 1:0.312654 2:0.703243 
