svm_type c_svc
kernel_type rbf
gamma 10
nr_class 2
total_sv 100
rho -0.999163
label 1 -1
nr_sv 50 50
SV
0.0001 1:0.360093 2:0.646983 
0.0001 1:0.418695 2:0.10468 
0.0001 1:1.0466 2:0.827462 
0.0001 1:-0.0157762 2:0.738099 
0.0001 1:0.638593 2:1.01177 
0.0001 1:0.673529 2:0.0949919 
0.0001 1:0.540073 2:0.632543 
0.0001 1:1.02553 2:0.0551194 
0.0001 1:0.628049 2:1.02427 
0.0001 1:0.68337 2:0.440545 
0.0001 1:0.479623 2:0.637502 
0.0001 1:0.13663 2:0.262902 
0.0001 1:0.495125 2:0.325213 
0.0001 1:0.812446 2:0.053315 
0.0001 1:0.779512 2:0.30135 
0.0001 1:0.889988 2:0.885488 
0.0001 1:0.883775 2:0.462865 
0.0001 1:0.379863 2:0.529109 
0.0001 1:0.246365 2:0.855081 
0.0001 1:0.440172 2:1.00841 
0.0001 1:0.487871 2:0.111103 
0.0001 1:1.09276 2:0.0378117 
0.0001 1:0.589607 2:0.664787 
0.0001 1:0.543957 2:0.349208 
0.0001 1:0.278634 2:0.808098 
0.0001 1:0.0110814 2:0.859311 
0.0001 1:0.864102 2:0.753841 
0.0001 1:0.533272 2:0.552468 
0.0001 1:0.511632 2:0.808351 
0.0001 1:0.250564 2:0.753809 
0.0001 1:0.62957 2:0.0690551 
0.0001 1:0.654752 2:0.0335914 
0.0001 1:0.54194 2:0.77552 
0.0001 1:0.506484 2:1.02326 
0.0001 1:1.01851 2:0.151464 
0.0001 1:0.497388 2:0.446537 
0.0001 1:0.578727 2:0.476415 
0.0001 1:0.924564 2:0.499451 
0.0001 1:0.979422 2:0.225369 
0.0001 1:0.300382 2:0.946313 
0.0001 1:0.687 2:0.576747 
0.0001 1:0.877117 2:0.157584 
0.0001 1:1.01771 2:0.507909 
0.0001 1:0.765891 2:0.256365 
0.0001 1:0.70321 2:0.0420763 
0.0001 1:0.848907 2:0.958624 
0.0001 1:0.41679 2:0.620476 
0.0001 1:0.607621 2:-0.077997 
0.0001 1:-0.0264878 2:0.27404 
0.0001 1:0.301218 2:0.929714 
-0.0001 1:0.0206407 2:0.0295645 
-0.0001 1:0.498192 2:0.0323012 
-0.0001 1:0.385996 2:0.887502 
-0.0001 1:0.636672 2:0.126339 
-0.0001 1:0.421366 2:-0.0562014 
-0.0001 1:0.0522963 2:0.774322 
-0.0001 1:0.376192 2:0.201014 
-0.0001 1:0.0838738 2:0.489403 
-0.0001 1:0.285938 2:0.623338 
-0.0001 1:0.0798416 2:0.738393 
-0.0001 1:0.604777 2:0.331108 
-0.0001 1:0.61887 2:0.423515 
-0.0001 1:0.627738 2:-0.127439 
-0.0001 1:0.232653 2:0.419853 
-0.0001 1:0.258257 2:0.169697 
-0.0001 1:0.408612 2:0.3708 
-0.0001 1:-0.0387023 2:0.942066 
-0.0001 1:0.142306 2:0.697557 
-0.0001 1:0.201533 2:0.56849 
-0.0001 1:0.0786966 2:0.378012 
-0.0001 1:0.417023 2:0.505005 
-0.0001 1:0.191389 2:0.507346 
-0.0001 1:-0.0214035 2:0.379025 
-0.0001 1:0.276979 2:0.259471 
-0.0001 1:0.0237432 2:0.52569 
-0.0001 1:0.174582 2:0.522359 
-0.0001 1:0.0289955 2:0.69457 
-0.0001 1:0.298553 2:0.444681 
-0.0001 1:0.397879 2:0.428277 
-0.0001 1:0.211731 2:0.129404 
-0.0001 1:-0.0355963 2:0.681824 
-0.0001 1:0.306633 2:0.236396 
-0.0001 1:0.387878 2:0.112702 
-0.0001 1:0.225396 2:0.513348 
-0.0001 1:0.348561 2:0.369815 
-0.0001 1:-0.133257 2:-0.0944183 
-0.0001 1:-0.00114044 2:-0.00856001 
-0.0001 1:0.292266 2:0.277087 
-0.0001 1:0.300529 2:0.29863 
-0.0001 1:0.689716 2:-0.12555 
-0.0001 1:0.127793 2:0.0509834 
-0.0001 1:0.15762 2:0.649708 
-0.0001 1:0.117103 2:0.233079 
-0.0001 1:0.528421 2:0.233206 
-0.0001 1:0.371765 2:0.479916 
-0.0001 1:0.0622781 2:0.523608 
-0.0001 1:0.37597 2:0.744311 
-0.0001 1:0.230825 2:0.157193 
-0.0001 1:0.215411 2:0.863786 
-0.0001 1:0.312654 2:0.703243 
