svm_type nu_svc
kernel_type rbf
gamma 0.1
nr_class 2
total_sv 14
rho 2513.11
label 1 -1
nr_sv 5 9
SV
-536777.1343169778 1:0.840499 2:0.281478 
-619208.4967241746 1:0.360093 2:0.646983 
-806763.8381293543 1:0.418695 2:0.10468 
-187555.3414051797 1:0.0110814 2:0.859311 
-269986.7038123764 1:0.607621 2:-0.077997 
650596.2739991075 1:0.498192 2:0.0323012 
218338.7212586802 1:0.385996 2:0.887502 
806763.8381293543 1:0.636672 2:0.126339 
34736.868154615 1:0.604777 2:0.331108 
26538.69501216422 1:0.0237432 2:0.52569 
65982.78142012049 1:-0.0355963 2:0.681824 
121430.6959756318 1:0.528421 2:0.233206 
255483.8810498898 1:0.37597 2:0.744311 
240419.7593884997 1:0.312654 2:0.703243 
