svm_type nu_svc
kernel_type rbf
gamma 1
nr_class 2
total_sv 33
rho 28.2207
label 1 -1
nr_sv 15 18
SV
-789.7731936326381 1:0.840499 2:0.281478 
-12111.60047300288 1:0.360093 2:0.646983 
-14807.20479750381 1:0.418695 2:0.10468 
-314.3111825982882 1:-0.0157762 2:0.738099 
-1057.059092298085 1:0.673529 2:0.0949919 
-340.4604457403073 1:0.628049 2:1.02427 
-980.5241394640664 1:0.487871 2:0.111103 
-696.8023447502517 1:0.0110814 2:0.859311 
-2168.174786933739 1:0.62957 2:0.0690551 
-101.9426745130139 1:0.654752 2:0.0335914 
-381.4913649442233 1:0.506484 2:1.02326 
-4217.73536710028 1:0.300382 2:0.946313 
-441.3529114591457 1:0.765891 2:0.256365 
-5593.812270986901 1:0.607621 2:-0.077997 
-419.3693475838062 1:-0.0264878 2:0.27404 
12931.52754108887 1:0.498192 2:0.0323012 
7324.873051692352 1:0.385996 2:0.887502 
399.8478563332594 1:0.421366 2:-0.0562014 
679.7916219935962 1:0.376192 2:0.201014 
350.0681534954456 1:0.0838738 2:0.489403 
4334.143733913034 1:0.142306 2:0.697557 
183.5425803615309 1:0.0786966 2:0.378012 
78.91808079338787 1:0.191389 2:0.507346 
226.9441851716893 1:0.211731 2:0.129404 
384.6199559341393 1:0.306633 2:0.236396 
237.1808397474099 1:0.387878 2:0.112702 
322.5201779272753 1:0.225396 2:0.513348 
398.8440560606239 1:-0.00114044 2:-0.00856001 
2338.83077982755 1:0.689716 2:-0.12555 
302.5082194138512 1:0.127793 2:0.0509834 
10251.22004363734 1:0.528421 2:0.233206 
614.0334033256155 1:0.371765 2:0.479916 
3062.200111794457 1:0.37597 2:0.744311 
