svm_type c_svc
kernel_type rbf
gamma 10
nr_class 2
total_sv 42
rho -0.419768
label 1 -1
nr_sv 21 21
SV
1000 1:0.360093 2:0.646983 
1000 1:0.418695 2:0.10468 
126.9389312673933 1:-0.0157762 2:0.738099 
575.1586473565307 1:0.673529 2:0.0949919 
437.5857501100932 1:0.68337 2:0.440545 
1000 1:0.13663 2:0.262902 
843.3065111849647 1:0.495125 2:0.325213 
1000 1:0.379863 2:0.529109 
125.2894044659871 1:0.246365 2:0.855081 
981.086619058794 1:0.487871 2:0.111103 
1000 1:0.543957 2:0.349208 
978.6292276045448 1:0.278634 2:0.808098 
392.2317927926588 1:0.0110814 2:0.859311 
252.7110709696523 1:0.511632 2:0.808351 
941.9805720109799 1:0.250564 2:0.753809 
47.54858118575567 1:0.62957 2:0.0690551 
6.404794096747695 1:0.765891 2:0.256365 
253.8903332392354 1:0.41679 2:0.620476 
418.7997912972812 1:0.607621 2:-0.077997 
49.40139460626516 1:-0.0264878 2:0.27404 
360.5815954463959 1:0.301218 2:0.929714 
-1000 1:0.498192 2:0.0323012 
-317.4966730797162 1:0.385996 2:0.887502 
-708.270325229706 1:0.636672 2:0.126339 
-419.5518730346507 1:0.0522963 2:0.774322 
-413.9717237391747 1:0.376192 2:0.201014 
-531.2968921941343 1:0.285938 2:0.623338 
-12.55644040052056 1:0.604777 2:0.331108 
-1000 1:0.61887 2:0.423515 
-529.1029792260802 1:0.408612 2:0.3708 
-119.6415781929906 1:-0.0387023 2:0.942066 
-123.2079752275865 1:0.0786966 2:0.378012 
-1000 1:0.417023 2:0.505005 
-21.70945693965546 1:-0.0214035 2:0.379025 
-68.75139593530916 1:0.397879 2:0.428277 
-503.9863102073252 1:0.387878 2:0.112702 
-246.1436829833556 1:0.689716 2:-0.12555 
-775.8577103030751 1:0.117103 2:0.233079 
-1000 1:0.528421 2:0.233206 
-1000 1:0.37597 2:0.744311 
-1000 1:0.215411 2:0.863786 
-1000 1:0.312654 2:0.703243 
