svm_type nu_svc
kernel_type rbf
gamma 1
nr_class 2
total_sv 7
rho -143.003
label 1 -1
nr_sv 4 3
SV
6467.642339529789 1:0.840499 2:0.281478 
3474.666810484431 1:0.418695 2:0.10468 
1349.868697227297 1:0.13663 2:0.262902 
1125.219146907307 1:0.497388 2:0.446537 
-9485.730283133222 1:0.604777 2:0.331108 
-747.1318002275538 1:-0.133257 2:-0.0944183 
-2184.53491078805 1:0.689716 2:-0.12555 
