svm_type nu_svc
kernel_type rbf
gamma 10
nr_class 2
total_sv 25
rho -20.8011
label 1 -1
nr_sv 12 13
SV
308.9421854862882 1:0.360093 2:0.646983 
469.6685321655272 1:0.418695 2:0.10468 
1077.431757158751 1:0.68337 2:0.440545 
1102.323398770181 1:0.13663 2:0.262902 
8320.219326555052 1:0.495125 2:0.325213 
1360.545727866405 1:0.379863 2:0.529109 
65.25135287842195 1:0.440172 2:1.00841 
57.12656865952415 1:0.487871 2:0.111103 
103.4735647468736 1:0.250564 2:0.753809 
886.4995889107225 1:0.578727 2:0.476415 
921.5911702406412 1:0.765891 2:0.256365 
71.71036957013909 1:0.607621 2:-0.077997 
-101.0968555621436 1:0.0206407 2:0.0295645 
-142.5502329928291 1:0.385996 2:0.887502 
-53.33684198920654 1:0.0522963 2:0.774322 
-1169.273711698188 1:0.376192 2:0.201014 
-4033.183895353559 1:0.604777 2:0.331108 
-1563.146013445919 1:0.61887 2:0.423515 
-3582.391846052409 1:0.408612 2:0.3708 
-1566.441844444119 1:0.417023 2:0.505005 
-222.0556908890167 1:-0.0214035 2:0.379025 
-74.39134778358688 1:0.689716 2:-0.12555 
-417.7731952817295 1:0.117103 2:0.233079 
-1574.065246488851 1:0.528421 2:0.233206 
-245.0768210269684 1:0.37597 2:0.744311 
