svm_type nu_svc
kernel_type polynomial
degree 3
gamma 0.5
coef0 0
nr_class 2
total_sv 9
rho 1.70939
label 1 -1
nr_sv 5 4
SV
-10632.58249930665 1:0.840499 2:0.281478 
-27277.89592888864 1:0.360093 2:0.646983 
-27277.89592888864 1:0.418695 2:0.10468 
-12402.61141264142 1:0.440172 2:1.00841 
-4242.702016940557 1:-0.0264878 2:0.27404 
23273.09493151153 1:0.498192 2:0.0323012 
27277.89592888864 1:0.385996 2:0.887502 
27277.89592888864 1:0.604777 2:0.331108 
4004.800997377106 1:0.371765 2:0.479916 
