svm_type nu_svc
kernel_type rbf
gamma 100
nr_class 2
total_sv 86
rho -0.117865
label 1 -1
nr_sv 50 36
SV
2.871371156290739 1:0.360093 2:0.646983 
6.564209256450556 1:0.418695 2:0.10468 
0.8423229890572449 1:1.0466 2:0.827462 
5.983378739374888 1:-0.0157762 2:0.738099 
0.3080899373370869 1:0.630554 2:0.687526 
0.4408626544430044 1:0.828389 2:0.562402 
3.256164388633987 1:0.673529 2:0.0949919 
0.5219414759281187 1:0.540073 2:0.632543 
0.3230681549333644 1:1.02553 2:0.0551194 
0.3365823236185417 1:0.710005 2:0.821462 
0.7301954487413398 1:0.628049 2:1.02427 
4.042174763181538 1:0.68337 2:0.440545 
6.564209256450556 1:0.13663 2:0.262902 
0.4215274756425722 1:0.812446 2:0.053315 
0.2397008091129545 1:0.630965 2:0.794841 
0.1614665985920454 1:0.771956 2:0.829553 
0.3627700665532442 1:0.889988 2:0.885488 
0.1855558305881057 1:0.883775 2:0.462865 
6.564209256450556 1:0.379863 2:0.529109 
6.204022611465158 1:0.246365 2:0.855081 
0.5981218887881647 1:0.521771 2:0.879311 
1.020822591311576 1:0.440172 2:1.00841 
1.42015518390578 1:0.487871 2:0.111103 
0.6248761732233272 1:1.09276 2:0.0378117 
3.169599363071111 1:0.543957 2:0.349208 
2.366221121802469 1:0.0110814 2:0.859311 
0.6998923433650677 1:0.864102 2:0.753841 
0.05265275137201895 1:0.693385 2:0.670709 
0.505192833363991 1:0.720744 2:0.64232 
0.749840526781967 1:0.511632 2:0.808351 
2.191224030323373 1:0.250564 2:0.753809 
1.877838082094095 1:0.62957 2:0.0690551 
0.05838107529478032 1:0.506484 2:1.02326 
0.01614253876483696 1:0.609454 2:0.974365 
0.3297165211259609 1:1.01851 2:0.151464 
2.005932447929993 1:0.497388 2:0.446537 
2.731581668008771 1:0.578727 2:0.476415 
0.1768097542366591 1:0.87112 2:0.531096 
0.08698321100688121 1:0.924564 2:0.499451 
0.5126479500300334 1:0.979422 2:0.225369 
1.092068879580098 1:0.300382 2:0.946313 
0.4814917977178568 1:0.877117 2:0.157584 
0.7778100477714476 1:1.01771 2:0.507909 
0.8503212741831573 1:0.765891 2:0.256365 
0.4367954987604201 1:0.718745 2:0.919881 
0.2389397619684543 1:0.881001 2:0.387735 
0.4515577975544073 1:0.894811 2:0.336494 
0.5919603002268642 1:0.848907 2:0.958624 
4.059434191981434 1:0.607621 2:-0.077997 
1.671676279016078 1:-0.0264878 2:0.27404 
-0.2589307894611007 1:0.0206407 2:0.0295645 
-3.133182071353989 1:0.498192 2:0.0323012 
-2.176745948053894 1:0.385996 2:0.887502 
-4.975413262298332 1:0.636672 2:0.126339 
-0.6232161949653315 1:0.421366 2:-0.0562014 
-4.219357600829956 1:0.0522963 2:0.774322 
-2.251116064925868 1:0.285938 2:0.623338 
-1.361442084358873 1:0.604777 2:0.331108 
-6.30808625352226 1:0.61887 2:0.423515 
-4.169205976407908 1:0.627738 2:-0.127439 
-0.7244198939882014 1:0.232653 2:0.419853 
-1.003296223266207 1:0.408612 2:0.3708 
-2.018369711226585 1:-0.0387023 2:0.942066 
-1.27462476730997 1:0.0786966 2:0.378012 
-6.400259914112472 1:0.417023 2:0.505005 
-1.17610401263415 1:-0.0214035 2:0.379025 
-1.267055804985798 1:0.276979 2:0.259471 
-0.2211079777957314 1:0.0237432 2:0.52569 
-0.06192927925872491 1:0.174582 2:0.522359 
-0.2721138738348567 1:0.0289955 2:0.69457 
-0.1522622581248234 1:0.298553 2:0.444681 
-0.2869029383244208 1:0.211731 2:0.129404 
-4.345455879004848 1:-0.0355963 2:0.681824 
-6.564209256450556 1:0.387878 2:0.112702 
-0.4801220802811229 1:0.225396 2:0.513348 
-1.051754121256891 1:-0.133257 2:-0.0944183 
-0.7185843253023135 1:-0.00114044 2:-0.00856001 
-0.6972276688895629 1:0.127793 2:0.0509834 
-0.5014998577362876 1:0.15762 2:0.649708 
-6.564209256450556 1:0.117103 2:0.233079 
-1.550657291474665 1:0.528421 2:0.233206 
-1.321540580322851 1:0.371765 2:0.479916 
-0.4754579411923142 1:0.0622781 2:0.523608 
-1.114829430129203 1:0.37597 2:0.744311 
-6.564209256450556 1:0.215411 2:0.863786 
-2.485611231425488 1:0.312654 2:0.703243 
