svm_type nu_svc
kernel_type rbf
gamma 10
nr_class 2
total_sv 38
rho 6.77492
label 1 -1
nr_sv 19 19
SV
4111.670471032243 1:0.360093 2:0.646983 
7710.848272693679 1:0.418695 2:0.10468 
191.3423852118458 1:-0.0157762 2:0.738099 
7.655636902114741 1:0.68337 2:0.440545 
1001.255839964888 1:0.13663 2:0.262902 
973.3446796344066 1:0.495125 2:0.325213 
66.09075600679633 1:0.779512 2:0.30135 
1875.253402451798 1:0.379863 2:0.529109 
44.67656116938705 1:0.521771 2:0.879311 
15.36731162399198 1:1.09276 2:0.0378117 
48.95074965685152 1:0.543957 2:0.349208 
3189.954150574965 1:0.278634 2:0.808098 
80.20063309882613 1:0.0110814 2:0.859311 
422.8085261996152 1:0.511632 2:0.808351 
367.2587933119709 1:0.250564 2:0.753809 
429.0002465624135 1:0.62957 2:0.0690551 
628.206435022295 1:0.497388 2:0.446537 
283.724698225997 1:0.300382 2:0.946313 
2516.470734527849 1:0.607621 2:-0.077997 
-4046.702061258879 1:0.498192 2:0.0323012 
-372.3916889032204 1:0.385996 2:0.887502 
-214.3420044938971 1:0.636672 2:0.126339 
-127.4475912453321 1:0.0522963 2:0.774322 
-1368.197054899902 1:0.376192 2:0.201014 
-1251.943962273867 1:0.285938 2:0.623338 
-241.0548002792729 1:0.61887 2:0.423515 
-567.258800708299 1:0.627738 2:-0.127439 
-48.37565575482125 1:0.258257 2:0.169697 
-3122.933241021189 1:0.417023 2:0.505005 
-104.0835142350733 1:-0.0214035 2:0.379025 
-36.93380578325842 1:-0.0355963 2:0.681824 
-3851.031791722842 1:0.387878 2:0.112702 
-791.0140030934889 1:0.689716 2:-0.12555 
-633.8468103254605 1:0.117103 2:0.233079 
-773.9994678327333 1:0.528421 2:0.233206 
-2718.925022689168 1:0.37597 2:0.744311 
-1481.637902216916 1:0.215411 2:0.863786 
-2211.961105134315 1:0.312654 2:0.703243 
