svm_type c_svc
kernel_type rbf
gamma 100
nr_class 2
total_sv 82
rho -0.0844618
label 1 -1
nr_sv 49 33
SV
2.603423098687927 1:0.360093 2:0.646983 
14.12035977072458 1:0.418695 2:0.10468 
0.8749274128825376 1:1.0466 2:0.827462 
5.882793029105468 1:-0.0157762 2:0.738099 
0.3249624474720975 1:0.630554 2:0.687526 
0.4487465073812609 1:0.828389 2:0.562402 
2.924479747450172 1:0.673529 2:0.0949919 
0.5587726994768376 1:0.540073 2:0.632543 
0.3290532689254627 1:1.02553 2:0.0551194 
0.3661975029116644 1:0.710005 2:0.821462 
0.7609556350626837 1:0.628049 2:1.02427 
4.069266301609814 1:0.68337 2:0.440545 
9.750565908217666 1:0.13663 2:0.262902 
0.4755324949536216 1:0.812446 2:0.053315 
0.2357828256112125 1:0.630965 2:0.794841 
0.1561535294087 1:0.771956 2:0.829553 
0.3775088319235037 1:0.889988 2:0.885488 
0.2035578032964477 1:0.883775 2:0.462865 
7.939046141255814 1:0.379863 2:0.529109 
9.956052617432054 1:0.246365 2:0.855081 
0.6311962691041756 1:0.521771 2:0.879311 
1.113773002323355 1:0.440172 2:1.00841 
0.6517797397916079 1:1.09276 2:0.0378117 
3.05025365610089 1:0.543957 2:0.349208 
2.384617936397937 1:0.0110814 2:0.859311 
0.7284001649854178 1:0.864102 2:0.753841 
0.03438184125147375 1:0.693385 2:0.670709 
0.5453579475775113 1:0.720744 2:0.64232 
0.7900993817796711 1:0.511632 2:0.808351 
1.784282246221209 1:0.250564 2:0.753809 
2.218330299888768 1:0.62957 2:0.0690551 
0.02669323422041101 1:0.506484 2:1.02326 
0.02210218778598736 1:0.609454 2:0.974365 
0.3465555048567564 1:1.01851 2:0.151464 
2.277759368920113 1:0.497388 2:0.446537 
2.662741209968643 1:0.578727 2:0.476415 
0.1996866008537931 1:0.87112 2:0.531096 
0.07316850360532987 1:0.924564 2:0.499451 
0.5289146712532187 1:0.979422 2:0.225369 
0.9324267981361224 1:0.300382 2:0.946313 
0.4952724677045948 1:0.877117 2:0.157584 
0.8114598856520816 1:1.01771 2:0.507909 
0.8798815994187656 1:0.765891 2:0.256365 
0.4490963525358471 1:0.718745 2:0.919881 
0.2388617772715518 1:0.881001 2:0.387735 
0.4749215051863666 1:0.894811 2:0.336494 
0.6152843915414645 1:0.848907 2:0.958624 
4.146750516135151 1:0.607621 2:-0.077997 
1.812262047653182 1:-0.0264878 2:0.27404 
-0.211959289599942 1:0.0206407 2:0.0295645 
-3.770471770912367 1:0.498192 2:0.0323012 
-2.3780959016183 1:0.385996 2:0.887502 
-4.791239984612258 1:0.636672 2:0.126339 
-0.6051960524481602 1:0.421366 2:-0.0562014 
-4.045441417198392 1:0.0522963 2:0.774322 
-2.353916017222064 1:0.285938 2:0.623338 
-1.294698175016593 1:0.604777 2:0.331108 
-6.29055669706362 1:0.61887 2:0.423515 
-4.200578739719892 1:0.627738 2:-0.127439 
-0.8063126410470185 1:0.232653 2:0.419853 
-0.8629670841855117 1:0.408612 2:0.3708 
-1.991017162628481 1:-0.0387023 2:0.942066 
-1.580124799319911 1:0.0786966 2:0.378012 
-7.165252600397761 1:0.417023 2:0.505005 
-1.097131405379836 1:-0.0214035 2:0.379025 
-1.368033748950198 1:0.276979 2:0.259471 
-0.2201530280788241 1:0.0237432 2:0.52569 
-0.3405138028683781 1:0.0289955 2:0.69457 
-4.233639609602253 1:-0.0355963 2:0.681824 
-13.12985036121057 1:0.387878 2:0.112702 
-0.5405656159952048 1:0.225396 2:0.513348 
-1.019493809052123 1:-0.133257 2:-0.0944183 
-0.7290124574291756 1:-0.00114044 2:-0.00856001 
-0.6794692278149738 1:0.127793 2:0.0509834 
-0.4206571128635197 1:0.15762 2:0.649708 
-9.546687103479234 1:0.117103 2:0.233079 
-1.466671470956787 1:0.528421 2:0.233206 
-1.903257627992615 1:0.371765 2:0.479916 
-0.4319566383725776 1:0.0622781 2:0.523608 
-1.201688168831526 1:0.37597 2:0.744311 
-10.46367100599644 1:0.215411 2:0.863786 
-2.144168154046409 1:0.312654 2:0.703243 
