svm_type nu_svc
kernel_type linear
nr_class 2
total_sv 26
rho 3.79548
label 1 -1
nr_sv 14 12
SV
16547.68011647728 1:0.840499 2:0.281478 
16547.68011647728 1:0.360093 2:0.646983 
16547.68011647728 1:0.418695 2:0.10468 
3167.942038460649 1:1.0466 2:0.827462 
16547.68011647728 1:-0.0157762 2:0.738099 
11134.80274663261 1:0.630554 2:0.687526 
16547.68011647728 1:0.673529 2:0.0949919 
16547.68011647728 1:0.540073 2:0.632543 
16547.68011647728 1:0.13663 2:0.262902 
13379.73807801663 1:0.487871 2:0.111103 
16547.68011647728 1:0.0110814 2:0.859311 
5412.877369844677 1:0.300382 2:0.946313 
16547.68011647728 1:0.607621 2:-0.077997 
16547.68011647728 1:-0.0264878 2:0.27404 
-16547.68011647728 1:0.498192 2:0.0323012 
-16547.68011647728 1:0.385996 2:0.887502 
-16547.68011647728 1:0.636672 2:0.126339 
-16547.68011647728 1:0.421366 2:-0.0562014 
-16547.68011647728 1:0.0522963 2:0.774322 
-16547.68011647728 1:0.376192 2:0.201014 
-16547.68011647728 1:0.285938 2:0.623338 
-16547.68011647728 1:0.0798416 2:0.738393 
-16547.68011647728 1:0.604777 2:0.331108 
-16547.68011647728 1:0.61887 2:0.423515 
-16547.68011647728 1:0.174582 2:0.522359 
-16547.68011647728 1:0.528421 2:0.233206 
