svm_type nu_svc
kernel_type rbf
gamma 1
nr_class 2
total_sv 22
rho 3.46434
label 1 -1
nr_sv 12 10
SV
-1075.515484876867 1:0.840499 2:0.281478 
-116.488886944096 1:0.360093 2:0.646983 
-1018.089759952292 1:0.418695 2:0.10468 
-23.93003759067958 1:-0.0157762 2:0.738099 
-86.66667209805456 1:0.479623 2:0.637502 
-371.5863019272537 1:0.13663 2:0.262902 
-53.57268669970998 1:0.495125 2:0.325213 
-38.38925763999598 1:0.487871 2:0.111103 
-110.8849455089189 1:0.278634 2:0.808098 
-143.6044732591132 1:0.533272 2:0.552468 
-382.7856175332639 1:0.497388 2:0.446537 
-216.8274536022845 1:0.607621 2:-0.077997 
27.7224846578822 1:0.385996 2:0.887502 
2508.797811970912 1:0.604777 2:0.331108 
78.70635491823101 1:-0.0387023 2:0.942066 
55.65330379492909 1:0.0786966 2:0.378012 
189.1295514494992 1:-0.0214035 2:0.379025 
29.96999037054297 1:0.211731 2:0.129404 
92.32760191108015 1:-0.133257 2:-0.0944183 
126.5846784984316 1:-0.00114044 2:-0.00856001 
484.0446332901512 1:0.689716 2:-0.12555 
45.40516677087002 1:0.117103 2:0.233079 
