svm_type c_svc
kernel_type rbf
gamma 100
nr_class 2
total_sv 84
rho -0.0911337
label 1 -1
nr_sv 50 34
SV
2.600128154859703 1:0.360093 2:0.646983 
10 1:0.418695 2:0.10468 
0.8680814505987602 1:1.0466 2:0.827462 
5.894758120270452 1:-0.0157762 2:0.738099 
0.3220439588847649 1:0.630554 2:0.687526 
0.4481114304525876 1:0.828389 2:0.562402 
3.083634216850307 1:0.673529 2:0.0949919 
0.5544958038010166 1:0.540073 2:0.632543 
0.3272990857929065 1:1.02553 2:0.0551194 
0.3634964046711814 1:0.710005 2:0.821462 
0.7543870430300599 1:0.628049 2:1.02427 
4.061189643007003 1:0.68337 2:0.440545 
9.76628592466378 1:0.13663 2:0.262902 
0.4578598827624253 1:0.812446 2:0.053315 
0.2345138862032478 1:0.630965 2:0.794841 
0.1543865992396586 1:0.771956 2:0.829553 
0.3743359732703581 1:0.889988 2:0.885488 
0.2034957464815904 1:0.883775 2:0.462865 
7.940541032953544 1:0.379863 2:0.529109 
9.510480588787891 1:0.246365 2:0.855081 
0.6254749768117517 1:0.521771 2:0.879311 
1.10118917687219 1:0.440172 2:1.00841 
0.4760890804791039 1:0.487871 2:0.111103 
0.6467461904655698 1:1.09276 2:0.0378117 
3.039218355999178 1:0.543957 2:0.349208 
2.380758629703976 1:0.0110814 2:0.859311 
0.7238457480858991 1:0.864102 2:0.753841 
0.03681477839629465 1:0.693385 2:0.670709 
0.5384577522507411 1:0.720744 2:0.64232 
0.7846655841725673 1:0.511632 2:0.808351 
1.8215569977427 1:0.250564 2:0.753809 
2.034396428229547 1:0.62957 2:0.0690551 
0.02929864866062971 1:0.506484 2:1.02326 
0.02246021515315326 1:0.609454 2:0.974365 
0.3434540404746902 1:1.01851 2:0.151464 
2.279187814025359 1:0.497388 2:0.446537 
2.655697627565064 1:0.578727 2:0.476415 
0.1927155481496095 1:0.87112 2:0.531096 
0.07553465531649146 1:0.924564 2:0.499451 
0.5247816149706611 1:0.979422 2:0.225369 
0.9489540680546917 1:0.300382 2:0.946313 
0.4933896588969713 1:0.877117 2:0.157584 
0.8043840994700648 1:1.01771 2:0.507909 
0.8717640596118629 1:0.765891 2:0.256365 
0.4457636330191957 1:0.718745 2:0.919881 
0.2352177361315605 1:0.881001 2:0.387735 
0.4727658044697449 1:0.894811 2:0.336494 
0.6112295587952492 1:0.848907 2:0.958624 
4.078478598574753 1:0.607621 2:-0.077997 
1.806824656142549 1:-0.0264878 2:0.27404 
-0.217686611173614 1:0.0206407 2:0.0295645 
-3.231470148574911 1:0.498192 2:0.0323012 
-2.355380170792368 1:0.385996 2:0.887502 
-4.849848859743125 1:0.636672 2:0.126339 
-0.6335556708746629 1:0.421366 2:-0.0562014 
-4.067375164297015 1:0.0522963 2:0.774322 
-2.354923040217638 1:0.285938 2:0.623338 
-1.301778000343339 1:0.604777 2:0.331108 
-6.281714941975763 1:0.61887 2:0.423515 
-4.159857521725304 1:0.627738 2:-0.127439 
-0.8058540100206537 1:0.232653 2:0.419853 
-0.8652765729256957 1:0.408612 2:0.3708 
-1.995721648746975 1:-0.0387023 2:0.942066 
-1.586350413312422 1:0.0786966 2:0.378012 
-7.169144383065857 1:0.417023 2:0.505005 
-1.099858385679523 1:-0.0214035 2:0.379025 
-1.43831650614581 1:0.276979 2:0.259471 
-0.2245359367536151 1:0.0237432 2:0.52569 
-0.3328109349860871 1:0.0289955 2:0.69457 
-0.04396298597092387 1:0.211731 2:0.129404 
-4.248836534043646 1:-0.0355963 2:0.681824 
-9.667234829640492 1:0.387878 2:0.112702 
-0.5450213041842425 1:0.225396 2:0.513348 
-1.025475420191803 1:-0.133257 2:-0.0944183 
-0.7308321972590086 1:-0.00114044 2:-0.00856001 
-0.6747360581724205 1:0.127793 2:0.0509834 
-0.4309376078256175 1:0.15762 2:0.649708 
-9.555400949372409 1:0.117103 2:0.233079 
-1.436373364408619 1:0.528421 2:0.233206 
-1.906399267945707 1:0.371765 2:0.479916 
-0.4328258725147882 1:0.0622781 2:0.523608 
-1.193325241866399 1:0.37597 2:0.744311 
-10 1:0.215411 2:0.863786 
-2.157820128522604 1:0.312654 2:0.703243 
