svm_type nu_svc
kernel_type rbf
gamma 10
nr_class 2
total_sv 65
rho -0.184032
label 1 -1
nr_sv 33 32
SV
0.4569482584264214 1:0.360093 2:0.646983 
0.4569482584264214 1:0.418695 2:0.10468 
0.4569482584264214 1:1.0466 2:0.827462 
0.4569482584264214 1:-0.0157762 2:0.738099 
0.4569482584264214 1:0.673529 2:0.0949919 
0.06558485591442602 1:1.02553 2:0.0551194 
0.3939325670068562 1:0.628049 2:1.02427 
0.3069566390703581 1:0.68337 2:0.440545 
0.4569482584264214 1:0.479623 2:0.637502 
0.4569482584264214 1:0.13663 2:0.262902 
0.4569482584264214 1:0.495125 2:0.325213 
0.4569482584264214 1:0.379863 2:0.529109 
0.4569482584264214 1:0.246365 2:0.855081 
0.01384727680753136 1:0.440172 2:1.00841 
0.4569482584264214 1:0.487871 2:0.111103 
0.4569482584264214 1:1.09276 2:0.0378117 
0.4569482584264214 1:0.543957 2:0.349208 
0.4569482584264214 1:0.278634 2:0.808098 
0.4569482584264214 1:0.0110814 2:0.859311 
0.4569482584264214 1:0.533272 2:0.552468 
0.4569482584264214 1:0.250564 2:0.753809 
0.4569482584264214 1:0.62957 2:0.0690551 
0.4569482584264214 1:0.654752 2:0.0335914 
0.4569482584264214 1:0.497388 2:0.446537 
0.4569482584264214 1:0.578727 2:0.476415 
0.4569482584264214 1:0.300382 2:0.946313 
0.4074587759409559 1:1.01771 2:0.507909 
0.4569482584264214 1:0.70321 2:0.0420763 
0.1830646605391367 1:0.848907 2:0.958624 
0.4569482584264214 1:0.41679 2:0.620476 
0.4569482584264214 1:0.607621 2:-0.077997 
0.4569482584264214 1:-0.0264878 2:0.27404 
0.4569482584264214 1:0.301218 2:0.929714 
-0.4569482584264214 1:0.0206407 2:0.0295645 
-0.4569482584264214 1:0.498192 2:0.0323012 
-0.4569482584264214 1:0.385996 2:0.887502 
-0.4569482584264214 1:0.636672 2:0.126339 
-0.4569482584264214 1:0.421366 2:-0.0562014 
-0.4569482584264214 1:0.0522963 2:0.774322 
-0.4569482584264214 1:0.376192 2:0.201014 
-0.4569482584264214 1:0.285938 2:0.623338 
-0.4569482584264214 1:0.0798416 2:0.738393 
-0.4569482584264214 1:0.604777 2:0.331108 
-0.4569482584264214 1:0.61887 2:0.423515 
-0.4569482584264214 1:0.627738 2:-0.127439 
-0.4569482584264214 1:0.408612 2:0.3708 
-0.4569482584264214 1:-0.0387023 2:0.942066 
-0.4569482584264214 1:0.142306 2:0.697557 
-0.4569482584264214 1:0.417023 2:0.505005 
-0.4569482584264214 1:-0.0214035 2:0.379025 
-0.1684785187564238 1:0.298553 2:0.444681 
-0.4569482584264214 1:0.397879 2:0.428277 
-0.4569482584264214 1:-0.0355963 2:0.681824 
-0.4569482584264214 1:0.387878 2:0.112702 
-0.4569482584264214 1:0.348561 2:0.369815 
-0.4569482584264214 1:-0.133257 2:-0.0944183 
-0.3303411268284342 1:-0.00114044 2:-0.00856001 
-0.4569482584264214 1:0.689716 2:-0.12555 
-0.2197675363231515 1:0.15762 2:0.649708 
-0.1953093349448335 1:0.117103 2:0.233079 
-0.4569482584264214 1:0.528421 2:0.233206 
-0.4569482584264214 1:0.371765 2:0.479916 
-0.4569482584264214 1:0.37597 2:0.744311 
-0.4569482584264214 1:0.215411 2:0.863786 
-0.4569482584264214 1:0.312654 2:0.703243 
