svm_type nu_svc
kernel_type rbf
gamma 0.1
nr_class 2
total_sv 3
rho -26.0024
label 1 -1
nr_sv 2 1
SV
1002.906257772078 1:0.840499 2:0.281478 
559.3226502333848 1:-0.0264878 2:0.27404 
-1562.228908005462 1:0.528421 2:0.233206 
