svm_type c_svc
kernel_type rbf
gamma 10
nr_class 2
total_sv 52
rho 0.153368
label 1 -1
nr_sv 28 24
SV
10 1:0.360093 2:0.646983 
10 1:0.418695 2:0.10468 
0.8723175299610457 1:1.0466 2:0.827462 
10 1:-0.0157762 2:0.738099 
4.596617296024483 1:0.68337 2:0.440545 
10 1:0.13663 2:0.262902 
10 1:0.495125 2:0.325213 
3.837728426403697 1:0.779512 2:0.30135 
10 1:0.379863 2:0.529109 
10 1:0.246365 2:0.855081 
0.7562610326360015 1:0.521771 2:0.879311 
0.3899037869134858 1:0.440172 2:1.00841 
10 1:0.487871 2:0.111103 
0.8105973014484833 1:1.09276 2:0.0378117 
10 1:0.543957 2:0.349208 
10 1:0.278634 2:0.808098 
10 1:0.0110814 2:0.859311 
10 1:0.250564 2:0.753809 
5.198262698229287 1:0.62957 2:0.0690551 
10 1:0.654752 2:0.0335914 
2.25320602414954 1:0.506484 2:1.02326 
0.6267881490586726 1:0.609454 2:0.974365 
10 1:0.497388 2:0.446537 
1.398700280671139 1:0.300382 2:0.946313 
10 1:0.41679 2:0.620476 
10 1:0.607621 2:-0.077997 
10 1:-0.0264878 2:0.27404 
1.747963452988143 1:0.301218 2:0.929714 
-2.104943091061323 1:0.0206407 2:0.0295645 
-10 1:0.498192 2:0.0323012 
-10 1:0.385996 2:0.887502 
-10 1:0.636672 2:0.126339 
-0.8197798444004052 1:0.421366 2:-0.0562014 
-10 1:0.0522963 2:0.774322 
-7.174339402820133 1:0.285938 2:0.623338 
-7.133399595733914 1:0.0798416 2:0.738393 
-10 1:0.604777 2:0.331108 
-10 1:0.61887 2:0.423515 
-5.451898679794915 1:0.627738 2:-0.127439 
-7.609362022590779 1:-0.0387023 2:0.942066 
-10 1:0.417023 2:0.505005 
-8.272488807368262 1:-0.0214035 2:0.379025 
-10 1:0.397879 2:0.428277 
-10 1:0.387878 2:0.112702 
-0.4049930583376275 1:-0.133257 2:-0.0944183 
-8.10896921479088 1:0.689716 2:-0.12555 
-9.263863412482758 1:0.117103 2:0.233079 
-10 1:0.528421 2:0.233206 
-6.144308849102981 1:0.371765 2:0.479916 
-10 1:0.37597 2:0.744311 
-10 1:0.215411 2:0.863786 
-10 1:0.312654 2:0.703243 
