svm_type nu_svc
kernel_type rbf
gamma 0.01
nr_class 2
total_sv 3
rho -68.4395
label 1 -1
nr_sv 2 1
SV
25373.14144602956 1:0.840499 2:0.281478 
14282.89628167 1:-0.0264878 2:0.27404 
-39656.03772769956 1:0.528421 2:0.233206 
