svm_type c_svc
kernel_type rbf
gamma 100
nr_class 2
total_sv 102
rho -0.200522
label 1 -1
nr_sv 60 42
SV
1 1:0.360093 2:0.646983 
1 1:0.418695 2:0.10468 
0.7643517952381653 1:1.0466 2:0.827462 
1 1:-0.0157762 2:0.738099 
0.05298894419652179 1:0.630554 2:0.687526 
0.4671812882547477 1:0.828389 2:0.562402 
0.8669041570673428 1:0.673529 2:0.0949919 
0.1513381896163733 1:0.540073 2:0.632543 
0.2864674109666024 1:1.02553 2:0.0551194 
0.2804634463898297 1:0.710005 2:0.821462 
0.6236544561762853 1:0.628049 2:1.02427 
1 1:0.68337 2:0.440545 
0.1295157707502269 1:0.479623 2:0.637502 
1 1:0.13663 2:0.262902 
1 1:0.495125 2:0.325213 
0.5933298311912278 1:0.812446 2:0.053315 
0.2750606639127887 1:0.630965 2:0.794841 
0.1546018534700769 1:0.771956 2:0.829553 
0.1582230756932573 1:0.779512 2:0.30135 
0.327382104279904 1:0.889988 2:0.885488 
0.2422342911419967 1:0.883775 2:0.462865 
1 1:0.379863 2:0.529109 
0.8006634020780158 1:0.246365 2:0.855081 
0.4083185173576627 1:0.521771 2:0.879311 
0.7226153529443119 1:0.440172 2:1.00841 
1 1:0.487871 2:0.111103 
0.5701002508919826 1:1.09276 2:0.0378117 
0.2919408647242422 1:0.589607 2:0.664787 
1 1:0.543957 2:0.349208 
0.5782583569211084 1:0.278634 2:0.808098 
1 1:0.0110814 2:0.859311 
0.6359842728587903 1:0.864102 2:0.753841 
0.1964773242290007 1:0.693385 2:0.670709 
0.1981381980493432 1:0.533272 2:0.552468 
0.2742946003417248 1:0.720744 2:0.64232 
0.6357996954123595 1:0.511632 2:0.808351 
1 1:0.250564 2:0.753809 
0.8136269249450405 1:0.62957 2:0.0690551 
0.1613823910751375 1:0.506484 2:1.02326 
0.04750683446692618 1:0.609454 2:0.974365 
0.2998103684662328 1:1.01851 2:0.151464 
0.06042307060870421 1:0.761167 2:0.504344 
0.9023336019092907 1:0.497388 2:0.446537 
0.5492625036552433 1:0.578727 2:0.476415 
0.1040636711157249 1:0.87112 2:0.531096 
0.04177305568664158 1:0.924564 2:0.499451 
0.4707779510141629 1:0.979422 2:0.225369 
0.161242633640714 1:0.300382 2:0.946313 
0.2109109207765693 1:0.687 2:0.576747 
0.4139567069948094 1:0.877117 2:0.157584 
0.714783307585155 1:1.01771 2:0.507909 
0.6013318338871649 1:0.765891 2:0.256365 
0.3964599264586778 1:0.718745 2:0.919881 
0.2179270385961139 1:0.881001 2:0.387735 
0.3846060246498779 1:0.894811 2:0.336494 
0.5373637351336216 1:0.848907 2:0.958624 
0.4507462663893956 1:0.41679 2:0.620476 
1 1:0.607621 2:-0.077997 
1 1:-0.0264878 2:0.27404 
0.8236788506735513 1:0.301218 2:0.929714 
-0.2983480597852 1:0.0206407 2:0.0295645 
-1 1:0.498192 2:0.0323012 
-1 1:0.385996 2:0.887502 
-1 1:0.636672 2:0.126339 
-1 1:0.421366 2:-0.0562014 
-1 1:0.0522963 2:0.774322 
-0.8543153018450198 1:0.376192 2:0.201014 
-1 1:0.285938 2:0.623338 
-1 1:0.604777 2:0.331108 
-1 1:0.61887 2:0.423515 
-1 1:0.627738 2:-0.127439 
-0.7553431790473473 1:0.232653 2:0.419853 
-1 1:0.408612 2:0.3708 
-1 1:-0.0387023 2:0.942066 
-0.7809575510032102 1:0.142306 2:0.697557 
-0.05618232950541941 1:0.201533 2:0.56849 
-0.8612761496075027 1:0.0786966 2:0.378012 
-1 1:0.417023 2:0.505005 
-1 1:-0.0214035 2:0.379025 
-0.584056260790928 1:0.276979 2:0.259471 
-0.8233016966241037 1:0.0237432 2:0.52569 
-0.5446866631644545 1:0.174582 2:0.522359 
-0.4939495356722187 1:0.0289955 2:0.69457 
-0.04839456764334412 1:0.397879 2:0.428277 
-0.528154372588408 1:0.211731 2:0.129404 
-1 1:-0.0355963 2:0.681824 
-1 1:0.387878 2:0.112702 
-0.1309607665050353 1:0.225396 2:0.513348 
-1 1:-0.133257 2:-0.0944183 
-0.7621090188406096 1:-0.00114044 2:-0.00856001 
-0.2268406200256218 1:0.300529 2:0.29863 
-0.9468206788905582 1:0.689716 2:-0.12555 
-0.8077355021654047 1:0.127793 2:0.0509834 
-0.1894444099942367 1:0.15762 2:0.649708 
-1 1:0.117103 2:0.233079 
-1 1:0.528421 2:0.233206 
-1 1:0.371765 2:0.479916 
-0.05725381447296229 1:0.0622781 2:0.523608 
-1 1:0.37597 2:0.744311 
-0.3001252537110589 1:0.230825 2:0.157193 
-1 1:0.215411 2:0.863786 
-1 1:0.312654 2:0.703243 
