svm_type nu_svc
kernel_type rbf
gamma 0.01
nr_class 2
total_sv 7
rho 41.3842
label 1 -1
nr_sv 4 3
SV
41247.65658156951 1:0.840499 2:0.281478 
30754.39880902405 1:0.360093 2:0.646983 
41247.65658156951 1:0.418695 2:0.10468 
10493.25777254547 1:-0.0157762 2:0.738099 
-41247.65658156951 1:0.498192 2:0.0323012 
-41247.65658156951 1:0.385996 2:0.887502 
-41247.65658156951 1:0.636672 2:0.126339 
