svm_type nu_svc
kernel_type rbf
gamma 10
nr_class 2
total_sv 13
rho 1.68201
label 1 -1
nr_sv 6 7
SV
-5.407180941846757 1:0.360093 2:0.646983 
-18.85747151778284 1:0.68337 2:0.440545 
-19.29313105686698 1:0.13663 2:0.262902 
-158.9054670238853 1:0.495125 2:0.325213 
-29.25804040966269 1:0.578727 2:0.476415 
-26.34548112226641 1:0.765891 2:0.256365 
1.775465147384002 1:0.0206407 2:0.0295645 
12.16268553121341 1:0.376192 2:0.201014 
142.9687885611797 1:0.604777 2:0.331108 
19.59964249805731 1:0.61887 2:0.423515 
14.28200456648318 1:0.408612 2:0.3708 
27.41624448100976 1:0.417023 2:0.505005 
39.86194128698357 1:0.300529 2:0.29863 
