svm_type nu_svc
kernel_type rbf
gamma 0.1
nr_class 2
total_sv 38
rho 179.005
label 1 -1
nr_sv 23 15
SV
-14434.21954682255 1:0.360093 2:0.646983 
-14434.21954682255 1:0.418695 2:0.10468 
-13060.02276269686 1:-0.0157762 2:0.738099 
-604.5753207222132 1:0.72364 2:0.622105 
-10928.94479292604 1:0.630554 2:0.687526 
-14434.21954682255 1:0.673529 2:0.0949919 
-14434.21954682255 1:0.540073 2:0.632543 
-408.9046336542763 1:0.479623 2:0.637502 
-14434.21954682255 1:0.13663 2:0.262902 
-8923.533398297761 1:0.495125 2:0.325213 
-3351.61056463349 1:0.379863 2:0.529109 
-530.5695901068339 1:0.246365 2:0.855081 
-14434.21954682255 1:0.487871 2:0.111103 
-374.7202264622064 1:0.543957 2:0.349208 
-348.2200416812249 1:0.278634 2:0.808098 
-14434.21954682255 1:0.0110814 2:0.859311 
-358.1806075972726 1:0.533272 2:0.552468 
-403.7584005360911 1:0.250564 2:0.753809 
-3720.444702231225 1:0.654752 2:0.0335914 
-391.941594539431 1:0.578727 2:0.476415 
-14434.21954682255 1:0.607621 2:-0.077997 
-14059.49932036035 1:-0.0264878 2:0.27404 
-271.9522308449425 1:0.301218 2:0.929714 
14434.21954682255 1:0.498192 2:0.0323012 
11950.30607115111 1:0.385996 2:0.887502 
14434.21954682255 1:0.636672 2:0.126339 
13534.76491071541 1:0.421366 2:-0.0562014 
14434.21954682255 1:0.0522963 2:0.774322 
13881.25259491513 1:0.376192 2:0.201014 
14434.21954682255 1:0.0838738 2:0.489403 
14190.43553833188 1:0.285938 2:0.623338 
14434.21954682255 1:0.0798416 2:0.738393 
13200.85645853105 1:0.604777 2:0.331108 
13361.35687825843 1:0.61887 2:0.423515 
1005.340241657676 1:-0.0387023 2:0.942066 
4982.097180379679 1:-0.133257 2:-0.0944183 
1143.238644597822 1:0.689716 2:-0.12555 
13789.88830921968 1:0.528421 2:0.233206 
