svm_type c_svc
kernel_type rbf
gamma 10
nr_class 2
total_sv 57
rho -0.131258
label 1 -1
nr_sv 30 27
SV
1 1:0.360093 2:0.646983 
1 1:0.418695 2:0.10468 
0.4567389274402583 1:1.0466 2:0.827462 
1 1:-0.0157762 2:0.738099 
1 1:0.673529 2:0.0949919 
0.3269803671828628 1:0.628049 2:1.02427 
0.3994412196392216 1:0.479623 2:0.637502 
1 1:0.13663 2:0.262902 
1 1:0.495125 2:0.325213 
1 1:0.379863 2:0.529109 
1 1:0.246365 2:0.855081 
1 1:0.487871 2:0.111103 
0.6220343553644022 1:1.09276 2:0.0378117 
1 1:0.543957 2:0.349208 
1 1:0.278634 2:0.808098 
1 1:0.0110814 2:0.859311 
0.8467508020840968 1:0.533272 2:0.552468 
1 1:0.250564 2:0.753809 
1 1:0.62957 2:0.0690551 
1 1:0.654752 2:0.0335914 
1 1:0.497388 2:0.446537 
1 1:0.578727 2:0.476415 
0.7168561022933375 1:0.300382 2:0.946313 
0.5109693623826385 1:1.01771 2:0.507909 
0.4335379601836645 1:0.70321 2:0.0420763 
0.2597832179322664 1:0.848907 2:0.958624 
1 1:0.41679 2:0.620476 
1 1:0.607621 2:-0.077997 
1 1:-0.0264878 2:0.27404 
1 1:0.301218 2:0.929714 
-0.3841685632954315 1:0.0206407 2:0.0295645 
-1 1:0.498192 2:0.0323012 
-1 1:0.385996 2:0.887502 
-1 1:0.636672 2:0.126339 
-1 1:0.421366 2:-0.0562014 
-1 1:0.0522963 2:0.774322 
-0.5677500899481809 1:0.376192 2:0.201014 
-1 1:0.285938 2:0.623338 
-1 1:0.0798416 2:0.738393 
-1 1:0.604777 2:0.331108 
-1 1:0.61887 2:0.423515 
-1 1:0.627738 2:-0.127439 
-1 1:0.408612 2:0.3708 
-1 1:-0.0387023 2:0.942066 
-1 1:0.142306 2:0.697557 
-1 1:0.417023 2:0.505005 
-1 1:-0.0214035 2:0.379025 
-1 1:0.397879 2:0.428277 
-1 1:0.387878 2:0.112702 
-0.9293781115973857 1:-0.133257 2:-0.0944183 
-1 1:0.689716 2:-0.12555 
-0.6917955496617504 1:0.117103 2:0.233079 
-1 1:0.528421 2:0.233206 
-1 1:0.371765 2:0.479916 
-1 1:0.37597 2:0.744311 
-1 1:0.215411 2:0.863786 
-1 1:0.312654 2:0.703243 
