svm_type nu_svc
kernel_type rbf
gamma 0.1
nr_class 2
total_sv 4
rho -46.669
label 1 -1
nr_sv 2 2
SV
2164.348109335014 1:0.840499 2:0.281478 
1207.060890446638 1:-0.0264878 2:0.27404 
-241.8398705195752 1:0.385996 2:0.887502 
-3129.569129262077 1:0.528421 2:0.233206 
