svm_type nu_svc
kernel_type rbf
gamma 100
nr_class 2
total_sv 81
rho -0.084862
label 1 -1
nr_sv 48 33
SV
2.647944995281993 1:0.360093 2:0.646983 
14.23930357699685 1:0.418695 2:0.10468 
0.8848051109889766 1:1.0466 2:0.827462 
5.812231865842999 1:-0.0157762 2:0.738099 
0.31432355659748 1:0.630554 2:0.687526 
0.5033302070055706 1:0.828389 2:0.562402 
2.955893832789258 1:0.673529 2:0.0949919 
0.5657806477069154 1:0.540073 2:0.632543 
0.3463508439694397 1:1.02553 2:0.0551194 
0.3243676659595771 1:0.710005 2:0.821462 
0.7748014355317953 1:0.628049 2:1.02427 
4.027324177561742 1:0.68337 2:0.440545 
9.694590596791882 1:0.13663 2:0.262902 
0.460172641775875 1:0.812446 2:0.053315 
0.2592959861147274 1:0.630965 2:0.794841 
0.1916502325868271 1:0.771956 2:0.829553 
0.3680223994802935 1:0.889988 2:0.885488 
0.1574979444224121 1:0.883775 2:0.462865 
7.833001524340693 1:0.379863 2:0.529109 
9.82173985120339 1:0.246365 2:0.855081 
0.6478818370484192 1:0.521771 2:0.879311 
1.085092685404723 1:0.440172 2:1.00841 
0.6326891738573593 1:1.09276 2:0.0378117 
3.046518056676846 1:0.543957 2:0.349208 
2.38614567568199 1:0.0110814 2:0.859311 
0.7193481798255156 1:0.864102 2:0.753841 
0.05136055964069175 1:0.693385 2:0.670709 
0.5225386441152636 1:0.720744 2:0.64232 
0.7630894245455683 1:0.511632 2:0.808351 
1.843228926517168 1:0.250564 2:0.753809 
2.225708725587436 1:0.62957 2:0.0690551 
0.05123290784981757 1:0.506484 2:1.02326 
0.3339078297139748 1:1.01851 2:0.151464 
2.274211496255239 1:0.497388 2:0.446537 
2.635920391948148 1:0.578727 2:0.476415 
0.128738228284182 1:0.87112 2:0.531096 
0.1406926893922692 1:0.924564 2:0.499451 
0.5511190965619794 1:0.979422 2:0.225369 
0.9601199602359649 1:0.300382 2:0.946313 
0.492693510699431 1:0.877117 2:0.157584 
0.7967264376713781 1:1.01771 2:0.507909 
0.8832730125548954 1:0.765891 2:0.256365 
0.4529183955236084 1:0.718745 2:0.919881 
0.3012689476053876 1:0.881001 2:0.387735 
0.4224783773638779 1:0.894811 2:0.336494 
0.6245142252212093 1:0.848907 2:0.958624 
4.176346221757874 1:0.607621 2:-0.077997 
1.820708627336182 1:-0.0264878 2:0.27404 
-0.2009646782660545 1:0.0206407 2:0.0295645 
-3.798847289939181 1:0.498192 2:0.0323012 
-2.372649866851915 1:0.385996 2:0.887502 
-4.833140419849834 1:0.636672 2:0.126339 
-0.5975885179941137 1:0.421366 2:-0.0562014 
-4.031520974686482 1:0.0522963 2:0.774322 
-2.321754878597963 1:0.285938 2:0.623338 
-1.322138684908168 1:0.604777 2:0.331108 
-6.221983422127516 1:0.61887 2:0.423515 
-4.223419339502732 1:0.627738 2:-0.127439 
-0.8109152395300688 1:0.232653 2:0.419853 
-0.8824273310841831 1:0.408612 2:0.3708 
-1.990581987387194 1:-0.0387023 2:0.942066 
-1.563673750260126 1:0.0786966 2:0.378012 
-7.117385622783057 1:0.417023 2:0.505005 
-1.102676004833225 1:-0.0214035 2:0.379025 
-1.360871099452249 1:0.276979 2:0.259471 
-0.2611641196636749 1:0.0237432 2:0.52569 
-0.3101894952084647 1:0.0289955 2:0.69457 
-4.193144127605621 1:-0.0355963 2:0.681824 
-13.24709916985285 1:0.387878 2:0.112702 
-0.5524589729857965 1:0.225396 2:0.513348 
-1.006662655080765 1:-0.133257 2:-0.0944183 
-0.7452170072864845 1:-0.00114044 2:-0.00856001 
-0.6853284436735931 1:0.127793 2:0.0509834 
-0.4301038177899078 1:0.15762 2:0.649708 
-9.488427981103925 1:0.117103 2:0.233079 
-1.46404272113082 1:0.528421 2:0.233206 
-1.850049126097782 1:0.371765 2:0.479916 
-0.4050242586579479 1:0.0622781 2:0.523608 
-1.174539981420612 1:0.37597 2:0.744311 
-10.34914533043063 1:0.215411 2:0.863786 
-2.237765021782151 1:0.312654 2:0.703243 
