svm_type nu_svc
kernel_type rbf
gamma 10
nr_class 2
total_sv 45
rho 0.373139
label 1 -1
nr_sv 22 23
SV
845.4795385242843 1:0.360093 2:0.646983 
845.4795385242843 1:0.418695 2:0.10468 
376.1231132882743 1:-0.0157762 2:0.738099 
587.3016538778771 1:0.673529 2:0.0949919 
361.2049959749979 1:0.68337 2:0.440545 
102.1297736840521 1:0.479623 2:0.637502 
845.4795385242843 1:0.13663 2:0.262902 
756.3134917033632 1:0.495125 2:0.325213 
845.4795385242843 1:0.379863 2:0.529109 
549.3693591082625 1:0.246365 2:0.855081 
845.4795385242843 1:0.487871 2:0.111103 
845.4795385242843 1:0.543957 2:0.349208 
296.6334999579063 1:0.278634 2:0.808098 
349.5241117533219 1:0.0110814 2:0.859311 
174.0929141351182 1:0.511632 2:0.808351 
845.4795385242843 1:0.250564 2:0.753809 
5.931423163926766 1:0.62957 2:0.0690551 
6.793275933157791 1:0.765891 2:0.256365 
0.6994947433618891 1:0.41679 2:0.620476 
422.8383569030759 1:0.607621 2:-0.077997 
39.342227805737 1:-0.0264878 2:0.27404 
199.1000005889888 1:0.301218 2:0.929714 
-845.4795385242843 1:0.498192 2:0.0323012 
-212.0183419021464 1:0.385996 2:0.887502 
-706.6748188331849 1:0.636672 2:0.126339 
-550.0228859280335 1:0.0522963 2:0.774322 
-359.1147862517608 1:0.376192 2:0.201014 
-326.8026716887701 1:0.285938 2:0.623338 
-2.533232164566491 1:0.604777 2:0.331108 
-845.4795385242843 1:0.61887 2:0.423515 
-53.53148194738235 1:0.627738 2:-0.127439 
-469.5862395568322 1:0.408612 2:0.3708 
-131.3864037780596 1:-0.0387023 2:0.942066 
-120.9306439844407 1:0.0786966 2:0.378012 
-845.4795385242843 1:0.417023 2:0.505005 
-33.67595053866668 1:0.397879 2:0.428277 
-131.3599593377694 1:-0.0355963 2:0.681824 
-428.0851757337581 1:0.387878 2:0.112702 
-211.3839118131116 1:0.689716 2:-0.12555 
-651.990850235387 1:0.117103 2:0.233079 
-845.4795385242843 1:0.528421 2:0.233206 
-23.54531904878186 1:0.371765 2:0.479916 
-660.2345584030531 1:0.37597 2:0.744311 
-845.4795385242843 1:0.215411 2:0.863786 
-845.4795385242843 1:0.312654 2:0.703243 
