svm_type nu_svc
kernel_type linear
nr_class 2
total_sv 4
rho -4.8409
label 1 -1
nr_sv 2 2
SV
-882.3373645119078 1:0.840499 2:0.281478 
-273.4862167551794 1:-0.0264878 2:0.27404 
561.1055205743023 1:0.636672 2:0.126339 
594.7180606927848 1:0.61887 2:0.423515 
