svm_type nu_svc
kernel_type rbf
gamma 0.01
nr_class 2
total_sv 26
rho 254.672
label 1 -1
nr_sv 14 12
SV
-37930.5648214219 1:0.840499 2:0.281478 
-37930.5648214219 1:0.360093 2:0.646983 
-37930.5648214219 1:0.418695 2:0.10468 
-7071.564791236804 1:1.0466 2:0.827462 
-37930.5648214219 1:-0.0157762 2:0.738099 
-25630.78277840308 1:0.630554 2:0.687526 
-37930.5648214219 1:0.673529 2:0.0949919 
-37930.5648214219 1:0.540073 2:0.632543 
-37930.5648214219 1:0.13663 2:0.262902 
-30859.0000301851 1:0.487871 2:0.111103 
-37930.5648214219 1:0.0110814 2:0.859311 
-12299.78204301882 1:0.300382 2:0.946313 
-37930.5648214219 1:0.607621 2:-0.077997 
-37930.5648214219 1:-0.0264878 2:0.27404 
37930.5648214219 1:0.498192 2:0.0323012 
37930.5648214219 1:0.385996 2:0.887502 
37930.5648214219 1:0.636672 2:0.126339 
37930.5648214219 1:0.421366 2:-0.0562014 
37930.5648214219 1:0.0522963 2:0.774322 
37930.5648214219 1:0.376192 2:0.201014 
37930.5648214219 1:0.285938 2:0.623338 
37930.5648214219 1:0.0798416 2:0.738393 
37930.5648214219 1:0.604777 2:0.331108 
37930.5648214219 1:0.61887 2:0.423515 
37930.5648214219 1:0.174582 2:0.522359 
37930.5648214219 1:0.528421 2:0.233206 
