svm_type nu_svc
kernel_type rbf
gamma 100
nr_class 2
total_sv 99
rho -0.182081
label 1 -1
nr_sv 59 40
SV
1.159454896581046 1:0.360093 2:0.646983 
1.159454896581046 1:0.418695 2:0.10468 
0.781686843746824 1:1.0466 2:0.827462 
1.159454896581046 1:-0.0157762 2:0.738099 
0.04952822189592457 1:0.630554 2:0.687526 
0.4908776673687035 1:0.828389 2:0.562402 
0.9739181230713899 1:0.673529 2:0.0949919 
0.1105189747655096 1:0.540073 2:0.632543 
0.2921146125180379 1:1.02553 2:0.0551194 
0.02782505277788807 1:0.789883 2:0.515355 
0.2946338881333966 1:0.710005 2:0.821462 
0.6415629541593056 1:0.628049 2:1.02427 
1.159454896581046 1:0.68337 2:0.440545 
0.1835479966427714 1:0.479623 2:0.637502 
1.159454896581046 1:0.13663 2:0.262902 
1.114491313179831 1:0.495125 2:0.325213 
0.5976190484369327 1:0.812446 2:0.053315 
0.2712460275643009 1:0.630965 2:0.794841 
0.1540722754546458 1:0.771956 2:0.829553 
0.1522268258703547 1:0.779512 2:0.30135 
0.334872789232628 1:0.889988 2:0.885488 
0.2592429898206824 1:0.883775 2:0.462865 
1.159454896581046 1:0.379863 2:0.529109 
0.8910027943245368 1:0.246365 2:0.855081 
0.4262978307654703 1:0.521771 2:0.879311 
0.7711996290863172 1:0.440172 2:1.00841 
1.159454896581046 1:0.487871 2:0.111103 
0.583023405807587 1:1.09276 2:0.0378117 
0.3204546160226543 1:0.589607 2:0.664787 
1.159454896581046 1:0.543957 2:0.349208 
0.5843051863183684 1:0.278634 2:0.808098 
1.159454896581046 1:0.0110814 2:0.859311 
0.6506589600216272 1:0.864102 2:0.753841 
0.1965853268547654 1:0.693385 2:0.670709 
0.2149678038854185 1:0.533272 2:0.552468 
0.2887195238010019 1:0.720744 2:0.64232 
0.6755159074748959 1:0.511632 2:0.808351 
1.159454896581046 1:0.250564 2:0.753809 
0.8578831131921182 1:0.62957 2:0.0690551 
0.1480468824014276 1:0.506484 2:1.02326 
0.04764082260489642 1:0.609454 2:0.974365 
0.308488287623902 1:1.01851 2:0.151464 
0.9342849260493598 1:0.497388 2:0.446537 
0.5985096166245275 1:0.578727 2:0.476415 
0.09381274364980474 1:0.87112 2:0.531096 
0.03995545258253021 1:0.924564 2:0.499451 
0.4796931962084837 1:0.979422 2:0.225369 
0.20834426937487 1:0.687 2:0.576747 
0.4236753956801772 1:0.877117 2:0.157584 
0.7330771258975408 1:1.01771 2:0.507909 
0.6289404765164754 1:0.765891 2:0.256365 
0.4044411736411113 1:0.718745 2:0.919881 
0.2128289829901074 1:0.881001 2:0.387735 
0.4003771738996654 1:0.894811 2:0.336494 
0.5503471216880389 1:0.848907 2:0.958624 
0.3990091130591981 1:0.41679 2:0.620476 
1.159454896581046 1:0.607621 2:-0.077997 
1.159454896581046 1:-0.0264878 2:0.27404 
1.068115675772816 1:0.301218 2:0.929714 
-0.3170871213696161 1:0.0206407 2:0.0295645 
-1.159454896581046 1:0.498192 2:0.0323012 
-1.159454896581046 1:0.385996 2:0.887502 
-1.159454896581046 1:0.636672 2:0.126339 
-0.9859726172779049 1:0.421366 2:-0.0562014 
-1.159454896581046 1:0.0522963 2:0.774322 
-0.8233276345115323 1:0.376192 2:0.201014 
-1.159454896581046 1:0.285938 2:0.623338 
-1.159454896581046 1:0.604777 2:0.331108 
-1.159454896581046 1:0.61887 2:0.423515 
-1.159454896581046 1:0.627738 2:-0.127439 
-0.7550145971343293 1:0.232653 2:0.419853 
-1.159454896581046 1:0.408612 2:0.3708 
-1.159454896581046 1:-0.0387023 2:0.942066 
-0.7788763223761728 1:0.142306 2:0.697557 
-0.8164644711773184 1:0.0786966 2:0.378012 
-1.159454896581046 1:0.417023 2:0.505005 
-1.159454896581046 1:-0.0214035 2:0.379025 
-0.6584895272001103 1:0.276979 2:0.259471 
-0.7737930009120907 1:0.0237432 2:0.52569 
-0.5814996275745181 1:0.174582 2:0.522359 
-0.4149888792034456 1:0.0289955 2:0.69457 
-0.5431719185940216 1:0.211731 2:0.129404 
-1.159454896581046 1:-0.0355963 2:0.681824 
-1.159454896581046 1:0.387878 2:0.112702 
-0.1003682805090356 1:0.225396 2:0.513348 
-1.115365826535638 1:-0.133257 2:-0.0944183 
-0.7214655879814947 1:-0.00114044 2:-0.00856001 
-0.1386289433213838 1:0.300529 2:0.29863 
-0.8863030630572583 1:0.689716 2:-0.12555 
-0.7864056362072377 1:0.127793 2:0.0509834 
-0.1800448713992784 1:0.15762 2:0.649708 
-1.159454896581046 1:0.117103 2:0.233079 
-1.159454896581046 1:0.528421 2:0.233206 
-1.053127319332159 1:0.371765 2:0.479916 
-0.07447059890934105 1:0.0622781 2:0.523608 
-1.159454896581046 1:0.37597 2:0.744311 
-0.2491380178076147 1:0.230825 2:0.157193 
-1.159454896581046 1:0.215411 2:0.863786 
-1.159454896581046 1:0.312654 2:0.703243 
