svm_type nu_svc
kernel_type linear
nr_class 2
total_sv 8
rho -0.843636
label 1 -1
nr_sv 4 4
SV
6104.989218952547 1:0.840499 2:0.281478 
4546.689533039266 1:0.360093 2:0.646983 
6104.989218952547 1:0.418695 2:0.10468 
1558.299685913281 1:-0.0157762 2:0.738099 
-5947.916117000937 1:0.498192 2:0.0323012 
-6104.989218952547 1:0.385996 2:0.887502 
-6104.989218952547 1:0.636672 2:0.126339 
-157.0731019516099 1:0.61887 2:0.423515 
