svm_type nu_svc
kernel_type linear
nr_class 2
total_sv 60
rho 2.72991
label 1 -1
nr_sv 30 30
SV
1.804728657371022 1:0.360093 2:0.646983 
1.804728657371022 1:0.418695 2:0.10468 
1.804728657371022 1:-0.0157762 2:0.738099 
1.804728657371022 1:0.673529 2:0.0949919 
1.804728657371022 1:0.540073 2:0.632543 
1.804728657371022 1:0.68337 2:0.440545 
1.804728657371022 1:0.479623 2:0.637502 
1.804728657371022 1:0.13663 2:0.262902 
1.804728657371022 1:0.495125 2:0.325213 
1.804728657371022 1:0.812446 2:0.053315 
1.804728657371022 1:0.379863 2:0.529109 
1.804728657371022 1:0.246365 2:0.855081 
1.804728657371022 1:0.487871 2:0.111103 
1.804728657371022 1:0.543957 2:0.349208 
1.804728657371022 1:0.278634 2:0.808098 
1.804728657371022 1:0.0110814 2:0.859311 
1.804728657371022 1:0.533272 2:0.552468 
1.804728657371022 1:0.511632 2:0.808351 
1.804728657371022 1:0.250564 2:0.753809 
1.804728657371022 1:0.62957 2:0.0690551 
1.804728657371022 1:0.654752 2:0.0335914 
1.804728657371022 1:0.497388 2:0.446537 
1.804728657371022 1:0.578727 2:0.476415 
1.804728657371022 1:0.300382 2:0.946313 
1.804728657371022 1:0.765891 2:0.256365 
1.804728657371022 1:0.70321 2:0.0420763 
1.804728657371022 1:0.41679 2:0.620476 
1.804728657371022 1:0.607621 2:-0.077997 
1.804728657371022 1:-0.0264878 2:0.27404 
1.804728657371022 1:0.301218 2:0.929714 
-1.804728657371022 1:0.498192 2:0.0323012 
-1.804728657371022 1:0.385996 2:0.887502 
-1.804728657371022 1:0.636672 2:0.126339 
-1.804728657371022 1:0.376192 2:0.201014 
-1.804728657371022 1:0.285938 2:0.623338 
-1.804728657371022 1:0.0798416 2:0.738393 
-1.804728657371022 1:0.604777 2:0.331108 
-1.804728657371022 1:0.61887 2:0.423515 
-1.804728657371022 1:0.627738 2:-0.127439 
-1.804728657371022 1:0.232653 2:0.419853 
-1.804728657371022 1:0.408612 2:0.3708 
-1.804728657371022 1:0.142306 2:0.697557 
-1.804728657371022 1:0.201533 2:0.56849 
-1.804728657371022 1:0.417023 2:0.505005 
-1.804728657371022 1:0.191389 2:0.507346 
-1.804728657371022 1:0.298553 2:0.444681 
-1.804728657371022 1:0.397879 2:0.428277 
-1.804728657371022 1:0.306633 2:0.236396 
-1.804728657371022 1:0.387878 2:0.112702 
-1.804728657371022 1:0.225396 2:0.513348 
-1.804728657371022 1:0.348561 2:0.369815 
-1.804728657371022 1:0.292266 2:0.277087 
-1.804728657371022 1:0.300529 2:0.29863 
-1.804728657371022 1:0.689716 2:-0.12555 
-1.804728657371022 1:0.15762 2:0.649708 
-1.804728657371022 1:0.528421 2:0.233206 
-1.804728657371022 1:0.371765 2:0.479916 
-1.804728657371022 1:0.37597 2:0.744311 
-1.804728657371022 1:0.215411 2:0.863786 
-1.804728657371022 1:0.312654 2:0.703243 
