svm_type nu_svc
kernel_type polynomial
degree 3
gamma 0.5
coef0 0
nr_class 2
total_sv 31
rho 4.88514
label 1 -1
nr_sv 15 16
SV
17113.52087056152 1:0.360093 2:0.646983 
17113.52087056152 1:0.418695 2:0.10468 
17113.52087056152 1:-0.0157762 2:0.738099 
15230.78641132246 1:0.630554 2:0.687526 
17113.52087056152 1:0.673529 2:0.0949919 
17113.52087056152 1:0.540073 2:0.632543 
1772.799460202756 1:1.02553 2:0.0551194 
17113.52087056152 1:0.13663 2:0.262902 
2830.931408159093 1:0.495125 2:0.325213 
17113.52087056152 1:0.487871 2:0.111103 
17113.52087056152 1:0.0110814 2:0.859311 
1882.734459239062 1:0.654752 2:0.0335914 
13816.05845594284 1:0.300382 2:0.946313 
15807.25241681835 1:0.607621 2:-0.077997 
17113.52087056152 1:-0.0264878 2:0.27404 
-17113.52087056152 1:0.498192 2:0.0323012 
-17113.52087056152 1:0.385996 2:0.887502 
-9839.806394503472 1:0.636672 2:0.126339 
-17113.52087056152 1:0.0522963 2:0.774322 
-17113.52087056152 1:0.285938 2:0.623338 
-17113.52087056152 1:0.0798416 2:0.738393 
-17113.52087056152 1:0.604777 2:0.331108 
-14915.37228605029 1:0.61887 2:0.423515 
-13569.43680269114 1:0.627738 2:-0.127439 
-17113.52087056152 1:0.408612 2:0.3708 
-7231.689503101697 1:-0.0387023 2:0.942066 
-17113.52087056152 1:0.417023 2:0.505005 
-2198.148584511223 1:0.689716 2:-0.12555 
-17113.52087056152 1:0.528421 2:0.233206 
-795.8266032485795 1:0.37597 2:0.744311 
-2790.282437578149 1:0.215411 2:0.863786 
