svm_type c_svc
kernel_type rbf
gamma 1
nr_class 2
total_sv 47
rho 8.90817
label 1 -1
nr_sv 23 24
SV
1000 1:0.360093 2:0.646983 
1000 1:0.418695 2:0.10468 
1000 1:-0.0157762 2:0.738099 
655.5911428521475 1:0.479623 2:0.637502 
1000 1:0.13663 2:0.262902 
1000 1:0.495125 2:0.325213 
1000 1:0.379863 2:0.529109 
1000 1:0.246365 2:0.855081 
1000 1:0.487871 2:0.111103 
28.4238564065815 1:1.09276 2:0.0378117 
1000 1:0.543957 2:0.349208 
1000 1:0.278634 2:0.808098 
1000 1:0.0110814 2:0.859311 
875.2154195124698 1:0.533272 2:0.552468 
1000 1:0.250564 2:0.753809 
1000 1:0.62957 2:0.0690551 
1000 1:0.654752 2:0.0335914 
1000 1:0.497388 2:0.446537 
139.2401634152079 1:0.70321 2:0.0420763 
1000 1:0.41679 2:0.620476 
1000 1:0.607621 2:-0.077997 
1000 1:-0.0264878 2:0.27404 
252.4527611434038 1:0.301218 2:0.929714 
-438.3765009591771 1:0.0206407 2:0.0295645 
-1000 1:0.498192 2:0.0323012 
-1000 1:0.385996 2:0.887502 
-1000 1:0.636672 2:0.126339 
-1000 1:0.0522963 2:0.774322 
-27.23892992304685 1:0.376192 2:0.201014 
-1000 1:0.285938 2:0.623338 
-303.7307097378216 1:0.0798416 2:0.738393 
-1000 1:0.604777 2:0.331108 
-1000 1:0.61887 2:0.423515 
-297.5032405436659 1:0.627738 2:-0.127439 
-1000 1:0.408612 2:0.3708 
-524.7956442159608 1:-0.0387023 2:0.942066 
-1000 1:0.417023 2:0.505005 
-1000 1:-0.0214035 2:0.379025 
-1000 1:0.397879 2:0.428277 
-359.2783179501401 1:-0.0355963 2:0.681824 
-1000 1:0.387878 2:0.112702 
-1000 1:0.689716 2:-0.12555 
-1000 1:0.528421 2:0.233206 
-1000 1:0.371765 2:0.479916 
-1000 1:0.37597 2:0.744311 
-1000 1:0.215411 2:0.863786 
-1000 1:0.312654 2:0.703243 
