svm_type c_svc
kernel_type rbf
gamma 0.01
nr_class 2
total_sv 94
rho -0.244221
label 1 -1
nr_sv 47 47
SV
10 1:0.840499 2:0.281478 
10 1:0.360093 2:0.646983 
10 1:0.418695 2:0.10468 
10 1:-0.0157762 2:0.738099 
10 1:0.72364 2:0.622105 
10 1:0.630554 2:0.687526 
10 1:0.673529 2:0.0949919 
10 1:0.540073 2:0.632543 
10 1:0.68337 2:0.440545 
10 1:0.479623 2:0.637502 
10 1:0.13663 2:0.262902 
10 1:0.495125 2:0.325213 
10 1:0.812446 2:0.053315 
10 1:0.630965 2:0.794841 
10 1:0.779512 2:0.30135 
10 1:0.379863 2:0.529109 
10 1:0.246365 2:0.855081 
10 1:0.521771 2:0.879311 
10 1:0.440172 2:1.00841 
10 1:0.487871 2:0.111103 
10 1:0.589607 2:0.664787 
10 1:0.543957 2:0.349208 
10 1:0.278634 2:0.808098 
10 1:0.0110814 2:0.859311 
10 1:0.693385 2:0.670709 
10 1:0.533272 2:0.552468 
10 1:0.511632 2:0.808351 
10 1:0.250564 2:0.753809 
10 1:0.62957 2:0.0690551 
10 1:0.850866 2:0.235648 
10 1:0.654752 2:0.0335914 
10 1:0.54194 2:0.77552 
10 1:0.506484 2:1.02326 
10 1:0.761167 2:0.504344 
10 1:0.497388 2:0.446537 
10 1:0.578727 2:0.476415 
10 1:0.300382 2:0.946313 
10 1:0.687 2:0.576747 
10 1:0.877117 2:0.157584 
10 1:0.765891 2:0.256365 
10 1:0.70321 2:0.0420763 
10 1:0.41679 2:0.620476 
10 1:0.674344 2:0.662273 
10 1:0.607621 2:-0.077997 
10 1:-0.0264878 2:0.27404 
10 1:0.709303 2:0.629208 
10 1:0.301218 2:0.929714 
-10 1:0.498192 2:0.0323012 
-10 1:0.385996 2:0.887502 
-10 1:0.636672 2:0.126339 
-10 1:0.421366 2:-0.0562014 
-10 1:0.0522963 2:0.774322 
-10 1:0.376192 2:0.201014 
-10 1:0.0838738 2:0.489403 
-10 1:0.285938 2:0.623338 
-10 1:0.0798416 2:0.738393 
-10 1:0.604777 2:0.331108 
-10 1:0.61887 2:0.423515 
-10 1:0.627738 2:-0.127439 
-10 1:0.232653 2:0.419853 
-10 1:0.258257 2:0.169697 
-10 1:0.408612 2:0.3708 
-10 1:-0.0387023 2:0.942066 
-10 1:0.142306 2:0.697557 
-10 1:0.201533 2:0.56849 
-10 1:0.0786966 2:0.378012 
-10 1:0.417023 2:0.505005 
-10 1:0.191389 2:0.507346 
-10 1:-0.0214035 2:0.379025 
-10 1:0.276979 2:0.259471 
-10 1:0.0237432 2:0.52569 
-10 1:0.174582 2:0.522359 
-10 1:0.0289955 2:0.69457 
-10 1:0.298553 2:0.444681 
-10 1:0.397879 2:0.428277 
-10 1:0.211731 2:0.129404 
-10 1:-0.0355963 2:0.681824 
-10 1:0.306633 2:0.236396 
-10 1:0.387878 2:0.112702 
-10 1:0.225396 2:0.513348 
-10 1:0.348561 2:0.369815 
-10 1:0.292266 2:0.277087 
-10 1:0.300529 2:0.29863 
-10 1:0.689716 2:-0.12555 
-10 1:0.127793 2:0.0509834 
-10 1:0.15762 2:0.649708 
-10 1:0.117103 2:0.233079 
-10 1:0.528421 2:0.233206 
-10 1:0.371765 2:0.479916 
-10 1:0.0622781 2:0.523608 
-10 1:0.37597 2:0.744311 
-10 1:0.230825 2:0.157193 
-10 1:0.215411 2:0.863786 
-10 1:0.312654 2:0.703243 
